  0.100000000000000E+001  0.655841398239136E+001  0.567643270625097E+001
  0.100000000000000E+001 -0.150893974304199E+001  0.343184370768294E+001
  0.100000000000000E+001  0.959454727172852E+001  0.760094492587542E+001
  0.100000000000000E+001 -0.150805664062500E+001  0.343201986757458E+001
  0.100000000000000E+001  0.456160736083984E+001  0.473853402832303E+001
  0.100000000000000E+001 -0.134209442138672E+001  0.346523685276335E+001
  0.100000000000000E+001  0.202443552017212E+001  0.413164472311128E+001
  0.100000000000000E+001  0.189850187301636E+001  0.410594096286380E+001
  0.100000000000000E+001 -0.132954359054565E+001  0.211539717978924E+001
  0.100000000000000E+001 -0.131686401367188E+001  0.347028172398888E+001
  0.100000000000000E+001 -0.128469276428223E+001  0.347670891602153E+001
  0.100000000000000E+001 -0.969733238220215E+000  0.209878677794209E+001
  0.100000000000000E+001  0.706399917602539E+000  0.202842323864653E+001
  0.100000000000000E+001  0.527464866638184E+000  0.383404895223755E+001
  0.100000000000000E+001  0.312526226043701E+000  0.379198583256583E+001
  0.100000000000000E+001 -0.787810802459717E+000  0.357556720821152E+001
  0.100000000000000E+001  0.712509155273438E-001  0.374473775513805E+001
  0.100000000000000E+001  0.500473976135254E-001  0.374058401491650E+001
  0.100000000000000E+001 -0.140700817108154E+000  0.370316826541398E+001
  0.100000000000000E+001 -0.240513801574707E+000  0.368356429415128E+001
  0.100000000000000E+001 -0.451608657836914E+000  0.364200999009884E+001
  0.100000000000000E+001 -0.617930412292480E+000  0.360918259679311E+001
  0.100000000000000E+001 -0.469178199768066E+000  0.207694993566100E+001
  0.100000000000000E+001 -0.564960956573486E+000  0.361964531788285E+001
  0.100000000000000E+001 -0.158557128906250E+001  0.212794393462485E+001
  0.100000000000000E+001 -0.189655613899231E+001  0.214438550278209E+001
  0.100000000000000E+001 -0.193624305725098E+001  0.334591033577280E+001
  0.100000000000000E+001 -0.203162360191345E+001  0.215208506663243E+001
  0.100000000000000E+001 -0.223505449295044E+001  0.328538248992371E+001
  0.100000000000000E+001 -0.225188684463501E+001  0.328195673497121E+001
  0.100000000000000E+001 -0.226014280319214E+001  0.216616609418159E+001
  0.100000000000000E+001 -0.230105543136597E+001  0.216885875460793E+001
  0.100000000000000E+001 -0.231346368789673E+001  0.216968626615066E+001
  0.100000000000000E+001 -0.235693120956421E+001  0.217263513366696E+001
  0.100000000000000E+001 -0.237971520423889E+001  0.325587447765133E+001
  0.100000000000000E+001 -0.238139295578003E+001  0.217432738746600E+001
  0.100000000000000E+001 -0.242997360229492E+001  0.324558022264109E+001
  0.100000000000000E+001 -0.257746124267578E+001  0.218888885173968E+001
  0.100000000000000E+001 -0.258496761322021E+001  0.218948717238642E+001
  0.100000000000000E+001 -0.259695863723755E+001  0.321117263508582E+001
  0.100000000000000E+001 -0.267979240417480E+001  0.319395641914199E+001
  0.100000000000000E+001 -0.269779062271118E+001  0.219891633332543E+001
  0.100000000000000E+001 -0.277650237083435E+001  0.317369495873281E+001
  0.100000000000000E+001 -0.279943847656250E+001  0.316885866514568E+001
  0.100000000000000E+001 -0.282053232192993E+001  0.221029000848343E+001
  0.100000000000000E+001 -0.284799957275391E+001  0.315858197170194E+001
  0.100000000000000E+001 -0.286709308624268E+001  0.315452065829014E+001
  0.100000000000000E+001 -0.286814928054810E+001  0.221508482817013E+001
  0.100000000000000E+001 -0.288436150550842E+001  0.315084202478771E+001
  0.100000000000000E+001 -0.291232371330261E+001  0.314486423452991E+001
  0.100000000000000E+001 -0.291374516487122E+001  0.314456038778484E+001
  0.100000000000000E+001 -0.294322061538696E+001  0.222317515604599E+001
  0.100000000000000E+001 -0.295365381240845E+001  0.313598431586198E+001
  0.100000000000000E+001 -0.296811723709106E+001  0.313286277416415E+001
  0.100000000000000E+001 -0.298918461799622E+001  0.222849630310622E+001
  0.100000000000000E+001 -0.300106143951416E+001  0.222992102202598E+001
  0.100000000000000E+001 -0.302094221115112E+001  0.223235819531913E+001
  0.100000000000000E+001 -0.302255344390869E+001  0.312104491045759E+001
  0.100000000000000E+001 -0.317259836196899E+001  0.308779406093133E+001
  0.100000000000000E+001 -0.318577766418457E+001  0.308481780252902E+001
  0.100000000000000E+001 -0.319811153411865E+001  0.225750334767703E+001
  0.100000000000000E+001 -0.321613240242004E+001  0.226048947355296E+001
  0.100000000000000E+001 -0.323994874954224E+001  0.307246303626793E+001
  0.100000000000000E+001 -0.324538803100586E+001  0.226555307595464E+001
  0.100000000000000E+001 -0.325448369979858E+001  0.226718238050197E+001
  0.100000000000000E+001 -0.329805803298950E+001  0.227540889592491E+001
  0.100000000000000E+001 -0.330213999748230E+001  0.305802344447471E+001
  0.100000000000000E+001 -0.333219122886658E+001  0.228238019160791E+001
  0.100000000000000E+001 -0.333457207679749E+001  0.305037320570531E+001
  0.100000000000000E+001 -0.333462858200073E+001  0.228289747172238E+001
  0.100000000000000E+001 -0.333659076690674E+001  0.228331624969388E+001
  0.100000000000000E+001 -0.336047291755676E+001  0.304419453933942E+001
  0.100000000000000E+001 -0.336807298660278E+001  0.229027661645627E+001
  0.100000000000000E+001 -0.338081336021423E+001  0.229323374902772E+001
  0.100000000000000E+001 -0.339048457145691E+001  0.229553856534204E+001
  0.100000000000000E+001 -0.340405893325806E+001  0.303364386106680E+001
  0.100000000000000E+001 -0.344957304000854E+001  0.231079696512236E+001
  0.100000000000000E+001 -0.349711704254150E+001  0.301039364354690E+001
  0.100000000000000E+001 -0.353327131271362E+001  0.300103623367529E+001
  0.100000000000000E+001 -0.353328204154968E+001  0.300103333731120E+001
  0.100000000000000E+001 -0.353783917427063E+001  0.299983921296252E+001
  0.100000000000000E+001 -0.357613873481750E+001  0.235183572329441E+001
  0.100000000000000E+001 -0.357885909080505E+001  0.235286364458734E+001
  0.100000000000000E+001 -0.359280562400818E+001  0.298515087485136E+001
  0.100000000000000E+001 -0.359958624839783E+001  0.298330094125009E+001
  0.100000000000000E+001 -0.361684203147888E+001  0.236787929398863E+001
  0.100000000000000E+001 -0.361971044540405E+001  0.236906690980953E+001
  0.100000000000000E+001 -0.363422036170959E+001  0.237517545051785E+001
  0.100000000000000E+001 -0.363672924041748E+001  0.237625121666149E+001
  0.100000000000000E+001 -0.364676070213318E+001  0.297014470947904E+001
  0.100000000000000E+001 -0.365860390663147E+001  0.238585659071979E+001
  0.100000000000000E+001 -0.368280649185181E+001  0.239695162846569E+001
  0.100000000000000E+001 -0.369394183158875E+001  0.240221574013098E+001
  0.100000000000000E+001 -0.369447541236877E+001  0.295627753144105E+001
  0.100000000000000E+001 -0.369922637939453E+001  0.295486217385589E+001
  0.100000000000000E+001 -0.374590992927551E+001  0.294056110598020E+001
  0.100000000000000E+001 -0.374607658386230E+001  0.242810292295729E+001
  0.100000000000000E+001 -0.375277757644653E+001  0.293839198407231E+001
  0.100000000000000E+001 -0.375296354293823E+001  0.243166531377271E+001
  0.100000000000000E+001 -0.376058673858643E+001  0.293590277562615E+001
  0.100000000000000E+001 -0.377030348777771E+001  0.244076737962490E+001
  0.100000000000000E+001 -0.377267503738403E+001  0.244202984010515E+001
  0.100000000000000E+001 -0.377393674850464E+001  0.244270095037926E+001
  0.100000000000000E+001 -0.377582192420959E+001  0.293097548620123E+001
  0.100000000000000E+001 -0.377599048614502E+001  0.244379825707023E+001
  0.100000000000000E+001 -0.377905058860779E+001  0.244543545301420E+001
  0.100000000000000E+001 -0.379511976242065E+001  0.245412396116258E+001
  0.100000000000000E+001 -0.379689455032349E+001  0.292399067905067E+001
  0.100000000000000E+001 -0.379699921607971E+001  0.245515142884329E+001
  0.100000000000000E+001 -0.380757546424866E+001  0.246096720461598E+001
  0.100000000000000E+001 -0.382040190696716E+001  0.246811018285000E+001
  0.100000000000000E+001 -0.383700799942017E+001  0.247750961559006E+001
  0.100000000000000E+001 -0.384126138687134E+001  0.247994082043683E+001
  0.100000000000000E+001 -0.385086441040039E+001  0.248547818125486E+001
  0.100000000000000E+001 -0.385115242004395E+001  0.248564662069341E+001
  0.100000000000000E+001 -0.385956478118896E+001  0.249054550010981E+001
  0.100000000000000E+001 -0.386084747314453E+001  0.249129686007900E+001
  0.100000000000000E+001 -0.387277889251709E+001  0.249833875165248E+001
  0.100000000000000E+001 -0.387780714035034E+001  0.250133431020946E+001
  0.100000000000000E+001 -0.388924980163574E+001  0.250822389968743E+001
  0.100000000000000E+001 -0.388935422897339E+001  0.250828870475430E+001
  0.100000000000000E+001 -0.388936042785645E+001  0.250829163598824E+001
  0.100000000000000E+001 -0.389517116546631E+001  0.251182948338148E+001
  0.100000000000000E+001 -0.390710902214050E+001  0.251918772769333E+001
  0.100000000000000E+001 -0.391209459304810E+001  0.252229910465811E+001
  0.100000000000000E+001 -0.393193244934082E+001  0.253491196543229E+001
  0.100000000000000E+001 -0.394448471069336E+001  0.254311612838815E+001
  0.100000000000000E+001 -0.394808197021484E+001  0.254550448713231E+001
  0.100000000000000E+001 -0.395127391815186E+001  0.254763742376045E+001
  0.100000000000000E+001 -0.387007284164429E+001  0.289785196414422E+001
  0.100000000000000E+001 -0.389383840560913E+001  0.288855652095090E+001
  0.100000000000000E+001 -0.390296363830566E+001  0.288485355495470E+001
  0.100000000000000E+001 -0.390545201301575E+001  0.288382772833938E+001
  0.100000000000000E+001 -0.392766809463501E+001  0.287439969746018E+001
  0.100000000000000E+001 -0.393997836112976E+001  0.286891910495723E+001
  0.100000000000000E+001 -0.395446729660034E+001  0.286220036147726E+001
  0.100000000000000E+001 -0.396762609481812E+001  0.255879523627988E+001
  0.100000000000000E+001 -0.398096132278442E+001  0.256822743952218E+001
  0.100000000000000E+001 -0.398291301727295E+001  0.256963609714332E+001
  0.100000000000000E+001 -0.399909329414368E+001  0.258164197544994E+001
  0.100000000000000E+001 -0.401841449737549E+001  0.259690621930774E+001
  0.100000000000000E+001 -0.403296613693237E+001  0.260930878954683E+001
  0.100000000000000E+001 -0.404119300842285E+001  0.261677640873317E+001
  0.100000000000000E+001 -0.404193496704102E+001  0.261746818631029E+001
  0.100000000000000E+001 -0.404367637634277E+001  0.261910694782876E+001
  0.100000000000000E+001 -0.405455398559570E+001  0.262985691607164E+001
  0.100000000000000E+001 -0.405458545684814E+001  0.262988773305938E+001
  0.100000000000000E+001 -0.405967378616333E+001  0.263527615928564E+001
  0.100000000000000E+001 -0.406209707260132E+001  0.263793855296201E+001
  0.100000000000000E+001 -0.406601047515869E+001  0.264239021402612E+001
  0.100000000000000E+001 -0.406758403778076E+001  0.264424247468127E+001
  0.100000000000000E+001 -0.406881618499756E+001  0.264572028026063E+001
  0.100000000000000E+001 -0.399624824523926E+001  0.284071472071631E+001
  0.100000000000000E+001 -0.400091505050659E+001  0.283806400926471E+001
  0.100000000000000E+001 -0.400461387634277E+001  0.283592122432060E+001
  0.100000000000000E+001 -0.401831293106079E+001  0.282758894467207E+001
  0.100000000000000E+001 -0.402006769180298E+001  0.282647356571895E+001
  0.100000000000000E+001 -0.402876663208008E+001  0.282074550039622E+001
  0.100000000000000E+001 -0.403833293914795E+001  0.281402036216482E+001
  0.100000000000000E+001 -0.404487991333008E+001  0.280911115708124E+001
  0.100000000000000E+001 -0.404654884338379E+001  0.280781387252537E+001
  0.100000000000000E+001 -0.405745792388916E+001  0.279877244083453E+001
  0.100000000000000E+001 -0.405862045288086E+001  0.279773942940845E+001
  0.100000000000000E+001 -0.406077289581299E+001  0.279579330192279E+001
  0.100000000000000E+001 -0.406617736816406E+001  0.279065569126461E+001
  0.100000000000000E+001 -0.407365322113037E+001  0.278282004527196E+001
  0.100000000000000E+001 -0.407953834533691E+001  0.265980148017028E+001
  0.100000000000000E+001 -0.408078432083130E+001  0.266162499758635E+001
  0.100000000000000E+001 -0.408227205276489E+001  0.277225153480250E+001
  0.100000000000000E+001 -0.408518505096436E+001  0.266851239134183E+001
  0.100000000000000E+001 -0.408280229568481E+001  0.277152295397185E+001
  0.100000000000000E+001 -0.408344793319702E+001  0.277062793140543E+001
  0.100000000000000E+001 -0.408375644683838E+001  0.277019124504114E+001
  0.100000000000000E+001 -0.409089851379395E+001  0.267894254854884E+001
  0.100000000000000E+001 -0.409109020233154E+001  0.267933058197890E+001
  0.100000000000000E+001 -0.409047698974609E+001  0.275948308084515E+001
  0.100000000000000E+001 -0.409088897705078E+001  0.275871473269408E+001
  0.100000000000000E+001 -0.409150123596191E+001  0.275756280493429E+001
  0.100000000000000E+001 -0.409365129470825E+001  0.268495545999380E+001
  0.100000000000000E+001 -0.409731483459473E+001  0.269495064559682E+001
  0.100000000000000E+001 -0.409777545928955E+001  0.269648785537869E+001
  0.100000000000000E+001 -0.409924697875977E+001  0.270225177199306E+001
  0.100000000000000E+001 -0.409932994842529E+001  0.270263529091769E+001
  0.100000000000000E+001 -0.409990406036377E+001  0.270554096774159E+001
  0.100000000000000E+001 -0.410065317153931E+001  0.271058187346883E+001
  0.100000000000000E+001 -0.410103511810303E+001  0.271475625737149E+001
  0.100000000000000E+001 -0.410118961334229E+001  0.271886356471894E+001
  0.100000000000000E+001 -0.410119056701660E+001  0.271919262863836E+001
