  0.100000000000000E+001  0.966096115112305E+001  0.856420926360240E+001
  0.100000000000000E+001  0.180136919021606E+001  0.431547886803085E+001
  0.100000000000000E+001  0.176070785522461E+001  0.429856336970650E+001
  0.100000000000000E+001  0.160664463043213E+001  0.423606327456797E+001
  0.100000000000000E+001  0.112404632568359E+001  0.405659973114111E+001
  0.100000000000000E+001  0.109011983871460E+001  0.404489601001290E+001
  0.100000000000000E+001  0.502762794494629E+000  0.385980750173939E+001
  0.100000000000000E+001  0.256433486938477E+000  0.379109527120295E+001
  0.100000000000000E+001 -0.136872291564941E+000  0.369048577088880E+001
  0.100000000000000E+001 -0.173945188522339E+000  0.368151481530346E+001
  0.100000000000000E+001 -0.336555957794189E+000  0.364309129281271E+001
  0.100000000000000E+001 -0.471762895584106E+000  0.361222224892884E+001
  0.100000000000000E+001 -0.828802108764648E+000  0.353476646366044E+001
  0.100000000000000E+001 -0.866218566894531E+000  0.352695131623559E+001
  0.100000000000000E+001 -0.931447982788086E+000  0.351344661246233E+001
  0.100000000000000E+001 -0.112023639678955E+001  0.347515377857023E+001
  0.100000000000000E+001 -0.123512077331543E+001  0.345236979020529E+001
  0.100000000000000E+001 -0.134089612960815E+001  0.343169171766644E+001
  0.100000000000000E+001 -0.158809900283813E+001  0.338429604813074E+001
  0.100000000000000E+001 -0.166405391693115E+001  0.336994488410565E+001
  0.100000000000000E+001 -0.191348648071289E+001  0.332329424810742E+001
  0.100000000000000E+001 -0.191508984565735E+001  0.332299662596370E+001
  0.100000000000000E+001 -0.192532300949097E+001  0.332109497980360E+001
  0.100000000000000E+001 -0.192770099639893E+001  0.332065169343396E+001
  0.100000000000000E+001 -0.198398685455322E+001  0.331019723039472E+001
  0.100000000000000E+001 -0.216896200180054E+001  0.327589042479027E+001
  0.100000000000000E+001 -0.217204713821411E+001  0.327531857943782E+001
  0.100000000000000E+001 -0.218287038803101E+001  0.327330997583371E+001
  0.100000000000000E+001 -0.435898303985596E+000  0.206485973762636E+001
  0.100000000000000E+001 -0.193409824371338E+001  0.216101007147036E+001
  0.100000000000000E+001 -0.212652778625488E+001  0.217593461185473E+001
  0.100000000000000E+001 -0.220581126213074E+001  0.218236776458431E+001
  0.100000000000000E+001 -0.228338289260864E+001  0.218884199348748E+001
  0.100000000000000E+001 -0.234337019920349E+001  0.324346395361678E+001
  0.100000000000000E+001 -0.237108325958252E+001  0.323829142968215E+001
  0.100000000000000E+001 -0.255505204200745E+001  0.320370370246527E+001
  0.100000000000000E+001 -0.258226823806763E+001  0.319853961825730E+001
  0.100000000000000E+001 -0.263263726234436E+001  0.318894264034690E+001
  0.100000000000000E+001 -0.268618273735046E+001  0.317867621152026E+001
  0.100000000000000E+001 -0.273676443099976E+001  0.316891039280470E+001
  0.100000000000000E+001 -0.291202139854431E+001  0.313443781324101E+001
  0.100000000000000E+001 -0.293881583213806E+001  0.312906645029003E+001
  0.100000000000000E+001 -0.294396448135376E+001  0.312802891846788E+001
  0.100000000000000E+001 -0.299509835243225E+001  0.225980670616935E+001
  0.100000000000000E+001 -0.299974417686462E+001  0.226036050647679E+001
  0.100000000000000E+001 -0.301638627052307E+001  0.311332656687226E+001
  0.100000000000000E+001 -0.310176944732666E+001  0.309564497771446E+001
  0.100000000000000E+001 -0.311778497695923E+001  0.309228071862304E+001
  0.100000000000000E+001 -0.311922907829285E+001  0.309197807953774E+001
  0.100000000000000E+001 -0.312325453758240E+001  0.227573504219177E+001
  0.100000000000000E+001 -0.313155865669250E+001  0.227681467645282E+001
  0.100000000000000E+001 -0.316180586814880E+001  0.228079308069721E+001
  0.100000000000000E+001 -0.317182922363281E+001  0.308081154196031E+001
  0.100000000000000E+001 -0.321039724349976E+001  0.307250347745876E+001
  0.100000000000000E+001 -0.323819088935852E+001  0.306644892930974E+001
  0.100000000000000E+001 -0.329415678977966E+001  0.305407043441491E+001
  0.100000000000000E+001 -0.329762554168701E+001  0.305329384934427E+001
  0.100000000000000E+001 -0.332426071166992E+001  0.230368953674827E+001
  0.100000000000000E+001 -0.332812404632568E+001  0.230426860822811E+001
  0.100000000000000E+001 -0.336108112335205E+001  0.303890254359871E+001
  0.100000000000000E+001 -0.337186694145203E+001  0.303641714444743E+001
  0.100000000000000E+001 -0.337439870834351E+001  0.231134510858014E+001
  0.100000000000000E+001 -0.344535279273987E+001  0.232273360561843E+001
  0.100000000000000E+001 -0.344791102409363E+001  0.301854090689340E+001
  0.100000000000000E+001 -0.344822549819946E+001  0.301846634526748E+001
  0.100000000000000E+001 -0.350253629684448E+001  0.300527343962848E+001
  0.100000000000000E+001 -0.350396347045898E+001  0.300492066509449E+001
  0.100000000000000E+001 -0.351242494583130E+001  0.233416841196449E+001
  0.100000000000000E+001 -0.352735447883606E+001  0.299911296001091E+001
  0.100000000000000E+001 -0.352794480323792E+001  0.233691886560542E+001
  0.100000000000000E+001 -0.353840351104736E+001  0.233879390246260E+001
  0.100000000000000E+001 -0.354429960250854E+001  0.233985786069704E+001
  0.100000000000000E+001 -0.362358427047729E+001  0.297432862067966E+001
  0.100000000000000E+001 -0.364330387115479E+001  0.235873228686599E+001
  0.100000000000000E+001 -0.365267038345337E+001  0.296651905020577E+001
  0.100000000000000E+001 -0.369907116889954E+001  0.295370461312316E+001
  0.100000000000000E+001 -0.370146179199219E+001  0.237079831208327E+001
  0.100000000000000E+001 -0.371315670013428E+001  0.237332461210314E+001
  0.100000000000000E+001 -0.374747276306152E+001  0.293981450108562E+001
  0.100000000000000E+001 -0.376387453079224E+001  0.238471335606772E+001
  0.100000000000000E+001 -0.378697228431702E+001  0.292802659345546E+001
  0.100000000000000E+001 -0.383473634719849E+001  0.291314294314989E+001
  0.100000000000000E+001 -0.383706331253052E+001  0.240256132897506E+001
  0.100000000000000E+001 -0.385510396957397E+001  0.240726080688420E+001
  0.100000000000000E+001 -0.390554141998291E+001  0.288954767180090E+001
  0.100000000000000E+001 -0.392180418968201E+001  0.242585552823177E+001
  0.100000000000000E+001 -0.392256236076355E+001  0.242608072294742E+001
  0.100000000000000E+001 -0.395714282989502E+001  0.287090491563291E+001
  0.100000000000000E+001 -0.395725369453430E+001  0.287086349328473E+001
  0.100000000000000E+001 -0.398041200637817E+001  0.244413664005206E+001
  0.100000000000000E+001 -0.399220228195190E+001  0.285735538183423E+001
  0.100000000000000E+001 -0.399290513992310E+001  0.244832312414216E+001
  0.100000000000000E+001 -0.401065540313721E+001  0.245446945113280E+001
  0.100000000000000E+001 -0.401939773559570E+001  0.245759240729769E+001
  0.100000000000000E+001 -0.403566265106201E+001  0.283931296664863E+001
  0.100000000000000E+001 -0.403919076919556E+001  0.246490744405345E+001
  0.100000000000000E+001 -0.404378604888916E+001  0.246666051026360E+001
  0.100000000000000E+001 -0.404451370239258E+001  0.283543772379467E+001
  0.100000000000000E+001 -0.405447483062744E+001  0.283098360856587E+001
  0.100000000000000E+001 -0.405555438995361E+001  0.247124532624540E+001
  0.100000000000000E+001 -0.408403587341309E+001  0.248299507942620E+001
  0.100000000000000E+001 -0.408483028411865E+001  0.248333910919205E+001
  0.100000000000000E+001 -0.409225749969482E+001  0.281306088859387E+001
  0.100000000000000E+001 -0.409615421295166E+001  0.281110547372531E+001
  0.100000000000000E+001 -0.411039829254150E+001  0.280376235242959E+001
  0.100000000000000E+001 -0.411175203323364E+001  0.280304697272163E+001
  0.100000000000000E+001 -0.412086725234985E+001  0.279814923646585E+001
  0.100000000000000E+001 -0.412287712097168E+001  0.279704842677492E+001
  0.100000000000000E+001 -0.412686920166016E+001  0.279483858890996E+001
  0.100000000000000E+001 -0.410827922821045E+001  0.249386053985918E+001
  0.100000000000000E+001 -0.413066864013672E+001  0.250477594195188E+001
  0.100000000000000E+001 -0.413259792327881E+001  0.250576197606210E+001
  0.100000000000000E+001 -0.413549852371216E+001  0.250725970164446E+001
  0.100000000000000E+001 -0.416959953308105E+001  0.252649613556396E+001
  0.100000000000000E+001 -0.417672920227051E+001  0.253097552436922E+001
  0.100000000000000E+001 -0.418566656112671E+001  0.253688553709124E+001
  0.100000000000000E+001 -0.415510272979736E+001  0.277820441628009E+001
  0.100000000000000E+001 -0.416220092773438E+001  0.277369562915278E+001
  0.100000000000000E+001 -0.416304302215576E+001  0.277315069504979E+001
  0.100000000000000E+001 -0.417456579208374E+001  0.276545009792394E+001
  0.100000000000000E+001 -0.417978954315186E+001  0.276179640474034E+001
  0.100000000000000E+001 -0.418383598327637E+001  0.275888973288078E+001
  0.100000000000000E+001 -0.418942356109619E+001  0.275475022724328E+001
  0.100000000000000E+001 -0.419577407836914E+001  0.274985412439944E+001
  0.100000000000000E+001 -0.420045995712280E+001  0.274609355199127E+001
  0.100000000000000E+001 -0.420149564743042E+001  0.274524355010433E+001
  0.100000000000000E+001 -0.421376943588257E+001  0.273457946662120E+001
  0.100000000000000E+001 -0.421981525421143E+001  0.272884211204823E+001
  0.100000000000000E+001 -0.422060680389404E+001  0.272806324754656E+001
  0.100000000000000E+001 -0.422840595245361E+001  0.271995950251738E+001
  0.100000000000000E+001 -0.423108625411987E+001  0.271696861509640E+001
  0.100000000000000E+001 -0.421311664581299E+001  0.255775364801653E+001
  0.100000000000000E+001 -0.421762180328369E+001  0.256171973103106E+001
  0.100000000000000E+001 -0.422476577758789E+001  0.256845256206164E+001
  0.100000000000000E+001 -0.423356866836548E+001  0.257772871379135E+001
  0.100000000000000E+001 -0.423449230194092E+001  0.257878141325002E+001
  0.100000000000000E+001 -0.423462677001953E+001  0.257893763872850E+001
  0.100000000000000E+001 -0.423520374298096E+001  0.257960504962756E+001
  0.100000000000000E+001 -0.423898315429688E+001  0.258417335890784E+001
  0.100000000000000E+001 -0.424248981475830E+001  0.258875329695812E+001
  0.100000000000000E+001 -0.425057697296143E+001  0.260118250001979E+001
  0.100000000000000E+001 -0.425063705444336E+001  0.260128415869427E+001
  0.100000000000000E+001 -0.425243377685547E+001  0.260459200770152E+001
  0.100000000000000E+001 -0.425303506851196E+001  0.260575518478909E+001
  0.100000000000000E+001 -0.425490999221802E+001  0.260965261955850E+001
  0.100000000000000E+001 -0.425765800476074E+001  0.261632212228806E+001
  0.100000000000000E+001 -0.425779724121094E+001  0.261669560537359E+001
  0.100000000000000E+001 -0.425833034515381E+001  0.261820696713871E+001
  0.100000000000000E+001 -0.425389623641968E+001  0.268321651411396E+001
  0.100000000000000E+001 -0.425508880615234E+001  0.268060330305110E+001
  0.100000000000000E+001 -0.425615882873535E+001  0.267807943324310E+001
  0.100000000000000E+001 -0.425796651840210E+001  0.267331885957925E+001
  0.100000000000000E+001 -0.425998783111572E+001  0.262357041760079E+001
  0.100000000000000E+001 -0.426069402694702E+001  0.266401918345836E+001
  0.100000000000000E+001 -0.426081943511963E+001  0.266348178234365E+001
  0.100000000000000E+001 -0.426281356811523E+001  0.264076364094578E+001
  0.100000000000000E+001 -0.426292133331299E+001  0.264370124968545E+001
