  0.100000000000000E+001  0.468739509582520E+001  0.790351902602458E+001
  0.100000000000000E+001 -0.222629213333130E+001  0.327946399167112E+001
  0.100000000000000E+001 -0.124617767333984E+001  0.345585813485785E+001
  0.100000000000000E+001  0.566950988769531E+001  0.624826145468965E+001
  0.100000000000000E+001 -0.107719945907593E+001  0.200204433526078E+001
  0.100000000000000E+001 -0.109309911727905E+001  0.200338869462684E+001
  0.100000000000000E+001 -0.733165740966797E+000  0.354366123650185E+001
  0.100000000000000E+001 -0.192489981651306E+001  0.207989847487041E+001
  0.100000000000000E+001 -0.225799894332886E+001  0.211489584147610E+001
  0.100000000000000E+001 -0.227470040321350E+001  0.211673594984902E+001
  0.100000000000000E+001 -0.229050636291504E+001  0.211848522527028E+001
  0.100000000000000E+001  0.293901729583740E+001  0.415484163994258E+001
  0.100000000000000E+001  0.232155323028564E+001  0.404423503862354E+001
  0.100000000000000E+001  0.766185760498047E+000  0.378938362154107E+001
  0.100000000000000E+001 -0.364110946655273E+000  0.360538632194733E+001
  0.100000000000000E+001  0.519600868225098E+000  0.374966071702984E+001
  0.100000000000000E+001 -0.259580111503601E+001  0.215398067431768E+001
  0.100000000000000E+001 -0.293285083770752E+001  0.219777585283336E+001
  0.100000000000000E+001 -0.297019433975220E+001  0.220299657604004E+001
  0.100000000000000E+001 -0.317204785346985E+001  0.223278646116725E+001
  0.100000000000000E+001 -0.337918496131897E+001  0.226668664086721E+001
  0.100000000000000E+001 -0.348974227905273E+001  0.228654189417105E+001
  0.100000000000000E+001 -0.355225706100464E+001  0.229843141841279E+001
  0.100000000000000E+001 -0.355321002006531E+001  0.229861742068152E+001
  0.100000000000000E+001 -0.360932683944702E+001  0.230976555673113E+001
  0.100000000000000E+001 -0.366105318069458E+001  0.232048158105916E+001
  0.100000000000000E+001 -0.377085828781128E+001  0.234486524980683E+001
  0.100000000000000E+001 -0.377196288108826E+001  0.234512345725143E+001
  0.100000000000000E+001 -0.389112234115601E+001  0.237480060562504E+001
  0.100000000000000E+001 -0.389291405677795E+001  0.237527863471092E+001
  0.100000000000000E+001 -0.392426156997681E+001  0.238380758749996E+001
  0.100000000000000E+001 -0.395189762115479E+001  0.239162257948437E+001
  0.100000000000000E+001 -0.400614833831787E+001  0.240788920104110E+001
  0.100000000000000E+001 -0.403729915618896E+001  0.241787647324257E+001
  0.100000000000000E+001 -0.404523563385010E+001  0.242050778648488E+001
  0.100000000000000E+001 -0.406337833404541E+001  0.242666810771534E+001
  0.100000000000000E+001 -0.407934188842773E+001  0.243226652311692E+001
  0.100000000000000E+001 -0.246998190879822E+001  0.323311313137412E+001
  0.100000000000000E+001 -0.252968120574951E+001  0.322154608060389E+001
  0.100000000000000E+001 -0.254220294952393E+001  0.321910714088732E+001
  0.100000000000000E+001 -0.257813525199890E+001  0.321208797983753E+001
  0.100000000000000E+001 -0.276001262664795E+001  0.317596822857217E+001
  0.100000000000000E+001 -0.279358601570129E+001  0.316918270556136E+001
  0.100000000000000E+001 -0.298777723312378E+001  0.312907234078661E+001
  0.100000000000000E+001 -0.303336644172668E+001  0.311941541460161E+001
  0.100000000000000E+001 -0.313600063323975E+001  0.309728400752346E+001
  0.100000000000000E+001 -0.321913766860962E+001  0.307890831474731E+001
  0.100000000000000E+001 -0.325588631629944E+001  0.307064350703433E+001
  0.100000000000000E+001 -0.336767411231995E+001  0.304488643867567E+001
  0.100000000000000E+001 -0.348789119720459E+001  0.301597864025472E+001
  0.100000000000000E+001 -0.351830005645752E+001  0.300843297185334E+001
  0.100000000000000E+001 -0.361546826362610E+001  0.298357627925514E+001
  0.100000000000000E+001 -0.362885785102844E+001  0.298005238866695E+001
  0.100000000000000E+001 -0.372836327552795E+001  0.295298535274382E+001
  0.100000000000000E+001 -0.372884321212769E+001  0.295285029832814E+001
  0.100000000000000E+001 -0.373879933357239E+001  0.295004661683059E+001
  0.100000000000000E+001 -0.375003528594971E+001  0.294686008426562E+001
  0.100000000000000E+001 -0.381772375106812E+001  0.292710413077871E+001
  0.100000000000000E+001 -0.382869005203247E+001  0.292380551787699E+001
  0.100000000000000E+001 -0.383080863952637E+001  0.292316497028073E+001
  0.100000000000000E+001 -0.387290191650391E+001  0.291019251689532E+001
  0.100000000000000E+001 -0.392918443679810E+001  0.289203909093855E+001
  0.100000000000000E+001 -0.397475624084473E+001  0.287653626617852E+001
  0.100000000000000E+001 -0.398387956619263E+001  0.287333331190557E+001
  0.100000000000000E+001 -0.398883557319641E+001  0.287157803675051E+001
  0.100000000000000E+001 -0.400043201446533E+001  0.286742858615488E+001
  0.100000000000000E+001 -0.400462055206299E+001  0.286591357515405E+001
  0.100000000000000E+001 -0.401475667953491E+001  0.286221450119992E+001
  0.100000000000000E+001 -0.401956844329834E+001  0.286043996467336E+001
  0.100000000000000E+001 -0.402967262268066E+001  0.285667639134451E+001
  0.100000000000000E+001 -0.403298568725586E+001  0.285543076396478E+001
  0.100000000000000E+001 -0.405864238739014E+001  0.284557178593811E+001
  0.100000000000000E+001 -0.415256929397583E+001  0.246060647646263E+001
  0.100000000000000E+001 -0.419553565979004E+001  0.247999332653532E+001
  0.100000000000000E+001 -0.412387847900391E+001  0.281849770763344E+001
  0.100000000000000E+001 -0.414017295837402E+001  0.281117898292023E+001
  0.100000000000000E+001 -0.415382719039917E+001  0.280483527620558E+001
  0.100000000000000E+001 -0.417911911010742E+001  0.279249748338853E+001
  0.100000000000000E+001 -0.420042848587036E+001  0.278139786497581E+001
  0.100000000000000E+001 -0.420965576171875E+001  0.277635391620402E+001
  0.100000000000000E+001 -0.423349618911743E+001  0.276250757601058E+001
  0.100000000000000E+001 -0.425014019012451E+001  0.275198604332976E+001
  0.100000000000000E+001 -0.427239942550659E+001  0.273642043296207E+001
  0.100000000000000E+001 -0.428299045562744E+001  0.272820864059524E+001
  0.100000000000000E+001 -0.429493141174316E+001  0.271809497959147E+001
  0.100000000000000E+001 -0.430619668960571E+001  0.270742384562139E+001
  0.100000000000000E+001 -0.431487560272217E+001  0.269813674662480E+001
  0.100000000000000E+001 -0.424390125274658E+001  0.250574325242132E+001
  0.100000000000000E+001 -0.424495506286621E+001  0.250636950322372E+001
  0.100000000000000E+001 -0.424689579010010E+001  0.250753010857686E+001
  0.100000000000000E+001 -0.428116893768311E+001  0.253041583116167E+001
  0.100000000000000E+001 -0.428121662139893E+001  0.253045087314691E+001
  0.100000000000000E+001 -0.429131412506104E+001  0.253835898258863E+001
  0.100000000000000E+001 -0.429626655578613E+001  0.254251384233032E+001
  0.100000000000000E+001 -0.430240201950073E+001  0.254796754205485E+001
  0.100000000000000E+001 -0.430883741378784E+001  0.255413663378091E+001
  0.100000000000000E+001 -0.430993366241455E+001  0.255524102468803E+001
  0.100000000000000E+001 -0.431295967102051E+001  0.255838089675887E+001
  0.100000000000000E+001 -0.431748485565186E+001  0.269509974146891E+001
  0.100000000000000E+001 -0.432204914093018E+001  0.256883413190179E+001
  0.100000000000000E+001 -0.432424354553223E+001  0.257165411855719E+001
  0.100000000000000E+001 -0.433095741271973E+001  0.258133791722112E+001
  0.100000000000000E+001 -0.433589744567871E+001  0.259002364021116E+001
  0.100000000000000E+001 -0.433877277374268E+001  0.259615609302384E+001
  0.100000000000000E+001 -0.433968067169189E+001  0.259834980340675E+001
  0.100000000000000E+001 -0.434114456176758E+001  0.260227942298306E+001
  0.100000000000000E+001 -0.432427167892456E+001  0.268648084747310E+001
  0.100000000000000E+001 -0.432653951644897E+001  0.268330668422392E+001
  0.100000000000000E+001 -0.432913398742676E+001  0.267944001125103E+001
  0.100000000000000E+001 -0.433574390411377E+001  0.266794450585767E+001
  0.100000000000000E+001 -0.434039115905762E+001  0.265728055952172E+001
  0.100000000000000E+001 -0.434120416641235E+001  0.265498022892183E+001
  0.100000000000000E+001 -0.434131288528442E+001  0.265465660592112E+001
  0.100000000000000E+001 -0.434254837036133E+001  0.265066464101202E+001
  0.100000000000000E+001 -0.434383249282837E+001  0.264555719353551E+001
  0.100000000000000E+001 -0.434429216384888E+001  0.264330582373596E+001
  0.100000000000000E+001 -0.434447956085205E+001  0.261501146599727E+001
  0.100000000000000E+001 -0.434485960006714E+001  0.261734232661821E+001
  0.100000000000000E+001 -0.434547901153564E+001  0.263430219476835E+001
  0.100000000000000E+001 -0.434543371200562E+001  0.262235696105953E+001
