  0.100000000000000E+001  0.542062377929688E+001  0.503764781231347E+001
  0.100000000000000E+001 -0.227719235420227E+001  0.327680342245454E+001
  0.100000000000000E+001 -0.217407703399658E+001  0.329777211476878E+001
  0.100000000000000E+001 -0.211632776260376E+001  0.330948672956649E+001
  0.100000000000000E+001 -0.205916595458984E+001  0.332106434012670E+001
  0.100000000000000E+001 -0.202615451812744E+001  0.332774606199236E+001
  0.100000000000000E+001 -0.201869201660156E+001  0.332925643090428E+001
  0.100000000000000E+001  0.282135772705078E+001  0.430006705156572E+001
  0.100000000000000E+001 -0.198427772521973E+001  0.214933990371370E+001
  0.100000000000000E+001  0.259399604797363E+001  0.425080250362847E+001
  0.100000000000000E+001  0.135064554214478E+001  0.399599012903132E+001
  0.100000000000000E+001 -0.170398902893066E+001  0.339269452077299E+001
  0.100000000000000E+001 -0.152228546142578E+001  0.342916717185580E+001
  0.100000000000000E+001  0.952185630798340E+000  0.391732554427109E+001
  0.100000000000000E+001 -0.149557733535767E+001  0.212344852387474E+001
  0.100000000000000E+001  0.920815944671631E+000  0.391115785776602E+001
  0.100000000000000E+001 -0.129021692276001E+001  0.347560685270854E+001
  0.100000000000000E+001 -0.108904933929443E+001  0.351572716617813E+001
  0.100000000000000E+001 -0.933691024780273E+000  0.354662397675065E+001
  0.100000000000000E+001  0.371522903442383E+000  0.380353340444859E+001
  0.100000000000000E+001  0.222063064575195E-001  0.205635134324896E+001
  0.100000000000000E+001 -0.306046485900879E+000  0.367067479144843E+001
  0.100000000000000E+001 -0.747933387756348E+000  0.208896909522766E+001
  0.100000000000000E+001 -0.249552345275879E+001  0.323211714313784E+001
  0.100000000000000E+001 -0.249800109863281E+001  0.323160400776854E+001
  0.100000000000000E+001 -0.281723928451538E+001  0.316509763959855E+001
  0.100000000000000E+001 -0.283422422409058E+001  0.316150309850179E+001
  0.100000000000000E+001 -0.284571123123169E+001  0.315906617185718E+001
  0.100000000000000E+001 -0.286869239807129E+001  0.315417934515015E+001
  0.100000000000000E+001 -0.290565013885498E+001  0.314629244387448E+001
  0.100000000000000E+001 -0.294993543624878E+001  0.313678259457953E+001
  0.100000000000000E+001 -0.295292115211487E+001  0.313614287476161E+001
  0.100000000000000E+001 -0.299369096755981E+001  0.312732583908769E+001
  0.100000000000000E+001 -0.303967523574829E+001  0.311730363295120E+001
  0.100000000000000E+001 -0.312265682220459E+001  0.309898696216399E+001
  0.100000000000000E+001 -0.312302374839783E+001  0.309890639115280E+001
  0.100000000000000E+001 -0.323210668563843E+001  0.307426368567505E+001
  0.100000000000000E+001 -0.324276399612427E+001  0.307181516954307E+001
  0.100000000000000E+001 -0.325244855880737E+001  0.306958615003553E+001
  0.100000000000000E+001 -0.336668872833252E+001  0.304270027784838E+001
  0.100000000000000E+001 -0.337760210037231E+001  0.304007081361424E+001
  0.100000000000000E+001 -0.340413761138916E+001  0.303362590195221E+001
  0.100000000000000E+001 -0.350934839248657E+001  0.300725047989437E+001
  0.100000000000000E+001 -0.354979205131531E+001  0.299669142215552E+001
  0.100000000000000E+001 -0.357341480255127E+001  0.299039849404816E+001
  0.100000000000000E+001 -0.361588358879089E+001  0.297881336719566E+001
  0.100000000000000E+001 -0.363491702079773E+001  0.297349558565558E+001
  0.100000000000000E+001 -0.295995569229126E+001  0.222507732623814E+001
  0.100000000000000E+001 -0.300582027435303E+001  0.223049897628720E+001
  0.100000000000000E+001 -0.309560775756836E+001  0.224213265558469E+001
  0.100000000000000E+001 -0.319636988639832E+001  0.225721950202615E+001
  0.100000000000000E+001 -0.342342185974121E+001  0.230377820967311E+001
  0.100000000000000E+001 -0.354229903221130E+001  0.233960115375424E+001
  0.100000000000000E+001 -0.356114959716797E+001  0.234629540236189E+001
  0.100000000000000E+001 -0.357701444625854E+001  0.235216624472680E+001
  0.100000000000000E+001 -0.359840703010559E+001  0.236043061407658E+001
  0.100000000000000E+001 -0.360246992111206E+001  0.236204797277036E+001
  0.100000000000000E+001 -0.362688159942627E+001  0.237206346772487E+001
  0.100000000000000E+001 -0.365610790252686E+001  0.238473958871315E+001
  0.100000000000000E+001 -0.366659951210022E+001  0.238947012490099E+001
  0.100000000000000E+001 -0.367346978187561E+001  0.239261395155536E+001
  0.100000000000000E+001 -0.368591690063477E+001  0.295881290753498E+001
  0.100000000000000E+001 -0.372270727157593E+001  0.294776253393359E+001
  0.100000000000000E+001 -0.375595664978027E+001  0.293738307560587E+001
  0.100000000000000E+001 -0.377850604057312E+001  0.244514138294170E+001
  0.100000000000000E+001 -0.380254983901978E+001  0.245819448766851E+001
  0.100000000000000E+001 -0.380525565147400E+001  0.245968571861085E+001
  0.100000000000000E+001 -0.382854580879211E+001  0.247269987272480E+001
  0.100000000000000E+001 -0.383693981170654E+001  0.291009312680170E+001
  0.100000000000000E+001 -0.384276247024536E+001  0.248080155930428E+001
  0.100000000000000E+001 -0.384633398056030E+001  0.248285904713017E+001
  0.100000000000000E+001 -0.387615370750427E+001  0.250034889655745E+001
  0.100000000000000E+001 -0.389441704750061E+001  0.288832319144320E+001
  0.100000000000000E+001 -0.389503669738770E+001  0.288807338987416E+001
  0.100000000000000E+001 -0.391702365875244E+001  0.252539391991751E+001
  0.100000000000000E+001 -0.391941404342651E+001  0.287796667657329E+001
  0.100000000000000E+001 -0.393580913543701E+001  0.253742694224693E+001
  0.100000000000000E+001 -0.394486165046692E+001  0.286668767144716E+001
  0.100000000000000E+001 -0.394655299186707E+001  0.254448650569119E+001
  0.100000000000000E+001 -0.394780874252319E+001  0.286532813473098E+001
  0.100000000000000E+001 -0.394889283180237E+001  0.286482419610915E+001
  0.100000000000000E+001 -0.396501445770264E+001  0.285710045668291E+001
  0.100000000000000E+001 -0.396532034873962E+001  0.285695151249591E+001
  0.100000000000000E+001 -0.396860504150391E+001  0.285531990883653E+001
  0.100000000000000E+001 -0.396952199935913E+001  0.256011619899397E+001
  0.100000000000000E+001 -0.397899246215820E+001  0.285003202274184E+001
  0.100000000000000E+001 -0.398036623001099E+001  0.284931261400018E+001
  0.100000000000000E+001 -0.398477411270142E+001  0.257098744741545E+001
  0.100000000000000E+001 -0.398609495162964E+001  0.257195040211586E+001
  0.100000000000000E+001 -0.401774787902832E+001  0.259636047200863E+001
  0.100000000000000E+001 -0.402615213394165E+001  0.260338754837669E+001
  0.100000000000000E+001 -0.404036140441895E+001  0.261600476155803E+001
  0.100000000000000E+001 -0.404167890548706E+001  0.261723043506786E+001
  0.100000000000000E+001 -0.404282379150391E+001  0.281068436262049E+001
  0.100000000000000E+001 -0.404531288146973E+001  0.262066667263599E+001
  0.100000000000000E+001 -0.404596376419067E+001  0.280827050530634E+001
  0.100000000000000E+001 -0.405172157287598E+001  0.280365412580227E+001
  0.100000000000000E+001 -0.405539798736572E+001  0.280055965181680E+001
  0.100000000000000E+001 -0.405736303329468E+001  0.279885258826296E+001
  0.100000000000000E+001 -0.405759620666504E+001  0.263304437150562E+001
  0.100000000000000E+001 -0.405844545364380E+001  0.263394897572693E+001
  0.100000000000000E+001 -0.406020259857178E+001  0.279631932033795E+001
  0.100000000000000E+001 -0.406170368194580E+001  0.279493667326371E+001
  0.100000000000000E+001 -0.407140207290649E+001  0.278528525441075E+001
  0.100000000000000E+001 -0.407663583755493E+001  0.277938641787243E+001
  0.100000000000000E+001 -0.408084487915039E+001  0.277415212922038E+001
  0.100000000000000E+001 -0.408952617645264E+001  0.276117072303441E+001
  0.100000000000000E+001 -0.406288051605225E+001  0.263881150605564E+001
  0.100000000000000E+001 -0.407257127761841E+001  0.265037518384938E+001
  0.100000000000000E+001 -0.407285928726196E+001  0.265074197781196E+001
  0.100000000000000E+001 -0.407779121398926E+001  0.265732529086472E+001
  0.100000000000000E+001 -0.407878065109253E+001  0.265872046370791E+001
  0.100000000000000E+001 -0.408101606369019E+001  0.266197241480837E+001
  0.100000000000000E+001 -0.408752822875977E+001  0.267254091009766E+001
  0.100000000000000E+001 -0.409488582611084E+001  0.268798242717138E+001
  0.100000000000000E+001 -0.409630012512207E+001  0.269184384417729E+001
  0.100000000000000E+001 -0.409631347656250E+001  0.269188025387130E+001
  0.100000000000000E+001 -0.409711217880249E+001  0.274443836671423E+001
  0.100000000000000E+001 -0.409929227828979E+001  0.273666812032514E+001
  0.100000000000000E+001 -0.410044097900391E+001  0.273040768464980E+001
  0.100000000000000E+001 -0.410050773620605E+001  0.270938864961381E+001
  0.100000000000000E+001 -0.410101938247681E+001  0.272485441635962E+001
  0.100000000000000E+001 -0.410115337371826E+001  0.271731289702060E+001
