  0.100000000000000E+001  0.499657044993616E+001  0.536413705910214E+001
  0.100000000000000E+001  0.111990554338790E+002  0.920179167219623E+001
  0.100000000000000E+001 -0.180942157922930E+001  0.346285862230424E+001
  0.100000000000000E+001  0.827199709129642E+001  0.687386229658107E+001
  0.100000000000000E+001 -0.157605273043333E+001  0.351933070708297E+001
  0.100000000000000E+001  0.113746130973514E+001  0.202607940125361E+001
  0.100000000000000E+001 -0.659608856678267E+000  0.211462914475723E+001
  0.100000000000000E+001 -0.149634695731335E+001  0.353854045770063E+001
  0.100000000000000E+001 -0.127611636544579E+001  0.215295773985520E+001
  0.100000000000000E+001 -0.333395618604011E+001  0.235329046672447E+001
  0.100000000000000E+001 -0.389729901436644E+001  0.247355420877100E+001
  0.100000000000000E+001 -0.187404106977407E+001  0.219630336057847E+001
  0.100000000000000E+001 -0.967895124874130E+000  0.366550073928654E+001
  0.100000000000000E+001  0.391409165774372E+001  0.498971625065366E+001
  0.100000000000000E+001  0.379894734426557E+001  0.495235826137083E+001
  0.100000000000000E+001 -0.363146811788342E+001  0.296761666089744E+001
  0.100000000000000E+001 -0.825190015845004E+000  0.369980041420374E+001
  0.100000000000000E+001 -0.692523735369824E+000  0.373174063315866E+001
  0.100000000000000E+001  0.207070612927941E+001  0.443701611160508E+001
  0.100000000000000E+001 -0.360432607932109E+001  0.297703139219312E+001
  0.100000000000000E+001  0.149542653651043E+001  0.428093771419592E+001
  0.100000000000000E+001 -0.254090508846393E+000  0.383790883357221E+001
  0.100000000000000E+001 -0.357313274115494E+001  0.298765751495942E+001
  0.100000000000000E+001 -0.356405924874433E+001  0.299071196797317E+001
  0.100000000000000E+001  0.849009503846740E+000  0.411251868615337E+001
  0.100000000000000E+001  0.659137666070850E+000  0.406424079078380E+001
  0.100000000000000E+001 -0.325808365976798E+001  0.234175787821232E+001
  0.100000000000000E+001 -0.315157213621420E+001  0.232658168244765E+001
  0.100000000000000E+001  0.709482438533522E-001  0.391750097518947E+001
  0.100000000000000E+001 -0.350966821411072E+001  0.300870599980063E+001
  0.100000000000000E+001 -0.388463152996631E+001  0.246959745132161E+001
  0.100000000000000E+001 -0.307320925796432E+001  0.231607157817380E+001
  0.100000000000000E+001 -0.347875565613887E+001  0.301871056906645E+001
  0.100000000000000E+001 -0.241383025123064E+001  0.331358704914279E+001
  0.100000000000000E+001 -0.344599233185780E+001  0.302915511519357E+001
  0.100000000000000E+001 -0.246401507748969E+001  0.330088121448799E+001
  0.100000000000000E+001 -0.338503212482661E+001  0.304819401122734E+001
  0.100000000000000E+001 -0.252874412595517E+001  0.328439442390490E+001
  0.100000000000000E+001 -0.256525240807004E+001  0.327504284561927E+001
  0.100000000000000E+001 -0.261721438209704E+001  0.326166213312987E+001
  0.100000000000000E+001 -0.267767152903100E+001  0.324598142497640E+001
  0.100000000000000E+001 -0.278052272243855E+001  0.321899591637067E+001
  0.100000000000000E+001 -0.279888510747151E+001  0.321413327788128E+001
  0.100000000000000E+001 -0.300390912155542E+001  0.230718397288734E+001
  0.100000000000000E+001 -0.284321317243442E+001  0.320233372722439E+001
  0.100000000000000E+001 -0.290646980719685E+001  0.318533671100177E+001
  0.100000000000000E+001 -0.292632997781315E+001  0.317995911114442E+001
  0.100000000000000E+001 -0.293321737266607E+001  0.317808937195248E+001
  0.100000000000000E+001 -0.295932512692072E+001  0.317097865714563E+001
  0.100000000000000E+001 -0.296433671798894E+001  0.316960941685199E+001
  0.100000000000000E+001 -0.299436150706987E+001  0.316137634818611E+001
  0.100000000000000E+001 -0.306074872281859E+001  0.314298021710070E+001
  0.100000000000000E+001 -0.308333614821543E+001  0.313665668401604E+001
  0.100000000000000E+001 -0.309465981430206E+001  0.313347349452753E+001
  0.100000000000000E+001 -0.310420005992058E+001  0.313078471199939E+001
  0.100000000000000E+001 -0.313952383174952E+001  0.312077218964240E+001
  0.100000000000000E+001 -0.314532916639560E+001  0.311911781598260E+001
  0.100000000000000E+001 -0.316579992989701E+001  0.311326347881710E+001
  0.100000000000000E+001 -0.317916170157422E+001  0.310942440011891E+001
  0.100000000000000E+001 -0.322206804577032E+001  0.309699691715114E+001
  0.100000000000000E+001 -0.328910628140336E+001  0.307725054273609E+001
  0.100000000000000E+001 -0.195901236867652E+001  0.220309867141198E+001
  0.100000000000000E+001 -0.265818865279715E+001  0.226745813003856E+001
  0.100000000000000E+001 -0.269622786987721E+001  0.227150674923921E+001
  0.100000000000000E+001 -0.286294743263424E+001  0.229013878674309E+001
  0.100000000000000E+001 -0.386522944716913E+001  0.246374275009364E+001
  0.100000000000000E+001 -0.378022195849425E+001  0.291251637753475E+001
  0.100000000000000E+001 -0.381365851589573E+001  0.289908159033720E+001
  0.100000000000000E+001 -0.382533680765173E+001  0.289427250157168E+001
  0.100000000000000E+001 -0.383700323872711E+001  0.288940249519829E+001
  0.100000000000000E+001 -0.384321907939103E+001  0.288677961375220E+001
  0.100000000000000E+001 -0.387029653886592E+001  0.287510747868091E+001
  0.100000000000000E+001 -0.389653701062570E+001  0.286337084297843E+001
  0.100000000000000E+001 -0.376082781408438E+001  0.243565558751944E+001
  0.100000000000000E+001 -0.385098710740556E+001  0.245959062107008E+001
  0.100000000000000E+001 -0.386325230982687E+001  0.246315925549315E+001
  0.100000000000000E+001 -0.391564966055555E+001  0.285452006739671E+001
  0.100000000000000E+001 -0.395072397567016E+001  0.283749221253913E+001
  0.100000000000000E+001 -0.396477026802682E+001  0.283033909279009E+001
  0.100000000000000E+001 -0.396555294540885E+001  0.282993416274658E+001
  0.100000000000000E+001 -0.396683360281626E+001  0.282927008688749E+001
  0.100000000000000E+001 -0.398652215382273E+001  0.281881012572798E+001
  0.100000000000000E+001 -0.399926571653805E+001  0.281176268773507E+001
  0.100000000000000E+001 -0.390765870045747E+001  0.247687559689350E+001
  0.100000000000000E+001 -0.394336081149828E+001  0.248898834847028E+001
  0.100000000000000E+001 -0.398148498608056E+001  0.250331216962702E+001
  0.100000000000000E+001 -0.399224004178918E+001  0.250767481899850E+001
  0.100000000000000E+001 -0.400304370104891E+001  0.251222638278495E+001
  0.100000000000000E+001 -0.401079495802391E+001  0.280517160138842E+001
  0.100000000000000E+001 -0.403967041894498E+001  0.278757843382045E+001
  0.100000000000000E+001 -0.404719610456014E+001  0.253305474427643E+001
  0.100000000000000E+001 -0.404923696202550E+001  0.278133277192164E+001
  0.100000000000000E+001 -0.405357137566881E+001  0.277842086662043E+001
  0.100000000000000E+001 -0.405357673717160E+001  0.277841723081607E+001
  0.100000000000000E+001 -0.405358798650800E+001  0.253644738084644E+001
  0.100000000000000E+001 -0.406330123948183E+001  0.277167456597926E+001
  0.100000000000000E+001 -0.406672202932854E+001  0.276922711652441E+001
  0.100000000000000E+001 -0.406922382645126E+001  0.254528820367437E+001
  0.100000000000000E+001 -0.407415834328644E+001  0.254826320255590E+001
  0.100000000000000E+001 -0.408629829398143E+001  0.275430062211856E+001
  0.100000000000000E+001 -0.409040764193726E+001  0.255884827499449E+001
  0.100000000000000E+001 -0.409464557240445E+001  0.274734687094063E+001
  0.100000000000000E+001 -0.409550566521113E+001  0.274660571037393E+001
  0.100000000000000E+001 -0.409630940212197E+001  0.274590859306866E+001
  0.100000000000000E+001 -0.409977302578568E+001  0.274285215665390E+001
  0.100000000000000E+001 -0.410384436119646E+001  0.273914223413180E+001
  0.100000000000000E+001 -0.410678889632560E+001  0.273637171853337E+001
  0.100000000000000E+001 -0.411045532829124E+001  0.273280742300728E+001
  0.100000000000000E+001 -0.411155843645794E+001  0.273170797625859E+001
  0.100000000000000E+001 -0.411554311435839E+001  0.272762083029047E+001
  0.100000000000000E+001 -0.412108134618928E+001  0.272159413515715E+001
  0.100000000000000E+001 -0.412491510424420E+001  0.258789320025444E+001
  0.100000000000000E+001 -0.412497202889020E+001  0.258795359671708E+001
  0.100000000000000E+001 -0.413237786468321E+001  0.270756754768708E+001
  0.100000000000000E+001 -0.413252222136902E+001  0.270736794409920E+001
  0.100000000000000E+001 -0.413307363012445E+001  0.259730993385502E+001
  0.100000000000000E+001 -0.413728881469451E+001  0.270036635128273E+001
  0.100000000000000E+001 -0.413788887634022E+001  0.269941926721305E+001
  0.100000000000000E+001 -0.413857142796526E+001  0.269832074682510E+001
  0.100000000000000E+001 -0.413896591280111E+001  0.260542553524244E+001
  0.100000000000000E+001 -0.413976549790023E+001  0.260665080395304E+001
  0.100000000000000E+001 -0.414602896002595E+001  0.268422068781303E+001
  0.100000000000000E+001 -0.414611878719162E+001  0.261810218852921E+001
  0.100000000000000E+001 -0.414834526401489E+001  0.267851599791001E+001
  0.100000000000000E+001 -0.414871384530344E+001  0.267750209124389E+001
  0.100000000000000E+001 -0.415117851002796E+001  0.266942665510851E+001
  0.100000000000000E+001 -0.415254021222660E+001  0.263828067312999E+001
  0.100000000000000E+001 -0.415287957781057E+001  0.266074004548818E+001
  0.100000000000000E+001 -0.415290151359715E+001  0.266058012917883E+001
  0.100000000000000E+001 -0.415309950091457E+001  0.265900303844165E+001
  0.100000000000000E+001 -0.415348571950621E+001  0.264670834670603E+001
  0.100000000000000E+001 -0.415354762225940E+001  0.264814309930378E+001
