  0.174512553326494E+000 -0.524015948273121E+001  0.299310504411292E+001
  0.174512553326494E+000  0.910958787050423E+001  0.898652880915931E+001
  0.174512553326494E+000  0.585500937738202E+001  0.657703514895245E+001
  0.174512553326494E+000 -0.241537335438142E+001  0.372219817383888E+001
  0.174512553326494E+000  0.152699344749998E+001  0.476779366501767E+001
  0.174512553326494E+000  0.136629505767433E+001  0.471916155640867E+001
  0.174512553326494E+000 -0.523561845846258E+001  0.299462171536239E+001
  0.174512553326494E+000  0.106134093365266E+001  0.462876575560169E+001
  0.174512553326494E+000  0.980787189252506E+000  0.460528336246345E+001
  0.174512553326494E+000 -0.522890576819680E+001  0.238955595467954E+001
  0.174512553326494E+000 -0.240969106079025E+001  0.372356680061241E+001
  0.174512553326494E+000 -0.227870908229366E+001  0.375515209122042E+001
  0.174512553326494E+000 -0.223444162565254E+001  0.376584487387066E+001
  0.174512553326494E+000 -0.222917822069203E+001  0.210811638699498E+001
  0.174512553326494E+000 -0.521772074151190E+001  0.300056281801792E+001
  0.174512553326494E+000  0.358713358742005E+000  0.442905982508389E+001
  0.174512553326494E+000  0.320325311564706E+000  0.441846343895118E+001
  0.174512553326494E+000 -0.519334405971101E+001  0.300856446007380E+001
  0.174512553326494E+000  0.260007456996622E+000  0.440187490356437E+001
  0.174512553326494E+000 -0.208996834793400E+001  0.210034483998521E+001
  0.174512553326494E+000 -0.205193800320952E+001  0.381004398788796E+001
  0.174512553326494E+000 -0.367106663988945E+000  0.423354512192618E+001
  0.174512553326494E+000 -0.186008104772495E+001  0.385674573460589E+001
  0.174512553326494E+000 -0.625768196122682E+000  0.416611341615698E+001
  0.174512553326494E+000 -0.180662966034547E+001  0.386980681950606E+001
  0.174512553326494E+000 -0.177820048301528E+001  0.387676321111759E+001
  0.174512553326494E+000 -0.748334956757954E+000  0.413452488266828E+001
  0.174512553326494E+000 -0.939891143854361E+000  0.408559275293584E+001
  0.174512553326494E+000 -0.124190678245020E+001  0.400943959643679E+001
  0.174512553326494E+000 -0.126286345057046E+001  0.400419723689639E+001
  0.174512553326494E+000 -0.126495634461421E+001  0.400367397763240E+001
  0.174512553326494E+000 -0.129231885394378E+001  0.399683757229193E+001
  0.174512553326494E+000 -0.516052827588315E+001  0.237708036193938E+001
  0.174512553326494E+000 -0.144970326757655E+001  0.395767952605275E+001
  0.174512553326494E+000 -0.176234484885911E+001  0.388064592825270E+001
  0.174512553326494E+000 -0.514330115256597E+001  0.302468999245797E+001
  0.174512553326494E+000 -0.172326667996926E+001  0.389022464339399E+001
  0.174512553326494E+000 -0.252933560227248E+001  0.369477299224225E+001
  0.174512553326494E+000 -0.272435034890183E+001  0.364791840391717E+001
  0.174512553326494E+000 -0.276918665240288E+001  0.363715359960046E+001
  0.174512553326494E+000 -0.287202081574251E+001  0.361246617579658E+001
  0.174512553326494E+000 -0.290854145927069E+001  0.360369773189619E+001
  0.174512553326494E+000 -0.300411432553847E+001  0.215596548140114E+001
  0.174512553326494E+000 -0.513966183419344E+001  0.302584791113231E+001
  0.174512553326494E+000 -0.305128482101258E+001  0.356940766178318E+001
  0.174512553326494E+000 -0.322422991158975E+001  0.217127766564712E+001
  0.174512553326494E+000 -0.334203593871541E+001  0.349935252539107E+001
  0.174512553326494E+000 -0.336154793398501E+001  0.349463491963614E+001
  0.174512553326494E+000 -0.513958611751377E+001  0.302587198145977E+001
  0.174512553326494E+000 -0.355588565843297E+001  0.344748228191903E+001
  0.174512553326494E+000 -0.363111811878164E+001  0.342913043168410E+001
  0.174512553326494E+000 -0.376509261132829E+001  0.221325643467812E+001
  0.174512553326494E+000 -0.512873388105388E+001  0.237154740663993E+001
  0.174512553326494E+000 -0.383083606444178E+001  0.221886658692591E+001
  0.174512553326494E+000 -0.506388228111520E+001  0.304954725253157E+001
  0.174512553326494E+000 -0.392205941645090E+001  0.222686668526344E+001
  0.174512553326494E+000 -0.392557523902890E+001  0.335656757982708E+001
  0.174512553326494E+000 -0.395400081172141E+001  0.334948625500969E+001
  0.174512553326494E+000 -0.399393991211101E+001  0.223335828227748E+001
  0.174512553326494E+000 -0.404556398002520E+001  0.223812895353393E+001
  0.174512553326494E+000 -0.406350455183495E+001  0.332205104384195E+001
  0.174512553326494E+000 -0.408239369025169E+001  0.331729150054724E+001
  0.174512553326494E+000 -0.413358935486883E+001  0.330434795896850E+001
  0.174512553326494E+000 -0.416237354929961E+001  0.329704121185697E+001
  0.174512553326494E+000 -0.418053031607756E+001  0.329242078463932E+001
  0.174512553326494E+000 -0.418173045182173E+001  0.329211506287177E+001
  0.174512553326494E+000 -0.419067259862206E+001  0.328983588668537E+001
  0.174512553326494E+000 -0.424425775268546E+001  0.225742202462012E+001
  0.174512553326494E+000 -0.505893047453215E+001  0.235992586251155E+001
  0.174512553326494E+000 -0.425931616317204E+001  0.327226311279262E+001
  0.174512553326494E+000 -0.428775110901412E+001  0.326494179033626E+001
  0.174512553326494E+000 -0.429645302127778E+001  0.326269608361384E+001
  0.174512553326494E+000 -0.431522928128779E+001  0.325784200051439E+001
  0.174512553326494E+000 -0.443844691504499E+001  0.322567728920017E+001
  0.174512553326494E+000 -0.451003704381489E+001  0.228596781901215E+001
  0.174512553326494E+000 -0.451877446443845E+001  0.228696887932077E+001
  0.174512553326494E+000 -0.452230972376778E+001  0.320344091641882E+001
  0.174512553326494E+000 -0.504817166248499E+001  0.305436920616859E+001
  0.174512553326494E+000 -0.456793998282661E+001  0.229268572249527E+001
  0.174512553326494E+000 -0.458991027830093E+001  0.318528304045913E+001
  0.174512553326494E+000 -0.460072276794649E+001  0.229657973982668E+001
  0.174512553326494E+000 -0.461155702880857E+001  0.229788166590606E+001
  0.174512553326494E+000 -0.465764153843745E+001  0.316685581722030E+001
  0.174512553326494E+000 -0.466256044161213E+001  0.230411489338847E+001
  0.174512553326494E+000 -0.468137139028653E+001  0.230645878617036E+001
  0.174512553326494E+000 -0.468900425691596E+001  0.315823638030694E+001
  0.174512553326494E+000 -0.503816119230869E+001  0.305742647941056E+001
  0.174512553326494E+000 -0.475450385566310E+001  0.314004120057966E+001
  0.174512553326494E+000 -0.476412668674873E+001  0.313734462148281E+001
  0.174512553326494E+000 -0.476894098432019E+001  0.313599316594660E+001
  0.174512553326494E+000 -0.477562806421134E+001  0.313411334680922E+001
  0.174512553326494E+000 -0.479965448072267E+001  0.232180228046908E+001
  0.174512553326494E+000 -0.480447824088581E+001  0.232245170577685E+001
  0.174512553326494E+000 -0.481478658492547E+001  0.312304189732892E+001
  0.174512553326494E+000 -0.483861943219204E+001  0.311624819383569E+001
  0.174512553326494E+000 -0.486127123886600E+001  0.310975030114810E+001
  0.174512553326494E+000 -0.487832066859378E+001  0.310483220974616E+001
  0.174512553326494E+000 -0.503803253780027E+001  0.235657561126347E+001
  0.174512553326494E+000 -0.493346397926461E+001  0.234059920641071E+001
  0.174512553326494E+000 -0.493967312721146E+001  0.234151379745527E+001
  0.174512553326494E+000 -0.496361536072686E+001  0.307984709586596E+001
  0.174512553326494E+000 -0.498646243918488E+001  0.234853976207021E+001
  0.174512553326494E+000 -0.500134832931686E+001  0.306857225289287E+001
  0.174512553326494E+000 -0.362481437836413E+001  0.240513636793223E+001
  0.174512553326494E+000 -0.369567697991406E+001  0.242035038754678E+001
  0.174512553326494E+000 -0.372833459812558E+001  0.242784546079658E+001
  0.174512553326494E+000 -0.379256872731748E+001  0.244366830929015E+001
  0.174512553326494E+000 -0.379363934248283E+001  0.244394577343833E+001
  0.174512553326494E+000 -0.380542272267772E+001  0.244703259506117E+001
  0.174512553326494E+000 -0.382791072746708E+001  0.245310051738811E+001
  0.174512553326494E+000 -0.383225853481766E+001  0.245430205294201E+001
  0.174512553326494E+000 -0.385458992225200E+001  0.246062992095246E+001
  0.174512553326494E+000 -0.388518295277512E+001  0.246976740025653E+001
  0.174512553326494E+000 -0.389956358740760E+001  0.247427348303393E+001
  0.174512553326494E+000 -0.392531596668949E+001  0.248272920197470E+001
  0.174512553326494E+000 -0.395118442718438E+001  0.249179817915933E+001
  0.174512553326494E+000 -0.395900117828474E+001  0.249466848881161E+001
  0.174512553326494E+000 -0.396722111653860E+001  0.249775897103169E+001
