  0.917451176437028E-001  0.746669253494254E+001  0.792890806710408E+001
  0.917451176437028E-001  0.197622230489756E+001  0.505223143322806E+001
  0.917451176437028E-001  0.179827817805069E+001  0.499355907798305E+001
  0.917451176437028E-001  0.662561036840379E+000  0.464211879860693E+001
  0.917451176437028E-001  0.620957267678728E+000  0.462992330483528E+001
  0.917451176437028E-001  0.901635189246153E-002  0.445531629803872E+001
  0.917451176437028E-001 -0.237427376653924E+000  0.438733394679904E+001
  0.917451176437028E-001 -0.283773802968019E+000  0.437468712322607E+001
  0.917451176437028E-001 -0.963687091357454E+000  0.419372727233256E+001
  0.917451176437028E-001 -0.110704215870588E+001  0.415657090113505E+001
  0.917451176437028E-001 -0.142969180716666E+001  0.407405467576576E+001
  0.917451176437028E-001 -0.145212745393167E+001  0.406837056618862E+001
  0.917451176437028E-001 -0.177642239109097E+001  0.398691823490024E+001
  0.917451176437028E-001 -0.185500076093194E+001  0.396736821463119E+001
  0.917451176437028E-001 -0.213762099322408E+001  0.389758384537072E+001
  0.917451176437028E-001 -0.236356790725708E+001  0.384231939414534E+001
  0.917451176437028E-001 -0.245510366480636E+001  0.382004451513538E+001
  0.917451176437028E-001 -0.246264693013091E+001  0.381821153976199E+001
  0.917451176437028E-001 -0.258839919268833E+001  0.378770929900284E+001
  0.917451176437028E-001 -0.263780475970369E+001  0.377575199334702E+001
  0.917451176437028E-001 -0.271519372511698E+001  0.375704889345785E+001
  0.917451176437028E-001 -0.294546326476064E+001  0.370155853342632E+001
  0.917451176437028E-001 -0.295293592356284E+001  0.369976102353011E+001
  0.917451176437028E-001 -0.295684964037453E+001  0.369881966511974E+001
  0.917451176437028E-001 -0.303190649692221E+001  0.368077443069271E+001
  0.917451176437028E-001 -0.303760586378426E+001  0.367940474964303E+001
  0.917451176437028E-001 -0.304246321902723E+001  0.367823747852191E+001
  0.917451176437028E-001 -0.307342046315920E+001  0.367079928955837E+001
  0.917451176437028E-001 -0.313312775696285E+001  0.365645802940352E+001
  0.917451176437028E-001 -0.321617378209923E+001  0.363651814820942E+001
  0.917451176437028E-001 -0.323029506931139E+001  0.363312801127193E+001
  0.917451176437028E-001 -0.334185718754702E+001  0.360634478839083E+001
  0.917451176437028E-001 -0.337723503423700E+001  0.359784989874090E+001
  0.917451176437028E-001 -0.353339227373573E+001  0.356032745963709E+001
  0.917451176437028E-001 -0.356242256696200E+001  0.355334481260930E+001
  0.917451176437028E-001 -0.360943840102061E+001  0.354202966884286E+001
  0.917451176437028E-001 -0.363630983826467E+001  0.353555858363298E+001
  0.917451176437028E-001 -0.372699317188969E+001  0.351369491385609E+001
  0.917451176437028E-001 -0.378974277429577E+001  0.349853874027722E+001
  0.917451176437028E-001 -0.383591912764428E+001  0.348736879020693E+001
  0.917451176437028E-001 -0.385782511491182E+001  0.348206429418201E+001
  0.917451176437028E-001 -0.391404854874310E+001  0.346843222192845E+001
  0.917451176437028E-001 -0.406105427106235E+001  0.343264903361808E+001
  0.917451176437028E-001 -0.407626651851733E+001  0.342893294815284E+001
  0.917451176437028E-001 -0.408920786164349E+001  0.342576944409018E+001
  0.917451176437028E-001 -0.414415557234711E+001  0.341231430736352E+001
  0.917451176437028E-001 -0.419115812750618E+001  0.340077293216803E+001
  0.917451176437028E-001 -0.427173299297186E+001  0.338091265429113E+001
  0.917451176437028E-001 -0.427249679240005E+001  0.338072390437581E+001
  0.917451176437028E-001 -0.430136947886555E+001  0.337358179421029E+001
  0.917451176437028E-001 -0.441887215995893E+001  0.334436167317956E+001
  0.917451176437028E-001 -0.443534566597083E+001  0.334024365668458E+001
  0.917451176437028E-001 -0.444231600881194E+001  0.333849952142303E+001
  0.917451176437028E-001 -0.445662491766975E+001  0.333491588246852E+001
  0.917451176437028E-001 -0.448009148106472E+001  0.332902911030433E+001
  0.917451176437028E-001 -0.449745655636149E+001  0.332466504156987E+001
  0.917451176437028E-001 -0.451333560159658E+001  0.332066838204887E+001
  0.917451176437028E-001 -0.456464612593898E+001  0.330771265247472E+001
  0.917451176437028E-001 -0.457537366614170E+001  0.330499572847953E+001
  0.917451176437028E-001 -0.458120474115072E+001  0.330351767591963E+001
  0.917451176437028E-001 -0.458160559485464E+001  0.330341603580086E+001
  0.917451176437028E-001 -0.460006616179127E+001  0.329873063460454E+001
  0.917451176437028E-001 -0.470127161441671E+001  0.327287599000155E+001
  0.917451176437028E-001 -0.474266779660827E+001  0.326221200248922E+001
  0.917451176437028E-001 -0.475526183797875E+001  0.325895667407231E+001
  0.917451176437028E-001 -0.475585768579331E+001  0.325880252775707E+001
  0.917451176437028E-001 -0.479757611507650E+001  0.324797979793401E+001
  0.917451176437028E-001 -0.480563661024538E+001  0.324588169590821E+001
  0.917451176437028E-001 -0.480987413584290E+001  0.324477775503259E+001
  0.917451176437028E-001 -0.484586028356210E+001  0.323537616274699E+001
  0.917451176437028E-001 -0.490963070903056E+001  0.321859239493922E+001
  0.917451176437028E-001 -0.494216561380784E+001  0.320996458482164E+001
  0.917451176437028E-001 -0.497937356591937E+001  0.320004001078101E+001
  0.917451176437028E-001 -0.503347355381865E+001  0.318549302080579E+001
  0.917451176437028E-001 -0.504131693293400E+001  0.318337191793607E+001
  0.917451176437028E-001 -0.504679417383613E+001  0.318188881444932E+001
  0.917451176437028E-001 -0.509377120154746E+001  0.316910297521976E+001
  0.917451176437028E-001 -0.509418447675674E+001  0.316898995681275E+001
  0.917451176437028E-001 -0.511065114142763E+001  0.316447893791167E+001
  0.917451176437028E-001 -0.511535112880549E+001  0.316318852998625E+001
  0.917451176437028E-001 -0.511996683723410E+001  0.316192001064936E+001
  0.917451176437028E-001 -0.512314958894115E+001  0.316104457899889E+001
  0.917451176437028E-001 -0.513582479765563E+001  0.315755224661063E+001
  0.917451176437028E-001 -0.513994324231286E+001  0.315641544240779E+001
  0.917451176437028E-001 -0.522648697927166E+001  0.313227788545493E+001
  0.917451176437028E-001 -0.525219767658427E+001  0.312500909172647E+001
  0.917451176437028E-001 -0.529250803830780E+001  0.311351410912442E+001
  0.917451176437028E-001 -0.530326996331699E+001  0.311042388773108E+001
  0.917451176437028E-001 -0.533329659527358E+001  0.310175198917473E+001
  0.917451176437028E-001 -0.533470699866412E+001  0.310134279946267E+001
  0.917451176437028E-001 -0.542227973620003E+001  0.307558405702230E+001
  0.917451176437028E-001 -0.542531998450174E+001  0.307467658615237E+001
  0.917451176437028E-001 -0.542978843130941E+001  0.307334110629719E+001
  0.917451176437028E-001 -0.544941398780028E+001  0.306745105845336E+001
  0.917451176437028E-001 -0.548315723031491E+001  0.305722655402008E+001
  0.917451176437028E-001 -0.557776422035716E+001  0.302782816671068E+001
  0.917451176437028E-001 -0.559268385945592E+001  0.302308244652827E+001
  0.917451176437028E-001 -0.560247032568071E+001  0.301995174800735E+001
  0.917451176437028E-001 -0.561419609792502E+001  0.301618157390992E+001
  0.917451176437028E-001 -0.563333765665898E+001  0.300998076700569E+001
  0.917451176437028E-001 -0.565391880151326E+001  0.300324679132315E+001
  0.917451176437028E-001 -0.571262346561018E+001  0.298362419196302E+001
  0.917451176437028E-001 -0.571411430446539E+001  0.298311726005915E+001
  0.917451176437028E-001 -0.575608298656120E+001  0.296865398682326E+001
  0.917451176437028E-001 -0.576021419263153E+001  0.296720920736584E+001
  0.917451176437028E-001 -0.576438427401084E+001  0.296574680289867E+001
  0.917451176437028E-001 -0.577763096599066E+001  0.296107386116266E+001
  0.917451176437028E-001 -0.581084928777539E+001  0.294916168801879E+001
  0.917451176437028E-001 -0.583082621948049E+001  0.294185421701734E+001
  0.917451176437028E-001 -0.588349296705524E+001  0.292200318317955E+001
  0.917451176437028E-001 -0.590006218062780E+001  0.291556170966690E+001
  0.917451176437028E-001 -0.590046108211427E+001  0.291540536579644E+001
  0.917451176437028E-001 -0.592372618681034E+001  0.290617803605183E+001
  0.917451176437028E-001 -0.592816868884567E+001  0.290439072545990E+001
  0.917451176437028E-001 -0.593579735157898E+001  0.290130160581867E+001
  0.917451176437028E-001 -0.595557393812137E+001  0.289317012293604E+001
  0.917451176437028E-001 -0.596282716859899E+001  0.289014079543400E+001
  0.917451176437028E-001 -0.597823567419468E+001  0.250530839325503E+001
  0.917451176437028E-001 -0.598040595392186E+001  0.281766302259498E+001
  0.917451176437028E-001 -0.598622972688175E+001  0.250859114527803E+001
  0.917451176437028E-001 -0.598922377564396E+001  0.281278522845664E+001
  0.917451176437028E-001 -0.599765932587407E+001  0.280800877082828E+001
  0.917451176437028E-001 -0.599807194310411E+001  0.280777220772290E+001
  0.917451176437028E-001 -0.600976648694625E+001  0.280094554946971E+001
  0.917451176437028E-001 -0.601021999420567E+001  0.280067585406083E+001
  0.917451176437028E-001 -0.601037941688208E+001  0.251911614133831E+001
  0.917451176437028E-001 -0.601268211068456E+001  0.279920484303070E+001
  0.917451176437028E-001 -0.601538742734599E+001  0.279757496287564E+001
  0.917451176437028E-001 -0.602138385028096E+001  0.279390938916058E+001
  0.917451176437028E-001 -0.602262365236168E+001  0.279314204649298E+001
  0.917451176437028E-001 -0.602662144491092E+001  0.252680409627135E+001
  0.917451176437028E-001 -0.603248738643241E+001  0.278691316657919E+001
  0.917451176437028E-001 -0.603324391586428E+001  0.278642585369402E+001
  0.917451176437028E-001 -0.603416102792480E+001  0.278583318008271E+001
  0.917451176437028E-001 -0.603502547822736E+001  0.278527258720909E+001
  0.917451176437028E-001 -0.604472738184730E+001  0.277884384181242E+001
  0.917451176437028E-001 -0.605251745904969E+001  0.254038716971198E+001
  0.917451176437028E-001 -0.605435512913217E+001  0.254142675647788E+001
  0.917451176437028E-001 -0.605549735587778E+001  0.277137949859887E+001
  0.917451176437028E-001 -0.605823555775551E+001  0.254366059994794E+001
  0.917451176437028E-001 -0.606174635053818E+001  0.276686656161921E+001
  0.917451176437028E-001 -0.606291059701915E+001  0.254642580823847E+001
  0.917451176437028E-001 -0.606378633964427E+001  0.276536111500947E+001
  0.917451176437028E-001 -0.606565220168930E+001  0.276396942372836E+001
  0.917451176437028E-001 -0.606585596203339E+001  0.276381656971735E+001
  0.917451176437028E-001 -0.606720072911930E+001  0.254904008393033E+001
  0.917451176437028E-001 -0.606862084581553E+001  0.276172488304104E+001
  0.917451176437028E-001 -0.606885357212456E+001  0.276154729709711E+001
  0.917451176437028E-001 -0.606960455800837E+001  0.255053934933322E+001
  0.917451176437028E-001 -0.608119286496521E+001  0.275175478528173E+001
  0.917451176437028E-001 -0.608874260046159E+001  0.256353557900949E+001
  0.917451176437028E-001 -0.609057008772114E+001  0.274372895646563E+001
  0.917451176437028E-001 -0.609493552434604E+001  0.273977997532283E+001
  0.917451176437028E-001 -0.610028252152939E+001  0.273472304057383E+001
  0.917451176437028E-001 -0.610390558605235E+001  0.273113813621187E+001
  0.917451176437028E-001 -0.610660359546560E+001  0.272837362882082E+001
  0.917451176437028E-001 -0.611142239359947E+001  0.258255090954782E+001
  0.917451176437028E-001 -0.611279315525608E+001  0.258389452563783E+001
  0.917451176437028E-001 -0.611313527292747E+001  0.272128478114347E+001
  0.917451176437028E-001 -0.611565515661917E+001  0.271837284290730E+001
  0.917451176437028E-001 -0.611677702272588E+001  0.271703937694679E+001
  0.917451176437028E-001 -0.611774475010703E+001  0.258901661368599E+001
  0.917451176437028E-001 -0.611833009090228E+001  0.271515221839862E+001
  0.917451176437028E-001 -0.612245426505664E+001  0.270987717815263E+001
  0.917451176437028E-001 -0.612301617874888E+001  0.259503692617709E+001
  0.917451176437028E-001 -0.612304319769103E+001  0.270908850058998E+001
  0.917451176437028E-001 -0.612394218648991E+001  0.270786540369467E+001
  0.917451176437028E-001 -0.613267858896351E+001  0.269438416408299E+001
  0.917451176437028E-001 -0.613320997672808E+001  0.269343767426387E+001
  0.917451176437028E-001 -0.613501773046096E+001  0.269005883919825E+001
  0.917451176437028E-001 -0.613621921334204E+001  0.261469613130968E+001
  0.917451176437028E-001 -0.613634795936232E+001  0.268738680902668E+001
  0.917451176437028E-001 -0.414674050912948E+001  0.261946176911753E+001
  0.917451176437028E-001 -0.414689038199516E+001  0.261979891575673E+001
  0.917451176437028E-001 -0.414743152026917E+001  0.262104973356970E+001
