  0.579373297043135E-001  0.363407785140235E+001  0.604446136967449E+001
  0.579373297043135E-001  0.796749046989638E+001  0.898652880915931E+001
  0.579373297043135E-001  0.471291197677417E+001  0.657703514895245E+001
  0.579373297043135E-001 -0.355747075498927E+001  0.372219817383888E+001
  0.579373297043135E-001  0.384896046892135E+000  0.476779366501767E+001
  0.579373297043135E-001  0.224197657066480E+000  0.471916155640867E+001
  0.579373297043135E-001  0.628858656153897E-002  0.465432298372992E+001
  0.579373297043135E-001 -0.807564669551861E-001  0.462876575560169E+001
  0.579373297043135E-001 -0.161310211355342E+000  0.460528336246345E+001
  0.579373297043135E-001 -0.174269349995775E+000  0.460152055266144E+001
  0.579373297043135E-001 -0.355178846139810E+001  0.372356680061241E+001
  0.579373297043135E-001 -0.342080648290150E+001  0.375515209122042E+001
  0.579373297043135E-001 -0.337653902626039E+001  0.376584487387066E+001
  0.579373297043135E-001 -0.337127562129988E+001  0.210811638699498E+001
  0.579373297043135E-001 -0.332083312633446E+001  0.210527502157941E+001
  0.579373297043135E-001 -0.783384041865844E+000  0.442905982508389E+001
  0.579373297043135E-001 -0.821772089043142E+000  0.441846343895118E+001
  0.579373297043135E-001 -0.330373271623987E+001  0.210431838592943E+001
  0.579373297043135E-001 -0.882089943611227E+000  0.440187490356437E+001
  0.579373297043135E-001 -0.323206574854184E+001  0.210034483998521E+001
  0.579373297043135E-001 -0.319403540381737E+001  0.381004398788796E+001
  0.579373297043135E-001 -0.150920406459679E+001  0.423354512192618E+001
  0.579373297043135E-001 -0.300217844833280E+001  0.385674573460589E+001
  0.579373297043135E-001 -0.176786559673053E+001  0.416611341615698E+001
  0.579373297043135E-001 -0.294872706095332E+001  0.386980681950606E+001
  0.579373297043135E-001 -0.292029788362313E+001  0.387676321111759E+001
  0.579373297043135E-001 -0.189043235736580E+001  0.413452488266828E+001
  0.579373297043135E-001 -0.208198854446221E+001  0.408559275293584E+001
  0.579373297043135E-001 -0.238400418305805E+001  0.400943959643679E+001
  0.579373297043135E-001 -0.240496085117831E+001  0.400419723689639E+001
  0.579373297043135E-001 -0.240705374522206E+001  0.400367397763240E+001
  0.579373297043135E-001 -0.243441625455163E+001  0.399683757229193E+001
  0.579373297043135E-001 -0.251853750830700E+001  0.397587374803856E+001
  0.579373297043135E-001 -0.259180066818440E+001  0.395767952605275E+001
  0.579373297043135E-001 -0.290444224946695E+001  0.388064592825270E+001
  0.579373297043135E-001 -0.287797143458102E+001  0.388713291129945E+001
  0.579373297043135E-001 -0.286536408057711E+001  0.389022464339399E+001
  0.579373297043135E-001 -0.367143300288033E+001  0.369477299224225E+001
  0.579373297043135E-001 -0.386644774950968E+001  0.364791840391717E+001
  0.579373297043135E-001 -0.391128405301073E+001  0.363715359960046E+001
  0.579373297043135E-001 -0.401411821635035E+001  0.361246617579658E+001
  0.579373297043135E-001 -0.405063885987854E+001  0.360369773189619E+001
  0.579373297043135E-001 -0.414621172614632E+001  0.215596548140114E+001
  0.579373297043135E-001 -0.418932364060538E+001  0.357038320954101E+001
  0.579373297043135E-001 -0.419338222162043E+001  0.356940766178318E+001
  0.579373297043135E-001 -0.436632731219760E+001  0.217127766564712E+001
  0.579373297043135E-001 -0.448413333932326E+001  0.349935252539107E+001
  0.579373297043135E-001 -0.450364533459285E+001  0.349463491963614E+001
  0.579373297043135E-001 -0.459155844679188E+001  0.347334446699423E+001
  0.579373297043135E-001 -0.469798305904082E+001  0.344748228191903E+001
  0.579373297043135E-001 -0.477321551938949E+001  0.342913043168410E+001
  0.579373297043135E-001 -0.490719001193614E+001  0.221325643467812E+001
  0.579373297043135E-001 -0.496167636048160E+001  0.338284304715339E+001
  0.579373297043135E-001 -0.497293346504963E+001  0.221886658692591E+001
  0.579373297043135E-001 -0.504024711045146E+001  0.336338523145673E+001
  0.579373297043135E-001 -0.506415681705874E+001  0.222686668526344E+001
  0.579373297043135E-001 -0.506767263963674E+001  0.335656757982708E+001
  0.579373297043135E-001 -0.509609821232926E+001  0.334948625500969E+001
  0.579373297043135E-001 -0.513603731271886E+001  0.223335828227748E+001
  0.579373297043135E-001 -0.518766138063305E+001  0.223812895353393E+001
  0.579373297043135E-001 -0.520560195244280E+001  0.332205104384195E+001
  0.579373297043135E-001 -0.522449109085954E+001  0.331729150054724E+001
  0.579373297043135E-001 -0.527568675547667E+001  0.330434795896850E+001
  0.579373297043135E-001 -0.530447094990746E+001  0.329704121185697E+001
  0.579373297043135E-001 -0.532262771668541E+001  0.329242078463932E+001
  0.579373297043135E-001 -0.532382785242957E+001  0.329211506287177E+001
  0.579373297043135E-001 -0.533276999922991E+001  0.328983588668537E+001
  0.579373297043135E-001 -0.538635515329331E+001  0.225742202462012E+001
  0.579373297043135E-001 -0.539406075967061E+001  0.327415216473962E+001
  0.579373297043135E-001 -0.540141356377989E+001  0.327226311279262E+001
  0.579373297043135E-001 -0.542984850962197E+001  0.326494179033626E+001
  0.579373297043135E-001 -0.543855042188563E+001  0.326269608361384E+001
  0.579373297043135E-001 -0.545732668189564E+001  0.325784200051439E+001
  0.579373297043135E-001 -0.558054431565284E+001  0.322567728920017E+001
  0.579373297043135E-001 -0.565213444442274E+001  0.228596781901215E+001
  0.579373297043135E-001 -0.566087186504630E+001  0.228696887932077E+001
  0.579373297043135E-001 -0.566440712437563E+001  0.320344091641882E+001
  0.579373297043135E-001 -0.566887164311301E+001  0.320224844287233E+001
  0.579373297043135E-001 -0.571003738343446E+001  0.229268572249527E+001
  0.579373297043135E-001 -0.573200767890878E+001  0.318528304045913E+001
  0.579373297043135E-001 -0.574282016855434E+001  0.229657973982668E+001
  0.579373297043135E-001 -0.575365442941642E+001  0.229788166590606E+001
  0.579373297043135E-001 -0.579973893904530E+001  0.316685581722030E+001
  0.579373297043135E-001 -0.580465784221998E+001  0.230411489338847E+001
  0.579373297043135E-001 -0.582346879089437E+001  0.230645878617036E+001
  0.579373297043135E-001 -0.583110165752381E+001  0.315823638030694E+001
  0.579373297043135E-001 -0.588111432310312E+001  0.314436808992239E+001
  0.579373297043135E-001 -0.589660125627095E+001  0.314004120057966E+001
  0.579373297043135E-001 -0.590622408735658E+001  0.313734462148281E+001
  0.579373297043135E-001 -0.591103838492803E+001  0.313599316594660E+001
  0.579373297043135E-001 -0.591772546481919E+001  0.313411334680922E+001
  0.579373297043135E-001 -0.594175188133051E+001  0.232180228046908E+001
  0.579373297043135E-001 -0.594657564149365E+001  0.232245170577685E+001
  0.579373297043135E-001 -0.595688398553331E+001  0.312304189732892E+001
  0.579373297043135E-001 -0.598071683279989E+001  0.311624819383569E+001
  0.579373297043135E-001 -0.600336863947385E+001  0.310975030114810E+001
  0.579373297043135E-001 -0.602041806920163E+001  0.310483220974616E+001
  0.579373297043135E-001 -0.605070121524452E+001  0.233697727368136E+001
  0.579373297043135E-001 -0.607556137987246E+001  0.234059920641071E+001
  0.579373297043135E-001 -0.608177052781931E+001  0.234151379745527E+001
  0.579373297043135E-001 -0.610571276133471E+001  0.307984709586596E+001
  0.579373297043135E-001 -0.612855983979273E+001  0.234853976207021E+001
  0.579373297043135E-001 -0.614344572992471E+001  0.306857225289287E+001
  0.579373297043135E-001 -0.618012993840812E+001  0.235657561126347E+001
  0.579373297043135E-001 -0.618025859291653E+001  0.305742647941056E+001
  0.579373297043135E-001 -0.619026906309283E+001  0.305436920616859E+001
  0.579373297043135E-001 -0.620102787514000E+001  0.235992586251155E+001
  0.579373297043135E-001 -0.620597968172305E+001  0.304954725253157E+001
  0.579373297043135E-001 -0.622281602128756E+001  0.304434648081944E+001
  0.579373297043135E-001 -0.627083128166173E+001  0.237154740663993E+001
  0.579373297043135E-001 -0.628168351812161E+001  0.302587198145977E+001
  0.579373297043135E-001 -0.628175923480129E+001  0.302584791113231E+001
  0.579373297043135E-001 -0.628239513897917E+001  0.302564572452736E+001
  0.579373297043135E-001 -0.628539855317382E+001  0.302468999245797E+001
  0.579373297043135E-001 -0.630184599831471E+001  0.301943259372247E+001
  0.579373297043135E-001 -0.630262567649100E+001  0.237708036193938E+001
  0.579373297043135E-001 -0.633544146031886E+001  0.300856446007380E+001
  0.579373297043135E-001 -0.635981814211975E+001  0.300056281801792E+001
  0.579373297043135E-001 -0.637100316880465E+001  0.238955595467954E+001
  0.579373297043135E-001 -0.637771585907043E+001  0.299462171536239E+001
  0.579373297043135E-001 -0.638094823989389E+001  0.239144194993800E+001
  0.579373297043135E-001 -0.638225688333906E+001  0.299310504411292E+001
  0.579373297043135E-001 -0.640353255325766E+001  0.298594700384025E+001
  0.579373297043135E-001 -0.404258667030125E+001  0.253067781866153E+001
  0.579373297043135E-001 -0.404333439989936E+001  0.253105962006682E+001
  0.579373297043135E-001 -0.405427601955922E+001  0.253681964603101E+001
  0.579373297043135E-001 -0.405663970080569E+001  0.253810951443666E+001
  0.579373297043135E-001 -0.406172271724018E+001  0.254094345582365E+001
  0.579373297043135E-001 -0.407096624366917E+001  0.254632751881722E+001
