  0.160334814990430E+000  0.459264736209323E+001  0.604446136967449E+001
  0.160334814990430E+000  0.892605998058727E+001  0.898652880915931E+001
  0.160334814990430E+000  0.567148148746505E+001  0.657703514895245E+001
  0.160334814990430E+000 -0.259890124429838E+001  0.372219817383888E+001
  0.160334814990430E+000  0.134346555758302E+001  0.476779366501767E+001
  0.160334814990430E+000  0.118276716775736E+001  0.471916155640867E+001
  0.160334814990430E+000  0.964858097252423E+000  0.465432298372992E+001
  0.160334814990430E+000  0.877813043735698E+000  0.462876575560169E+001
  0.160334814990430E+000  0.797259299335542E+000  0.460528336246345E+001
  0.160334814990430E+000  0.784300160695109E+000  0.460152055266144E+001
  0.160334814990430E+000 -0.259321895070721E+001  0.372356680061241E+001
  0.160334814990430E+000 -0.246223697221062E+001  0.375515209122042E+001
  0.160334814990430E+000 -0.241796951556951E+001  0.376584487387066E+001
  0.160334814990430E+000 -0.241270611060899E+001  0.210811638699498E+001
  0.160334814990430E+000 -0.236226361564358E+001  0.210527502157941E+001
  0.160334814990430E+000  0.175185468825040E+000  0.442905982508389E+001
  0.160334814990430E+000  0.136797421647741E+000  0.441846343895118E+001
  0.160334814990430E+000 -0.234516320554898E+001  0.210431838592943E+001
  0.160334814990430E+000  0.764795670796572E-001  0.440187490356437E+001
  0.160334814990430E+000 -0.227349623785096E+001  0.210034483998521E+001
  0.160334814990430E+000 -0.223546589312648E+001  0.381004398788796E+001
  0.160334814990430E+000 -0.550634553905910E+000  0.423354512192618E+001
  0.160334814990430E+000 -0.204360893764192E+001  0.385674573460589E+001
  0.160334814990430E+000 -0.809296086039646E+000  0.416611341615698E+001
  0.160334814990430E+000 -0.199015755026243E+001  0.386980681950606E+001
  0.160334814990430E+000 -0.196172837293225E+001  0.387676321111759E+001
  0.160334814990430E+000 -0.931862846674919E+000  0.413452488266828E+001
  0.160334814990430E+000 -0.112341903377133E+001  0.408559275293584E+001
  0.160334814990430E+000 -0.142543467236716E+001  0.400943959643679E+001
  0.160334814990430E+000 -0.144639134048743E+001  0.400419723689639E+001
  0.160334814990430E+000 -0.144848423453118E+001  0.400367397763240E+001
  0.160334814990430E+000 -0.147584674386075E+001  0.399683757229193E+001
  0.160334814990430E+000 -0.155996799761612E+001  0.397587374803856E+001
  0.160334814990430E+000 -0.163323115749351E+001  0.395767952605275E+001
  0.160334814990430E+000 -0.194587273877607E+001  0.388064592825270E+001
  0.160334814990430E+000 -0.191940192389013E+001  0.388713291129945E+001
  0.160334814990430E+000 -0.190679456988623E+001  0.389022464339399E+001
  0.160334814990430E+000 -0.271286349218945E+001  0.369477299224225E+001
  0.160334814990430E+000 -0.290787823881880E+001  0.364791840391717E+001
  0.160334814990430E+000 -0.295271454231984E+001  0.363715359960046E+001
  0.160334814990430E+000 -0.305554870565947E+001  0.361246617579658E+001
  0.160334814990430E+000 -0.309206934918765E+001  0.360369773189619E+001
  0.160334814990430E+000 -0.318764221545544E+001  0.215596548140114E+001
  0.160334814990430E+000 -0.323075412991449E+001  0.357038320954101E+001
  0.160334814990430E+000 -0.323481271092955E+001  0.356940766178318E+001
  0.160334814990430E+000 -0.340775780150671E+001  0.217127766564712E+001
  0.160334814990430E+000 -0.352556382863237E+001  0.349935252539107E+001
  0.160334814990430E+000 -0.354507582390197E+001  0.349463491963614E+001
  0.160334814990430E+000 -0.363298893610100E+001  0.347334446699423E+001
  0.160334814990430E+000 -0.373941354834993E+001  0.344748228191903E+001
  0.160334814990430E+000 -0.381464600869861E+001  0.342913043168410E+001
  0.160334814990430E+000 -0.394862050124526E+001  0.221325643467812E+001
  0.160334814990430E+000 -0.400310684979072E+001  0.338284304715339E+001
  0.160334814990430E+000 -0.401436395435875E+001  0.221886658692591E+001
  0.160334814990430E+000 -0.408167759976057E+001  0.336338523145673E+001
  0.160334814990430E+000 -0.410558730636786E+001  0.222686668526344E+001
  0.160334814990430E+000 -0.410910312894586E+001  0.335656757982708E+001
  0.160334814990430E+000 -0.413752870163838E+001  0.334948625500969E+001
  0.160334814990430E+000 -0.417746780202797E+001  0.223335828227748E+001
  0.160334814990430E+000 -0.422909186994216E+001  0.223812895353393E+001
  0.160334814990430E+000 -0.424703244175191E+001  0.332205104384195E+001
  0.160334814990430E+000 -0.426592158016866E+001  0.331729150054724E+001
  0.160334814990430E+000 -0.431711724478579E+001  0.330434795896850E+001
  0.160334814990430E+000 -0.434590143921657E+001  0.329704121185697E+001
  0.160334814990430E+000 -0.436405820599452E+001  0.329242078463932E+001
  0.160334814990430E+000 -0.436525834173869E+001  0.329211506287177E+001
  0.160334814990430E+000 -0.437420048853903E+001  0.328983588668537E+001
  0.160334814990430E+000 -0.442778564260243E+001  0.225742202462012E+001
  0.160334814990430E+000 -0.443549124897973E+001  0.327415216473962E+001
  0.160334814990430E+000 -0.444284405308900E+001  0.327226311279262E+001
  0.160334814990430E+000 -0.447127899893108E+001  0.326494179033626E+001
  0.160334814990430E+000 -0.447998091119475E+001  0.326269608361384E+001
  0.160334814990430E+000 -0.449875717120476E+001  0.325784200051439E+001
  0.160334814990430E+000 -0.462197480496195E+001  0.322567728920017E+001
  0.160334814990430E+000 -0.469356493373185E+001  0.228596781901215E+001
  0.160334814990430E+000 -0.470230235435542E+001  0.228696887932077E+001
  0.160334814990430E+000 -0.470583761368474E+001  0.320344091641882E+001
  0.160334814990430E+000 -0.471030213242213E+001  0.320224844287233E+001
  0.160334814990430E+000 -0.475146787274358E+001  0.229268572249527E+001
  0.160334814990430E+000 -0.477343816821790E+001  0.318528304045913E+001
  0.160334814990430E+000 -0.478425065786346E+001  0.229657973982668E+001
  0.160334814990430E+000 -0.479508491872553E+001  0.229788166590606E+001
  0.160334814990430E+000 -0.484116942835442E+001  0.316685581722030E+001
  0.160334814990430E+000 -0.484608833152909E+001  0.230411489338847E+001
  0.160334814990430E+000 -0.486489928020349E+001  0.230645878617036E+001
  0.160334814990430E+000 -0.487253214683293E+001  0.315823638030694E+001
  0.160334814990430E+000 -0.492254481241223E+001  0.314436808992239E+001
  0.160334814990430E+000 -0.493803174558007E+001  0.314004120057966E+001
  0.160334814990430E+000 -0.494765457666569E+001  0.313734462148281E+001
  0.160334814990430E+000 -0.495246887423715E+001  0.313599316594660E+001
  0.160334814990430E+000 -0.495915595412831E+001  0.313411334680922E+001
  0.160334814990430E+000 -0.498318237063963E+001  0.232180228046908E+001
  0.160334814990430E+000 -0.498800613080277E+001  0.232245170577685E+001
  0.160334814990430E+000 -0.499831447484243E+001  0.312304189732892E+001
  0.160334814990430E+000 -0.502214732210901E+001  0.311624819383569E+001
  0.160334814990430E+000 -0.504479912878296E+001  0.310975030114810E+001
  0.160334814990430E+000 -0.506184855851075E+001  0.310483220974616E+001
  0.160334814990430E+000 -0.509213170455364E+001  0.233697727368136E+001
  0.160334814990430E+000 -0.511699186918157E+001  0.234059920641071E+001
  0.160334814990430E+000 -0.512320101712842E+001  0.234151379745527E+001
  0.160334814990430E+000 -0.514714325064383E+001  0.307984709586596E+001
  0.160334814990430E+000 -0.516999032910185E+001  0.234853976207021E+001
  0.160334814990430E+000 -0.518487621923382E+001  0.306857225289287E+001
  0.160334814990430E+000 -0.522156042771723E+001  0.235657561126347E+001
  0.160334814990430E+000 -0.522168908222565E+001  0.305742647941056E+001
  0.160334814990430E+000 -0.523169955240195E+001  0.305436920616859E+001
  0.160334814990430E+000 -0.524245836444912E+001  0.235992586251155E+001
  0.160334814990430E+000 -0.524741017103216E+001  0.304954725253157E+001
  0.160334814990430E+000 -0.526424651059668E+001  0.304434648081944E+001
  0.160334814990430E+000 -0.531226177097085E+001  0.237154740663993E+001
  0.160334814990430E+000 -0.532311400743073E+001  0.302587198145977E+001
  0.160334814990430E+000 -0.532318972411040E+001  0.302584791113231E+001
  0.160334814990430E+000 -0.532382562828829E+001  0.302564572452736E+001
  0.160334814990430E+000 -0.532682904248293E+001  0.302468999245797E+001
  0.160334814990430E+000 -0.534327648762383E+001  0.301943259372247E+001
  0.160334814990430E+000 -0.534405616580012E+001  0.237708036193938E+001
  0.160334814990430E+000 -0.537687194962798E+001  0.300856446007380E+001
  0.160334814990430E+000 -0.540124863142886E+001  0.300056281801792E+001
  0.160334814990430E+000 -0.541243365811376E+001  0.238955595467954E+001
  0.160334814990430E+000 -0.541914634837955E+001  0.299462171536239E+001
  0.160334814990430E+000 -0.542237872920301E+001  0.239144194993800E+001
  0.160334814990430E+000 -0.542368737264818E+001  0.299310504411292E+001
  0.160334814990430E+000 -0.544496304256677E+001  0.298594700384025E+001
  0.160334814990430E+000 -0.481034292353387E+001  0.256672879589374E+001
  0.160334814990430E+000 -0.481394224216762E+001  0.256954837871622E+001
  0.160334814990430E+000 -0.481910637137710E+001  0.257379683463585E+001
  0.160334814990430E+000 -0.482005504092107E+001  0.257460614661630E+001
  0.160334814990430E+000 -0.482214765962827E+001  0.257642611894802E+001
  0.160334814990430E+000 -0.482488739034918E+001  0.257888649807366E+001
  0.160334814990430E+000 -0.482633585838405E+001  0.258022579464692E+001
  0.160334814990430E+000 -0.482830326408520E+001  0.258209126135251E+001
  0.160334814990430E+000 -0.483070974271178E+001  0.258445194855769E+001
  0.160334814990430E+000 -0.483175800780405E+001  0.258550970471123E+001
  0.160334814990430E+000 -0.483271546077662E+001  0.258649255296673E+001
  0.160334814990430E+000 -0.484307685307733E+001  0.270537268907762E+001
  0.160334814990430E+000 -0.484687331635021E+001  0.269966215817898E+001
  0.160334814990430E+000 -0.484988713748432E+001  0.269464465433099E+001
  0.160334814990430E+000 -0.485297396316895E+001  0.261355568973162E+001
  0.160334814990430E+000 -0.485306538627138E+001  0.268869305408482E+001
  0.160334814990430E+000 -0.485330409316639E+001  0.268821032612606E+001
  0.160334814990430E+000 -0.485365550829592E+001  0.261484978617017E+001
  0.160334814990430E+000 -0.485411099230632E+001  0.261574287815480E+001
  0.160334814990430E+000 -0.485470668642172E+001  0.261694853454843E+001
  0.160334814990430E+000 -0.485477168979723E+001  0.268510260811189E+001
  0.160334814990430E+000 -0.485540868808424E+001  0.268366777825064E+001
  0.160334814990430E+000 -0.435626899035053E+001  0.266373602952980E+001
  0.160334814990430E+000 -0.435691307560867E+001  0.264174249370496E+001
  0.160334814990430E+000 -0.435708310898618E+001  0.265788419545635E+001
  0.160334814990430E+000 -0.435729510343802E+001  0.265531658879194E+001
  0.160334814990430E+000 -0.435730599557429E+001  0.264596815827923E+001
  0.160334814990430E+000 -0.435734417121974E+001  0.264661627581435E+001
  0.160334814990430E+000 -0.415358615153275E+001  0.265010792200258E+001
  0.160334814990430E+000 -0.415358712162665E+001  0.265077586358314E+001
