  0.471314836131753E-001  0.337857931659887E+001  0.604446136967449E+001
  0.471314836131753E-001  0.771199193509290E+001  0.898652880915931E+001
  0.471314836131753E-001  0.445741344197069E+001  0.657703514895245E+001
  0.471314836131753E-001 -0.381296928979275E+001  0.372219817383888E+001
  0.471314836131753E-001  0.129397512088655E+000  0.476779366501767E+001
  0.471314836131753E-001 -0.313008777369992E-001  0.471916155640867E+001
  0.471314836131753E-001 -0.249209948241940E+000  0.465432298372992E+001
  0.471314836131753E-001 -0.336255001758665E+000  0.462876575560169E+001
  0.471314836131753E-001 -0.416808746158821E+000  0.460528336246345E+001
  0.471314836131753E-001 -0.429767884799254E+000  0.460152055266144E+001
  0.471314836131753E-001 -0.380728699620157E+001  0.372356680061241E+001
  0.471314836131753E-001 -0.367630501770498E+001  0.375515209122042E+001
  0.471314836131753E-001 -0.363203756106387E+001  0.376584487387066E+001
  0.471314836131753E-001 -0.362677415610336E+001  0.210811638699498E+001
  0.471314836131753E-001 -0.357633166113794E+001  0.210527502157941E+001
  0.471314836131753E-001 -0.103888257666932E+001  0.442905982508389E+001
  0.471314836131753E-001 -0.107727062384662E+001  0.441846343895118E+001
  0.471314836131753E-001 -0.355923125104334E+001  0.210431838592943E+001
  0.471314836131753E-001 -0.113758847841471E+001  0.440187490356437E+001
  0.471314836131753E-001 -0.348756428334532E+001  0.210034483998521E+001
  0.471314836131753E-001 -0.344953393862085E+001  0.381004398788796E+001
  0.471314836131753E-001 -0.176470259940027E+001  0.423354512192618E+001
  0.471314836131753E-001 -0.325767698313628E+001  0.385674573460589E+001
  0.471314836131753E-001 -0.202336413153401E+001  0.416611341615698E+001
  0.471314836131753E-001 -0.320422559575680E+001  0.386980681950606E+001
  0.471314836131753E-001 -0.317579641842661E+001  0.387676321111759E+001
  0.471314836131753E-001 -0.214593089216928E+001  0.413452488266828E+001
  0.471314836131753E-001 -0.233748707926569E+001  0.408559275293584E+001
  0.471314836131753E-001 -0.263950271786153E+001  0.400943959643679E+001
  0.471314836131753E-001 -0.266045938598179E+001  0.400419723689639E+001
  0.471314836131753E-001 -0.266255228002554E+001  0.400367397763240E+001
  0.471314836131753E-001 -0.268991478935511E+001  0.399683757229193E+001
  0.471314836131753E-001 -0.277403604311048E+001  0.397587374803856E+001
  0.471314836131753E-001 -0.284729920298788E+001  0.395767952605275E+001
  0.471314836131753E-001 -0.315994078427043E+001  0.388064592825270E+001
  0.471314836131753E-001 -0.313346996938450E+001  0.388713291129945E+001
  0.471314836131753E-001 -0.312086261538059E+001  0.389022464339399E+001
  0.471314836131753E-001 -0.392693153768381E+001  0.369477299224225E+001
  0.471314836131753E-001 -0.412194628431316E+001  0.364791840391717E+001
  0.471314836131753E-001 -0.416678258781421E+001  0.363715359960046E+001
  0.471314836131753E-001 -0.426961675115383E+001  0.361246617579658E+001
  0.471314836131753E-001 -0.430613739468202E+001  0.360369773189619E+001
  0.471314836131753E-001 -0.440171026094980E+001  0.215596548140114E+001
  0.471314836131753E-001 -0.444482217540886E+001  0.357038320954101E+001
  0.471314836131753E-001 -0.444888075642391E+001  0.356940766178318E+001
  0.471314836131753E-001 -0.462182584700108E+001  0.217127766564712E+001
  0.471314836131753E-001 -0.473963187412674E+001  0.349935252539107E+001
  0.471314836131753E-001 -0.475914386939633E+001  0.349463491963614E+001
  0.471314836131753E-001 -0.484705698159536E+001  0.347334446699423E+001
  0.471314836131753E-001 -0.495348159384430E+001  0.344748228191903E+001
  0.471314836131753E-001 -0.502871405419297E+001  0.342913043168410E+001
  0.471314836131753E-001 -0.516268854673962E+001  0.221325643467812E+001
  0.471314836131753E-001 -0.521717489528508E+001  0.338284304715339E+001
  0.471314836131753E-001 -0.522843199985311E+001  0.221886658692591E+001
  0.471314836131753E-001 -0.529574564525493E+001  0.336338523145673E+001
  0.471314836131753E-001 -0.531965535186222E+001  0.222686668526344E+001
  0.471314836131753E-001 -0.532317117444022E+001  0.335656757982708E+001
  0.471314836131753E-001 -0.535159674713274E+001  0.334948625500969E+001
  0.471314836131753E-001 -0.539153584752233E+001  0.223335828227748E+001
  0.471314836131753E-001 -0.544315991543652E+001  0.223812895353393E+001
  0.471314836131753E-001 -0.546110048724628E+001  0.332205104384195E+001
  0.471314836131753E-001 -0.547998962566302E+001  0.331729150054724E+001
  0.471314836131753E-001 -0.553118529028015E+001  0.330434795896850E+001
  0.471314836131753E-001 -0.555996948471094E+001  0.329704121185697E+001
  0.471314836131753E-001 -0.557812625148889E+001  0.329242078463932E+001
  0.471314836131753E-001 -0.557932638723305E+001  0.329211506287177E+001
  0.471314836131753E-001 -0.558826853403339E+001  0.328983588668537E+001
  0.471314836131753E-001 -0.564185368809679E+001  0.225742202462012E+001
  0.471314836131753E-001 -0.564955929447409E+001  0.327415216473962E+001
  0.471314836131753E-001 -0.565691209858337E+001  0.327226311279262E+001
  0.471314836131753E-001 -0.568534704442545E+001  0.326494179033626E+001
  0.471314836131753E-001 -0.569404895668911E+001  0.326269608361384E+001
  0.471314836131753E-001 -0.571282521669912E+001  0.325784200051439E+001
  0.471314836131753E-001 -0.583604285045631E+001  0.322567728920017E+001
  0.471314836131753E-001 -0.590763297922622E+001  0.228596781901215E+001
  0.471314836131753E-001 -0.591637039984978E+001  0.228696887932077E+001
  0.471314836131753E-001 -0.591990565917911E+001  0.320344091641882E+001
  0.471314836131753E-001 -0.592437017791649E+001  0.320224844287233E+001
  0.471314836131753E-001 -0.596553591823794E+001  0.229268572249527E+001
  0.471314836131753E-001 -0.598750621371226E+001  0.318528304045913E+001
  0.471314836131753E-001 -0.599831870335782E+001  0.229657973982668E+001
  0.471314836131753E-001 -0.600915296421990E+001  0.229788166590606E+001
  0.471314836131753E-001 -0.605523747384878E+001  0.316685581722030E+001
  0.471314836131753E-001 -0.606015637702346E+001  0.230411489338847E+001
  0.471314836131753E-001 -0.607896732569785E+001  0.230645878617036E+001
  0.471314836131753E-001 -0.608660019232729E+001  0.315823638030694E+001
  0.471314836131753E-001 -0.613661285790660E+001  0.314436808992239E+001
  0.471314836131753E-001 -0.615209979107443E+001  0.314004120057966E+001
  0.471314836131753E-001 -0.616172262216006E+001  0.313734462148281E+001
  0.471314836131753E-001 -0.616653691973151E+001  0.313599316594660E+001
  0.471314836131753E-001 -0.617322399962267E+001  0.313411334680922E+001
  0.471314836131753E-001 -0.619725041613399E+001  0.232180228046908E+001
  0.471314836131753E-001 -0.620207417629713E+001  0.232245170577685E+001
  0.471314836131753E-001 -0.621238252033679E+001  0.312304189732892E+001
  0.471314836131753E-001 -0.623621536760337E+001  0.311624819383569E+001
  0.471314836131753E-001 -0.625886717427733E+001  0.310975030114810E+001
  0.471314836131753E-001 -0.627591660400511E+001  0.310483220974616E+001
  0.471314836131753E-001 -0.630619975004800E+001  0.233697727368136E+001
  0.471314836131753E-001 -0.633105991467593E+001  0.234059920641071E+001
  0.471314836131753E-001 -0.633726906262279E+001  0.234151379745527E+001
  0.471314836131753E-001 -0.636121129613819E+001  0.307984709586596E+001
  0.471314836131753E-001 -0.638405837459621E+001  0.234853976207021E+001
  0.471314836131753E-001 -0.639894426472818E+001  0.306857225289287E+001
  0.471314836131753E-001 -0.643562847321159E+001  0.235657561126347E+001
  0.471314836131753E-001 -0.643575712772001E+001  0.305742647941056E+001
  0.471314836131753E-001 -0.644576759789631E+001  0.305436920616859E+001
  0.471314836131753E-001 -0.645652640994348E+001  0.235992586251155E+001
  0.471314836131753E-001 -0.646147821652653E+001  0.304954725253157E+001
  0.471314836131753E-001 -0.647831455609104E+001  0.304434648081944E+001
  0.471314836131753E-001 -0.652632981646521E+001  0.237154740663993E+001
  0.471314836131753E-001 -0.653718205292509E+001  0.302587198145977E+001
  0.471314836131753E-001 -0.653725776960477E+001  0.302584791113231E+001
  0.471314836131753E-001 -0.653789367378265E+001  0.302564572452736E+001
  0.471314836131753E-001 -0.654089708797730E+001  0.302468999245797E+001
  0.471314836131753E-001 -0.655734453311819E+001  0.301943259372247E+001
  0.471314836131753E-001 -0.655812421129448E+001  0.237708036193938E+001
  0.471314836131753E-001 -0.659093999512234E+001  0.300856446007380E+001
  0.471314836131753E-001 -0.661531667692323E+001  0.300056281801792E+001
  0.471314836131753E-001 -0.662650170360813E+001  0.238955595467954E+001
  0.471314836131753E-001 -0.663321439387391E+001  0.299462171536239E+001
  0.471314836131753E-001 -0.663644677469737E+001  0.239144194993800E+001
  0.471314836131753E-001 -0.663775541814254E+001  0.299310504411292E+001
  0.471314836131753E-001 -0.665903108806114E+001  0.298594700384025E+001
  0.471314836131753E-001 -0.602441096902823E+001  0.256672879589374E+001
  0.471314836131753E-001 -0.602801028766198E+001  0.256954837871622E+001
  0.471314836131753E-001 -0.603317441687146E+001  0.257379683463585E+001
  0.471314836131753E-001 -0.603412308641543E+001  0.257460614661630E+001
  0.471314836131753E-001 -0.603621570512264E+001  0.257642611894802E+001
  0.471314836131753E-001 -0.603895543584354E+001  0.257888649807366E+001
  0.471314836131753E-001 -0.604040390387842E+001  0.258022579464692E+001
  0.471314836131753E-001 -0.604237130957957E+001  0.258209126135251E+001
  0.471314836131753E-001 -0.604477778820614E+001  0.258445194855769E+001
  0.471314836131753E-001 -0.604582605329841E+001  0.258550970471123E+001
  0.471314836131753E-001 -0.604678350627098E+001  0.258649255296673E+001
  0.471314836131753E-001 -0.605714489857169E+001  0.270537268907762E+001
  0.471314836131753E-001 -0.606094136184457E+001  0.269966215817898E+001
  0.471314836131753E-001 -0.606395518297869E+001  0.269464465433099E+001
  0.471314836131753E-001 -0.606704200866331E+001  0.261355568973162E+001
  0.471314836131753E-001 -0.606713343176574E+001  0.268869305408482E+001
  0.471314836131753E-001 -0.606737213866075E+001  0.268821032612606E+001
  0.471314836131753E-001 -0.606772355379028E+001  0.261484978617017E+001
  0.471314836131753E-001 -0.606817903780068E+001  0.261574287815480E+001
  0.471314836131753E-001 -0.606877473191609E+001  0.261694853454843E+001
  0.471314836131753E-001 -0.606883973529160E+001  0.268510260811189E+001
  0.471314836131753E-001 -0.606947673357860E+001  0.268366777825064E+001
