  0.613179052128904E-001  0.706047526433182E+001  0.792890806710408E+001
  0.613179052128904E-001  0.157000503428684E+001  0.505223143322806E+001
  0.613179052128904E-001  0.139206090743997E+001  0.499355907798305E+001
  0.613179052128904E-001  0.256343766229660E+000  0.464211879860693E+001
  0.613179052128904E-001  0.214739997068010E+000  0.462992330483528E+001
  0.613179052128904E-001 -0.397200918718257E+000  0.445531629803872E+001
  0.613179052128904E-001 -0.643644647264642E+000  0.438733394679904E+001
  0.613179052128904E-001 -0.689991073578738E+000  0.437468712322607E+001
  0.613179052128904E-001 -0.136990436196817E+001  0.419372727233256E+001
  0.613179052128904E-001 -0.151325942931660E+001  0.415657090113505E+001
  0.613179052128904E-001 -0.183590907777738E+001  0.407405467576576E+001
  0.613179052128904E-001 -0.185834472454239E+001  0.406837056618862E+001
  0.613179052128904E-001 -0.218263966170169E+001  0.398691823490024E+001
  0.613179052128904E-001 -0.226121803154266E+001  0.396736821463119E+001
  0.613179052128904E-001 -0.254383826383480E+001  0.389758384537072E+001
  0.613179052128904E-001 -0.276978517786780E+001  0.384231939414534E+001
  0.613179052128904E-001 -0.286132093541708E+001  0.382004451513538E+001
  0.613179052128904E-001 -0.286886420074163E+001  0.381821153976199E+001
  0.613179052128904E-001 -0.299461646329904E+001  0.378770929900284E+001
  0.613179052128904E-001 -0.304402203031440E+001  0.377575199334702E+001
  0.613179052128904E-001 -0.312141099572770E+001  0.375704889345785E+001
  0.613179052128904E-001 -0.335168053537136E+001  0.370155853342632E+001
  0.613179052128904E-001 -0.335915319417356E+001  0.369976102353011E+001
  0.613179052128904E-001 -0.336306691098524E+001  0.369881966511974E+001
  0.613179052128904E-001 -0.343812376753293E+001  0.368077443069271E+001
  0.613179052128904E-001 -0.344382313439498E+001  0.367940474964303E+001
  0.613179052128904E-001 -0.344868048963795E+001  0.367823747852191E+001
  0.613179052128904E-001 -0.347963773376992E+001  0.367079928955837E+001
  0.613179052128904E-001 -0.353934502757357E+001  0.365645802940352E+001
  0.613179052128904E-001 -0.362239105270995E+001  0.363651814820942E+001
  0.613179052128904E-001 -0.363651233992211E+001  0.363312801127193E+001
  0.613179052128904E-001 -0.374807445815774E+001  0.360634478839083E+001
  0.613179052128904E-001 -0.378345230484772E+001  0.359784989874090E+001
  0.613179052128904E-001 -0.393960954434645E+001  0.356032745963709E+001
  0.613179052128904E-001 -0.396863983757272E+001  0.355334481260930E+001
  0.613179052128904E-001 -0.401565567163133E+001  0.354202966884286E+001
  0.613179052128904E-001 -0.404252710887538E+001  0.353555858363298E+001
  0.613179052128904E-001 -0.413321044250041E+001  0.351369491385609E+001
  0.613179052128904E-001 -0.419596004490649E+001  0.349853874027722E+001
  0.613179052128904E-001 -0.424213639825500E+001  0.348736879020693E+001
  0.613179052128904E-001 -0.426404238552254E+001  0.348206429418201E+001
  0.613179052128904E-001 -0.432026581935382E+001  0.346843222192845E+001
  0.613179052128904E-001 -0.446727154167307E+001  0.343264903361808E+001
  0.613179052128904E-001 -0.448248378912804E+001  0.342893294815284E+001
  0.613179052128904E-001 -0.449542513225421E+001  0.342576944409018E+001
  0.613179052128904E-001 -0.455037284295783E+001  0.341231430736352E+001
  0.613179052128904E-001 -0.459737539811690E+001  0.340077293216803E+001
  0.613179052128904E-001 -0.467795026358258E+001  0.338091265429113E+001
  0.613179052128904E-001 -0.467871406301076E+001  0.338072390437581E+001
  0.613179052128904E-001 -0.470758674947627E+001  0.337358179421029E+001
  0.613179052128904E-001 -0.482508943056965E+001  0.334436167317956E+001
  0.613179052128904E-001 -0.484156293658155E+001  0.334024365668458E+001
  0.613179052128904E-001 -0.484853327942266E+001  0.333849952142303E+001
  0.613179052128904E-001 -0.486284218828046E+001  0.333491588246852E+001
  0.613179052128904E-001 -0.488630875167544E+001  0.332902911030433E+001
  0.613179052128904E-001 -0.490367382697221E+001  0.332466504156987E+001
  0.613179052128904E-001 -0.491955287220730E+001  0.332066838204887E+001
  0.613179052128904E-001 -0.497086339654970E+001  0.330771265247472E+001
  0.613179052128904E-001 -0.498159093675241E+001  0.330499572847953E+001
  0.613179052128904E-001 -0.498742201176143E+001  0.330351767591963E+001
  0.613179052128904E-001 -0.498782286546536E+001  0.330341603580086E+001
  0.613179052128904E-001 -0.500628343240199E+001  0.329873063460454E+001
  0.613179052128904E-001 -0.510748888502743E+001  0.327287599000155E+001
  0.613179052128904E-001 -0.514888506721899E+001  0.326221200248922E+001
  0.613179052128904E-001 -0.516147910858947E+001  0.325895667407231E+001
  0.613179052128904E-001 -0.516207495640403E+001  0.325880252775707E+001
  0.613179052128904E-001 -0.520379338568722E+001  0.324797979793401E+001
  0.613179052128904E-001 -0.521185388085610E+001  0.324588169590821E+001
  0.613179052128904E-001 -0.521609140645362E+001  0.324477775503259E+001
  0.613179052128904E-001 -0.525207755417282E+001  0.323537616274699E+001
  0.613179052128904E-001 -0.531584797964128E+001  0.321859239493922E+001
  0.613179052128904E-001 -0.534838288441856E+001  0.320996458482164E+001
  0.613179052128904E-001 -0.538559083653009E+001  0.320004001078101E+001
  0.613179052128904E-001 -0.543969082442937E+001  0.318549302080579E+001
  0.613179052128904E-001 -0.544753420354472E+001  0.318337191793607E+001
  0.613179052128904E-001 -0.545301144444685E+001  0.318188881444932E+001
  0.613179052128904E-001 -0.549998847215818E+001  0.316910297521976E+001
  0.613179052128904E-001 -0.550040174736746E+001  0.316898995681275E+001
  0.613179052128904E-001 -0.551686841203834E+001  0.316447893791167E+001
  0.613179052128904E-001 -0.552156839941621E+001  0.316318852998625E+001
  0.613179052128904E-001 -0.552618410784482E+001  0.316192001064936E+001
  0.613179052128904E-001 -0.552936685955187E+001  0.316104457899889E+001
  0.613179052128904E-001 -0.554204206826635E+001  0.315755224661063E+001
  0.613179052128904E-001 -0.554616051292358E+001  0.315641544240779E+001
  0.613179052128904E-001 -0.563270424988238E+001  0.313227788545493E+001
  0.613179052128904E-001 -0.565841494719499E+001  0.312500909172647E+001
  0.613179052128904E-001 -0.569872530891852E+001  0.311351410912442E+001
  0.613179052128904E-001 -0.570948723392771E+001  0.311042388773108E+001
  0.613179052128904E-001 -0.573951386588430E+001  0.310175198917473E+001
  0.613179052128904E-001 -0.574092426927484E+001  0.310134279946267E+001
  0.613179052128904E-001 -0.582849700681075E+001  0.307558405702230E+001
  0.613179052128904E-001 -0.583153725511246E+001  0.307467658615237E+001
  0.613179052128904E-001 -0.583600570192013E+001  0.307334110629719E+001
  0.613179052128904E-001 -0.585563125841100E+001  0.306745105845336E+001
  0.613179052128904E-001 -0.588937450092562E+001  0.305722655402008E+001
  0.613179052128904E-001 -0.598398149096787E+001  0.302782816671068E+001
  0.613179052128904E-001 -0.599890113006664E+001  0.302308244652827E+001
  0.613179052128904E-001 -0.600868759629143E+001  0.301995174800735E+001
  0.613179052128904E-001 -0.602041336853574E+001  0.301618157390992E+001
  0.613179052128904E-001 -0.603955492726970E+001  0.300998076700569E+001
  0.613179052128904E-001 -0.606013607212398E+001  0.300324679132315E+001
  0.613179052128904E-001 -0.611884073622090E+001  0.298362419196302E+001
  0.613179052128904E-001 -0.612033157507611E+001  0.298311726005915E+001
  0.613179052128904E-001 -0.616230025717191E+001  0.296865398682326E+001
  0.613179052128904E-001 -0.616643146324225E+001  0.296720920736584E+001
  0.613179052128904E-001 -0.617060154462156E+001  0.296574680289867E+001
  0.613179052128904E-001 -0.618384823660138E+001  0.296107386116266E+001
  0.613179052128904E-001 -0.621706655838611E+001  0.294916168801879E+001
  0.613179052128904E-001 -0.623704349009121E+001  0.294185421701734E+001
  0.613179052128904E-001 -0.628971023766596E+001  0.292200318317955E+001
  0.613179052128904E-001 -0.630627945123852E+001  0.291556170966690E+001
  0.613179052128904E-001 -0.630667835272499E+001  0.291540536579644E+001
  0.613179052128904E-001 -0.632994345742106E+001  0.290617803605183E+001
  0.613179052128904E-001 -0.633438595945639E+001  0.290439072545990E+001
  0.613179052128904E-001 -0.634201462218970E+001  0.290130160581867E+001
  0.613179052128904E-001 -0.636179120873209E+001  0.289317012293604E+001
  0.613179052128904E-001 -0.636904443920971E+001  0.289014079543400E+001
  0.613179052128904E-001 -0.638445294480540E+001  0.250530839325503E+001
  0.613179052128904E-001 -0.638662322453257E+001  0.281766302259498E+001
  0.613179052128904E-001 -0.639244699749247E+001  0.250859114527803E+001
  0.613179052128904E-001 -0.639544104625468E+001  0.281278522845664E+001
  0.613179052128904E-001 -0.640387659648479E+001  0.280800877082828E+001
  0.613179052128904E-001 -0.640428921371483E+001  0.280777220772290E+001
  0.613179052128904E-001 -0.641598375755696E+001  0.280094554946971E+001
  0.613179052128904E-001 -0.641643726481639E+001  0.280067585406083E+001
  0.613179052128904E-001 -0.641659668749280E+001  0.251911614133831E+001
  0.613179052128904E-001 -0.641889938129527E+001  0.279920484303070E+001
  0.613179052128904E-001 -0.642160469795671E+001  0.279757496287564E+001
  0.613179052128904E-001 -0.642760112089168E+001  0.279390938916058E+001
  0.613179052128904E-001 -0.642884092297240E+001  0.279314204649298E+001
  0.613179052128904E-001 -0.643283871552164E+001  0.252680409627135E+001
  0.613179052128904E-001 -0.643870465704313E+001  0.278691316657919E+001
  0.613179052128904E-001 -0.643946118647500E+001  0.278642585369402E+001
  0.613179052128904E-001 -0.644037829853552E+001  0.278583318008271E+001
  0.613179052128904E-001 -0.644124274883808E+001  0.278527258720909E+001
  0.613179052128904E-001 -0.645094465245802E+001  0.277884384181242E+001
  0.613179052128904E-001 -0.645873472966041E+001  0.254038716971198E+001
  0.613179052128904E-001 -0.646057239974289E+001  0.254142675647788E+001
  0.613179052128904E-001 -0.646171462648850E+001  0.277137949859887E+001
  0.613179052128904E-001 -0.646445282836623E+001  0.254366059994794E+001
  0.613179052128904E-001 -0.646796362114890E+001  0.276686656161921E+001
  0.613179052128904E-001 -0.646912786762987E+001  0.254642580823847E+001
  0.613179052128904E-001 -0.647000361025499E+001  0.276536111500947E+001
  0.613179052128904E-001 -0.647186947230002E+001  0.276396942372836E+001
  0.613179052128904E-001 -0.647207323264411E+001  0.276381656971735E+001
  0.613179052128904E-001 -0.647341799973002E+001  0.254904008393033E+001
  0.613179052128904E-001 -0.647483811642625E+001  0.276172488304104E+001
  0.613179052128904E-001 -0.647507084273528E+001  0.276154729709711E+001
  0.613179052128904E-001 -0.647582182861909E+001  0.255053934933322E+001
  0.613179052128904E-001 -0.648741013557593E+001  0.275175478528173E+001
  0.613179052128904E-001 -0.649495987107231E+001  0.256353557900949E+001
  0.613179052128904E-001 -0.649678735833186E+001  0.274372895646563E+001
  0.613179052128904E-001 -0.650115279495676E+001  0.273977997532283E+001
  0.613179052128904E-001 -0.650649979214011E+001  0.273472304057383E+001
  0.613179052128904E-001 -0.651012285666307E+001  0.273113813621187E+001
  0.613179052128904E-001 -0.651282086607632E+001  0.272837362882082E+001
  0.613179052128904E-001 -0.651763966421019E+001  0.258255090954782E+001
  0.613179052128904E-001 -0.651901042586679E+001  0.258389452563783E+001
  0.613179052128904E-001 -0.651935254353818E+001  0.272128478114347E+001
  0.613179052128904E-001 -0.652187242722989E+001  0.271837284290730E+001
  0.613179052128904E-001 -0.652299429333660E+001  0.271703937694679E+001
  0.613179052128904E-001 -0.652396202071775E+001  0.258901661368599E+001
  0.613179052128904E-001 -0.652454736151300E+001  0.271515221839862E+001
  0.613179052128904E-001 -0.652867153566736E+001  0.270987717815263E+001
  0.613179052128904E-001 -0.652923344935960E+001  0.259503692617709E+001
  0.613179052128904E-001 -0.652926046830175E+001  0.270908850058998E+001
  0.613179052128904E-001 -0.653015945710063E+001  0.270786540369467E+001
  0.613179052128904E-001 -0.653889585957423E+001  0.269438416408299E+001
  0.613179052128904E-001 -0.653942724733880E+001  0.269343767426387E+001
  0.613179052128904E-001 -0.654123500107168E+001  0.269005883919825E+001
  0.613179052128904E-001 -0.654243648395276E+001  0.261469613130968E+001
  0.613179052128904E-001 -0.654256522997304E+001  0.268738680902668E+001
  0.613179052128904E-001 -0.639634226272588E+001  0.268636975963604E+001
  0.613179052128904E-001 -0.639640557598418E+001  0.268623443248345E+001
  0.613179052128904E-001 -0.639743568524671E+001  0.268395964961874E+001
  0.613179052128904E-001 -0.640104734400922E+001  0.262720617773295E+001
  0.613179052128904E-001 -0.640138314194358E+001  0.262824134423816E+001
  0.613179052128904E-001 -0.640172060084088E+001  0.262933415538538E+001
  0.613179052128904E-001 -0.640204817151655E+001  0.263045351893257E+001
  0.613179052128904E-001 -0.640212256431724E+001  0.267075595042615E+001
  0.613179052128904E-001 -0.640338424350643E+001  0.266539219188248E+001
  0.613179052128904E-001 -0.640399638567288E+001  0.266193673537048E+001
  0.613179052128904E-001 -0.640405970557441E+001  0.263968855807798E+001
  0.613179052128904E-001 -0.640469252288592E+001  0.264534993604623E+001
  0.613179052128904E-001 -0.640474865355529E+001  0.265491380059166E+001
  0.613179052128904E-001 -0.640476072748177E+001  0.264640430753211E+001
