  0.478001487830096E-001  0.339276395159083E+001  0.604446136967449E+001
  0.478001487830096E-001  0.772617657008486E+001  0.898652880915931E+001
  0.478001487830096E-001  0.447159807696265E+001  0.657703514895245E+001
  0.478001487830096E-001 -0.379878465480079E+001  0.372219817383888E+001
  0.478001487830096E-001  0.143582147080611E+000  0.476779366501767E+001
  0.478001487830096E-001 -0.171162427450431E-001  0.471916155640867E+001
  0.478001487830096E-001 -0.235025313249984E+000  0.465432298372992E+001
  0.478001487830096E-001 -0.322070366766709E+000  0.462876575560169E+001
  0.478001487830096E-001 -0.402624111166865E+000  0.460528336246345E+001
  0.478001487830096E-001 -0.415583249807298E+000  0.460152055266144E+001
  0.478001487830096E-001 -0.379310236120962E+001  0.372356680061241E+001
  0.478001487830096E-001 -0.366212038271303E+001  0.375515209122042E+001
  0.478001487830096E-001 -0.361785292607191E+001  0.376584487387066E+001
  0.478001487830096E-001 -0.361258952111140E+001  0.210811638699498E+001
  0.478001487830096E-001 -0.356214702614598E+001  0.210527502157941E+001
  0.478001487830096E-001 -0.102469794167737E+001  0.442905982508389E+001
  0.478001487830096E-001 -0.106308598885467E+001  0.441846343895118E+001
  0.478001487830096E-001 -0.354504661605139E+001  0.210431838592943E+001
  0.478001487830096E-001 -0.112340384342275E+001  0.440187490356437E+001
  0.478001487830096E-001 -0.347337964835337E+001  0.210034483998521E+001
  0.478001487830096E-001 -0.343534930362889E+001  0.381004398788796E+001
  0.478001487830096E-001 -0.175051796440832E+001  0.423354512192618E+001
  0.478001487830096E-001 -0.324349234814432E+001  0.385674573460589E+001
  0.478001487830096E-001 -0.200917949654205E+001  0.416611341615698E+001
  0.478001487830096E-001 -0.319004096076484E+001  0.386980681950606E+001
  0.478001487830096E-001 -0.316161178343466E+001  0.387676321111759E+001
  0.478001487830096E-001 -0.213174625717733E+001  0.413452488266828E+001
  0.478001487830096E-001 -0.232330244427373E+001  0.408559275293584E+001
  0.478001487830096E-001 -0.262531808286957E+001  0.400943959643679E+001
  0.478001487830096E-001 -0.264627475098984E+001  0.400419723689639E+001
  0.478001487830096E-001 -0.264836764503358E+001  0.400367397763240E+001
  0.478001487830096E-001 -0.267573015436316E+001  0.399683757229193E+001
  0.478001487830096E-001 -0.275985140811852E+001  0.397587374803856E+001
  0.478001487830096E-001 -0.283311456799592E+001  0.395767952605275E+001
  0.478001487830096E-001 -0.314575614927848E+001  0.388064592825270E+001
  0.478001487830096E-001 -0.311928533439254E+001  0.388713291129945E+001
  0.478001487830096E-001 -0.310667798038863E+001  0.389022464339399E+001
  0.478001487830096E-001 -0.391274690269186E+001  0.369477299224225E+001
  0.478001487830096E-001 -0.410776164932120E+001  0.364791840391717E+001
  0.478001487830096E-001 -0.415259795282225E+001  0.363715359960046E+001
  0.478001487830096E-001 -0.425543211616188E+001  0.361246617579658E+001
  0.478001487830096E-001 -0.429195275969006E+001  0.360369773189619E+001
  0.478001487830096E-001 -0.438752562595784E+001  0.215596548140114E+001
  0.478001487830096E-001 -0.443063754041690E+001  0.357038320954101E+001
  0.478001487830096E-001 -0.443469612143196E+001  0.356940766178318E+001
  0.478001487830096E-001 -0.460764121200912E+001  0.217127766564712E+001
  0.478001487830096E-001 -0.472544723913478E+001  0.349935252539107E+001
  0.478001487830096E-001 -0.474495923440438E+001  0.349463491963614E+001
  0.478001487830096E-001 -0.483287234660341E+001  0.347334446699423E+001
  0.478001487830096E-001 -0.493929695885234E+001  0.344748228191903E+001
  0.478001487830096E-001 -0.501452941920101E+001  0.342913043168410E+001
  0.478001487830096E-001 -0.514850391174767E+001  0.221325643467812E+001
  0.478001487830096E-001 -0.520299026029312E+001  0.338284304715339E+001
  0.478001487830096E-001 -0.521424736486115E+001  0.221886658692591E+001
  0.478001487830096E-001 -0.528156101026298E+001  0.336338523145673E+001
  0.478001487830096E-001 -0.530547071687027E+001  0.222686668526344E+001
  0.478001487830096E-001 -0.530898653944827E+001  0.335656757982708E+001
  0.478001487830096E-001 -0.533741211214079E+001  0.334948625500969E+001
  0.478001487830096E-001 -0.537735121253038E+001  0.223335828227748E+001
  0.478001487830096E-001 -0.542897528044457E+001  0.223812895353393E+001
  0.478001487830096E-001 -0.544691585225432E+001  0.332205104384195E+001
  0.478001487830096E-001 -0.546580499067106E+001  0.331729150054724E+001
  0.478001487830096E-001 -0.551700065528820E+001  0.330434795896850E+001
  0.478001487830096E-001 -0.554578484971898E+001  0.329704121185697E+001
  0.478001487830096E-001 -0.556394161649693E+001  0.329242078463932E+001
  0.478001487830096E-001 -0.556514175224110E+001  0.329211506287177E+001
  0.478001487830096E-001 -0.557408389904144E+001  0.328983588668537E+001
  0.478001487830096E-001 -0.562766905310483E+001  0.225742202462012E+001
  0.478001487830096E-001 -0.563537465948213E+001  0.327415216473962E+001
  0.478001487830096E-001 -0.564272746359141E+001  0.327226311279262E+001
  0.478001487830096E-001 -0.567116240943349E+001  0.326494179033626E+001
  0.478001487830096E-001 -0.567986432169715E+001  0.326269608361384E+001
  0.478001487830096E-001 -0.569864058170716E+001  0.325784200051439E+001
  0.478001487830096E-001 -0.582185821546436E+001  0.322567728920017E+001
  0.478001487830096E-001 -0.589344834423426E+001  0.228596781901215E+001
  0.478001487830096E-001 -0.590218576485782E+001  0.228696887932077E+001
  0.478001487830096E-001 -0.590572102418715E+001  0.320344091641882E+001
  0.478001487830096E-001 -0.591018554292453E+001  0.320224844287233E+001
  0.478001487830096E-001 -0.595135128324599E+001  0.229268572249527E+001
  0.478001487830096E-001 -0.597332157872030E+001  0.318528304045913E+001
  0.478001487830096E-001 -0.598413406836586E+001  0.229657973982668E+001
  0.478001487830096E-001 -0.599496832922794E+001  0.229788166590606E+001
  0.478001487830096E-001 -0.604105283885682E+001  0.316685581722030E+001
  0.478001487830096E-001 -0.604597174203150E+001  0.230411489338847E+001
  0.478001487830096E-001 -0.606478269070590E+001  0.230645878617036E+001
  0.478001487830096E-001 -0.607241555733533E+001  0.315823638030694E+001
  0.478001487830096E-001 -0.612242822291464E+001  0.314436808992239E+001
  0.478001487830096E-001 -0.613791515608247E+001  0.314004120057966E+001
  0.478001487830096E-001 -0.614753798716810E+001  0.313734462148281E+001
  0.478001487830096E-001 -0.615235228473956E+001  0.313599316594660E+001
  0.478001487830096E-001 -0.615903936463071E+001  0.313411334680922E+001
  0.478001487830096E-001 -0.618306578114204E+001  0.232180228046908E+001
  0.478001487830096E-001 -0.618788954130518E+001  0.232245170577685E+001
  0.478001487830096E-001 -0.619819788534484E+001  0.312304189732892E+001
  0.478001487830096E-001 -0.622203073261141E+001  0.311624819383569E+001
  0.478001487830096E-001 -0.624468253928537E+001  0.310975030114810E+001
  0.478001487830096E-001 -0.626173196901315E+001  0.310483220974616E+001
  0.478001487830096E-001 -0.629201511505605E+001  0.233697727368136E+001
  0.478001487830096E-001 -0.631687527968398E+001  0.234059920641071E+001
  0.478001487830096E-001 -0.632308442763083E+001  0.234151379745527E+001
  0.478001487830096E-001 -0.634702666114623E+001  0.307984709586596E+001
  0.478001487830096E-001 -0.636987373960425E+001  0.234853976207021E+001
  0.478001487830096E-001 -0.638475962973623E+001  0.306857225289287E+001
  0.478001487830096E-001 -0.642144383821964E+001  0.235657561126347E+001
  0.478001487830096E-001 -0.642157249272806E+001  0.305742647941056E+001
  0.478001487830096E-001 -0.643158296290436E+001  0.305436920616859E+001
  0.478001487830096E-001 -0.644234177495153E+001  0.235992586251155E+001
  0.478001487830096E-001 -0.644729358153457E+001  0.304954725253157E+001
  0.478001487830096E-001 -0.646412992109909E+001  0.304434648081944E+001
  0.478001487830096E-001 -0.651214518147325E+001  0.237154740663993E+001
  0.478001487830096E-001 -0.652299741793314E+001  0.302587198145977E+001
  0.478001487830096E-001 -0.652307313461281E+001  0.302584791113231E+001
  0.478001487830096E-001 -0.652370903879069E+001  0.302564572452736E+001
  0.478001487830096E-001 -0.652671245298534E+001  0.302468999245797E+001
  0.478001487830096E-001 -0.654315989812623E+001  0.301943259372247E+001
  0.478001487830096E-001 -0.654393957630253E+001  0.237708036193938E+001
  0.478001487830096E-001 -0.657675536013038E+001  0.300856446007380E+001
  0.478001487830096E-001 -0.660113204193127E+001  0.300056281801792E+001
  0.478001487830096E-001 -0.661231706861617E+001  0.238955595467954E+001
  0.478001487830096E-001 -0.661902975888196E+001  0.299462171536239E+001
  0.478001487830096E-001 -0.662226213970542E+001  0.239144194993800E+001
  0.478001487830096E-001 -0.662357078315059E+001  0.299310504411292E+001
  0.478001487830096E-001 -0.664484645306918E+001  0.298594700384025E+001
  0.478001487830096E-001 -0.601022633403628E+001  0.256672879589374E+001
  0.478001487830096E-001 -0.601382565267003E+001  0.256954837871622E+001
  0.478001487830096E-001 -0.601898978187951E+001  0.257379683463585E+001
  0.478001487830096E-001 -0.601993845142347E+001  0.257460614661630E+001
  0.478001487830096E-001 -0.602203107013068E+001  0.257642611894802E+001
  0.478001487830096E-001 -0.602477080085159E+001  0.257888649807366E+001
  0.478001487830096E-001 -0.602621926888646E+001  0.258022579464692E+001
  0.478001487830096E-001 -0.602818667458761E+001  0.258209126135251E+001
  0.478001487830096E-001 -0.603059315321419E+001  0.258445194855769E+001
  0.478001487830096E-001 -0.603164141830646E+001  0.258550970471123E+001
  0.478001487830096E-001 -0.603259887127903E+001  0.258649255296673E+001
  0.478001487830096E-001 -0.604296026357974E+001  0.270537268907762E+001
  0.478001487830096E-001 -0.604675672685262E+001  0.269966215817898E+001
  0.478001487830096E-001 -0.604977054798673E+001  0.269464465433099E+001
  0.478001487830096E-001 -0.605285737367135E+001  0.261355568973162E+001
  0.478001487830096E-001 -0.605294879677379E+001  0.268869305408482E+001
  0.478001487830096E-001 -0.605318750366880E+001  0.268821032612606E+001
  0.478001487830096E-001 -0.605353891879832E+001  0.261484978617017E+001
  0.478001487830096E-001 -0.605399440280872E+001  0.261574287815480E+001
  0.478001487830096E-001 -0.605459009692413E+001  0.261694853454843E+001
  0.478001487830096E-001 -0.605465510029964E+001  0.268510260811189E+001
  0.478001487830096E-001 -0.605529209858664E+001  0.268366777825064E+001
  0.478001487830096E-001 -0.415062269991586E+001  0.267151212255333E+001
  0.478001487830096E-001 -0.415077827370373E+001  0.267094928877522E+001
