  0.262274308447678E-001  0.633844314783238E+001  0.792890806710408E+001
  0.262274308447678E-001  0.847972917787398E+000  0.505223143322806E+001
  0.262274308447678E-001  0.670028790940527E+000  0.499355907798305E+001
  0.262274308447678E-001 -0.465688350269780E+000  0.464211879860693E+001
  0.262274308447678E-001 -0.507292119431430E+000  0.462992330483528E+001
  0.262274308447678E-001 -0.111923303521770E+001  0.445531629803872E+001
  0.262274308447678E-001 -0.136567676376408E+001  0.438733394679904E+001
  0.262274308447678E-001 -0.141202319007818E+001  0.437468712322607E+001
  0.262274308447678E-001 -0.209193647846761E+001  0.419372727233256E+001
  0.262274308447678E-001 -0.223529154581604E+001  0.415657090113505E+001
  0.262274308447678E-001 -0.255794119427682E+001  0.407405467576576E+001
  0.262274308447678E-001 -0.258037684104183E+001  0.406837056618862E+001
  0.262274308447678E-001 -0.290467177820113E+001  0.398691823490024E+001
  0.262274308447678E-001 -0.298325014804210E+001  0.396736821463119E+001
  0.262274308447678E-001 -0.326587038033424E+001  0.389758384537072E+001
  0.262274308447678E-001 -0.349181729436724E+001  0.384231939414534E+001
  0.262274308447678E-001 -0.358335305191652E+001  0.382004451513538E+001
  0.262274308447678E-001 -0.359089631724107E+001  0.381821153976199E+001
  0.262274308447678E-001 -0.371664857979848E+001  0.378770929900284E+001
  0.262274308447678E-001 -0.376605414681384E+001  0.377575199334702E+001
  0.262274308447678E-001 -0.384344311222714E+001  0.375704889345785E+001
  0.262274308447678E-001 -0.407371265187080E+001  0.370155853342632E+001
  0.262274308447678E-001 -0.408118531067300E+001  0.369976102353011E+001
  0.262274308447678E-001 -0.408509902748468E+001  0.369881966511974E+001
  0.262274308447678E-001 -0.416015588403237E+001  0.368077443069271E+001
  0.262274308447678E-001 -0.416585525089442E+001  0.367940474964303E+001
  0.262274308447678E-001 -0.417071260613739E+001  0.367823747852191E+001
  0.262274308447678E-001 -0.420166985026936E+001  0.367079928955837E+001
  0.262274308447678E-001 -0.426137714407301E+001  0.365645802940352E+001
  0.262274308447678E-001 -0.434442316920939E+001  0.363651814820942E+001
  0.262274308447678E-001 -0.435854445642155E+001  0.363312801127193E+001
  0.262274308447678E-001 -0.447010657465718E+001  0.360634478839083E+001
  0.262274308447678E-001 -0.450548442134716E+001  0.359784989874090E+001
  0.262274308447678E-001 -0.466164166084589E+001  0.356032745963709E+001
  0.262274308447678E-001 -0.469067195407216E+001  0.355334481260930E+001
  0.262274308447678E-001 -0.473768778813077E+001  0.354202966884286E+001
  0.262274308447678E-001 -0.476455922537482E+001  0.353555858363298E+001
  0.262274308447678E-001 -0.485524255899985E+001  0.351369491385609E+001
  0.262274308447678E-001 -0.491799216140593E+001  0.349853874027722E+001
  0.262274308447678E-001 -0.496416851475444E+001  0.348736879020693E+001
  0.262274308447678E-001 -0.498607450202198E+001  0.348206429418201E+001
  0.262274308447678E-001 -0.504229793585326E+001  0.346843222192845E+001
  0.262274308447678E-001 -0.518930365817251E+001  0.343264903361808E+001
  0.262274308447678E-001 -0.520451590562748E+001  0.342893294815284E+001
  0.262274308447678E-001 -0.521745724875365E+001  0.342576944409018E+001
  0.262274308447678E-001 -0.527240495945727E+001  0.341231430736352E+001
  0.262274308447678E-001 -0.531940751461634E+001  0.340077293216803E+001
  0.262274308447678E-001 -0.539998238008202E+001  0.338091265429113E+001
  0.262274308447678E-001 -0.540074617951020E+001  0.338072390437581E+001
  0.262274308447678E-001 -0.542961886597571E+001  0.337358179421029E+001
  0.262274308447678E-001 -0.554712154706909E+001  0.334436167317956E+001
  0.262274308447678E-001 -0.556359505308099E+001  0.334024365668458E+001
  0.262274308447678E-001 -0.557056539592210E+001  0.333849952142303E+001
  0.262274308447678E-001 -0.558487430477991E+001  0.333491588246852E+001
  0.262274308447678E-001 -0.560834086817488E+001  0.332902911030433E+001
  0.262274308447678E-001 -0.562570594347165E+001  0.332466504156987E+001
  0.262274308447678E-001 -0.564158498870674E+001  0.332066838204887E+001
  0.262274308447678E-001 -0.569289551304914E+001  0.330771265247472E+001
  0.262274308447678E-001 -0.570362305325185E+001  0.330499572847953E+001
  0.262274308447678E-001 -0.570945412826087E+001  0.330351767591963E+001
  0.262274308447678E-001 -0.570985498196480E+001  0.330341603580086E+001
  0.262274308447678E-001 -0.572831554890143E+001  0.329873063460454E+001
  0.262274308447678E-001 -0.582952100152687E+001  0.327287599000155E+001
  0.262274308447678E-001 -0.587091718371843E+001  0.326221200248922E+001
  0.262274308447678E-001 -0.588351122508891E+001  0.325895667407231E+001
  0.262274308447678E-001 -0.588410707290347E+001  0.325880252775707E+001
  0.262274308447678E-001 -0.592582550218666E+001  0.324797979793401E+001
  0.262274308447678E-001 -0.593388599735554E+001  0.324588169590821E+001
  0.262274308447678E-001 -0.593812352295306E+001  0.324477775503259E+001
  0.262274308447678E-001 -0.597410967067226E+001  0.323537616274699E+001
  0.262274308447678E-001 -0.603788009614072E+001  0.321859239493922E+001
  0.262274308447678E-001 -0.607041500091800E+001  0.320996458482164E+001
  0.262274308447678E-001 -0.610762295302953E+001  0.320004001078101E+001
  0.262274308447678E-001 -0.616172294092881E+001  0.318549302080579E+001
  0.262274308447678E-001 -0.616956632004416E+001  0.318337191793607E+001
  0.262274308447678E-001 -0.617504356094629E+001  0.318188881444932E+001
  0.262274308447678E-001 -0.622202058865762E+001  0.316910297521976E+001
  0.262274308447678E-001 -0.622243386386690E+001  0.316898995681275E+001
  0.262274308447678E-001 -0.623890052853778E+001  0.316447893791167E+001
  0.262274308447678E-001 -0.624360051591565E+001  0.316318852998625E+001
  0.262274308447678E-001 -0.624821622434426E+001  0.316192001064936E+001
  0.262274308447678E-001 -0.625139897605131E+001  0.316104457899889E+001
  0.262274308447678E-001 -0.626407418476579E+001  0.315755224661063E+001
  0.262274308447678E-001 -0.626819262942302E+001  0.315641544240779E+001
  0.262274308447678E-001 -0.635473636638182E+001  0.313227788545493E+001
  0.262274308447678E-001 -0.638044706369443E+001  0.312500909172647E+001
  0.262274308447678E-001 -0.642075742541796E+001  0.311351410912442E+001
  0.262274308447678E-001 -0.643151935042715E+001  0.311042388773108E+001
  0.262274308447678E-001 -0.646154598238374E+001  0.310175198917473E+001
  0.262274308447678E-001 -0.646295638577428E+001  0.310134279946267E+001
  0.262274308447678E-001 -0.655052912331019E+001  0.307558405702230E+001
  0.262274308447678E-001 -0.655356937161190E+001  0.307467658615237E+001
  0.262274308447678E-001 -0.655803781841957E+001  0.307334110629719E+001
  0.262274308447678E-001 -0.657766337491044E+001  0.306745105845336E+001
  0.262274308447678E-001 -0.661140661742506E+001  0.305722655402008E+001
  0.262274308447678E-001 -0.670601360746731E+001  0.302782816671068E+001
  0.262274308447678E-001 -0.672093324656608E+001  0.302308244652827E+001
  0.262274308447678E-001 -0.673071971279087E+001  0.301995174800735E+001
  0.262274308447678E-001 -0.674244548503518E+001  0.301618157390992E+001
  0.262274308447678E-001 -0.676158704376914E+001  0.300998076700569E+001
  0.262274308447678E-001 -0.678216818862342E+001  0.300324679132315E+001
  0.262274308447678E-001 -0.684087285272034E+001  0.298362419196302E+001
  0.262274308447678E-001 -0.684236369157555E+001  0.298311726005915E+001
  0.262274308447678E-001 -0.688433237367135E+001  0.296865398682326E+001
  0.262274308447678E-001 -0.688846357974169E+001  0.296720920736584E+001
  0.262274308447678E-001 -0.689263366112100E+001  0.296574680289867E+001
  0.262274308447678E-001 -0.690588035310082E+001  0.296107386116266E+001
  0.262274308447678E-001 -0.693909867488555E+001  0.294916168801879E+001
  0.262274308447678E-001 -0.695907560659065E+001  0.294185421701734E+001
  0.262274308447678E-001 -0.701174235416540E+001  0.292200318317955E+001
  0.262274308447678E-001 -0.702831156773796E+001  0.291556170966690E+001
  0.262274308447678E-001 -0.702871046922443E+001  0.291540536579644E+001
  0.262274308447678E-001 -0.705197557392050E+001  0.290617803605183E+001
  0.262274308447678E-001 -0.705641807595583E+001  0.290439072545990E+001
  0.262274308447678E-001 -0.706404673868914E+001  0.290130160581867E+001
  0.262274308447678E-001 -0.708382332523153E+001  0.289317012293604E+001
  0.262274308447678E-001 -0.709107655570915E+001  0.289014079543400E+001
  0.262274308447678E-001 -0.387496205294859E+001  0.287305311033696E+001
  0.262274308447678E-001 -0.388877403276554E+001  0.286689038615593E+001
