  0.642424680382416E-002  0.137878407904858E+001  0.604446136967449E+001
  0.642424680382416E-002  0.571219669754261E+001  0.898652880915931E+001
  0.642424680382416E-002  0.245761820442040E+001  0.657703514895245E+001
  0.642424680382416E-002 -0.581276452734304E+001  0.372219817383888E+001
  0.642424680382416E-002 -0.187039772546164E+001  0.476779366501767E+001
  0.642424680382416E-002 -0.203109611528729E+001  0.471916155640867E+001
  0.642424680382416E-002 -0.224900518579223E+001  0.465432298372992E+001
  0.642424680382416E-002 -0.233605023930896E+001  0.462876575560169E+001
  0.642424680382416E-002 -0.241660398370911E+001  0.460528336246345E+001
  0.642424680382416E-002 -0.242956312234955E+001  0.460152055266144E+001
  0.642424680382416E-002 -0.580708223375187E+001  0.372356680061241E+001
  0.642424680382416E-002 -0.567610025525528E+001  0.375515209122042E+001
  0.642424680382416E-002 -0.563183279861416E+001  0.376584487387066E+001
  0.642424680382416E-002 -0.562656939365365E+001  0.210811638699498E+001
  0.642424680382416E-002 -0.557612689868823E+001  0.210527502157941E+001
  0.642424680382416E-002 -0.303867781421962E+001  0.442905982508389E+001
  0.642424680382416E-002 -0.307706586139691E+001  0.441846343895118E+001
  0.642424680382416E-002 -0.555902648859364E+001  0.210431838592943E+001
  0.642424680382416E-002 -0.313738371596500E+001  0.440187490356437E+001
  0.642424680382416E-002 -0.548735952089562E+001  0.210034483998521E+001
  0.642424680382416E-002 -0.544932917617114E+001  0.381004398788796E+001
  0.642424680382416E-002 -0.376449783695057E+001  0.423354512192618E+001
  0.642424680382416E-002 -0.525747222068657E+001  0.385674573460589E+001
  0.642424680382416E-002 -0.402315936908430E+001  0.416611341615698E+001
  0.642424680382416E-002 -0.520402083330709E+001  0.386980681950606E+001
  0.642424680382416E-002 -0.517559165597691E+001  0.387676321111759E+001
  0.642424680382416E-002 -0.414572612971958E+001  0.413452488266828E+001
  0.642424680382416E-002 -0.433728231681598E+001  0.408559275293584E+001
  0.642424680382416E-002 -0.463929795541182E+001  0.400943959643679E+001
  0.642424680382416E-002 -0.466025462353209E+001  0.400419723689639E+001
  0.642424680382416E-002 -0.466234751757583E+001  0.400367397763240E+001
  0.642424680382416E-002 -0.468971002690541E+001  0.399683757229193E+001
  0.642424680382416E-002 -0.477383128066077E+001  0.397587374803856E+001
  0.642424680382416E-002 -0.484709444053817E+001  0.395767952605275E+001
  0.642424680382416E-002 -0.515973602182073E+001  0.388064592825270E+001
  0.642424680382416E-002 -0.513326520693479E+001  0.388713291129945E+001
  0.642424680382416E-002 -0.512065785293088E+001  0.389022464339399E+001
  0.642424680382416E-002 -0.592672677523410E+001  0.369477299224225E+001
  0.642424680382416E-002 -0.612174152186345E+001  0.364791840391717E+001
  0.642424680382416E-002 -0.616657782536450E+001  0.363715359960046E+001
  0.642424680382416E-002 -0.626941198870413E+001  0.361246617579658E+001
  0.642424680382416E-002 -0.630593263223231E+001  0.360369773189619E+001
  0.642424680382416E-002 -0.640150549850009E+001  0.215596548140114E+001
  0.642424680382416E-002 -0.644461741295915E+001  0.357038320954101E+001
  0.642424680382416E-002 -0.644867599397421E+001  0.356940766178318E+001
  0.642424680382416E-002 -0.662162108455137E+001  0.217127766564712E+001
  0.642424680382416E-002 -0.673942711167703E+001  0.349935252539107E+001
  0.642424680382416E-002 -0.675893910694663E+001  0.349463491963614E+001
  0.642424680382416E-002 -0.684685221914566E+001  0.347334446699423E+001
  0.642424680382416E-002 -0.695327683139459E+001  0.344748228191903E+001
  0.642424680382416E-002 -0.702850929174326E+001  0.342913043168410E+001
  0.642424680382416E-002 -0.716248378428992E+001  0.221325643467812E+001
  0.642424680382416E-002 -0.721697013283537E+001  0.338284304715339E+001
  0.642424680382416E-002 -0.722822723740340E+001  0.221886658692591E+001
  0.642424680382416E-002 -0.729554088280523E+001  0.336338523145673E+001
  0.642424680382416E-002 -0.731945058941252E+001  0.222686668526344E+001
  0.642424680382416E-002 -0.732296641199052E+001  0.335656757982708E+001
  0.642424680382416E-002 -0.735139198468304E+001  0.334948625500969E+001
  0.642424680382416E-002 -0.739133108507263E+001  0.223335828227748E+001
  0.642424680382416E-002 -0.744295515298682E+001  0.223812895353393E+001
  0.642424680382416E-002 -0.746089572479657E+001  0.332205104384195E+001
  0.642424680382416E-002 -0.747978486321331E+001  0.331729150054724E+001
  0.642424680382416E-002 -0.753098052783045E+001  0.330434795896850E+001
  0.642424680382416E-002 -0.755976472226123E+001  0.329704121185697E+001
  0.642424680382416E-002 -0.757792148903918E+001  0.329242078463932E+001
  0.642424680382416E-002 -0.757912162478335E+001  0.329211506287177E+001
  0.642424680382416E-002 -0.758806377158369E+001  0.328983588668537E+001
  0.642424680382416E-002 -0.764164892564708E+001  0.225742202462012E+001
  0.642424680382416E-002 -0.764935453202438E+001  0.327415216473962E+001
  0.642424680382416E-002 -0.765670733613366E+001  0.327226311279262E+001
  0.642424680382416E-002 -0.768514228197574E+001  0.326494179033626E+001
  0.642424680382416E-002 -0.769384419423940E+001  0.326269608361384E+001
  0.642424680382416E-002 -0.771262045424941E+001  0.325784200051439E+001
  0.642424680382416E-002 -0.783583808800661E+001  0.322567728920017E+001
  0.642424680382416E-002 -0.790742821677651E+001  0.228596781901215E+001
  0.642424680382416E-002 -0.791616563740007E+001  0.228696887932077E+001
  0.642424680382416E-002 -0.791970089672940E+001  0.320344091641882E+001
  0.642424680382416E-002 -0.792416541546678E+001  0.320224844287233E+001
  0.642424680382416E-002 -0.796533115578824E+001  0.229268572249527E+001
  0.642424680382416E-002 -0.798730145126255E+001  0.318528304045913E+001
  0.642424680382416E-002 -0.799811394090811E+001  0.229657973982668E+001
  0.642424680382416E-002 -0.800894820177019E+001  0.229788166590606E+001
  0.642424680382416E-002 -0.805503271139907E+001  0.316685581722030E+001
  0.642424680382416E-002 -0.805995161457375E+001  0.230411489338847E+001
  0.642424680382416E-002 -0.807876256324815E+001  0.230645878617036E+001
  0.642424680382416E-002 -0.808639542987758E+001  0.315823638030694E+001
  0.642424680382416E-002 -0.813640809545689E+001  0.314436808992239E+001
  0.642424680382416E-002 -0.815189502862472E+001  0.314004120057966E+001
  0.642424680382416E-002 -0.816151785971035E+001  0.313734462148281E+001
  0.642424680382416E-002 -0.816633215728181E+001  0.313599316594660E+001
  0.642424680382416E-002 -0.817301923717296E+001  0.313411334680922E+001
  0.642424680382416E-002 -0.819704565368429E+001  0.232180228046908E+001
  0.642424680382416E-002 -0.820186941384743E+001  0.232245170577685E+001
  0.642424680382416E-002 -0.821217775788709E+001  0.312304189732892E+001
  0.642424680382416E-002 -0.823601060515366E+001  0.311624819383569E+001
  0.642424680382416E-002 -0.825866241182762E+001  0.310975030114810E+001
  0.642424680382416E-002 -0.827571184155540E+001  0.310483220974616E+001
  0.642424680382416E-002 -0.830599498759830E+001  0.233697727368136E+001
  0.642424680382416E-002 -0.833085515222623E+001  0.234059920641071E+001
  0.642424680382416E-002 -0.833706430017308E+001  0.234151379745527E+001
  0.642424680382416E-002 -0.836100653368848E+001  0.307984709586596E+001
  0.642424680382416E-002 -0.838385361214650E+001  0.234853976207021E+001
  0.642424680382416E-002 -0.839873950227848E+001  0.306857225289287E+001
  0.642424680382416E-002 -0.843542371076189E+001  0.235657561126347E+001
  0.642424680382416E-002 -0.843555236527030E+001  0.305742647941056E+001
  0.642424680382416E-002 -0.844556283544661E+001  0.305436920616859E+001
  0.642424680382416E-002 -0.845632164749377E+001  0.235992586251155E+001
  0.642424680382416E-002 -0.846127345407682E+001  0.304954725253157E+001
  0.642424680382416E-002 -0.847810979364134E+001  0.304434648081944E+001
  0.642424680382416E-002 -0.852612505401550E+001  0.237154740663993E+001
  0.642424680382416E-002 -0.853697729047539E+001  0.302587198145977E+001
  0.642424680382416E-002 -0.853705300715506E+001  0.302584791113231E+001
  0.642424680382416E-002 -0.853768891133294E+001  0.302564572452736E+001
  0.642424680382416E-002 -0.854069232552759E+001  0.302468999245797E+001
  0.642424680382416E-002 -0.855713977066848E+001  0.301943259372247E+001
  0.642424680382416E-002 -0.855791944884477E+001  0.237708036193938E+001
  0.642424680382416E-002 -0.859073523267263E+001  0.300856446007380E+001
  0.642424680382416E-002 -0.861511191447352E+001  0.300056281801792E+001
  0.642424680382416E-002 -0.862629694115842E+001  0.238955595467954E+001
  0.642424680382416E-002 -0.863300963142420E+001  0.299462171536239E+001
  0.642424680382416E-002 -0.863624201224767E+001  0.239144194993800E+001
  0.642424680382416E-002 -0.863755065569283E+001  0.299310504411292E+001
  0.642424680382416E-002 -0.865882632561143E+001  0.298594700384025E+001
  0.642424680382416E-002 -0.802420620657853E+001  0.256672879589374E+001
  0.642424680382416E-002 -0.802780552521228E+001  0.256954837871622E+001
  0.642424680382416E-002 -0.803296965442176E+001  0.257379683463585E+001
  0.642424680382416E-002 -0.803391832396572E+001  0.257460614661630E+001
  0.642424680382416E-002 -0.803601094267293E+001  0.257642611894802E+001
  0.642424680382416E-002 -0.803875067339384E+001  0.257888649807366E+001
  0.642424680382416E-002 -0.804019914142871E+001  0.258022579464692E+001
  0.642424680382416E-002 -0.804216654712986E+001  0.258209126135251E+001
  0.642424680382416E-002 -0.804457302575644E+001  0.258445194855769E+001
  0.642424680382416E-002 -0.804562129084870E+001  0.258550970471123E+001
  0.642424680382416E-002 -0.804657874382128E+001  0.258649255296673E+001
  0.642424680382416E-002 -0.805694013612198E+001  0.270537268907762E+001
  0.642424680382416E-002 -0.806073659939486E+001  0.269966215817898E+001
  0.642424680382416E-002 -0.806375042052898E+001  0.269464465433099E+001
  0.642424680382416E-002 -0.806683724621360E+001  0.261355568973162E+001
  0.642424680382416E-002 -0.806692866931604E+001  0.268869305408482E+001
  0.642424680382416E-002 -0.806716737621105E+001  0.268821032612606E+001
  0.642424680382416E-002 -0.806751879134057E+001  0.261484978617017E+001
  0.642424680382416E-002 -0.806797427535097E+001  0.261574287815480E+001
  0.642424680382416E-002 -0.806856996946638E+001  0.261694853454843E+001
  0.642424680382416E-002 -0.806863497284189E+001  0.268510260811189E+001
  0.642424680382416E-002 -0.806927197112889E+001  0.268366777825064E+001
  0.642424680382416E-002 -0.757013227339518E+001  0.266373602952980E+001
  0.642424680382416E-002 -0.757077635865332E+001  0.264174249370496E+001
  0.642424680382416E-002 -0.757094639203084E+001  0.265788419545635E+001
  0.642424680382416E-002 -0.757115838648268E+001  0.265531658879194E+001
  0.642424680382416E-002 -0.757116927861894E+001  0.264596815827923E+001
  0.642424680382416E-002 -0.757120745426439E+001  0.264661627581435E+001
