  0.131987305650021E+000  0.782631964794247E+001  0.792890806710408E+001
  0.131987305650021E+000  0.233584941789749E+001  0.505223143322806E+001
  0.131987305650021E+000  0.215790529105062E+001  0.499355907798305E+001
  0.131987305650021E+000  0.102218814984031E+001  0.464211879860693E+001
  0.131987305650021E+000  0.980584380678659E+000  0.462992330483528E+001
  0.131987305650021E+000  0.368643464892392E+000  0.445531629803872E+001
  0.131987305650021E+000  0.122199736346007E+000  0.438733394679904E+001
  0.131987305650021E+000  0.758533100319110E-001  0.437468712322607E+001
  0.131987305650021E+000 -0.604059978357523E+000  0.419372727233256E+001
  0.131987305650021E+000 -0.747415045705949E+000  0.415657090113505E+001
  0.131987305650021E+000 -0.107006469416673E+001  0.407405467576576E+001
  0.131987305650021E+000 -0.109250034093174E+001  0.406837056618862E+001
  0.131987305650021E+000 -0.141679527809104E+001  0.398691823490024E+001
  0.131987305650021E+000 -0.149537364793201E+001  0.396736821463119E+001
  0.131987305650021E+000 -0.177799388022415E+001  0.389758384537072E+001
  0.131987305650021E+000 -0.200394079425715E+001  0.384231939414534E+001
  0.131987305650021E+000 -0.209547655180643E+001  0.382004451513538E+001
  0.131987305650021E+000 -0.210301981713098E+001  0.381821153976199E+001
  0.131987305650021E+000 -0.222877207968840E+001  0.378770929900284E+001
  0.131987305650021E+000 -0.227817764670376E+001  0.377575199334702E+001
  0.131987305650021E+000 -0.235556661211705E+001  0.375704889345785E+001
  0.131987305650021E+000 -0.258583615176071E+001  0.370155853342632E+001
  0.131987305650021E+000 -0.259330881056291E+001  0.369976102353011E+001
  0.131987305650021E+000 -0.259722252737460E+001  0.369881966511974E+001
  0.131987305650021E+000 -0.267227938392228E+001  0.368077443069271E+001
  0.131987305650021E+000 -0.267797875078433E+001  0.367940474964303E+001
  0.131987305650021E+000 -0.268283610602730E+001  0.367823747852191E+001
  0.131987305650021E+000 -0.271379335015927E+001  0.367079928955837E+001
  0.131987305650021E+000 -0.277350064396292E+001  0.365645802940352E+001
  0.131987305650021E+000 -0.285654666909930E+001  0.363651814820942E+001
  0.131987305650021E+000 -0.287066795631146E+001  0.363312801127193E+001
  0.131987305650021E+000 -0.298223007454709E+001  0.360634478839083E+001
  0.131987305650021E+000 -0.301760792123707E+001  0.359784989874090E+001
  0.131987305650021E+000 -0.317376516073580E+001  0.356032745963709E+001
  0.131987305650021E+000 -0.320279545396207E+001  0.355334481260930E+001
  0.131987305650021E+000 -0.324981128802068E+001  0.354202966884286E+001
  0.131987305650021E+000 -0.327668272526474E+001  0.353555858363298E+001
  0.131987305650021E+000 -0.336736605888976E+001  0.351369491385609E+001
  0.131987305650021E+000 -0.343011566129584E+001  0.349853874027722E+001
  0.131987305650021E+000 -0.347629201464435E+001  0.348736879020693E+001
  0.131987305650021E+000 -0.349819800191189E+001  0.348206429418201E+001
  0.131987305650021E+000 -0.355442143574317E+001  0.346843222192845E+001
  0.131987305650021E+000 -0.370142715806242E+001  0.343264903361808E+001
  0.131987305650021E+000 -0.371663940551740E+001  0.342893294815284E+001
  0.131987305650021E+000 -0.372958074864356E+001  0.342576944409018E+001
  0.131987305650021E+000 -0.378452845934718E+001  0.341231430736352E+001
  0.131987305650021E+000 -0.383153101450625E+001  0.340077293216803E+001
  0.131987305650021E+000 -0.391210587997193E+001  0.338091265429113E+001
  0.131987305650021E+000 -0.391286967940012E+001  0.338072390437581E+001
  0.131987305650021E+000 -0.394174236586562E+001  0.337358179421029E+001
  0.131987305650021E+000 -0.405924504695900E+001  0.334436167317956E+001
  0.131987305650021E+000 -0.407571855297090E+001  0.334024365668458E+001
  0.131987305650021E+000 -0.408268889581201E+001  0.333849952142303E+001
  0.131987305650021E+000 -0.409699780466982E+001  0.333491588246852E+001
  0.131987305650021E+000 -0.412046436806479E+001  0.332902911030433E+001
  0.131987305650021E+000 -0.413782944336156E+001  0.332466504156987E+001
  0.131987305650021E+000 -0.415370848859665E+001  0.332066838204887E+001
  0.131987305650021E+000 -0.420501901293905E+001  0.330771265247472E+001
  0.131987305650021E+000 -0.421574655314176E+001  0.330499572847953E+001
  0.131987305650021E+000 -0.422157762815079E+001  0.330351767591963E+001
  0.131987305650021E+000 -0.422197848185471E+001  0.330341603580086E+001
  0.131987305650021E+000 -0.424043904879134E+001  0.329873063460454E+001
  0.131987305650021E+000 -0.434164450141678E+001  0.327287599000155E+001
  0.131987305650021E+000 -0.438304068360834E+001  0.326221200248922E+001
  0.131987305650021E+000 -0.439563472497882E+001  0.325895667407231E+001
  0.131987305650021E+000 -0.439623057279338E+001  0.325880252775707E+001
  0.131987305650021E+000 -0.443794900207657E+001  0.324797979793401E+001
  0.131987305650021E+000 -0.444600949724545E+001  0.324588169590821E+001
  0.131987305650021E+000 -0.445024702284297E+001  0.324477775503259E+001
  0.131987305650021E+000 -0.448623317056217E+001  0.323537616274699E+001
  0.131987305650021E+000 -0.455000359603063E+001  0.321859239493922E+001
  0.131987305650021E+000 -0.458253850080791E+001  0.320996458482164E+001
  0.131987305650021E+000 -0.461974645291944E+001  0.320004001078101E+001
  0.131987305650021E+000 -0.467384644081872E+001  0.318549302080579E+001
  0.131987305650021E+000 -0.468168981993407E+001  0.318337191793607E+001
  0.131987305650021E+000 -0.468716706083620E+001  0.318188881444932E+001
  0.131987305650021E+000 -0.473414408854753E+001  0.316910297521976E+001
  0.131987305650021E+000 -0.473455736375681E+001  0.316898995681275E+001
  0.131987305650021E+000 -0.475102402842770E+001  0.316447893791167E+001
  0.131987305650021E+000 -0.475572401580556E+001  0.316318852998625E+001
  0.131987305650021E+000 -0.476033972423417E+001  0.316192001064936E+001
  0.131987305650021E+000 -0.476352247594122E+001  0.316104457899889E+001
  0.131987305650021E+000 -0.477619768465570E+001  0.315755224661063E+001
  0.131987305650021E+000 -0.478031612931293E+001  0.315641544240779E+001
  0.131987305650021E+000 -0.486685986627173E+001  0.313227788545493E+001
  0.131987305650021E+000 -0.489257056358434E+001  0.312500909172647E+001
  0.131987305650021E+000 -0.493288092530787E+001  0.311351410912442E+001
  0.131987305650021E+000 -0.494364285031706E+001  0.311042388773108E+001
  0.131987305650021E+000 -0.497366948227365E+001  0.310175198917473E+001
  0.131987305650021E+000 -0.497507988566419E+001  0.310134279946267E+001
  0.131987305650021E+000 -0.506265262320010E+001  0.307558405702230E+001
  0.131987305650021E+000 -0.506569287150181E+001  0.307467658615237E+001
  0.131987305650021E+000 -0.507016131830948E+001  0.307334110629719E+001
  0.131987305650021E+000 -0.508978687480035E+001  0.306745105845336E+001
  0.131987305650021E+000 -0.512353011731497E+001  0.305722655402008E+001
  0.131987305650021E+000 -0.521813710735723E+001  0.302782816671068E+001
  0.131987305650021E+000 -0.523305674645599E+001  0.302308244652827E+001
  0.131987305650021E+000 -0.524284321268078E+001  0.301995174800735E+001
  0.131987305650021E+000 -0.525456898492509E+001  0.301618157390992E+001
  0.131987305650021E+000 -0.527371054365905E+001  0.300998076700569E+001
  0.131987305650021E+000 -0.529429168851333E+001  0.300324679132315E+001
  0.131987305650021E+000 -0.535299635261025E+001  0.298362419196302E+001
  0.131987305650021E+000 -0.535448719146546E+001  0.298311726005915E+001
  0.131987305650021E+000 -0.539645587356127E+001  0.296865398682326E+001
  0.131987305650021E+000 -0.540058707963160E+001  0.296720920736584E+001
  0.131987305650021E+000 -0.540475716101091E+001  0.296574680289867E+001
  0.131987305650021E+000 -0.541800385299073E+001  0.296107386116266E+001
  0.131987305650021E+000 -0.545122217477546E+001  0.294916168801879E+001
  0.131987305650021E+000 -0.547119910648056E+001  0.294185421701734E+001
  0.131987305650021E+000 -0.552386585405531E+001  0.292200318317955E+001
  0.131987305650021E+000 -0.554043506762787E+001  0.291556170966690E+001
  0.131987305650021E+000 -0.554083396911434E+001  0.291540536579644E+001
  0.131987305650021E+000 -0.556409907381041E+001  0.290617803605183E+001
  0.131987305650021E+000 -0.556854157584574E+001  0.290439072545990E+001
  0.131987305650021E+000 -0.557617023857905E+001  0.290130160581867E+001
  0.131987305650021E+000 -0.559594682512144E+001  0.289317012293604E+001
  0.131987305650021E+000 -0.560320005559906E+001  0.289014079543400E+001
  0.131987305650021E+000 -0.561860856119475E+001  0.250530839325503E+001
  0.131987305650021E+000 -0.562077884092193E+001  0.281766302259498E+001
  0.131987305650021E+000 -0.562660261388182E+001  0.250859114527803E+001
  0.131987305650021E+000 -0.562959666264403E+001  0.281278522845664E+001
  0.131987305650021E+000 -0.563803221287414E+001  0.280800877082828E+001
  0.131987305650021E+000 -0.563844483010418E+001  0.280777220772290E+001
  0.131987305650021E+000 -0.565013937394632E+001  0.280094554946971E+001
  0.131987305650021E+000 -0.565059288120574E+001  0.280067585406083E+001
  0.131987305650021E+000 -0.565075230388215E+001  0.251911614133831E+001
  0.131987305650021E+000 -0.565305499768463E+001  0.279920484303070E+001
  0.131987305650021E+000 -0.565576031434606E+001  0.279757496287564E+001
  0.131987305650021E+000 -0.566175673728103E+001  0.279390938916058E+001
  0.131987305650021E+000 -0.566299653936175E+001  0.279314204649298E+001
  0.131987305650021E+000 -0.566699433191099E+001  0.252680409627135E+001
  0.131987305650021E+000 -0.567286027343248E+001  0.278691316657919E+001
  0.131987305650021E+000 -0.567361680286435E+001  0.278642585369402E+001
  0.131987305650021E+000 -0.567453391492487E+001  0.278583318008271E+001
  0.131987305650021E+000 -0.567539836522743E+001  0.278527258720909E+001
  0.131987305650021E+000 -0.568510026884737E+001  0.277884384181242E+001
  0.131987305650021E+000 -0.569289034604976E+001  0.254038716971198E+001
  0.131987305650021E+000 -0.569472801613224E+001  0.254142675647788E+001
  0.131987305650021E+000 -0.569587024287785E+001  0.277137949859887E+001
  0.131987305650021E+000 -0.569860844475558E+001  0.254366059994794E+001
  0.131987305650021E+000 -0.570211923753825E+001  0.276686656161921E+001
  0.131987305650021E+000 -0.570328348401922E+001  0.254642580823847E+001
  0.131987305650021E+000 -0.570415922664434E+001  0.276536111500947E+001
  0.131987305650021E+000 -0.570602508868937E+001  0.276396942372836E+001
  0.131987305650021E+000 -0.570622884903346E+001  0.276381656971735E+001
  0.131987305650021E+000 -0.570757361611937E+001  0.254904008393033E+001
  0.131987305650021E+000 -0.570899373281560E+001  0.276172488304104E+001
  0.131987305650021E+000 -0.570922645912463E+001  0.276154729709711E+001
  0.131987305650021E+000 -0.570997744500844E+001  0.255053934933322E+001
  0.131987305650021E+000 -0.572156575196528E+001  0.275175478528173E+001
  0.131987305650021E+000 -0.572911548746166E+001  0.256353557900949E+001
  0.131987305650021E+000 -0.573094297472121E+001  0.274372895646563E+001
  0.131987305650021E+000 -0.573530841134611E+001  0.273977997532283E+001
  0.131987305650021E+000 -0.574065540852946E+001  0.273472304057383E+001
  0.131987305650021E+000 -0.574427847305242E+001  0.273113813621187E+001
  0.131987305650021E+000 -0.574697648246567E+001  0.272837362882082E+001
  0.131987305650021E+000 -0.575179528059954E+001  0.258255090954782E+001
  0.131987305650021E+000 -0.575316604225615E+001  0.258389452563783E+001
  0.131987305650021E+000 -0.575350815992754E+001  0.272128478114347E+001
  0.131987305650021E+000 -0.575602804361924E+001  0.271837284290730E+001
  0.131987305650021E+000 -0.575714990972595E+001  0.271703937694679E+001
  0.131987305650021E+000 -0.575811763710710E+001  0.258901661368599E+001
  0.131987305650021E+000 -0.575870297790235E+001  0.271515221839862E+001
  0.131987305650021E+000 -0.576282715205671E+001  0.270987717815263E+001
  0.131987305650021E+000 -0.576338906574895E+001  0.259503692617709E+001
  0.131987305650021E+000 -0.576341608469110E+001  0.270908850058998E+001
  0.131987305650021E+000 -0.576431507348998E+001  0.270786540369467E+001
  0.131987305650021E+000 -0.577305147596358E+001  0.269438416408299E+001
  0.131987305650021E+000 -0.577358286372815E+001  0.269343767426387E+001
  0.131987305650021E+000 -0.577539061746103E+001  0.269005883919825E+001
  0.131987305650021E+000 -0.577659210034211E+001  0.261469613130968E+001
  0.131987305650021E+000 -0.577672084636239E+001  0.268738680902668E+001
  0.131987305650021E+000 -0.563049787911523E+001  0.268636975963604E+001
  0.131987305650021E+000 -0.563056119237353E+001  0.268623443248345E+001
  0.131987305650021E+000 -0.563159130163606E+001  0.268395964961874E+001
  0.131987305650021E+000 -0.563520296039857E+001  0.262720617773295E+001
  0.131987305650021E+000 -0.563553875833293E+001  0.262824134423816E+001
  0.131987305650021E+000 -0.563587621723023E+001  0.262933415538538E+001
  0.131987305650021E+000 -0.563620378790590E+001  0.263045351893257E+001
  0.131987305650021E+000 -0.563627818070659E+001  0.267075595042615E+001
  0.131987305650021E+000 -0.563753985989578E+001  0.266539219188248E+001
  0.131987305650021E+000 -0.563815200206223E+001  0.266193673537048E+001
  0.131987305650021E+000 -0.563821532196376E+001  0.263968855807798E+001
  0.131987305650021E+000 -0.563884813927528E+001  0.264534993604623E+001
  0.131987305650021E+000 -0.563890426994464E+001  0.265491380059166E+001
  0.131987305650021E+000 -0.563891634387112E+001  0.264640430753211E+001
