  0.116505233827309E-001  0.197349118679527E+001  0.604446136967449E+001
  0.116505233827309E-001  0.630690380528930E+001  0.898652880915931E+001
  0.116505233827309E-001  0.305232531216709E+001  0.657703514895245E+001
  0.116505233827309E-001 -0.521805741959635E+001  0.372219817383888E+001
  0.116505233827309E-001 -0.127569061771494E+001  0.476779366501767E+001
  0.116505233827309E-001 -0.143638900754060E+001  0.471916155640867E+001
  0.116505233827309E-001 -0.165429807804554E+001  0.465432298372992E+001
  0.116505233827309E-001 -0.174134313156227E+001  0.462876575560169E+001
  0.116505233827309E-001 -0.182189687596242E+001  0.460528336246345E+001
  0.116505233827309E-001 -0.183485601460285E+001  0.460152055266144E+001
  0.116505233827309E-001 -0.521237512600517E+001  0.372356680061241E+001
  0.116505233827309E-001 -0.508139314750858E+001  0.375515209122042E+001
  0.116505233827309E-001 -0.503712569086747E+001  0.376584487387066E+001
  0.116505233827309E-001 -0.503186228590696E+001  0.210811638699498E+001
  0.116505233827309E-001 -0.498141979094154E+001  0.210527502157941E+001
  0.116505233827309E-001 -0.244397070647292E+001  0.442905982508389E+001
  0.116505233827309E-001 -0.248235875365022E+001  0.441846343895118E+001
  0.116505233827309E-001 -0.496431938084694E+001  0.210431838592943E+001
  0.116505233827309E-001 -0.254267660821831E+001  0.440187490356437E+001
  0.116505233827309E-001 -0.489265241314892E+001  0.210034483998521E+001
  0.116505233827309E-001 -0.485462206842445E+001  0.381004398788796E+001
  0.116505233827309E-001 -0.316979072920387E+001  0.423354512192618E+001
  0.116505233827309E-001 -0.466276511293988E+001  0.385674573460589E+001
  0.116505233827309E-001 -0.342845226133761E+001  0.416611341615698E+001
  0.116505233827309E-001 -0.460931372556040E+001  0.386980681950606E+001
  0.116505233827309E-001 -0.458088454823021E+001  0.387676321111759E+001
  0.116505233827309E-001 -0.355101902197288E+001  0.413452488266828E+001
  0.116505233827309E-001 -0.374257520906929E+001  0.408559275293584E+001
  0.116505233827309E-001 -0.404459084766513E+001  0.400943959643679E+001
  0.116505233827309E-001 -0.406554751578539E+001  0.400419723689639E+001
  0.116505233827309E-001 -0.406764040982914E+001  0.400367397763240E+001
  0.116505233827309E-001 -0.409500291915871E+001  0.399683757229193E+001
  0.116505233827309E-001 -0.417912417291408E+001  0.397587374803856E+001
  0.116505233827309E-001 -0.425238733279148E+001  0.395767952605275E+001
  0.116505233827309E-001 -0.456502891407403E+001  0.388064592825270E+001
  0.116505233827309E-001 -0.453855809918810E+001  0.388713291129945E+001
  0.116505233827309E-001 -0.452595074518419E+001  0.389022464339399E+001
  0.116505233827309E-001 -0.533201966748741E+001  0.369477299224225E+001
  0.116505233827309E-001 -0.552703441411676E+001  0.364791840391717E+001
  0.116505233827309E-001 -0.557187071761781E+001  0.363715359960046E+001
  0.116505233827309E-001 -0.567470488095743E+001  0.361246617579658E+001
  0.116505233827309E-001 -0.571122552448562E+001  0.360369773189619E+001
  0.116505233827309E-001 -0.580679839075340E+001  0.215596548140114E+001
  0.116505233827309E-001 -0.584991030521246E+001  0.357038320954101E+001
  0.116505233827309E-001 -0.585396888622751E+001  0.356940766178318E+001
  0.116505233827309E-001 -0.602691397680468E+001  0.217127766564712E+001
  0.116505233827309E-001 -0.614472000393034E+001  0.349935252539107E+001
  0.116505233827309E-001 -0.616423199919993E+001  0.349463491963614E+001
  0.116505233827309E-001 -0.625214511139896E+001  0.347334446699423E+001
  0.116505233827309E-001 -0.635856972364790E+001  0.344748228191903E+001
  0.116505233827309E-001 -0.643380218399657E+001  0.342913043168410E+001
  0.116505233827309E-001 -0.656777667654322E+001  0.221325643467812E+001
  0.116505233827309E-001 -0.662226302508868E+001  0.338284304715339E+001
  0.116505233827309E-001 -0.663352012965671E+001  0.221886658692591E+001
  0.116505233827309E-001 -0.670083377505853E+001  0.336338523145673E+001
  0.116505233827309E-001 -0.672474348166582E+001  0.222686668526344E+001
  0.116505233827309E-001 -0.672825930424382E+001  0.335656757982708E+001
  0.116505233827309E-001 -0.675668487693634E+001  0.334948625500969E+001
  0.116505233827309E-001 -0.679662397732593E+001  0.223335828227748E+001
  0.116505233827309E-001 -0.684824804524012E+001  0.223812895353393E+001
  0.116505233827309E-001 -0.686618861704988E+001  0.332205104384195E+001
  0.116505233827309E-001 -0.688507775546662E+001  0.331729150054724E+001
  0.116505233827309E-001 -0.693627342008375E+001  0.330434795896850E+001
  0.116505233827309E-001 -0.696505761451454E+001  0.329704121185697E+001
  0.116505233827309E-001 -0.698321438129249E+001  0.329242078463932E+001
  0.116505233827309E-001 -0.698441451703665E+001  0.329211506287177E+001
  0.116505233827309E-001 -0.699335666383699E+001  0.328983588668537E+001
  0.116505233827309E-001 -0.704694181790039E+001  0.225742202462012E+001
  0.116505233827309E-001 -0.705464742427769E+001  0.327415216473962E+001
  0.116505233827309E-001 -0.706200022838697E+001  0.327226311279262E+001
  0.116505233827309E-001 -0.709043517422905E+001  0.326494179033626E+001
  0.116505233827309E-001 -0.709913708649271E+001  0.326269608361384E+001
  0.116505233827309E-001 -0.711791334650272E+001  0.325784200051439E+001
  0.116505233827309E-001 -0.724113098025991E+001  0.322567728920017E+001
  0.116505233827309E-001 -0.731272110902982E+001  0.228596781901215E+001
  0.116505233827309E-001 -0.732145852965338E+001  0.228696887932077E+001
  0.116505233827309E-001 -0.732499378898271E+001  0.320344091641882E+001
  0.116505233827309E-001 -0.732945830772009E+001  0.320224844287233E+001
  0.116505233827309E-001 -0.737062404804154E+001  0.229268572249527E+001
  0.116505233827309E-001 -0.739259434351586E+001  0.318528304045913E+001
  0.116505233827309E-001 -0.740340683316142E+001  0.229657973982668E+001
  0.116505233827309E-001 -0.741424109402350E+001  0.229788166590606E+001
  0.116505233827309E-001 -0.746032560365238E+001  0.316685581722030E+001
  0.116505233827309E-001 -0.746524450682706E+001  0.230411489338847E+001
  0.116505233827309E-001 -0.748405545550145E+001  0.230645878617036E+001
  0.116505233827309E-001 -0.749168832213089E+001  0.315823638030694E+001
  0.116505233827309E-001 -0.754170098771020E+001  0.314436808992239E+001
  0.116505233827309E-001 -0.755718792087803E+001  0.314004120057966E+001
  0.116505233827309E-001 -0.756681075196366E+001  0.313734462148281E+001
  0.116505233827309E-001 -0.757162504953511E+001  0.313599316594660E+001
  0.116505233827309E-001 -0.757831212942627E+001  0.313411334680922E+001
  0.116505233827309E-001 -0.760233854593759E+001  0.232180228046908E+001
  0.116505233827309E-001 -0.760716230610073E+001  0.232245170577685E+001
  0.116505233827309E-001 -0.761747065014039E+001  0.312304189732892E+001
  0.116505233827309E-001 -0.764130349740697E+001  0.311624819383569E+001
  0.116505233827309E-001 -0.766395530408093E+001  0.310975030114810E+001
  0.116505233827309E-001 -0.768100473380871E+001  0.310483220974616E+001
  0.116505233827309E-001 -0.771128787985160E+001  0.233697727368136E+001
  0.116505233827309E-001 -0.773614804447953E+001  0.234059920641071E+001
  0.116505233827309E-001 -0.774235719242639E+001  0.234151379745527E+001
  0.116505233827309E-001 -0.776629942594179E+001  0.307984709586596E+001
  0.116505233827309E-001 -0.778914650439981E+001  0.234853976207021E+001
  0.116505233827309E-001 -0.780403239453178E+001  0.306857225289287E+001
  0.116505233827309E-001 -0.784071660301519E+001  0.235657561126347E+001
  0.116505233827309E-001 -0.784084525752361E+001  0.305742647941056E+001
  0.116505233827309E-001 -0.785085572769991E+001  0.305436920616859E+001
  0.116505233827309E-001 -0.786161453974708E+001  0.235992586251155E+001
  0.116505233827309E-001 -0.786656634633013E+001  0.304954725253157E+001
  0.116505233827309E-001 -0.788340268589464E+001  0.304434648081944E+001
  0.116505233827309E-001 -0.793141794626881E+001  0.237154740663993E+001
  0.116505233827309E-001 -0.794227018272869E+001  0.302587198145977E+001
  0.116505233827309E-001 -0.794234589940837E+001  0.302584791113231E+001
  0.116505233827309E-001 -0.794298180358625E+001  0.302564572452736E+001
  0.116505233827309E-001 -0.794598521778090E+001  0.302468999245797E+001
  0.116505233827309E-001 -0.796243266292179E+001  0.301943259372247E+001
  0.116505233827309E-001 -0.796321234109808E+001  0.237708036193938E+001
  0.116505233827309E-001 -0.799602812492594E+001  0.300856446007380E+001
  0.116505233827309E-001 -0.802040480672683E+001  0.300056281801792E+001
  0.116505233827309E-001 -0.803158983341173E+001  0.238955595467954E+001
  0.116505233827309E-001 -0.803830252367751E+001  0.299462171536239E+001
  0.116505233827309E-001 -0.804153490450097E+001  0.239144194993800E+001
  0.116505233827309E-001 -0.804284354794614E+001  0.299310504411292E+001
  0.116505233827309E-001 -0.806411921786474E+001  0.298594700384025E+001
  0.116505233827309E-001 -0.742949909883183E+001  0.256672879589374E+001
  0.116505233827309E-001 -0.743309841746558E+001  0.256954837871622E+001
  0.116505233827309E-001 -0.743826254667506E+001  0.257379683463585E+001
  0.116505233827309E-001 -0.743921121621903E+001  0.257460614661630E+001
  0.116505233827309E-001 -0.744130383492624E+001  0.257642611894802E+001
  0.116505233827309E-001 -0.744404356564714E+001  0.257888649807366E+001
  0.116505233827309E-001 -0.744549203368202E+001  0.258022579464692E+001
  0.116505233827309E-001 -0.744745943938317E+001  0.258209126135251E+001
  0.116505233827309E-001 -0.744986591800974E+001  0.258445194855769E+001
  0.116505233827309E-001 -0.745091418310201E+001  0.258550970471123E+001
  0.116505233827309E-001 -0.745187163607458E+001  0.258649255296673E+001
  0.116505233827309E-001 -0.746223302837529E+001  0.270537268907762E+001
  0.116505233827309E-001 -0.746602949164817E+001  0.269966215817898E+001
  0.116505233827309E-001 -0.746904331278229E+001  0.269464465433099E+001
  0.116505233827309E-001 -0.747213013846691E+001  0.261355568973162E+001
  0.116505233827309E-001 -0.747222156156934E+001  0.268869305408482E+001
  0.116505233827309E-001 -0.747246026846435E+001  0.268821032612606E+001
  0.116505233827309E-001 -0.747281168359388E+001  0.261484978617017E+001
  0.116505233827309E-001 -0.747326716760428E+001  0.261574287815480E+001
  0.116505233827309E-001 -0.747386286171969E+001  0.261694853454843E+001
  0.116505233827309E-001 -0.747392786509520E+001  0.268510260811189E+001
  0.116505233827309E-001 -0.747456486338220E+001  0.268366777825064E+001
  0.116505233827309E-001 -0.697542516564849E+001  0.266373602952980E+001
  0.116505233827309E-001 -0.697606925090663E+001  0.264174249370496E+001
  0.116505233827309E-001 -0.697623928428415E+001  0.265788419545635E+001
  0.116505233827309E-001 -0.697645127873598E+001  0.265531658879194E+001
  0.116505233827309E-001 -0.697646217087225E+001  0.264596815827923E+001
  0.116505233827309E-001 -0.697650034651770E+001  0.264661627581435E+001
