  0.235825784464409E+000  0.455824880820630E+001  0.581186630444670E+001
  0.235825784464409E+000  0.827830513602430E+001  0.178627897131435E+001
  0.235825784464409E+000  0.100626084876854E+001  0.203168823560928E+001
  0.235825784464409E+000 -0.949168572181986E+000  0.213195649397607E+001
  0.235825784464409E+000 -0.178236666257288E+001  0.218916932921891E+001
  0.235825784464409E+000 -0.215029734176843E+001  0.221909997997446E+001
  0.235825784464409E+000 -0.226204482327679E+001  0.222894568419552E+001
  0.235825784464409E+000 -0.231151550499888E+001  0.223343310586872E+001
  0.235825784464409E+000 -0.231297633540209E+001  0.223356687203036E+001
  0.235825784464409E+000 -0.234621707633623E+001  0.223663062768405E+001
  0.235825784464409E+000 -0.234987805030569E+001  0.223697041724655E+001
  0.235825784464409E+000 -0.236526051692586E+001  0.223840332614634E+001
  0.235825784464409E+000 -0.262054080198965E+001  0.226351894267462E+001
  0.235825784464409E+000 -0.271302687041464E+001  0.227331735297449E+001
  0.235825784464409E+000 -0.271436141992762E+001  0.227346179812028E+001
  0.235825784464409E+000 -0.271472926048858E+001  0.227350162720017E+001
  0.235825784464409E+000 -0.278066080878365E+001  0.228075370866766E+001
  0.235825784464409E+000 -0.305429510534056E+001  0.231360972660816E+001
  0.235825784464409E+000 -0.313378253679701E+001  0.232415008928690E+001
  0.235825784464409E+000 -0.317989836462156E+001  0.233051188232791E+001
  0.235825784464409E+000 -0.344681553934662E+001  0.237177458986577E+001
  0.235825784464409E+000 -0.350864247395712E+001  0.238269879797452E+001
  0.235825784464409E+000 -0.351805754841825E+001  0.238441896068440E+001
  0.235825784464409E+000 -0.354249656752687E+001  0.238895932040805E+001
  0.235825784464409E+000 -0.355586057955597E+001  0.239148991995610E+001
  0.235825784464409E+000 -0.357654925215144E+001  0.239547753704448E+001
  0.235825784464409E+000 -0.372498290617592E+001  0.242706056309754E+001
  0.235825784464409E+000 -0.381411501341817E+001  0.244934967030274E+001
  0.235825784464409E+000 -0.383190475649763E+001  0.245420392699225E+001
  0.235825784464409E+000 -0.383272626791633E+001  0.245443188406091E+001
  0.235825784464409E+000 -0.394183793602945E+001  0.248844843489717E+001
  0.235825784464409E+000 -0.394709100121164E+001  0.249032040547737E+001
