  0.191314137696358E-001  0.599013645356417E+001  0.792890806710408E+001
  0.191314137696358E-001  0.499666223519182E+000  0.505223143322806E+001
  0.191314137696358E-001  0.321722096672311E+000  0.499355907798305E+001
  0.191314137696358E-001 -0.813995044537996E+000  0.464211879860693E+001
  0.191314137696358E-001 -0.855598813699646E+000  0.462992330483528E+001
  0.191314137696358E-001 -0.146753972948591E+001  0.445531629803872E+001
  0.191314137696358E-001 -0.171398345803230E+001  0.438733394679904E+001
  0.191314137696358E-001 -0.176032988434639E+001  0.437468712322607E+001
  0.191314137696358E-001 -0.244024317273583E+001  0.419372727233256E+001
  0.191314137696358E-001 -0.258359824008425E+001  0.415657090113505E+001
  0.191314137696358E-001 -0.290624788854503E+001  0.407405467576576E+001
  0.191314137696358E-001 -0.292868353531005E+001  0.406837056618862E+001
  0.191314137696358E-001 -0.325297847246934E+001  0.398691823490024E+001
  0.191314137696358E-001 -0.333155684231032E+001  0.396736821463119E+001
  0.191314137696358E-001 -0.361417707460246E+001  0.389758384537072E+001
  0.191314137696358E-001 -0.384012398863545E+001  0.384231939414534E+001
  0.191314137696358E-001 -0.393165974618473E+001  0.382004451513538E+001
  0.191314137696358E-001 -0.393920301150928E+001  0.381821153976199E+001
  0.191314137696358E-001 -0.406495527406670E+001  0.378770929900284E+001
  0.191314137696358E-001 -0.411436084108206E+001  0.377575199334702E+001
  0.191314137696358E-001 -0.419174980649536E+001  0.375704889345785E+001
  0.191314137696358E-001 -0.442201934613901E+001  0.370155853342632E+001
  0.191314137696358E-001 -0.442949200494122E+001  0.369976102353011E+001
  0.191314137696358E-001 -0.443340572175290E+001  0.369881966511974E+001
  0.191314137696358E-001 -0.450846257830059E+001  0.368077443069271E+001
  0.191314137696358E-001 -0.451416194516263E+001  0.367940474964303E+001
  0.191314137696358E-001 -0.451901930040560E+001  0.367823747852191E+001
  0.191314137696358E-001 -0.454997654453758E+001  0.367079928955837E+001
  0.191314137696358E-001 -0.460968383834122E+001  0.365645802940352E+001
  0.191314137696358E-001 -0.469272986347760E+001  0.363651814820942E+001
  0.191314137696358E-001 -0.470685115068977E+001  0.363312801127193E+001
  0.191314137696358E-001 -0.481841326892540E+001  0.360634478839083E+001
  0.191314137696358E-001 -0.485379111561538E+001  0.359784989874090E+001
  0.191314137696358E-001 -0.500994835511410E+001  0.356032745963709E+001
  0.191314137696358E-001 -0.503897864834037E+001  0.355334481260930E+001
  0.191314137696358E-001 -0.508599448239899E+001  0.354202966884286E+001
  0.191314137696358E-001 -0.511286591964304E+001  0.353555858363298E+001
  0.191314137696358E-001 -0.520354925326807E+001  0.351369491385609E+001
  0.191314137696358E-001 -0.526629885567415E+001  0.349853874027722E+001
  0.191314137696358E-001 -0.531247520902266E+001  0.348736879020693E+001
  0.191314137696358E-001 -0.533438119629019E+001  0.348206429418201E+001
  0.191314137696358E-001 -0.539060463012147E+001  0.346843222192845E+001
  0.191314137696358E-001 -0.553761035244073E+001  0.343264903361808E+001
  0.191314137696358E-001 -0.555282259989570E+001  0.342893294815284E+001
  0.191314137696358E-001 -0.556576394302187E+001  0.342576944409018E+001
  0.191314137696358E-001 -0.562071165372549E+001  0.341231430736352E+001
  0.191314137696358E-001 -0.566771420888455E+001  0.340077293216803E+001
  0.191314137696358E-001 -0.574828907435024E+001  0.338091265429113E+001
  0.191314137696358E-001 -0.574905287377842E+001  0.338072390437581E+001
  0.191314137696358E-001 -0.577792556024392E+001  0.337358179421029E+001
  0.191314137696358E-001 -0.589542824133731E+001  0.334436167317956E+001
  0.191314137696358E-001 -0.591190174734921E+001  0.334024365668458E+001
  0.191314137696358E-001 -0.591887209019032E+001  0.333849952142303E+001
  0.191314137696358E-001 -0.593318099904812E+001  0.333491588246852E+001
  0.191314137696358E-001 -0.595664756244310E+001  0.332902911030433E+001
  0.191314137696358E-001 -0.597401263773987E+001  0.332466504156987E+001
  0.191314137696358E-001 -0.598989168297495E+001  0.332066838204887E+001
  0.191314137696358E-001 -0.604120220731735E+001  0.330771265247472E+001
  0.191314137696358E-001 -0.605192974752007E+001  0.330499572847953E+001
  0.191314137696358E-001 -0.605776082252909E+001  0.330351767591963E+001
  0.191314137696358E-001 -0.605816167623301E+001  0.330341603580086E+001
  0.191314137696358E-001 -0.607662224316964E+001  0.329873063460454E+001
  0.191314137696358E-001 -0.617782769579509E+001  0.327287599000155E+001
  0.191314137696358E-001 -0.621922387798664E+001  0.326221200248922E+001
  0.191314137696358E-001 -0.623181791935713E+001  0.325895667407231E+001
  0.191314137696358E-001 -0.623241376717169E+001  0.325880252775707E+001
  0.191314137696358E-001 -0.627413219645488E+001  0.324797979793401E+001
  0.191314137696358E-001 -0.628219269162375E+001  0.324588169590821E+001
  0.191314137696358E-001 -0.628643021722127E+001  0.324477775503259E+001
  0.191314137696358E-001 -0.632241636494047E+001  0.323537616274699E+001
  0.191314137696358E-001 -0.638618679040893E+001  0.321859239493922E+001
  0.191314137696358E-001 -0.641872169518621E+001  0.320996458482164E+001
  0.191314137696358E-001 -0.645592964729775E+001  0.320004001078101E+001
  0.191314137696358E-001 -0.651002963519703E+001  0.318549302080579E+001
  0.191314137696358E-001 -0.651787301431238E+001  0.318337191793607E+001
  0.191314137696358E-001 -0.652335025521451E+001  0.318188881444932E+001
  0.191314137696358E-001 -0.657032728292584E+001  0.316910297521976E+001
  0.191314137696358E-001 -0.657074055813511E+001  0.316898995681275E+001
  0.191314137696358E-001 -0.658720722280600E+001  0.316447893791167E+001
  0.191314137696358E-001 -0.659190721018386E+001  0.316318852998625E+001
  0.191314137696358E-001 -0.659652291861247E+001  0.316192001064936E+001
  0.191314137696358E-001 -0.659970567031953E+001  0.316104457899889E+001
  0.191314137696358E-001 -0.661238087903401E+001  0.315755224661063E+001
  0.191314137696358E-001 -0.661649932369123E+001  0.315641544240779E+001
  0.191314137696358E-001 -0.670304306065003E+001  0.313227788545493E+001
  0.191314137696358E-001 -0.672875375796265E+001  0.312500909172647E+001
  0.191314137696358E-001 -0.676906411968618E+001  0.311351410912442E+001
  0.191314137696358E-001 -0.677982604469536E+001  0.311042388773108E+001
  0.191314137696358E-001 -0.680985267665196E+001  0.310175198917473E+001
  0.191314137696358E-001 -0.681126308004249E+001  0.310134279946267E+001
  0.191314137696358E-001 -0.689883581757841E+001  0.307558405702230E+001
  0.191314137696358E-001 -0.690187606588012E+001  0.307467658615237E+001
  0.191314137696358E-001 -0.690634451268778E+001  0.307334110629719E+001
  0.191314137696358E-001 -0.692597006917866E+001  0.306745105845336E+001
  0.191314137696358E-001 -0.695971331169328E+001  0.305722655402008E+001
  0.191314137696358E-001 -0.705432030173553E+001  0.302782816671068E+001
  0.191314137696358E-001 -0.706923994083429E+001  0.302308244652827E+001
  0.191314137696358E-001 -0.707902640705909E+001  0.301995174800735E+001
  0.191314137696358E-001 -0.709075217930340E+001  0.301618157390992E+001
  0.191314137696358E-001 -0.710989373803735E+001  0.300998076700569E+001
  0.191314137696358E-001 -0.713047488289163E+001  0.300324679132315E+001
  0.191314137696358E-001 -0.718917954698856E+001  0.298362419196302E+001
  0.191314137696358E-001 -0.719067038584377E+001  0.298311726005915E+001
  0.191314137696358E-001 -0.723263906793957E+001  0.296865398682326E+001
  0.191314137696358E-001 -0.723677027400991E+001  0.296720920736584E+001
  0.191314137696358E-001 -0.724094035538921E+001  0.296574680289867E+001
  0.191314137696358E-001 -0.725418704736903E+001  0.296107386116266E+001
  0.191314137696358E-001 -0.728740536915376E+001  0.294916168801879E+001
  0.191314137696358E-001 -0.730738230085887E+001  0.294185421701734E+001
  0.191314137696358E-001 -0.736004904843361E+001  0.292200318317955E+001
  0.191314137696358E-001 -0.737661826200617E+001  0.291556170966690E+001
  0.191314137696358E-001 -0.737701716349265E+001  0.291540536579644E+001
  0.191314137696358E-001 -0.740028226818871E+001  0.290617803605183E+001
  0.191314137696358E-001 -0.740472477022405E+001  0.290439072545990E+001
  0.191314137696358E-001 -0.741235343295736E+001  0.290130160581867E+001
  0.191314137696358E-001 -0.743213001949975E+001  0.289317012293604E+001
  0.191314137696358E-001 -0.743938324997737E+001  0.289014079543400E+001
  0.191314137696358E-001 -0.391968789948003E+001  0.285261402005245E+001
