  0.433509840109551E+000  0.564005224120031E+001  0.604446136967449E+001
  0.433509840109551E+000  0.997346485969434E+001  0.898652880915931E+001
  0.433509840109551E+000  0.671888636657213E+001  0.657703514895245E+001
  0.433509840109551E+000 -0.155149636519130E+001  0.372219817383888E+001
  0.433509840109551E+000  0.239087043669010E+001  0.476779366501767E+001
  0.433509840109551E+000  0.223017204686444E+001  0.471916155640867E+001
  0.433509840109551E+000  0.201226297635950E+001  0.465432298372992E+001
  0.433509840109551E+000  0.192521792284278E+001  0.462876575560169E+001
  0.433509840109551E+000  0.184466417844262E+001  0.460528336246345E+001
  0.433509840109551E+000  0.183170503980219E+001  0.460152055266144E+001
  0.433509840109551E+000 -0.154581407160013E+001  0.372356680061241E+001
  0.433509840109551E+000 -0.141483209310354E+001  0.375515209122042E+001
  0.433509840109551E+000 -0.137056463646243E+001  0.376584487387066E+001
  0.433509840109551E+000 -0.136530123150191E+001  0.210811638699498E+001
  0.433509840109551E+000 -0.131485873653650E+001  0.210527502157941E+001
  0.433509840109551E+000  0.122259034793212E+001  0.442905982508389E+001
  0.433509840109551E+000  0.118420230075482E+001  0.441846343895118E+001
  0.433509840109551E+000 -0.129775832644190E+001  0.210431838592943E+001
  0.433509840109551E+000  0.112388444618674E+001  0.440187490356437E+001
  0.433509840109551E+000 -0.122609135874388E+001  0.210034483998521E+001
  0.433509840109551E+000 -0.118806101401940E+001  0.381004398788796E+001
  0.433509840109551E+000  0.496770325201170E+000  0.423354512192618E+001
  0.433509840109551E+000 -0.996204058534837E+000  0.385674573460589E+001
  0.433509840109551E+000  0.238108793067433E+000  0.416611341615698E+001
  0.433509840109551E+000 -0.942752671155354E+000  0.386980681950606E+001
  0.433509840109551E+000 -0.914323493825170E+000  0.387676321111759E+001
  0.433509840109551E+000  0.115542032432160E+000  0.413452488266828E+001
  0.433509840109551E+000 -0.760141546642458E-001  0.408559275293584E+001
  0.433509840109551E+000 -0.378029793260083E+000  0.400943959643679E+001
  0.433509840109551E+000 -0.398986461380350E+000  0.400419723689639E+001
  0.433509840109551E+000 -0.401079355424097E+000  0.400367397763240E+001
  0.433509840109551E+000 -0.428441864753670E+000  0.399683757229193E+001
  0.433509840109551E+000 -0.512563118509037E+000  0.397587374803856E+001
  0.433509840109551E+000 -0.585826278386434E+000  0.395767952605275E+001
  0.433509840109551E+000 -0.898467859668991E+000  0.388064592825270E+001
  0.433509840109551E+000 -0.871997044783053E+000  0.388713291129945E+001
  0.433509840109551E+000 -0.859389690779148E+000  0.389022464339399E+001
  0.433509840109551E+000 -0.166545861308237E+001  0.369477299224225E+001
  0.433509840109551E+000 -0.186047335971172E+001  0.364791840391717E+001
  0.433509840109551E+000 -0.190530966321276E+001  0.363715359960046E+001
  0.433509840109551E+000 -0.200814382655239E+001  0.361246617579658E+001
  0.433509840109551E+000 -0.204466447008057E+001  0.360369773189619E+001
  0.433509840109551E+000 -0.214023733634836E+001  0.215596548140114E+001
  0.433509840109551E+000 -0.218334925080741E+001  0.357038320954101E+001
  0.433509840109551E+000 -0.218740783182247E+001  0.356940766178318E+001
  0.433509840109551E+000 -0.236035292239963E+001  0.217127766564712E+001
  0.433509840109551E+000 -0.247815894952529E+001  0.349935252539107E+001
  0.433509840109551E+000 -0.249767094479489E+001  0.349463491963614E+001
  0.433509840109551E+000 -0.258558405699392E+001  0.347334446699423E+001
  0.433509840109551E+000 -0.269200866924285E+001  0.344748228191903E+001
  0.433509840109551E+000 -0.276724112959153E+001  0.342913043168410E+001
  0.433509840109551E+000 -0.290121562213818E+001  0.221325643467812E+001
  0.433509840109551E+000 -0.295570197068364E+001  0.338284304715339E+001
  0.433509840109551E+000 -0.296695907525167E+001  0.221886658692591E+001
  0.433509840109551E+000 -0.303427272065349E+001  0.336338523145673E+001
  0.433509840109551E+000 -0.305818242726078E+001  0.222686668526344E+001
  0.433509840109551E+000 -0.306169824983878E+001  0.335656757982708E+001
  0.433509840109551E+000 -0.309012382253130E+001  0.334948625500969E+001
  0.433509840109551E+000 -0.313006292292089E+001  0.223335828227748E+001
  0.433509840109551E+000 -0.318168699083508E+001  0.223812895353393E+001
  0.433509840109551E+000 -0.319962756264483E+001  0.332205104384195E+001
  0.433509840109551E+000 -0.321851670106158E+001  0.331729150054724E+001
  0.433509840109551E+000 -0.326971236567871E+001  0.330434795896850E+001
  0.433509840109551E+000 -0.329849656010949E+001  0.329704121185697E+001
  0.433509840109551E+000 -0.331665332688744E+001  0.329242078463932E+001
  0.433509840109551E+000 -0.331785346263161E+001  0.329211506287177E+001
  0.433509840109551E+000 -0.332679560943195E+001  0.328983588668537E+001
  0.433509840109551E+000 -0.338038076349535E+001  0.225742202462012E+001
  0.433509840109551E+000 -0.338808636987265E+001  0.327415216473962E+001
  0.433509840109551E+000 -0.339543917398192E+001  0.327226311279262E+001
  0.433509840109551E+000 -0.342387411982401E+001  0.326494179033626E+001
  0.433509840109551E+000 -0.343257603208767E+001  0.326269608361384E+001
  0.433509840109551E+000 -0.345135229209768E+001  0.325784200051439E+001
  0.433509840109551E+000 -0.357456992585487E+001  0.322567728920017E+001
  0.433509840109551E+000 -0.364616005462477E+001  0.228596781901215E+001
  0.433509840109551E+000 -0.365489747524834E+001  0.228696887932077E+001
  0.433509840109551E+000 -0.365843273457766E+001  0.320344091641882E+001
  0.433509840109551E+000 -0.366289725331505E+001  0.320224844287233E+001
  0.433509840109551E+000 -0.370406299363650E+001  0.229268572249527E+001
  0.433509840109551E+000 -0.372603328911082E+001  0.318528304045913E+001
  0.433509840109551E+000 -0.373684577875638E+001  0.229657973982668E+001
  0.433509840109551E+000 -0.374768003961846E+001  0.229788166590606E+001
  0.433509840109551E+000 -0.379376454924734E+001  0.316685581722030E+001
  0.433509840109551E+000 -0.379868345242201E+001  0.230411489338847E+001
  0.433509840109551E+000 -0.381749440109641E+001  0.230645878617036E+001
  0.433509840109551E+000 -0.382512726772585E+001  0.315823638030694E+001
  0.433509840109551E+000 -0.387513993330515E+001  0.314436808992239E+001
  0.433509840109551E+000 -0.389062686647299E+001  0.314004120057966E+001
  0.433509840109551E+000 -0.390024969755861E+001  0.313734462148281E+001
  0.433509840109551E+000 -0.390506399513007E+001  0.313599316594660E+001
  0.433509840109551E+000 -0.391175107502123E+001  0.313411334680922E+001
  0.433509840109551E+000 -0.393577749153255E+001  0.232180228046908E+001
  0.433509840109551E+000 -0.394060125169569E+001  0.232245170577685E+001
  0.433509840109551E+000 -0.395090959573535E+001  0.312304189732892E+001
  0.433509840109551E+000 -0.397474244300193E+001  0.311624819383569E+001
  0.433509840109551E+000 -0.399739424967588E+001  0.310975030114810E+001
  0.433509840109551E+000 -0.401444367940367E+001  0.310483220974616E+001
  0.433509840109551E+000 -0.404472682544656E+001  0.233697727368136E+001
  0.433509840109551E+000 -0.406958699007449E+001  0.234059920641071E+001
  0.433509840109551E+000 -0.407579613802134E+001  0.234151379745527E+001
  0.433509840109551E+000 -0.409973837153675E+001  0.307984709586596E+001
  0.433509840109551E+000 -0.412258544999477E+001  0.234853976207021E+001
  0.433509840109551E+000 -0.413747134012674E+001  0.306857225289287E+001
  0.433509840109551E+000 -0.417415554861015E+001  0.235657561126347E+001
  0.433509840109551E+000 -0.417428420311857E+001  0.305742647941056E+001
  0.433509840109551E+000 -0.418429467329487E+001  0.305436920616859E+001
  0.433509840109551E+000 -0.419505348534204E+001  0.235992586251155E+001
  0.433509840109551E+000 -0.420000529192508E+001  0.304954725253157E+001
  0.433509840109551E+000 -0.421684163148960E+001  0.304434648081944E+001
  0.433509840109551E+000 -0.426485689186377E+001  0.237154740663993E+001
  0.433509840109551E+000 -0.427570912832365E+001  0.302587198145977E+001
  0.433509840109551E+000 -0.427578484500332E+001  0.302584791113231E+001
  0.433509840109551E+000 -0.427642074918121E+001  0.302564572452736E+001
  0.433509840109551E+000 -0.427942416337585E+001  0.302468999245797E+001
  0.433509840109551E+000 -0.429587160851675E+001  0.301943259372247E+001
  0.433509840109551E+000 -0.429665128669304E+001  0.237708036193938E+001
  0.433509840109551E+000 -0.432946707052090E+001  0.300856446007380E+001
  0.433509840109551E+000 -0.435384375232178E+001  0.300056281801792E+001
  0.433509840109551E+000 -0.436502877900668E+001  0.238955595467954E+001
  0.433509840109551E+000 -0.437174146927247E+001  0.299462171536239E+001
  0.433509840109551E+000 -0.437497385009593E+001  0.239144194993800E+001
  0.433509840109551E+000 -0.437628249354110E+001  0.299310504411292E+001
  0.433509840109551E+000 -0.439755816345969E+001  0.298594700384025E+001
  0.433509840109551E+000 -0.368330943956190E+001  0.294914633459449E+001
  0.433509840109551E+000 -0.368363277401083E+001  0.294902894834072E+001
  0.433509840109551E+000 -0.368671499630260E+001  0.294790850515433E+001
  0.433509840109551E+000 -0.370401667028188E+001  0.294156930192144E+001
  0.433509840109551E+000 -0.370567706700615E+001  0.294095639051890E+001
  0.433509840109551E+000 -0.373189996554013E+001  0.293116497720557E+001
  0.433509840109551E+000 -0.375363637100579E+001  0.292287958909031E+001
  0.433509840109551E+000 -0.378317628263098E+001  0.291134807696664E+001
  0.433509840109551E+000 -0.380288281568527E+001  0.290346356210187E+001
  0.433509840109551E+000 -0.382238357589509E+001  0.289549471672052E+001
  0.433509840109551E+000 -0.384733007348592E+001  0.288503376017267E+001
  0.433509840109551E+000 -0.385257434752338E+001  0.288279340137557E+001
  0.433509840109551E+000 -0.385347779667341E+001  0.288240592359549E+001
  0.433509840109551E+000 -0.385451395090313E+001  0.288196097223345E+001
  0.433509840109551E+000 -0.386806935768527E+001  0.287608349333491E+001
  0.433509840109551E+000 -0.387104247055280E+001  0.287477991858684E+001
  0.433509840109551E+000 -0.388048938775944E+001  0.287060167784365E+001
  0.433509840109551E+000 -0.390451188413621E+001  0.285971092538683E+001
  0.433509840109551E+000 -0.395656108805628E+001  0.283454524251183E+001
  0.433509840109551E+000 -0.397101651802123E+001  0.282708779605177E+001
  0.433509840109551E+000 -0.398075017913463E+001  0.282192751566139E+001
  0.433509840109551E+000 -0.398347110828096E+001  0.282046348699149E+001
  0.433509840109551E+000 -0.398531354115448E+001  0.281946657376626E+001
  0.433509840109551E+000 -0.398833371056827E+001  0.281782245095607E+001
  0.433509840109551E+000 -0.399474259974859E+001  0.281429116888647E+001
  0.433509840109551E+000 -0.399747227119879E+001  0.281276894234429E+001
  0.433509840109551E+000 -0.399819942823758E+001  0.281236154568143E+001
  0.433509840109551E+000 -0.400703739150343E+001  0.280734376310780E+001
  0.433509840109551E+000 -0.400731649511887E+001  0.280718324056097E+001
  0.433509840109551E+000 -0.401834681327177E+001  0.280073094043012E+001
  0.433509840109551E+000 -0.403584126333796E+001  0.279001397132372E+001
  0.433509840109551E+000 -0.403847795125671E+001  0.278834066207422E+001
  0.433509840109551E+000 -0.404804706179852E+001  0.278212284226980E+001
  0.433509840109551E+000 -0.405925843363481E+001  0.277451477572569E+001
  0.433509840109551E+000 -0.406699093752261E+001  0.276903292775227E+001
  0.433509840109551E+000 -0.409162960167410E+001  0.274990782278748E+001
  0.433509840109551E+000 -0.410369317009891E+001  0.273928243253883E+001
  0.433509840109551E+000 -0.410410154425855E+001  0.273890330112432E+001
  0.433509840109551E+000 -0.410646055101590E+001  0.273668454481181E+001
  0.433509840109551E+000 -0.410750576795528E+001  0.273568520659436E+001
  0.433509840109551E+000 -0.410829012223541E+001  0.273492842291975E+001
  0.433509840109551E+000 -0.411039080593674E+001  0.273287132749097E+001
  0.433509840109551E+000 -0.411268362063216E+001  0.273057271991552E+001
  0.433509840109551E+000 -0.411648567673196E+001  0.272662544593444E+001
  0.433509840109551E+000 -0.411764828673427E+001  0.272538137780815E+001
  0.433509840109551E+000 -0.411970637258547E+001  0.272313230468975E+001
  0.433509840109551E+000 -0.412346418238615E+001  0.271885471277003E+001
