  0.254876968421473E+000 -0.330777338206923E+001  0.327946399167112E+001
  0.254876968421473E+000 -0.324617174327528E+001  0.329098471310701E+001
  0.254876968421473E+000  0.374756448748527E+001  0.722725786501903E+001
  0.254876968421473E+000  0.379561727526603E+001  0.547853412276255E+001
  0.254876968421473E+000 -0.314398816287672E+001  0.330994151759467E+001
  0.254876968421473E+000  0.214554950535143E+001  0.421088143281795E+001
  0.254876968421473E+000  0.161762401401842E+001  0.411061702683771E+001
  0.254876968421473E+000  0.133131763279284E+001  0.405998344948549E+001
  0.254876968421473E+000  0.129651138126696E+001  0.405395695979034E+001
  0.254876968421473E+000 -0.296596220195448E+001  0.334254910319088E+001
  0.254876968421473E+000 -0.270721271693861E+001  0.338910364158450E+001
  0.254876968421473E+000  0.166197507975941E+000  0.386687930474564E+001
  0.254876968421473E+000 -0.457278520466442E+000  0.376652624649452E+001
  0.254876968421473E+000 -0.790596277119274E+000  0.371267486857203E+001
  0.254876968421473E+000 -0.795265466572399E+000  0.371191956220954E+001
  0.254876968421473E+000 -0.864359647633190E+000  0.370070651474410E+001
  0.254876968421473E+000 -0.269613006770765E+001  0.339107679405105E+001
  0.254876968421473E+000 -0.982082635761852E+000  0.368155123076258E+001
  0.254876968421473E+000 -0.104529073894178E+001  0.367124033186718E+001
  0.254876968421473E+000 -0.142888525188124E+001  0.360815583700978E+001
  0.254876968421473E+000 -0.144559219539320E+001  0.360538632194733E+001
  0.254876968421473E+000 -0.163674667537367E+001  0.357354985041108E+001
  0.254876968421473E+000 -0.264613226115858E+001  0.339996162230904E+001
  0.254876968421473E+000 -0.192863681972181E+001  0.352436808742353E+001
  0.254876968421473E+000 -0.211105373561537E+001  0.349324373980037E+001
  0.254876968421473E+000 -0.258402517497694E+001  0.341095710048742E+001
  0.254876968421473E+000 -0.339787462413465E+001  0.326247707147759E+001
  0.254876968421473E+000 -0.355146315753614E+001  0.323311313137412E+001
  0.254876968421473E+000 -0.361116245448744E+001  0.322154608060389E+001
  0.254876968421473E+000 -0.362675526797926E+001  0.321850932193922E+001
  0.254876968421473E+000 -0.375503709972059E+001  0.319326725485629E+001
  0.254876968421473E+000 -0.376348856151258E+001  0.319158630276596E+001
  0.254876968421473E+000 -0.384149387538588E+001  0.317596822857217E+001
  0.254876968421473E+000 -0.387506726443922E+001  0.316918270556136E+001
  0.254876968421473E+000 -0.389225223720228E+001  0.316569386250326E+001
  0.254876968421473E+000 -0.396193984210646E+001  0.315143030422351E+001
  0.254876968421473E+000 -0.396357038676893E+001  0.315109386300551E+001
  0.254876968421473E+000 -0.398442462146437E+001  0.314678727874155E+001
  0.254876968421473E+000 -0.399265578448927E+001  0.314508210330080E+001
  0.254876968421473E+000 -0.406925848186171E+001  0.312907234078661E+001
  0.254876968421473E+000 -0.411484769046461E+001  0.311941541460161E+001
  0.254876968421473E+000 -0.411492398440992E+001  0.311939919516397E+001
  0.254876968421473E+000 -0.421748188197767E+001  0.309728400752346E+001
  0.254876968421473E+000 -0.424310115039503E+001  0.309166649244451E+001
  0.254876968421473E+000 -0.430061891734755E+001  0.307890831474731E+001
  0.254876968421473E+000 -0.433736756503736E+001  0.307064350703433E+001
  0.254876968421473E+000 -0.435672310054457E+001  0.306625053005600E+001
  0.254876968421473E+000 -0.444915536105787E+001  0.304488643867567E+001
  0.254876968421473E+000 -0.456937244594252E+001  0.301597864025472E+001
  0.254876968421473E+000 -0.459376886546766E+001  0.300993361232764E+001
  0.254876968421473E+000 -0.459978130519545E+001  0.300843297185334E+001
  0.254876968421473E+000 -0.469694951236403E+001  0.298357627925514E+001
  0.254876968421473E+000 -0.471033909976637E+001  0.298005238866695E+001
  0.254876968421473E+000 -0.471161225497877E+001  0.297971530176517E+001
  0.254876968421473E+000 -0.472734788119947E+001  0.297553737284734E+001
  0.254876968421473E+000 -0.474605825603163E+001  0.297052171053737E+001
  0.254876968421473E+000 -0.479626396358168E+001  0.295677775139996E+001
  0.254876968421473E+000 -0.480979684055006E+001  0.295299820156986E+001
  0.254876968421473E+000 -0.480984452426588E+001  0.295298535274382E+001
  0.254876968421473E+000 -0.481032446086561E+001  0.295285029832814E+001
  0.254876968421473E+000 -0.482028058231031E+001  0.295004661683059E+001
  0.254876968421473E+000 -0.483151653468763E+001  0.294686008426562E+001
  0.254876968421473E+000 -0.483936813533461E+001  0.294461847248320E+001
  0.254876968421473E+000 -0.484834793269789E+001  0.294203900681087E+001
  0.254876968421473E+000 -0.489920499980604E+001  0.292710413077871E+001
  0.254876968421473E+000 -0.491017130077040E+001  0.292380551787699E+001
  0.254876968421473E+000 -0.491228988826429E+001  0.292316497028073E+001
  0.254876968421473E+000 -0.492928007304823E+001  0.291798535649706E+001
  0.254876968421473E+000 -0.494509843051588E+001  0.291309489865430E+001
  0.254876968421473E+000 -0.496523192584669E+001  0.290676964934874E+001
  0.254876968421473E+000 -0.499353006541883E+001  0.289767319015818E+001
  0.254876968421473E+000 -0.501066568553602E+001  0.289203909093855E+001
  0.254876968421473E+000 -0.501899889171278E+001  0.288926238771692E+001
  0.254876968421473E+000 -0.502523401439344E+001  0.288716920414773E+001
  0.254876968421473E+000 -0.505623748958265E+001  0.287653626617852E+001
  0.254876968421473E+000 -0.506536081493055E+001  0.287333331190557E+001
  0.254876968421473E+000 -0.506892946422255E+001  0.287207003930418E+001
  0.254876968421473E+000 -0.507031682193434E+001  0.287157803675051E+001
  0.254876968421473E+000 -0.508191326320326E+001  0.286742858615488E+001
  0.254876968421473E+000 -0.508610180080091E+001  0.286591357515405E+001
  0.254876968421473E+000 -0.509623792827284E+001  0.286221450119992E+001
  0.254876968421473E+000 -0.511115387141859E+001  0.285667639134451E+001
  0.254876968421473E+000 -0.511446693599379E+001  0.285543076396478E+001
  0.254876968421473E+000 -0.513202741801893E+001  0.284872413285751E+001
  0.254876968421473E+000 -0.514012363612806E+001  0.284557178593811E+001
  0.254876968421473E+000 -0.514315536677992E+001  0.284438031065607E+001
  0.254876968421473E+000 -0.423156213760376E+001  0.249865490105775E+001
  0.254876968421473E+000 -0.424495506286621E+001  0.250636950322372E+001
  0.254876968421473E+000 -0.424689579010010E+001  0.250753010857686E+001
  0.254876968421473E+000 -0.425155782699585E+001  0.251036978420960E+001
  0.254876968421473E+000 -0.425551843643188E+001  0.251283954275641E+001
  0.254876968421473E+000 -0.426226615905762E+001  0.251718184322510E+001
  0.254876968421473E+000 -0.426297569274902E+001  0.251764732704973E+001
  0.254876968421473E+000 -0.427459001541138E+001  0.252560686316299E+001
  0.254876968421473E+000 -0.427530288696289E+001  0.252611663293153E+001
  0.254876968421473E+000 -0.428121662139893E+001  0.253045087314691E+001
  0.254876968421473E+000 -0.428186082839966E+001  0.253093706075657E+001
  0.254876968421473E+000 -0.429131412506104E+001  0.253835898258863E+001
  0.254876968421473E+000 -0.429357814788818E+001  0.254023264902526E+001
  0.254876968421473E+000 -0.430130195617676E+001  0.254696295095339E+001
  0.254876968421473E+000 -0.430572128295898E+001  0.255108627428297E+001
  0.254876968421473E+000 -0.430673122406006E+001  0.255206122368491E+001
  0.254876968421473E+000 -0.430883741378784E+001  0.255413663378091E+001
  0.254876968421473E+000 -0.431229162216187E+001  0.255767641777446E+001
  0.254876968421473E+000 -0.431295967102051E+001  0.255838089675887E+001
  0.254876968421473E+000 -0.431586694717407E+001  0.256154183182907E+001
  0.254876968421473E+000 -0.432004928588867E+001  0.256637867485062E+001
  0.254876968421473E+000 -0.432204914093018E+001  0.256883413190179E+001
  0.254876968421473E+000 -0.432424354553223E+001  0.257165411855719E+001
  0.254876968421473E+000 -0.432837486267090E+001  0.257739140018045E+001
  0.254876968421473E+000 -0.432970809936523E+001  0.257938688034866E+001
  0.254876968421473E+000 -0.433095741271973E+001  0.258133791722112E+001
  0.254876968421473E+000 -0.433593177795410E+001  0.259009148325485E+001
  0.254876968421473E+000 -0.433877277374268E+001  0.259615609302384E+001
  0.254876968421473E+000 -0.433877801895142E+001  0.259616663718628E+001
  0.254876968421473E+000 -0.433932781219482E+001  0.259747723596788E+001
