  0.182256881704396E+000 -0.400297909697572E+001  0.324697129969094E+001
  0.182256881704396E+000 -0.390947729071656E+001  0.217077833164724E+001
  0.182256881704396E+000 -0.389087277373353E+001  0.326989480062749E+001
  0.182256881704396E+000 -0.385698157271424E+001  0.327680342245454E+001
  0.182256881704396E+000 -0.369611698111573E+001  0.330948672956649E+001
  0.182256881704396E+000 -0.363895517310181E+001  0.332106434012670E+001
  0.182256881704396E+000 -0.328377824744263E+001  0.339269452077299E+001
  0.182256881704396E+000 -0.315906482657471E+001  0.341773929764748E+001
  0.182256881704396E+000  0.615727844628899E+000  0.416689497720273E+001
  0.182256881704396E+000 -0.310207467993775E+001  0.342916717185580E+001
  0.182256881704396E+000 -0.265407901724854E+001  0.351866494050741E+001
  0.182256881704396E+000 -0.508820590582283E+000  0.201376713174292E+001
  0.182256881704396E+000 -0.627603587713631E+000  0.391732554427109E+001
  0.182256881704396E+000 -0.789112147894295E+000  0.388561571738073E+001
  0.182256881704396E+000 -0.900927600469978E+000  0.386369555006547E+001
  0.182256881704396E+000 -0.100635820349732E+001  0.384304677388458E+001
  0.182256881704396E+000 -0.262263065299073E+001  0.352492472310271E+001
  0.182256881704396E+000 -0.255696826895753E+001  0.353798135836497E+001
  0.182256881704396E+000 -0.178457265814820E+001  0.369058457166227E+001
  0.182256881704396E+000 -0.185345655402222E+001  0.367704136928195E+001
  0.182256881704396E+000 -0.220145517310181E+001  0.360844642250529E+001
  0.182256881704396E+000 -0.251348024329224E+001  0.354662397675065E+001
  0.182256881704396E+000 -0.291969156265259E+001  0.222056387073199E+001
  0.182256881704396E+000 -0.295995569229126E+001  0.222507732623814E+001
  0.182256881704396E+000 -0.300582027435303E+001  0.223049897628720E+001
  0.182256881704396E+000 -0.309560775756836E+001  0.224213265558469E+001
  0.182256881704396E+000 -0.333886337280273E+001  0.228380075189005E+001
  0.182256881704396E+000 -0.334653115272522E+001  0.228546059229543E+001
  0.182256881704396E+000 -0.354229903221130E+001  0.233960115375424E+001
  0.182256881704396E+000 -0.356114959716797E+001  0.234629540236189E+001
  0.182256881704396E+000 -0.357701444625854E+001  0.235216624472680E+001
  0.182256881704396E+000 -0.359840703010559E+001  0.236043061407658E+001
  0.182256881704396E+000 -0.360246992111206E+001  0.236204797277036E+001
  0.182256881704396E+000 -0.362688159942627E+001  0.237206346772487E+001
  0.182256881704396E+000 -0.365610790252686E+001  0.238473958871315E+001
  0.182256881704396E+000 -0.366659951210022E+001  0.238947012490099E+001
  0.182256881704396E+000 -0.367346978187561E+001  0.239261395155536E+001
