  0.264314160879956E-001 -0.231171375281694E-001  0.556383548092060E+001
  0.264314160879956E-001  0.227846378319381E-001  0.558846938192257E+001
  0.264314160879956E-001 -0.451895665541458E+001  0.212610833171242E+001
  0.264314160879956E-001 -0.447826027289199E+001  0.212341844352750E+001
  0.264314160879956E-001  0.247808735313345E+001  0.686679043286005E+001
  0.264314160879956E-001 -0.440643619910049E+001  0.211872380128633E+001
  0.264314160879956E-001 -0.412617992773819E+001  0.210099443380610E+001
  0.264314160879956E-001 -0.710824084854830E+000  0.519408694714710E+001
  0.264314160879956E-001 -0.540940951720047E+001  0.219276087148836E+001
  0.264314160879956E-001 -0.194269632712173E+001  0.198109874190030E+001
  0.264314160879956E-001 -0.207064318075943E+001  0.198750915587843E+001
  0.264314160879956E-001 -0.257537269011306E+001  0.201346975521455E+001
  0.264314160879956E-001 -0.264092826262283E+001  0.201691988461351E+001
  0.264314160879956E-001 -0.289880012884903E+001  0.203066972350751E+001
  0.264314160879956E-001 -0.404912280455398E+001  0.209626312438271E+001
  0.264314160879956E-001 -0.386099552527237E+001  0.208493435897200E+001
  0.264314160879956E-001 -0.390287041083145E+001  0.208743009014633E+001
  0.264314160879956E-001 -0.404572653189468E+001  0.209605588621205E+001
  0.264314160879956E-001 -0.488979696646499E+001  0.215181312144399E+001
  0.264314160879956E-001 -0.515667819395828E+001  0.217196723405825E+001
  0.264314160879956E-001 -0.540693354025650E+001  0.219254854991133E+001
  0.264314160879956E-001 -0.571046137228775E+001  0.222041066412326E+001
  0.264314160879956E-001 -0.573289179220962E+001  0.222262403349404E+001
  0.264314160879956E-001 -0.610092687025833E+001  0.226289504129116E+001
  0.264314160879956E-001 -0.610778307333755E+001  0.226372830718123E+001
  0.264314160879956E-001 -0.613853072539138E+001  0.226750897455776E+001
  0.264314160879956E-001 -0.625553345099258E+001  0.228260599417947E+001
  0.264314160879956E-001 -0.627383589163589E+001  0.228507678784075E+001
  0.264314160879956E-001 -0.629064154043960E+001  0.228737355740716E+001
  0.264314160879956E-001 -0.630573796644973E+001  0.228946078961326E+001
  0.264314160879956E-001 -0.635460471525955E+001  0.229637645501798E+001
  0.264314160879956E-001 -0.637859749213028E+001  0.229986350972875E+001
  0.264314160879956E-001 -0.638571524039077E+001  0.230091114038248E+001
  0.264314160879956E-001 -0.642053794279861E+001  0.230611754498330E+001
  0.264314160879956E-001 -0.642366408720779E+001  0.230659267051701E+001
  0.264314160879956E-001 -0.646847676649856E+001  0.231352775354836E+001
  0.264314160879956E-001 -0.648803328886795E+001  0.231663440276778E+001
  0.264314160879956E-001 -0.649114441290664E+001  0.231713178241701E+001
  0.264314160879956E-001 -0.652020000830459E+001  0.232185908962714E+001
  0.264314160879956E-001 -0.657209371939468E+001  0.233060219737789E+001
  0.264314160879956E-001 -0.657243704214859E+001  0.233066199194481E+001
  0.264314160879956E-001 -0.667608880415725E+001  0.234946148321974E+001
  0.264314160879956E-001 -0.670760774031448E+001  0.235557673730280E+001
  0.264314160879956E-001 -0.672273373022842E+001  0.235858648169780E+001
  0.264314160879956E-001 -0.673985123053360E+001  0.236205244790144E+001
  0.264314160879956E-001 -0.674650215521621E+001  0.236341755864320E+001
  0.264314160879956E-001 -0.679647635832595E+001  0.237401483143914E+001
  0.264314160879956E-001 -0.682024001494216E+001  0.237928007692243E+001
  0.264314160879956E-001 -0.684357404127883E+001  0.238460832810620E+001
  0.264314160879956E-001 -0.684581279173660E+001  0.238512827037766E+001
  0.264314160879956E-001 -0.687316989317703E+001  0.239160331681611E+001
  0.264314160879956E-001 -0.688192724600601E+001  0.239372822603888E+001
  0.264314160879956E-001 -0.689414119139480E+001  0.239673445537586E+001
  0.264314160879956E-001 -0.692550467863845E+001  0.240470575243455E+001
  0.264314160879956E-001 -0.693841409102249E+001  0.240809515926568E+001
  0.264314160879956E-001 -0.694848632231521E+001  0.241078836842060E+001
  0.264314160879956E-001 -0.695698379889297E+001  0.241309376820065E+001
  0.264314160879956E-001 -0.700851582899856E+001  0.242780131703419E+001
  0.264314160879956E-001 -0.703275036230850E+001  0.243520067385054E+001
  0.264314160879956E-001 -0.704531454458999E+001  0.243917564506594E+001
  0.264314160879956E-001 -0.705054592505264E+001  0.244085977766969E+001
  0.264314160879956E-001 -0.706581758871841E+001  0.244588182317757E+001
  0.264314160879956E-001 -0.710347151175308E+001  0.245901165093422E+001
  0.264314160879956E-001 -0.710549520865249E+001  0.245975212164576E+001
  0.264314160879956E-001 -0.711940550223159E+001  0.246493099624382E+001
  0.264314160879956E-001 -0.714808916464614E+001  0.247623187824278E+001
  0.264314160879956E-001 -0.716573166266250E+001  0.248366201511486E+001
  0.264314160879956E-001 -0.716841673270034E+001  0.248482777105458E+001
  0.264314160879956E-001 -0.717125820532608E+001  0.248607485785109E+001
  0.264314160879956E-001 -0.717280935660171E+001  0.248675877277318E+001
  0.264314160879956E-001 -0.719150804892349E+001  0.249530705458082E+001
  0.264314160879956E-001 -0.720552133932876E+001  0.250210441320455E+001
  0.264314160879956E-001 -0.721568369284439E+001  0.250727639378798E+001
  0.264314160879956E-001 -0.722145914450454E+001  0.251031864464682E+001
  0.264314160879956E-001 -0.722484373465347E+001  0.251213654245294E+001
  0.264314160879956E-001 -0.725078701391983E+001  0.252713212305849E+001
  0.264314160879956E-001 -0.725162052527237E+001  0.252765023668081E+001
  0.264314160879956E-001 -0.725542044058609E+001  0.253004230778352E+001
  0.264314160879956E-001 -0.726039003744888E+001  0.253325646348564E+001
  0.264314160879956E-001 -0.726061272040176E+001  0.253340365102161E+001
  0.264314160879956E-001 -0.726597380057144E+001  0.253699054612678E+001
  0.264314160879956E-001 -0.726639723196792E+001  0.253728051699825E+001
  0.264314160879956E-001 -0.727253889456558E+001  0.254157319133714E+001
  0.264314160879956E-001 -0.727432798758316E+001  0.275110935508360E+001
  0.264314160879956E-001 -0.728015589133071E+001  0.254718286559219E+001
  0.264314160879956E-001 -0.728217529669570E+001  0.254873034795009E+001
  0.264314160879956E-001 -0.728458189383316E+001  0.274279804053370E+001
  0.264314160879956E-001 -0.728542112723159E+001  0.255127503033494E+001
  0.264314160879956E-001 -0.729059719458389E+001  0.255548971417949E+001
  0.264314160879956E-001 -0.729187607184219E+001  0.255656479396796E+001
  0.264314160879956E-001 -0.729204344168472E+001  0.273629061944878E+001
  0.264314160879956E-001 -0.729270100012588E+001  0.255726716581480E+001
  0.264314160879956E-001 -0.729299568548965E+001  0.255751897803212E+001
  0.264314160879956E-001 -0.729302191153335E+001  0.255754209554721E+001
  0.264314160879956E-001 -0.729416918173599E+001  0.273435320552331E+001
  0.264314160879956E-001 -0.729761194601821E+001  0.256156666153029E+001
  0.264314160879956E-001 -0.729915451422500E+001  0.272963646495798E+001
  0.264314160879956E-001 -0.729974197760391E+001  0.272906447990410E+001
  0.264314160879956E-001 -0.730215143576431E+001  0.256577336186625E+001
  0.264314160879956E-001 -0.730272268667984E+001  0.272609876186356E+001
  0.264314160879956E-001 -0.730396627798843E+001  0.272483018785551E+001
  0.264314160879956E-001 -0.730718588248062E+001  0.257072567232730E+001
  0.264314160879956E-001 -0.730773901358413E+001  0.272085233725603E+001
  0.264314160879956E-001 -0.731016849890518E+001  0.271817960776406E+001
  0.264314160879956E-001 -0.731100820914077E+001  0.257472953251462E+001
  0.264314160879956E-001 -0.731123232260513E+001  0.271697611956164E+001
  0.264314160879956E-001 -0.731135677710342E+001  0.271683666509636E+001
  0.264314160879956E-001 -0.731265234366226E+001  0.257653199318999E+001
  0.264314160879956E-001 -0.731347774878311E+001  0.271437627207712E+001
  0.264314160879956E-001 -0.731428264990615E+001  0.271342067461118E+001
  0.264314160879956E-001 -0.731462597266006E+001  0.257876204900290E+001
  0.264314160879956E-001 -0.731485151663589E+001  0.257901867933620E+001
  0.264314160879956E-001 -0.731539797201919E+001  0.271207330961285E+001
  0.264314160879956E-001 -0.731690811529922E+001  0.271020641583331E+001
  0.264314160879956E-001 -0.731705545798111E+001  0.258161514506474E+001
  0.264314160879956E-001 -0.731871580496597E+001  0.258364319908125E+001
  0.264314160879956E-001 -0.731899570837783E+001  0.270753462618087E+001
  0.264314160879956E-001 -0.731948065176773E+001  0.270689696696861E+001
  0.264314160879956E-001 -0.731985544577407E+001  0.258508072088870E+001
  0.264314160879956E-001 -0.732324671164321E+001  0.258957958619330E+001
  0.264314160879956E-001 -0.732326578512954E+001  0.270168962283652E+001
  0.264314160879956E-001 -0.732401155844497E+001  0.259065004306262E+001
  0.264314160879956E-001 -0.732429003134536E+001  0.270019811297625E+001
  0.264314160879956E-001 -0.732567476645279E+001  0.269811579463924E+001
  0.264314160879956E-001 -0.732585691824722E+001  0.259331949674902E+001
  0.264314160879956E-001 -0.732667040243911E+001  0.269656803090854E+001
  0.264314160879956E-001 -0.732758449927139E+001  0.259595851978492E+001
  0.264314160879956E-001 -0.732775473013687E+001  0.259622381821882E+001
  0.264314160879956E-001 -0.732842277899551E+001  0.259729521675007E+001
  0.264314160879956E-001 -0.733054994955825E+001  0.269003411753060E+001
  0.264314160879956E-001 -0.733139013663101E+001  0.268849667588555E+001
  0.264314160879956E-001 -0.733317732229995E+001  0.268502270608307E+001
  0.264314160879956E-001 -0.733322071448135E+001  0.268493575360976E+001
  0.264314160879956E-001 -0.733359741583633E+001  0.268416772212980E+001
  0.264314160879956E-001 -0.733451246634292E+001  0.268222227354245E+001
  0.264314160879956E-001 -0.733539032355117E+001  0.268026232626986E+001
  0.264314160879956E-001 -0.733565878287124E+001  0.261098164224174E+001
  0.264314160879956E-001 -0.733565878287124E+001  0.261098532101689E+001
  0.264314160879956E-001 -0.733573841467666E+001  0.267944864224558E+001
  0.264314160879956E-001 -0.733626913443374E+001  0.261240294237205E+001
  0.264314160879956E-001 -0.733646654501724E+001  0.261288207108347E+001
  0.264314160879956E-001 -0.733679556265640E+001  0.267687391359399E+001
  0.264314160879956E-001 -0.733697008505630E+001  0.267642752234533E+001
  0.264314160879956E-001 -0.733815264120864E+001  0.267322793808435E+001
  0.264314160879956E-001 -0.733830379858779E+001  0.261768827786579E+001
  0.264314160879956E-001 -0.733936142340469E+001  0.262089020514225E+001
  0.264314160879956E-001 -0.733939432516861E+001  0.262100143828519E+001
  0.264314160879956E-001 -0.733970140829849E+001  0.266838223817497E+001
  0.264314160879956E-001 -0.681384634439507E+001  0.266695981334072E+001
  0.264314160879956E-001 -0.681393122140923E+001  0.266664501208736E+001
  0.264314160879956E-001 -0.681513857309380E+001  0.266155965786623E+001
  0.264314160879956E-001 -0.681577038232842E+001  0.265813756985496E+001
  0.264314160879956E-001 -0.681607698862114E+001  0.265608811119711E+001
  0.264314160879956E-001 -0.681637358133355E+001  0.265366644163913E+001
  0.264314160879956E-001 -0.426287937164307E+001  0.264218206301743E+001
