  0.744287586253893E-002 -0.683520614961061E+001  0.327946399167112E+001
  0.744287586253893E-002 -0.677360451081667E+001  0.329098471310701E+001
  0.744287586253893E-002  0.220131719943882E+000  0.722725786501903E+001
  0.744287586253893E-002  0.268184507724643E+000  0.547853412276255E+001
  0.744287586253893E-002 -0.667142093041811E+001  0.330994151759467E+001
  0.744287586253893E-002 -0.138188326218996E+001  0.421088143281795E+001
  0.744287586253893E-002 -0.190980875352297E+001  0.411061702683771E+001
  0.744287586253893E-002 -0.219611513474855E+001  0.405998344948549E+001
  0.744287586253893E-002 -0.223092138627443E+001  0.405395695979034E+001
  0.744287586253893E-002 -0.649339496949587E+001  0.334254910319088E+001
  0.744287586253893E-002 -0.623464548448000E+001  0.338910364158450E+001
  0.744287586253893E-002 -0.336123525956545E+001  0.386687930474564E+001
  0.744287586253893E-002 -0.398471128800783E+001  0.376652624649452E+001
  0.744287586253893E-002 -0.431802904466066E+001  0.371267486857203E+001
  0.744287586253893E-002 -0.432269823411379E+001  0.371191956220954E+001
  0.744287586253893E-002 -0.439179241517458E+001  0.370070651474410E+001
  0.744287586253893E-002 -0.622356283524904E+001  0.339107679405105E+001
  0.744287586253893E-002 -0.450951540330324E+001  0.368155123076258E+001
  0.744287586253893E-002 -0.457272350648317E+001  0.367124033186718E+001
  0.744287586253893E-002 -0.495631801942262E+001  0.360815583700978E+001
  0.744287586253893E-002 -0.497302496293459E+001  0.360538632194733E+001
  0.744287586253893E-002 -0.516417944291505E+001  0.357354985041108E+001
  0.744287586253893E-002 -0.617356502869997E+001  0.339996162230904E+001
  0.744287586253893E-002 -0.545606958726320E+001  0.352436808742353E+001
  0.744287586253893E-002 -0.563848650315675E+001  0.349324373980037E+001
  0.744287586253893E-002 -0.611145794251833E+001  0.341095710048742E+001
  0.744287586253893E-002 -0.692530739167604E+001  0.326247707147759E+001
  0.744287586253893E-002 -0.707889592507753E+001  0.323311313137412E+001
  0.744287586253893E-002 -0.713859522202882E+001  0.322154608060389E+001
  0.744287586253893E-002 -0.715418803552065E+001  0.321850932193922E+001
  0.744287586253893E-002 -0.728246986726198E+001  0.319326725485629E+001
  0.744287586253893E-002 -0.729092132905397E+001  0.319158630276596E+001
  0.744287586253893E-002 -0.736892664292726E+001  0.317596822857217E+001
  0.744287586253893E-002 -0.740250003198061E+001  0.316918270556136E+001
  0.744287586253893E-002 -0.741968500474367E+001  0.316569386250326E+001
  0.744287586253893E-002 -0.748937260964784E+001  0.315143030422351E+001
  0.744287586253893E-002 -0.749100315431032E+001  0.315109386300551E+001
  0.744287586253893E-002 -0.751185738900575E+001  0.314678727874155E+001
  0.744287586253893E-002 -0.752008855203066E+001  0.314508210330080E+001
  0.744287586253893E-002 -0.759669124940309E+001  0.312907234078661E+001
  0.744287586253893E-002 -0.764228045800600E+001  0.311941541460161E+001
  0.744287586253893E-002 -0.764235675195131E+001  0.311939919516397E+001
  0.744287586253893E-002 -0.774491464951906E+001  0.309728400752346E+001
  0.744287586253893E-002 -0.777053391793642E+001  0.309166649244451E+001
  0.744287586253893E-002 -0.782805168488893E+001  0.307890831474731E+001
  0.744287586253893E-002 -0.786480033257875E+001  0.307064350703433E+001
  0.744287586253893E-002 -0.788415586808595E+001  0.306625053005600E+001
  0.744287586253893E-002 -0.797658812859926E+001  0.304488643867567E+001
  0.744287586253893E-002 -0.809680521348390E+001  0.301597864025472E+001
  0.744287586253893E-002 -0.812120163300905E+001  0.300993361232764E+001
  0.744287586253893E-002 -0.812721407273683E+001  0.300843297185334E+001
  0.744287586253893E-002 -0.822438227990541E+001  0.298357627925514E+001
  0.744287586253893E-002 -0.823777186730775E+001  0.298005238866695E+001
  0.744287586253893E-002 -0.823904502252016E+001  0.297971530176517E+001
  0.744287586253893E-002 -0.825478064874086E+001  0.297553737284734E+001
  0.744287586253893E-002 -0.827349102357301E+001  0.297052171053737E+001
  0.744287586253893E-002 -0.832369673112306E+001  0.295677775139996E+001
  0.744287586253893E-002 -0.833722960809145E+001  0.295299820156986E+001
  0.744287586253893E-002 -0.833727729180727E+001  0.295298535274382E+001
  0.744287586253893E-002 -0.833775722840700E+001  0.295285029832814E+001
  0.744287586253893E-002 -0.834771334985170E+001  0.295004661683059E+001
  0.744287586253893E-002 -0.835894930222902E+001  0.294686008426562E+001
  0.744287586253893E-002 -0.836680090287599E+001  0.294461847248320E+001
  0.744287586253893E-002 -0.837578070023927E+001  0.294203900681087E+001
  0.744287586253893E-002 -0.842663776734743E+001  0.292710413077871E+001
  0.744287586253893E-002 -0.843760406831178E+001  0.292380551787699E+001
  0.744287586253893E-002 -0.843972265580568E+001  0.292316497028073E+001
  0.744287586253893E-002 -0.845671284058962E+001  0.291798535649706E+001
  0.744287586253893E-002 -0.847253119805727E+001  0.291309489865430E+001
  0.744287586253893E-002 -0.849266469338808E+001  0.290676964934874E+001
  0.744287586253893E-002 -0.852096283296022E+001  0.289767319015818E+001
  0.744287586253893E-002 -0.853809845307741E+001  0.289203909093855E+001
  0.744287586253893E-002 -0.854643165925417E+001  0.288926238771692E+001
  0.744287586253893E-002 -0.855266678193483E+001  0.288716920414773E+001
  0.744287586253893E-002 -0.858367025712404E+001  0.287653626617852E+001
  0.744287586253893E-002 -0.859279358247194E+001  0.287333331190557E+001
  0.744287586253893E-002 -0.859636223176393E+001  0.287207003930418E+001
  0.744287586253893E-002 -0.859774958947572E+001  0.287157803675051E+001
  0.744287586253893E-002 -0.860934603074464E+001  0.286742858615488E+001
  0.744287586253893E-002 -0.861353456834230E+001  0.286591357515405E+001
  0.744287586253893E-002 -0.862367069581422E+001  0.286221450119992E+001
  0.744287586253893E-002 -0.863858663895998E+001  0.285667639134451E+001
  0.744287586253893E-002 -0.864189970353517E+001  0.285543076396478E+001
  0.744287586253893E-002 -0.865946018556032E+001  0.284872413285751E+001
  0.744287586253893E-002 -0.866755640366945E+001  0.284557178593811E+001
  0.744287586253893E-002 -0.867058813432130E+001  0.284438031065607E+001
  0.744287586253893E-002 -0.828229647820796E+001  0.283397663436131E+001
  0.744287586253893E-002 -0.828858882134761E+001  0.283137379853448E+001
  0.744287586253893E-002 -0.831820374673213E+001  0.281869494544364E+001
  0.744287586253893E-002 -0.831865054314937E+001  0.281849770763344E+001
  0.744287586253893E-002 -0.833494502251948E+001  0.281117898292023E+001
  0.744287586253893E-002 -0.834859925454463E+001  0.280483527620558E+001
  0.744287586253893E-002 -0.835241538232173E+001  0.280302482438689E+001
  0.744287586253893E-002 -0.838162881081904E+001  0.278854910484156E+001
  0.744287586253893E-002 -0.839520055001582E+001  0.278139786497581E+001
  0.744287586253893E-002 -0.839564257806147E+001  0.278116069912461E+001
  0.744287586253893E-002 -0.839829093163813E+001  0.277972549173506E+001
  0.744287586253893E-002 -0.840080147927607E+001  0.277835480317188E+001
  0.744287586253893E-002 -0.840442782586421E+001  0.277635391620402E+001
  0.744287586253893E-002 -0.841062098687495E+001  0.277287587072002E+001
  0.744287586253893E-002 -0.841482287591304E+001  0.277047117632888E+001
  0.744287586253893E-002 -0.841838008111323E+001  0.276840557735364E+001
  0.744287586253893E-002 -0.841941434090938E+001  0.276779979640525E+001
  0.744287586253893E-002 -0.842826825326289E+001  0.276250757601058E+001
  0.744287586253893E-002 -0.843564540093745E+001  0.275794338554907E+001
  0.744287586253893E-002 -0.844491225426997E+001  0.275198604332976E+001
  0.744287586253893E-002 -0.846717148965205E+001  0.273642043296207E+001
  0.744287586253893E-002 -0.847366648858394E+001  0.273145838539867E+001
  0.744287586253893E-002 -0.847546845620479E+001  0.273004194299196E+001
  0.744287586253893E-002 -0.847566205209102E+001  0.272988724448227E+001
  0.744287586253893E-002 -0.847781115716304E+001  0.272817003703273E+001
  0.744287586253893E-002 -0.848104602044429E+001  0.272552872849470E+001
  0.744287586253893E-002 -0.848155957406367E+001  0.272510328634729E+001
  0.744287586253893E-002 -0.848184806054438E+001  0.272486309106811E+001
  0.744287586253893E-002 -0.849686032479609E+001  0.271146977594751E+001
  0.744287586253893E-002 -0.850022441094722E+001  0.270817181622062E+001
  0.744287586253893E-002 -0.850472575372065E+001  0.270354133709855E+001
  0.744287586253893E-002 -0.850625735467280E+001  0.270190020595202E+001
  0.744287586253893E-002 -0.693271172629164E+001  0.261165286746831E+001
  0.744287586253893E-002 -0.693318093405532E+001  0.261392769595711E+001
  0.744287586253893E-002 -0.693363249884414E+001  0.261649808154082E+001
