  0.500171718191575E-001 -0.493321709946912E+001  0.327946399167112E+001
  0.500171718191575E-001 -0.487161546067517E+001  0.329098471310701E+001
  0.500171718191575E-001  0.212212077008538E+001  0.722725786501903E+001
  0.500171718191575E-001  0.217017355786614E+001  0.547853412276255E+001
  0.500171718191575E-001 -0.476943188027661E+001  0.330994151759467E+001
  0.500171718191575E-001  0.520105787951536E+000  0.421088143281795E+001
  0.500171718191575E-001 -0.781970338147220E-002  0.411061702683771E+001
  0.500171718191575E-001 -0.294126084607058E+000  0.405998344948549E+001
  0.500171718191575E-001 -0.328932336132937E+000  0.405395695979034E+001
  0.500171718191575E-001 -0.459140591935437E+001  0.334254910319088E+001
  0.500171718191575E-001 -0.433265643433850E+001  0.338910364158450E+001
  0.500171718191575E-001 -0.145924620942395E+001  0.386687930474564E+001
  0.500171718191575E-001 -0.208272223786634E+001  0.376652624649452E+001
  0.500171718191575E-001 -0.241603999451917E+001  0.371267486857203E+001
  0.500171718191575E-001 -0.242070918397229E+001  0.371191956220954E+001
  0.500171718191575E-001 -0.248980336503308E+001  0.370070651474410E+001
  0.500171718191575E-001 -0.432157378510755E+001  0.339107679405105E+001
  0.500171718191575E-001 -0.260752635316175E+001  0.368155123076258E+001
  0.500171718191575E-001 -0.267073445634168E+001  0.367124033186718E+001
  0.500171718191575E-001 -0.305432896928113E+001  0.360815583700978E+001
  0.500171718191575E-001 -0.307103591279309E+001  0.360538632194733E+001
  0.500171718191575E-001 -0.326219039277356E+001  0.357354985041108E+001
  0.500171718191575E-001 -0.427157597855847E+001  0.339996162230904E+001
  0.500171718191575E-001 -0.355408053712171E+001  0.352436808742353E+001
  0.500171718191575E-001 -0.373649745301526E+001  0.349324373980037E+001
  0.500171718191575E-001 -0.420946889237683E+001  0.341095710048742E+001
  0.500171718191575E-001 -0.502331834153455E+001  0.326247707147759E+001
  0.500171718191575E-001 -0.517690687493604E+001  0.323311313137412E+001
  0.500171718191575E-001 -0.523660617188733E+001  0.322154608060389E+001
  0.500171718191575E-001 -0.525219898537915E+001  0.321850932193922E+001
  0.500171718191575E-001 -0.538048081712049E+001  0.319326725485629E+001
  0.500171718191575E-001 -0.538893227891248E+001  0.319158630276596E+001
  0.500171718191575E-001 -0.546693759278577E+001  0.317596822857217E+001
  0.500171718191575E-001 -0.550051098183911E+001  0.316918270556136E+001
  0.500171718191575E-001 -0.551769595460217E+001  0.316569386250326E+001
  0.500171718191575E-001 -0.558738355950635E+001  0.315143030422351E+001
  0.500171718191575E-001 -0.558901410416883E+001  0.315109386300551E+001
  0.500171718191575E-001 -0.560986833886426E+001  0.314678727874155E+001
  0.500171718191575E-001 -0.561809950188916E+001  0.314508210330080E+001
  0.500171718191575E-001 -0.569470219926160E+001  0.312907234078661E+001
  0.500171718191575E-001 -0.574029140786450E+001  0.311941541460161E+001
  0.500171718191575E-001 -0.574036770180982E+001  0.311939919516397E+001
  0.500171718191575E-001 -0.584292559937757E+001  0.309728400752346E+001
  0.500171718191575E-001 -0.586854486779492E+001  0.309166649244451E+001
  0.500171718191575E-001 -0.592606263474744E+001  0.307890831474731E+001
  0.500171718191575E-001 -0.596281128243726E+001  0.307064350703433E+001
  0.500171718191575E-001 -0.598216681794446E+001  0.306625053005600E+001
  0.500171718191575E-001 -0.607459907845777E+001  0.304488643867567E+001
  0.500171718191575E-001 -0.619481616334241E+001  0.301597864025472E+001
  0.500171718191575E-001 -0.621921258286756E+001  0.300993361232764E+001
  0.500171718191575E-001 -0.622522502259534E+001  0.300843297185334E+001
  0.500171718191575E-001 -0.632239322976392E+001  0.298357627925514E+001
  0.500171718191575E-001 -0.633578281716626E+001  0.298005238866695E+001
  0.500171718191575E-001 -0.633705597237866E+001  0.297971530176517E+001
  0.500171718191575E-001 -0.635279159859937E+001  0.297553737284734E+001
  0.500171718191575E-001 -0.637150197343152E+001  0.297052171053737E+001
  0.500171718191575E-001 -0.642170768098157E+001  0.295677775139996E+001
  0.500171718191575E-001 -0.643524055794995E+001  0.295299820156986E+001
  0.500171718191575E-001 -0.643528824166577E+001  0.295298535274382E+001
  0.500171718191575E-001 -0.643576817826550E+001  0.295285029832814E+001
  0.500171718191575E-001 -0.644572429971021E+001  0.295004661683059E+001
  0.500171718191575E-001 -0.645696025208753E+001  0.294686008426562E+001
  0.500171718191575E-001 -0.646481185273450E+001  0.294461847248320E+001
  0.500171718191575E-001 -0.647379165009778E+001  0.294203900681087E+001
  0.500171718191575E-001 -0.652464871720593E+001  0.292710413077871E+001
  0.500171718191575E-001 -0.653561501817029E+001  0.292380551787699E+001
  0.500171718191575E-001 -0.653773360566419E+001  0.292316497028073E+001
  0.500171718191575E-001 -0.655472379044812E+001  0.291798535649706E+001
  0.500171718191575E-001 -0.657054214791577E+001  0.291309489865430E+001
  0.500171718191575E-001 -0.659067564324658E+001  0.290676964934874E+001
  0.500171718191575E-001 -0.661897378281873E+001  0.289767319015818E+001
  0.500171718191575E-001 -0.663610940293592E+001  0.289203909093855E+001
  0.500171718191575E-001 -0.664444260911267E+001  0.288926238771692E+001
  0.500171718191575E-001 -0.665067773179334E+001  0.288716920414773E+001
  0.500171718191575E-001 -0.668168120698255E+001  0.287653626617852E+001
  0.500171718191575E-001 -0.669080453233045E+001  0.287333331190557E+001
  0.500171718191575E-001 -0.669437318162244E+001  0.287207003930418E+001
  0.500171718191575E-001 -0.669576053933423E+001  0.287157803675051E+001
  0.500171718191575E-001 -0.670735698060315E+001  0.286742858615488E+001
  0.500171718191575E-001 -0.671154551820081E+001  0.286591357515405E+001
  0.500171718191575E-001 -0.672168164567273E+001  0.286221450119992E+001
  0.500171718191575E-001 -0.673659758881848E+001  0.285667639134451E+001
  0.500171718191575E-001 -0.673991065339368E+001  0.285543076396478E+001
  0.500171718191575E-001 -0.675747113541883E+001  0.284872413285751E+001
  0.500171718191575E-001 -0.676556735352796E+001  0.284557178593811E+001
  0.500171718191575E-001 -0.676859908417981E+001  0.284438031065607E+001
  0.500171718191575E-001 -0.638030742806647E+001  0.283397663436131E+001
  0.500171718191575E-001 -0.638659977120611E+001  0.283137379853448E+001
  0.500171718191575E-001 -0.641621469659064E+001  0.281869494544364E+001
  0.500171718191575E-001 -0.641666149300787E+001  0.281849770763344E+001
  0.500171718191575E-001 -0.643295597237799E+001  0.281117898292023E+001
  0.500171718191575E-001 -0.644661020440314E+001  0.280483527620558E+001
  0.500171718191575E-001 -0.645042633218024E+001  0.280302482438689E+001
  0.500171718191575E-001 -0.647963976067755E+001  0.278854910484156E+001
  0.500171718191575E-001 -0.649321149987433E+001  0.278139786497581E+001
  0.500171718191575E-001 -0.649365352791998E+001  0.278116069912461E+001
  0.500171718191575E-001 -0.649630188149664E+001  0.277972549173506E+001
  0.500171718191575E-001 -0.649881242913458E+001  0.277835480317188E+001
  0.500171718191575E-001 -0.650243877572272E+001  0.277635391620402E+001
  0.500171718191575E-001 -0.650863193673346E+001  0.277287587072002E+001
  0.500171718191575E-001 -0.651283382577154E+001  0.277047117632888E+001
  0.500171718191575E-001 -0.651639103097174E+001  0.276840557735364E+001
  0.500171718191575E-001 -0.651742529076788E+001  0.276779979640525E+001
  0.500171718191575E-001 -0.652627920312140E+001  0.276250757601058E+001
  0.500171718191575E-001 -0.653365635079596E+001  0.275794338554907E+001
  0.500171718191575E-001 -0.654292320412848E+001  0.275198604332976E+001
  0.500171718191575E-001 -0.656518243951056E+001  0.273642043296207E+001
  0.500171718191575E-001 -0.657167743844244E+001  0.273145838539867E+001
  0.500171718191575E-001 -0.657347940606329E+001  0.273004194299196E+001
  0.500171718191575E-001 -0.657367300194952E+001  0.272988724448227E+001
  0.500171718191575E-001 -0.657582210702154E+001  0.272817003703273E+001
  0.500171718191575E-001 -0.657905697030279E+001  0.272552872849470E+001
  0.500171718191575E-001 -0.657957052392218E+001  0.272510328634729E+001
  0.500171718191575E-001 -0.657985901040289E+001  0.272486309106811E+001
  0.500171718191575E-001 -0.659487127465460E+001  0.271146977594751E+001
  0.500171718191575E-001 -0.659823536080572E+001  0.270817181622062E+001
  0.500171718191575E-001 -0.660273670357916E+001  0.270354133709855E+001
  0.500171718191575E-001 -0.660426830453131E+001  0.270190020595202E+001
  0.500171718191575E-001 -0.457215331340974E+001  0.263767539668794E+001
  0.500171718191575E-001 -0.457227776790803E+001  0.263655396911372E+001
  0.500171718191575E-001 -0.457228873516267E+001  0.263644348166615E+001
