  0.293346831958449E-001  0.786655567817731E-001  0.556383548092060E+001
  0.293346831958449E-001  0.124567332141881E+000  0.558846938192257E+001
  0.293346831958449E-001 -0.441717396110464E+001  0.212610833171242E+001
  0.293346831958449E-001 -0.437647757858205E+001  0.212341844352750E+001
  0.293346831958449E-001  0.257987004744339E+001  0.686679043286005E+001
  0.293346831958449E-001 -0.430465350479055E+001  0.211872380128633E+001
  0.293346831958449E-001 -0.402439723342824E+001  0.210099443380610E+001
  0.293346831958449E-001 -0.609041390544887E+000  0.519408694714710E+001
  0.293346831958449E-001 -0.530762682289052E+001  0.219276087148836E+001
  0.293346831958449E-001 -0.184091363281179E+001  0.198109874190030E+001
  0.293346831958449E-001 -0.196886048644948E+001  0.198750915587843E+001
  0.293346831958449E-001 -0.247358999580312E+001  0.201346975521455E+001
  0.293346831958449E-001 -0.253914556831289E+001  0.201691988461351E+001
  0.293346831958449E-001 -0.279701743453908E+001  0.203066972350751E+001
  0.293346831958449E-001 -0.394734011024404E+001  0.209626312438271E+001
  0.293346831958449E-001 -0.375921283096242E+001  0.208493435897200E+001
  0.293346831958449E-001 -0.380108771652151E+001  0.208743009014633E+001
  0.293346831958449E-001 -0.394394383758474E+001  0.209605588621205E+001
  0.293346831958449E-001 -0.478801427215505E+001  0.215181312144399E+001
  0.293346831958449E-001 -0.505489549964834E+001  0.217196723405825E+001
  0.293346831958449E-001 -0.530515084594655E+001  0.219254854991133E+001
  0.293346831958449E-001 -0.560867867797780E+001  0.222041066412326E+001
  0.293346831958449E-001 -0.563110909789968E+001  0.222262403349404E+001
  0.293346831958449E-001 -0.599914417594839E+001  0.226289504129116E+001
  0.293346831958449E-001 -0.600600037902761E+001  0.226372830718123E+001
  0.293346831958449E-001 -0.603674803108144E+001  0.226750897455776E+001
  0.293346831958449E-001 -0.615375075668264E+001  0.228260599417947E+001
  0.293346831958449E-001 -0.617205319732595E+001  0.228507678784075E+001
  0.293346831958449E-001 -0.618885884612966E+001  0.228737355740716E+001
  0.293346831958449E-001 -0.620395527213979E+001  0.228946078961326E+001
  0.293346831958449E-001 -0.625282202094961E+001  0.229637645501798E+001
  0.293346831958449E-001 -0.627681479782033E+001  0.229986350972875E+001
  0.293346831958449E-001 -0.628393254608083E+001  0.230091114038248E+001
  0.293346831958449E-001 -0.631875524848867E+001  0.230611754498330E+001
  0.293346831958449E-001 -0.632188139289785E+001  0.230659267051701E+001
  0.293346831958449E-001 -0.636669407218862E+001  0.231352775354836E+001
  0.293346831958449E-001 -0.638625059455801E+001  0.231663440276778E+001
  0.293346831958449E-001 -0.638936171859670E+001  0.231713178241701E+001
  0.293346831958449E-001 -0.641841731399465E+001  0.232185908962714E+001
  0.293346831958449E-001 -0.647031102508474E+001  0.233060219737789E+001
  0.293346831958449E-001 -0.647065434783864E+001  0.233066199194481E+001
  0.293346831958449E-001 -0.657430610984731E+001  0.234946148321974E+001
  0.293346831958449E-001 -0.660582504600454E+001  0.235557673730280E+001
  0.293346831958449E-001 -0.662095103591848E+001  0.235858648169780E+001
  0.293346831958449E-001 -0.663806853622365E+001  0.236205244790144E+001
  0.293346831958449E-001 -0.664471946090627E+001  0.236341755864320E+001
  0.293346831958449E-001 -0.669469366401601E+001  0.237401483143914E+001
  0.293346831958449E-001 -0.671845732063222E+001  0.237928007692243E+001
  0.293346831958449E-001 -0.674179134696889E+001  0.238460832810620E+001
  0.293346831958449E-001 -0.674403009742666E+001  0.238512827037766E+001
  0.293346831958449E-001 -0.677138719886709E+001  0.239160331681611E+001
  0.293346831958449E-001 -0.678014455169607E+001  0.239372822603888E+001
  0.293346831958449E-001 -0.679235849708486E+001  0.239673445537586E+001
  0.293346831958449E-001 -0.682372198432851E+001  0.240470575243455E+001
  0.293346831958449E-001 -0.683663139671255E+001  0.240809515926568E+001
  0.293346831958449E-001 -0.684670362800527E+001  0.241078836842060E+001
  0.293346831958449E-001 -0.685520110458303E+001  0.241309376820065E+001
  0.293346831958449E-001 -0.690673313468862E+001  0.242780131703419E+001
  0.293346831958449E-001 -0.693096766799856E+001  0.243520067385054E+001
  0.293346831958449E-001 -0.694353185028005E+001  0.243917564506594E+001
  0.293346831958449E-001 -0.694876323074270E+001  0.244085977766969E+001
  0.293346831958449E-001 -0.696403489440847E+001  0.244588182317757E+001
  0.293346831958449E-001 -0.700168881744314E+001  0.245901165093422E+001
  0.293346831958449E-001 -0.700371251434255E+001  0.245975212164576E+001
  0.293346831958449E-001 -0.701762280792165E+001  0.246493099624382E+001
  0.293346831958449E-001 -0.704630647033620E+001  0.247623187824278E+001
  0.293346831958449E-001 -0.706394896835256E+001  0.248366201511486E+001
  0.293346831958449E-001 -0.706663403839040E+001  0.248482777105458E+001
  0.293346831958449E-001 -0.706947551101613E+001  0.248607485785109E+001
  0.293346831958449E-001 -0.707102666229177E+001  0.248675877277318E+001
  0.293346831958449E-001 -0.708972535461355E+001  0.249530705458082E+001
  0.293346831958449E-001 -0.710373864501882E+001  0.250210441320455E+001
  0.293346831958449E-001 -0.711390099853444E+001  0.250727639378798E+001
  0.293346831958449E-001 -0.711967645019460E+001  0.251031864464682E+001
  0.293346831958449E-001 -0.712306104034353E+001  0.251213654245294E+001
  0.293346831958449E-001 -0.714900431960988E+001  0.252713212305849E+001
  0.293346831958449E-001 -0.714983783096242E+001  0.252765023668081E+001
  0.293346831958449E-001 -0.715363774627614E+001  0.253004230778352E+001
  0.293346831958449E-001 -0.715860734313894E+001  0.253325646348564E+001
  0.293346831958449E-001 -0.715883002609182E+001  0.253340365102161E+001
  0.293346831958449E-001 -0.716419110626150E+001  0.253699054612678E+001
  0.293346831958449E-001 -0.716461453765798E+001  0.253728051699825E+001
  0.293346831958449E-001 -0.717075620025564E+001  0.254157319133714E+001
  0.293346831958449E-001 -0.717254529327321E+001  0.275110935508360E+001
  0.293346831958449E-001 -0.717837319702077E+001  0.254718286559219E+001
  0.293346831958449E-001 -0.718039260238576E+001  0.254873034795009E+001
  0.293346831958449E-001 -0.718279919952321E+001  0.274279804053370E+001
  0.293346831958449E-001 -0.718363843292165E+001  0.255127503033494E+001
  0.293346831958449E-001 -0.718881450027395E+001  0.255548971417949E+001
  0.293346831958449E-001 -0.719009337753225E+001  0.255656479396796E+001
  0.293346831958449E-001 -0.719026074737478E+001  0.273629061944878E+001
  0.293346831958449E-001 -0.719091830581594E+001  0.255726716581480E+001
  0.293346831958449E-001 -0.719121299117971E+001  0.255751897803212E+001
  0.293346831958449E-001 -0.719123921722341E+001  0.255754209554721E+001
  0.293346831958449E-001 -0.719238648742605E+001  0.273435320552331E+001
  0.293346831958449E-001 -0.719582925170827E+001  0.256156666153029E+001
  0.293346831958449E-001 -0.719737181991506E+001  0.272963646495798E+001
  0.293346831958449E-001 -0.719795928329397E+001  0.272906447990410E+001
  0.293346831958449E-001 -0.720036874145437E+001  0.256577336186625E+001
  0.293346831958449E-001 -0.720093999236989E+001  0.272609876186356E+001
  0.293346831958449E-001 -0.720218358367849E+001  0.272483018785551E+001
  0.293346831958449E-001 -0.720540318817068E+001  0.257072567232730E+001
  0.293346831958449E-001 -0.720595631927419E+001  0.272085233725603E+001
  0.293346831958449E-001 -0.720838580459524E+001  0.271817960776406E+001
  0.293346831958449E-001 -0.720922551483083E+001  0.257472953251462E+001
  0.293346831958449E-001 -0.720944962829519E+001  0.271697611956164E+001
  0.293346831958449E-001 -0.720957408279348E+001  0.271683666509636E+001
  0.293346831958449E-001 -0.721086964935232E+001  0.257653199318999E+001
  0.293346831958449E-001 -0.721169505447317E+001  0.271437627207712E+001
  0.293346831958449E-001 -0.721249995559621E+001  0.271342067461118E+001
  0.293346831958449E-001 -0.721284327835012E+001  0.257876204900290E+001
  0.293346831958449E-001 -0.721306882232595E+001  0.257901867933620E+001
  0.293346831958449E-001 -0.721361527770925E+001  0.271207330961285E+001
  0.293346831958449E-001 -0.721512542098928E+001  0.271020641583331E+001
  0.293346831958449E-001 -0.721527276367116E+001  0.258161514506474E+001
  0.293346831958449E-001 -0.721693311065603E+001  0.258364319908125E+001
  0.293346831958449E-001 -0.721721301406789E+001  0.270753462618087E+001
  0.293346831958449E-001 -0.721769795745778E+001  0.270689696696861E+001
  0.293346831958449E-001 -0.721807275146413E+001  0.258508072088870E+001
  0.293346831958449E-001 -0.722146401733327E+001  0.258957958619330E+001
  0.293346831958449E-001 -0.722148309081960E+001  0.270168962283652E+001
  0.293346831958449E-001 -0.722222886413503E+001  0.259065004306262E+001
  0.293346831958449E-001 -0.722250733703542E+001  0.270019811297625E+001
  0.293346831958449E-001 -0.722389207214284E+001  0.269811579463924E+001
  0.293346831958449E-001 -0.722407422393728E+001  0.259331949674902E+001
  0.293346831958449E-001 -0.722488770812917E+001  0.269656803090854E+001
  0.293346831958449E-001 -0.722580180496145E+001  0.259595851978492E+001
  0.293346831958449E-001 -0.722597203582693E+001  0.259622381821882E+001
  0.293346831958449E-001 -0.722664008468557E+001  0.259729521675007E+001
  0.293346831958449E-001 -0.722876725524831E+001  0.269003411753060E+001
  0.293346831958449E-001 -0.722960744232107E+001  0.268849667588555E+001
  0.293346831958449E-001 -0.723139462799001E+001  0.268502270608307E+001
  0.293346831958449E-001 -0.723143802017141E+001  0.268493575360976E+001
  0.293346831958449E-001 -0.723181472152639E+001  0.268416772212980E+001
  0.293346831958449E-001 -0.723272977203298E+001  0.268222227354245E+001
  0.293346831958449E-001 -0.723360762924123E+001  0.268026232626986E+001
  0.293346831958449E-001 -0.723387608856130E+001  0.261098164224174E+001
  0.293346831958449E-001 -0.723387608856130E+001  0.261098532101689E+001
  0.293346831958449E-001 -0.723395572036672E+001  0.267944864224558E+001
  0.293346831958449E-001 -0.723448644012380E+001  0.261240294237205E+001
  0.293346831958449E-001 -0.723468385070730E+001  0.261288207108347E+001
  0.293346831958449E-001 -0.723501286834646E+001  0.267687391359399E+001
  0.293346831958449E-001 -0.723518739074636E+001  0.267642752234533E+001
  0.293346831958449E-001 -0.723636994689870E+001  0.267322793808435E+001
  0.293346831958449E-001 -0.723652110427785E+001  0.261768827786579E+001
  0.293346831958449E-001 -0.723757872909475E+001  0.262089020514225E+001
  0.293346831958449E-001 -0.723761163085866E+001  0.262100143828519E+001
  0.293346831958449E-001 -0.723791871398855E+001  0.266838223817497E+001
  0.293346831958449E-001 -0.671206365008513E+001  0.266695981334072E+001
  0.293346831958449E-001 -0.671214852709929E+001  0.266664501208736E+001
  0.293346831958449E-001 -0.671335587878386E+001  0.266155965786623E+001
  0.293346831958449E-001 -0.671398768801848E+001  0.265813756985496E+001
  0.293346831958449E-001 -0.671429429431120E+001  0.265608811119711E+001
  0.293346831958449E-001 -0.671459088702360E+001  0.265366644163913E+001
