  0.246894987398708E+000  0.373261651077045E+001  0.541357563122251E+001
  0.246894987398708E+000  0.398311718978657E+001  0.699193937604311E+001
  0.246894987398708E+000  0.426179799117817E+001  0.647587308117417E+001
  0.246894987398708E+000 -0.229050636291504E+001  0.211848522527028E+001
  0.246894987398708E+000 -0.192489981651306E+001  0.207989847487041E+001
  0.246894987398708E+000  0.119228839874268E+001  0.183785604173147E+001
  0.246894987398708E+000  0.159226417541504E+000  0.190697853331916E+001
  0.246894987398708E+000 -0.442939758300781E+000  0.195117874494891E+001
  0.246894987398708E+000 -0.144118738174438E+001  0.203382401583954E+001
  0.246894987398708E+000 -0.109309911727905E+001  0.200338869462684E+001
  0.246894987398708E+000 -0.242006349563599E+001  0.213313499514432E+001
  0.246894987398708E+000 -0.259580111503601E+001  0.215398067431768E+001
  0.246894987398708E+000 -0.293285083770752E+001  0.219777585283336E+001
  0.246894987398708E+000 -0.297019433975220E+001  0.220299657604004E+001
  0.246894987398708E+000 -0.317204785346985E+001  0.223278646116725E+001
  0.246894987398708E+000 -0.337918496131897E+001  0.226668664086721E+001
  0.246894987398708E+000 -0.348974227905273E+001  0.228654189417105E+001
  0.246894987398708E+000 -0.355225706100464E+001  0.229843141841279E+001
  0.246894987398708E+000 -0.355321002006531E+001  0.229861742068152E+001
  0.246894987398708E+000 -0.360932683944702E+001  0.230976555673113E+001
  0.246894987398708E+000 -0.366105318069458E+001  0.232048158105916E+001
  0.246894987398708E+000 -0.374163866043091E+001  0.233813655394685E+001
  0.246894987398708E+000 -0.377085828781128E+001  0.234486524980683E+001
  0.246894987398708E+000 -0.377196288108826E+001  0.234512345725143E+001
  0.246894987398708E+000 -0.389112234115601E+001  0.237480060562504E+001
  0.246894987398708E+000 -0.389291405677795E+001  0.237527863471092E+001
  0.246894987398708E+000 -0.403729915618896E+001  0.241787647324257E+001
  0.246894987398708E+000 -0.406337833404541E+001  0.242666810771534E+001
  0.246894987398708E+000 -0.407934188842773E+001  0.243226652311692E+001
  0.246894987398708E+000 -0.415256929397583E+001  0.246060647646263E+001
  0.246894987398708E+000 -0.419553565979004E+001  0.247999332653532E+001
