  0.183429680535607E-001 -0.392704982933880E+000  0.556383548092060E+001
  0.183429680535607E-001 -0.346803207573772E+000  0.558846938192257E+001
  0.183429680535607E-001 -0.488854450082029E+001  0.212610833171242E+001
  0.183429680535607E-001 -0.484784811829770E+001  0.212341844352750E+001
  0.183429680535607E-001  0.210849950772774E+001  0.686679043286005E+001
  0.183429680535607E-001 -0.477602404450620E+001  0.211872380128633E+001
  0.183429680535607E-001 -0.449576777314390E+001  0.210099443380610E+001
  0.183429680535607E-001 -0.108041193026054E+001  0.519408694714710E+001
  0.183429680535607E-001 -0.577899736260618E+001  0.219276087148836E+001
  0.183429680535607E-001 -0.231228417252744E+001  0.198109874190030E+001
  0.183429680535607E-001 -0.244023102616514E+001  0.198750915587843E+001
  0.183429680535607E-001 -0.294496053551877E+001  0.201346975521455E+001
  0.183429680535607E-001 -0.301051610802854E+001  0.201691988461351E+001
  0.183429680535607E-001 -0.326838797425474E+001  0.203066972350751E+001
  0.183429680535607E-001 -0.441871064995969E+001  0.209626312438271E+001
  0.183429680535607E-001 -0.423058337067808E+001  0.208493435897200E+001
  0.183429680535607E-001 -0.427245825623716E+001  0.208743009014633E+001
  0.183429680535607E-001 -0.441531437730039E+001  0.209605588621205E+001
  0.183429680535607E-001 -0.525938481187070E+001  0.215181312144399E+001
  0.183429680535607E-001 -0.552626603936399E+001  0.217196723405825E+001
  0.183429680535607E-001 -0.577652138566221E+001  0.219254854991133E+001
  0.183429680535607E-001 -0.608004921769346E+001  0.222041066412326E+001
  0.183429680535607E-001 -0.610247963761533E+001  0.222262403349404E+001
  0.183429680535607E-001 -0.647051471566404E+001  0.226289504129116E+001
  0.183429680535607E-001 -0.647737091874326E+001  0.226372830718123E+001
  0.183429680535607E-001 -0.650811857079709E+001  0.226750897455776E+001
  0.183429680535607E-001 -0.662512129639829E+001  0.228260599417947E+001
  0.183429680535607E-001 -0.664342373704160E+001  0.228507678784075E+001
  0.183429680535607E-001 -0.666022938584531E+001  0.228737355740716E+001
  0.183429680535607E-001 -0.667532581185544E+001  0.228946078961326E+001
  0.183429680535607E-001 -0.672419256066526E+001  0.229637645501798E+001
  0.183429680535607E-001 -0.674818533753599E+001  0.229986350972875E+001
  0.183429680535607E-001 -0.675530308579648E+001  0.230091114038248E+001
  0.183429680535607E-001 -0.679012578820432E+001  0.230611754498330E+001
  0.183429680535607E-001 -0.679325193261350E+001  0.230659267051701E+001
  0.183429680535607E-001 -0.683806461190427E+001  0.231352775354836E+001
  0.183429680535607E-001 -0.685762113427366E+001  0.231663440276778E+001
  0.183429680535607E-001 -0.686073225831235E+001  0.231713178241701E+001
  0.183429680535607E-001 -0.688978785371030E+001  0.232185908962714E+001
  0.183429680535607E-001 -0.694168156480039E+001  0.233060219737789E+001
  0.183429680535607E-001 -0.694202488755430E+001  0.233066199194481E+001
  0.183429680535607E-001 -0.704567664956296E+001  0.234946148321974E+001
  0.183429680535607E-001 -0.707719558572019E+001  0.235557673730280E+001
  0.183429680535607E-001 -0.709232157563413E+001  0.235858648169780E+001
  0.183429680535607E-001 -0.710943907593931E+001  0.236205244790144E+001
  0.183429680535607E-001 -0.711609000062192E+001  0.236341755864320E+001
  0.183429680535607E-001 -0.716606420373166E+001  0.237401483143914E+001
  0.183429680535607E-001 -0.718982786034788E+001  0.237928007692243E+001
  0.183429680535607E-001 -0.721316188668455E+001  0.238460832810620E+001
  0.183429680535607E-001 -0.721540063714231E+001  0.238512827037766E+001
  0.183429680535607E-001 -0.724275773858274E+001  0.239160331681611E+001
  0.183429680535607E-001 -0.725151509141172E+001  0.239372822603888E+001
  0.183429680535607E-001 -0.726372903680051E+001  0.239673445537586E+001
  0.183429680535607E-001 -0.729509252404416E+001  0.240470575243455E+001
  0.183429680535607E-001 -0.730800193642820E+001  0.240809515926568E+001
  0.183429680535607E-001 -0.731807416772092E+001  0.241078836842060E+001
  0.183429680535607E-001 -0.732657164429868E+001  0.241309376820065E+001
  0.183429680535607E-001 -0.737810367440427E+001  0.242780131703419E+001
  0.183429680535607E-001 -0.740233820771421E+001  0.243520067385054E+001
  0.183429680535607E-001 -0.741490238999570E+001  0.243917564506594E+001
  0.183429680535607E-001 -0.742013377045835E+001  0.244085977766969E+001
  0.183429680535607E-001 -0.743540543412412E+001  0.244588182317757E+001
  0.183429680535607E-001 -0.747305935715879E+001  0.245901165093422E+001
  0.183429680535607E-001 -0.747508305405820E+001  0.245975212164576E+001
  0.183429680535607E-001 -0.748899334763730E+001  0.246493099624382E+001
  0.183429680535607E-001 -0.751767701005186E+001  0.247623187824278E+001
  0.183429680535607E-001 -0.753531950806821E+001  0.248366201511486E+001
  0.183429680535607E-001 -0.753800457810605E+001  0.248482777105458E+001
  0.183429680535607E-001 -0.754084605073179E+001  0.248607485785109E+001
  0.183429680535607E-001 -0.754239720200742E+001  0.248675877277318E+001
  0.183429680535607E-001 -0.756109589432920E+001  0.249530705458082E+001
  0.183429680535607E-001 -0.757510918473447E+001  0.250210441320455E+001
  0.183429680535607E-001 -0.758527153825010E+001  0.250727639378798E+001
  0.183429680535607E-001 -0.759104698991025E+001  0.251031864464682E+001
  0.183429680535607E-001 -0.759443158005918E+001  0.251213654245294E+001
  0.183429680535607E-001 -0.762037485932554E+001  0.252713212305849E+001
  0.183429680535607E-001 -0.762120837067808E+001  0.252765023668081E+001
  0.183429680535607E-001 -0.762500828599180E+001  0.253004230778352E+001
  0.183429680535607E-001 -0.762997788285459E+001  0.253325646348564E+001
  0.183429680535607E-001 -0.763020056580747E+001  0.253340365102161E+001
  0.183429680535607E-001 -0.763556164597715E+001  0.253699054612678E+001
  0.183429680535607E-001 -0.763598507737363E+001  0.253728051699825E+001
  0.183429680535607E-001 -0.764212673997129E+001  0.254157319133714E+001
  0.183429680535607E-001 -0.764391583298887E+001  0.275110935508360E+001
  0.183429680535607E-001 -0.764974373673643E+001  0.254718286559219E+001
  0.183429680535607E-001 -0.765176314210142E+001  0.254873034795009E+001
  0.183429680535607E-001 -0.765416973923887E+001  0.274279804053370E+001
  0.183429680535607E-001 -0.765500897263730E+001  0.255127503033494E+001
  0.183429680535607E-001 -0.766018503998960E+001  0.255548971417949E+001
  0.183429680535607E-001 -0.766146391724790E+001  0.255656479396796E+001
  0.183429680535607E-001 -0.766163128709043E+001  0.273629061944878E+001
  0.183429680535607E-001 -0.766228884553159E+001  0.255726716581480E+001
  0.183429680535607E-001 -0.766258353089536E+001  0.255751897803212E+001
  0.183429680535607E-001 -0.766260975693906E+001  0.255754209554721E+001
  0.183429680535607E-001 -0.766375702714170E+001  0.273435320552331E+001
  0.183429680535607E-001 -0.766719979142393E+001  0.256156666153029E+001
  0.183429680535607E-001 -0.766874235963071E+001  0.272963646495798E+001
  0.183429680535607E-001 -0.766932982300962E+001  0.272906447990410E+001
  0.183429680535607E-001 -0.767173928117002E+001  0.256577336186625E+001
  0.183429680535607E-001 -0.767231053208555E+001  0.272609876186356E+001
  0.183429680535607E-001 -0.767355412339414E+001  0.272483018785551E+001
  0.183429680535607E-001 -0.767677372788633E+001  0.257072567232730E+001
  0.183429680535607E-001 -0.767732685898984E+001  0.272085233725603E+001
  0.183429680535607E-001 -0.767975634431089E+001  0.271817960776406E+001
  0.183429680535607E-001 -0.768059605454648E+001  0.257472953251462E+001
  0.183429680535607E-001 -0.768082016801084E+001  0.271697611956164E+001
  0.183429680535607E-001 -0.768094462250913E+001  0.271683666509636E+001
  0.183429680535607E-001 -0.768224018906797E+001  0.257653199318999E+001
  0.183429680535607E-001 -0.768306559418882E+001  0.271437627207712E+001
  0.183429680535607E-001 -0.768387049531187E+001  0.271342067461118E+001
  0.183429680535607E-001 -0.768421381806577E+001  0.257876204900290E+001
  0.183429680535607E-001 -0.768443936204160E+001  0.257901867933620E+001
  0.183429680535607E-001 -0.768498581742490E+001  0.271207330961285E+001
  0.183429680535607E-001 -0.768649596070493E+001  0.271020641583331E+001
  0.183429680535607E-001 -0.768664330338682E+001  0.258161514506474E+001
  0.183429680535607E-001 -0.768830365037168E+001  0.258364319908125E+001
  0.183429680535607E-001 -0.768858355378354E+001  0.270753462618087E+001
  0.183429680535607E-001 -0.768906849717344E+001  0.270689696696861E+001
  0.183429680535607E-001 -0.768944329117978E+001  0.258508072088870E+001
  0.183429680535607E-001 -0.769283455704893E+001  0.258957958619330E+001
  0.183429680535607E-001 -0.769285363053525E+001  0.270168962283652E+001
  0.183429680535607E-001 -0.769359940385068E+001  0.259065004306262E+001
  0.183429680535607E-001 -0.769387787675107E+001  0.270019811297625E+001
  0.183429680535607E-001 -0.769526261185850E+001  0.269811579463924E+001
  0.183429680535607E-001 -0.769544476365293E+001  0.259331949674902E+001
  0.183429680535607E-001 -0.769625824784482E+001  0.269656803090854E+001
  0.183429680535607E-001 -0.769717234467710E+001  0.259595851978492E+001
  0.183429680535607E-001 -0.769734257554258E+001  0.259622381821882E+001
  0.183429680535607E-001 -0.769801062440122E+001  0.259729521675007E+001
  0.183429680535607E-001 -0.770013779496396E+001  0.269003411753060E+001
  0.183429680535607E-001 -0.770097798203672E+001  0.268849667588555E+001
  0.183429680535607E-001 -0.770276516770566E+001  0.268502270608307E+001
  0.183429680535607E-001 -0.770280855988706E+001  0.268493575360976E+001
  0.183429680535607E-001 -0.770318526124204E+001  0.268416772212980E+001
  0.183429680535607E-001 -0.770410031174863E+001  0.268222227354245E+001
  0.183429680535607E-001 -0.770497816895688E+001  0.268026232626986E+001
  0.183429680535607E-001 -0.770524662827695E+001  0.261098164224174E+001
  0.183429680535607E-001 -0.770524662827695E+001  0.261098532101689E+001
  0.183429680535607E-001 -0.770532626008237E+001  0.267944864224558E+001
  0.183429680535607E-001 -0.770585697983945E+001  0.261240294237205E+001
  0.183429680535607E-001 -0.770605439042295E+001  0.261288207108347E+001
  0.183429680535607E-001 -0.770638340806211E+001  0.267687391359399E+001
  0.183429680535607E-001 -0.770655793046201E+001  0.267642752234533E+001
  0.183429680535607E-001 -0.770774048661436E+001  0.267322793808435E+001
  0.183429680535607E-001 -0.770789164399351E+001  0.261768827786579E+001
  0.183429680535607E-001 -0.770894926881040E+001  0.262089020514225E+001
  0.183429680535607E-001 -0.770898217057432E+001  0.262100143828519E+001
  0.183429680535607E-001 -0.770928925370420E+001  0.266838223817497E+001
  0.183429680535607E-001 -0.718343418980078E+001  0.266695981334072E+001
  0.183429680535607E-001 -0.718351906681494E+001  0.266664501208736E+001
  0.183429680535607E-001 -0.718472641849951E+001  0.266155965786623E+001
  0.183429680535607E-001 -0.718535822773413E+001  0.265813756985496E+001
  0.183429680535607E-001 -0.718566483402685E+001  0.265608811119711E+001
  0.183429680535607E-001 -0.718596142673926E+001  0.265366644163913E+001
