  0.556649239753210E-002 -0.158440769466800E+001  0.556383548092060E+001
  0.556649239753210E-002 -0.153850591930789E+001  0.558846938192257E+001
  0.556649239753210E-002 -0.608024721255441E+001  0.212610833171242E+001
  0.556649239753210E-002 -0.603955083003183E+001  0.212341844352750E+001
  0.556649239753210E-002  0.916796795993619E+000  0.686679043286005E+001
  0.556649239753210E-002 -0.596772675624032E+001  0.211872380128633E+001
  0.556649239753210E-002 -0.568747048487802E+001  0.210099443380610E+001
  0.556649239753210E-002 -0.227211464199466E+001  0.519408694714710E+001
  0.556649239753210E-002 -0.697070007434030E+001  0.219276087148836E+001
  0.556649239753210E-002 -0.350398688426156E+001  0.198109874190030E+001
  0.556649239753210E-002 -0.363193373789926E+001  0.198750915587843E+001
  0.556649239753210E-002 -0.413666324725290E+001  0.201346975521455E+001
  0.556649239753210E-002 -0.420221881976266E+001  0.201691988461351E+001
  0.556649239753210E-002 -0.446009068598886E+001  0.203066972350751E+001
  0.556649239753210E-002 -0.561041336169381E+001  0.209626312438271E+001
  0.556649239753210E-002 -0.542228608241220E+001  0.208493435897200E+001
  0.556649239753210E-002 -0.546416096797128E+001  0.208743009014633E+001
  0.556649239753210E-002 -0.560701708903451E+001  0.209605588621205E+001
  0.556649239753210E-002 -0.645108752360482E+001  0.215181312144399E+001
  0.556649239753210E-002 -0.671796875109811E+001  0.217196723405825E+001
  0.556649239753210E-002 -0.696822409739633E+001  0.219254854991133E+001
  0.556649239753210E-002 -0.727175192942758E+001  0.222041066412326E+001
  0.556649239753210E-002 -0.729418234934945E+001  0.222262403349404E+001
  0.556649239753210E-002 -0.766221742739816E+001  0.226289504129116E+001
  0.556649239753210E-002 -0.766907363047738E+001  0.226372830718123E+001
  0.556649239753210E-002 -0.769982128253122E+001  0.226750897455776E+001
  0.556649239753210E-002 -0.781682400813241E+001  0.228260599417947E+001
  0.556649239753210E-002 -0.783512644877572E+001  0.228507678784075E+001
  0.556649239753210E-002 -0.785193209757943E+001  0.228737355740716E+001
  0.556649239753210E-002 -0.786702852358957E+001  0.228946078961326E+001
  0.556649239753210E-002 -0.791589527239938E+001  0.229637645501798E+001
  0.556649239753210E-002 -0.793988804927011E+001  0.229986350972875E+001
  0.556649239753210E-002 -0.794700579753061E+001  0.230091114038248E+001
  0.556649239753210E-002 -0.798182849993844E+001  0.230611754498330E+001
  0.556649239753210E-002 -0.798495464434762E+001  0.230659267051701E+001
  0.556649239753210E-002 -0.802976732363839E+001  0.231352775354836E+001
  0.556649239753210E-002 -0.804932384600778E+001  0.231663440276778E+001
  0.556649239753210E-002 -0.805243497004648E+001  0.231713178241701E+001
  0.556649239753210E-002 -0.808149056544442E+001  0.232185908962714E+001
  0.556649239753210E-002 -0.813338427653451E+001  0.233060219737789E+001
  0.556649239753210E-002 -0.813372759928842E+001  0.233066199194481E+001
  0.556649239753210E-002 -0.823737936129709E+001  0.234946148321974E+001
  0.556649239753210E-002 -0.826889829745431E+001  0.235557673730280E+001
  0.556649239753210E-002 -0.828402428736825E+001  0.235858648169780E+001
  0.556649239753210E-002 -0.830114178767343E+001  0.236205244790144E+001
  0.556649239753210E-002 -0.830779271235605E+001  0.236341755864320E+001
  0.556649239753210E-002 -0.835776691546579E+001  0.237401483143914E+001
  0.556649239753210E-002 -0.838153057208200E+001  0.237928007692243E+001
  0.556649239753210E-002 -0.840486459841867E+001  0.238460832810620E+001
  0.556649239753210E-002 -0.840710334887643E+001  0.238512827037766E+001
  0.556649239753210E-002 -0.843446045031686E+001  0.239160331681611E+001
  0.556649239753210E-002 -0.844321780314584E+001  0.239372822603888E+001
  0.556649239753210E-002 -0.845543174853463E+001  0.239673445537586E+001
  0.556649239753210E-002 -0.848679523577829E+001  0.240470575243455E+001
  0.556649239753210E-002 -0.849970464816232E+001  0.240809515926568E+001
  0.556649239753210E-002 -0.850977687945504E+001  0.241078836842060E+001
  0.556649239753210E-002 -0.851827435603280E+001  0.241309376820065E+001
  0.556649239753210E-002 -0.856980638613839E+001  0.242780131703419E+001
  0.556649239753210E-002 -0.859404091944833E+001  0.243520067385054E+001
  0.556649239753210E-002 -0.860660510172982E+001  0.243917564506594E+001
  0.556649239753210E-002 -0.861183648219247E+001  0.244085977766969E+001
  0.556649239753210E-002 -0.862710814585824E+001  0.244588182317757E+001
  0.556649239753210E-002 -0.866476206889291E+001  0.245901165093422E+001
  0.556649239753210E-002 -0.866678576579232E+001  0.245975212164576E+001
  0.556649239753210E-002 -0.868069605937143E+001  0.246493099624382E+001
  0.556649239753210E-002 -0.870937972178598E+001  0.247623187824278E+001
  0.556649239753210E-002 -0.872702221980233E+001  0.248366201511486E+001
  0.556649239753210E-002 -0.872970728984018E+001  0.248482777105458E+001
  0.556649239753210E-002 -0.873254876246591E+001  0.248607485785109E+001
  0.556649239753210E-002 -0.873409991374154E+001  0.248675877277318E+001
  0.556649239753210E-002 -0.875279860606332E+001  0.249530705458082E+001
  0.556649239753210E-002 -0.876681189646859E+001  0.250210441320455E+001
  0.556649239753210E-002 -0.877697424998422E+001  0.250727639378798E+001
  0.556649239753210E-002 -0.878274970164438E+001  0.251031864464682E+001
  0.556649239753210E-002 -0.878613429179330E+001  0.251213654245294E+001
  0.556649239753210E-002 -0.881207757105966E+001  0.252713212305849E+001
  0.556649239753210E-002 -0.881291108241220E+001  0.252765023668081E+001
  0.556649239753210E-002 -0.881671099772592E+001  0.253004230778352E+001
  0.556649239753210E-002 -0.882168059458871E+001  0.253325646348564E+001
  0.556649239753210E-002 -0.882190327754159E+001  0.253340365102161E+001
  0.556649239753210E-002 -0.882726435771127E+001  0.253699054612678E+001
  0.556649239753210E-002 -0.882768778910775E+001  0.253728051699825E+001
  0.556649239753210E-002 -0.883382945170541E+001  0.254157319133714E+001
  0.556649239753210E-002 -0.883561854472299E+001  0.275110935508360E+001
  0.556649239753210E-002 -0.884144644847055E+001  0.254718286559219E+001
  0.556649239753210E-002 -0.884346585383554E+001  0.254873034795009E+001
  0.556649239753210E-002 -0.884587245097299E+001  0.274279804053370E+001
  0.556649239753210E-002 -0.884671168437143E+001  0.255127503033494E+001
  0.556649239753210E-002 -0.885188775172372E+001  0.255548971417949E+001
  0.556649239753210E-002 -0.885316662898202E+001  0.255656479396796E+001
  0.556649239753210E-002 -0.885333399882455E+001  0.273629061944878E+001
  0.556649239753210E-002 -0.885399155726571E+001  0.255726716581480E+001
  0.556649239753210E-002 -0.885428624262948E+001  0.255751897803212E+001
  0.556649239753210E-002 -0.885431246867318E+001  0.255754209554721E+001
  0.556649239753210E-002 -0.885545973887582E+001  0.273435320552331E+001
  0.556649239753210E-002 -0.885890250315805E+001  0.256156666153029E+001
  0.556649239753210E-002 -0.886044507136483E+001  0.272963646495798E+001
  0.556649239753210E-002 -0.886103253474374E+001  0.272906447990410E+001
  0.556649239753210E-002 -0.886344199290414E+001  0.256577336186625E+001
  0.556649239753210E-002 -0.886401324381967E+001  0.272609876186356E+001
  0.556649239753210E-002 -0.886525683512826E+001  0.272483018785551E+001
  0.556649239753210E-002 -0.886847643962045E+001  0.257072567232730E+001
  0.556649239753210E-002 -0.886902957072397E+001  0.272085233725603E+001
  0.556649239753210E-002 -0.887145905604501E+001  0.271817960776406E+001
  0.556649239753210E-002 -0.887229876628061E+001  0.257472953251462E+001
  0.556649239753210E-002 -0.887252287974496E+001  0.271697611956164E+001
  0.556649239753210E-002 -0.887264733424325E+001  0.271683666509636E+001
  0.556649239753210E-002 -0.887394290080209E+001  0.257653199318999E+001
  0.556649239753210E-002 -0.887476830592294E+001  0.271437627207712E+001
  0.556649239753210E-002 -0.887557320704599E+001  0.271342067461118E+001
  0.556649239753210E-002 -0.887591652979989E+001  0.257876204900290E+001
  0.556649239753210E-002 -0.887614207377572E+001  0.257901867933620E+001
  0.556649239753210E-002 -0.887668852915902E+001  0.271207330961285E+001
  0.556649239753210E-002 -0.887819867243905E+001  0.271020641583331E+001
  0.556649239753210E-002 -0.887834601512094E+001  0.258161514506474E+001
  0.556649239753210E-002 -0.888000636210580E+001  0.258364319908125E+001
  0.556649239753210E-002 -0.888028626551767E+001  0.270753462618087E+001
  0.556649239753210E-002 -0.888077120890756E+001  0.270689696696861E+001
  0.556649239753210E-002 -0.888114600291391E+001  0.258508072088870E+001
  0.556649239753210E-002 -0.888453726878305E+001  0.258957958619330E+001
  0.556649239753210E-002 -0.888455634226938E+001  0.270168962283652E+001
  0.556649239753210E-002 -0.888530211558481E+001  0.259065004306262E+001
  0.556649239753210E-002 -0.888558058848520E+001  0.270019811297625E+001
  0.556649239753210E-002 -0.888696532359262E+001  0.269811579463924E+001
  0.556649239753210E-002 -0.888714747538705E+001  0.259331949674902E+001
  0.556649239753210E-002 -0.888796095957895E+001  0.269656803090854E+001
  0.556649239753210E-002 -0.888887505641122E+001  0.259595851978492E+001
  0.556649239753210E-002 -0.888904528727670E+001  0.259622381821882E+001
  0.556649239753210E-002 -0.888971333613534E+001  0.259729521675007E+001
  0.556649239753210E-002 -0.889184050669809E+001  0.269003411753060E+001
  0.556649239753210E-002 -0.889268069377084E+001  0.268849667588555E+001
  0.556649239753210E-002 -0.889446787943979E+001  0.268502270608307E+001
  0.556649239753210E-002 -0.889451127162118E+001  0.268493575360976E+001
  0.556649239753210E-002 -0.889488797297616E+001  0.268416772212980E+001
  0.556649239753210E-002 -0.889580302348275E+001  0.268222227354245E+001
  0.556649239753210E-002 -0.889668088069101E+001  0.268026232626986E+001
  0.556649239753210E-002 -0.889694934001107E+001  0.261098164224174E+001
  0.556649239753210E-002 -0.889694934001107E+001  0.261098532101689E+001
  0.556649239753210E-002 -0.889702897181649E+001  0.267944864224558E+001
  0.556649239753210E-002 -0.889755969157357E+001  0.261240294237205E+001
  0.556649239753210E-002 -0.889775710215707E+001  0.261288207108347E+001
  0.556649239753210E-002 -0.889808611979623E+001  0.267687391359399E+001
  0.556649239753210E-002 -0.889826064219613E+001  0.267642752234533E+001
  0.556649239753210E-002 -0.889944319834848E+001  0.267322793808435E+001
  0.556649239753210E-002 -0.889959435572763E+001  0.261768827786579E+001
  0.556649239753210E-002 -0.890065198054452E+001  0.262089020514225E+001
  0.556649239753210E-002 -0.890068488230844E+001  0.262100143828519E+001
  0.556649239753210E-002 -0.890099196543832E+001  0.266838223817497E+001
  0.556649239753210E-002 -0.837513690153490E+001  0.266695981334072E+001
  0.556649239753210E-002 -0.837522177854906E+001  0.266664501208736E+001
  0.556649239753210E-002 -0.837642913023363E+001  0.266155965786623E+001
  0.556649239753210E-002 -0.837706093946825E+001  0.265813756985496E+001
  0.556649239753210E-002 -0.837736754576098E+001  0.265608811119711E+001
  0.556649239753210E-002 -0.837766413847338E+001  0.265366644163913E+001
