  0.205289670022270E+000  0.288644175473924E+001  0.188971970418412E+001
  0.205289670022270E+000  0.489596991483445E+001  0.563995707434086E+001
  0.205289670022270E+000  0.720575671140428E+001  0.723661856793181E+001
  0.205289670022270E+000  0.244542937223191E+001  0.459652458653405E+001
  0.205289670022270E+000  0.204106287900682E+001  0.449305030191165E+001
  0.205289670022270E+000  0.198036341611619E+001  0.447817395954610E+001
  0.205289670022270E+000  0.125962977353807E+001  0.431154519968916E+001
  0.205289670022270E+000  0.980063008706524E+000  0.425080250362847E+001
  0.205289670022270E+000  0.581584023873760E+000  0.416689497720273E+001
  0.205289670022270E+000  0.250631856362774E+000  0.409904531806373E+001
  0.205289670022270E+000  0.218521642129375E+000  0.409253513116908E+001
  0.205289670022270E+000 -0.542964411337422E+000  0.201376713174292E+001
  0.205289670022270E+000 -0.661747408468769E+000  0.391732554427109E+001
  0.205289670022270E+000 -0.823255968649433E+000  0.388561571738073E+001
  0.205289670022270E+000 -0.935071421225117E+000  0.386369555006547E+001
  0.205289670022270E+000 -0.403712291773085E+001  0.324697129969094E+001
  0.205289670022270E+000 -0.113841958101516E+001  0.382388239643994E+001
  0.205289670022270E+000 -0.124241013582473E+001  0.380353340444859E+001
  0.205289670022270E+000 -0.181871647890334E+001  0.369058457166227E+001
  0.205289670022270E+000 -0.188760037477736E+001  0.367704136928195E+001
  0.205289670022270E+000 -0.223559899385695E+001  0.360844642250529E+001
  0.205289670022270E+000 -0.236186642702346E+001  0.208896909522766E+001
  0.205289670022270E+000 -0.243592352922683E+001  0.356879184745049E+001
  0.205289670022270E+000 -0.254762406404738E+001  0.354662397675065E+001
  0.205289670022270E+000 -0.259111208971267E+001  0.353798135836497E+001
  0.205289670022270E+000 -0.262753338869338E+001  0.353074121589676E+001
  0.205289670022270E+000 -0.265677447374587E+001  0.352492472310271E+001
  0.205289670022270E+000 -0.401501627023940E+001  0.325150155029933E+001
  0.205289670022270E+000 -0.270294375475173E+001  0.351573380822685E+001
  0.205289670022270E+000 -0.310951037462477E+001  0.212344852387474E+001
  0.205289670022270E+000 -0.313621850069289E+001  0.342916717185580E+001
  0.205289670022270E+000 -0.394362111147170E+001  0.217077833164724E+001
  0.205289670022270E+000 -0.331792206819777E+001  0.339269452077299E+001
  0.205289670022270E+000 -0.359821076448684E+001  0.214933990371370E+001
  0.205289670022270E+000 -0.392501659448867E+001  0.326989480062749E+001
  0.205289670022270E+000 -0.364008755739455E+001  0.332774606199236E+001
  0.205289670022270E+000 -0.364180560167556E+001  0.332739890585266E+001
  0.205289670022270E+000 -0.367309899385695E+001  0.332106434012670E+001
  0.205289670022270E+000 -0.372945923860793E+001  0.330965053449343E+001
  0.205289670022270E+000 -0.373026080187087E+001  0.330948672956649E+001
  0.205289670022270E+000 -0.378801007326369E+001  0.329777211476878E+001
  0.205289670022270E+000 -0.382953829820876E+001  0.328933430234856E+001
  0.205289670022270E+000 -0.389112539346938E+001  0.327680342245454E+001
  0.205289670022270E+000 -0.381845957024704E+001  0.324450432886535E+001
  0.205289670022270E+000 -0.384169131501328E+001  0.323973677007886E+001
  0.205289670022270E+000 -0.387876135094773E+001  0.323211714313784E+001
  0.205289670022270E+000 -0.388123899682175E+001  0.323160400776854E+001
  0.205289670022270E+000 -0.407642322762619E+001  0.319116081179322E+001
  0.205289670022270E+000 -0.412559753640305E+001  0.318086879563448E+001
  0.205289670022270E+000 -0.418556410058152E+001  0.316825098554808E+001
  0.205289670022270E+000 -0.420047718270432E+001  0.316509763959855E+001
  0.205289670022270E+000 -0.421321970208298E+001  0.316240078369942E+001
  0.205289670022270E+000 -0.421746212227951E+001  0.316150309850179E+001
  0.205289670022270E+000 -0.422894912942063E+001  0.315906617185718E+001
  0.205289670022270E+000 -0.425193029626023E+001  0.315417934515015E+001
  0.205289670022270E+000 -0.428888803704392E+001  0.314629244387448E+001
  0.205289670022270E+000 -0.432502132638108E+001  0.313853954246723E+001
  0.205289670022270E+000 -0.433317333443772E+001  0.313678259457953E+001
  0.205289670022270E+000 -0.437659412606369E+001  0.312739880374248E+001
  0.205289670022270E+000 -0.437692886574875E+001  0.312732583908769E+001
  0.205289670022270E+000 -0.442291313393723E+001  0.311730363295120E+001
  0.205289670022270E+000 -0.450589472039353E+001  0.309898696216399E+001
  0.205289670022270E+000 -0.450626164658677E+001  0.309890639115280E+001
  0.205289670022270E+000 -0.451023203118454E+001  0.309802058577017E+001
  0.205289670022270E+000 -0.460646539910447E+001  0.307629675030220E+001
  0.205289670022270E+000 -0.461534458382737E+001  0.307426368567505E+001
  0.205289670022270E+000 -0.462600189431321E+001  0.307181516954307E+001
  0.205289670022270E+000 -0.463568645699631E+001  0.306958615003553E+001
  0.205289670022270E+000 -0.469502931817185E+001  0.305575786765628E+001
  0.205289670022270E+000 -0.471708041413437E+001  0.305054493225445E+001
  0.205289670022270E+000 -0.474992662652146E+001  0.304270027784838E+001
  0.205289670022270E+000 -0.476083999856125E+001  0.304007081361424E+001
  0.205289670022270E+000 -0.478737550957810E+001  0.303362590195221E+001
  0.205289670022270E+000 -0.478829652054917E+001  0.303340143477822E+001
  0.205289670022270E+000 -0.489066201432358E+001  0.300774540173141E+001
  0.205289670022270E+000 -0.489258629067551E+001  0.300725047989437E+001
  0.205289670022270E+000 -0.490995055421006E+001  0.300274880278350E+001
  0.205289670022270E+000 -0.493302994950425E+001  0.299669142215552E+001
  0.205289670022270E+000 -0.495665270074021E+001  0.299039849404816E+001
  0.205289670022270E+000 -0.496274787171494E+001  0.298875597086956E+001
  0.205289670022270E+000 -0.499905091508042E+001  0.297883078315655E+001
  0.205289670022270E+000 -0.499912148697983E+001  0.297881336719566E+001
  0.205289670022270E+000 -0.501815491898667E+001  0.297349558565558E+001
  0.205289670022270E+000 -0.505033451302659E+001  0.296431002754488E+001
  0.205289670022270E+000 -0.506915479882370E+001  0.295881290753498E+001
  0.205289670022270E+000 -0.510594516976487E+001  0.294776253393359E+001
  0.205289670022270E+000 -0.510935002549302E+001  0.294671638698791E+001
  0.205289670022270E+000 -0.513919454796921E+001  0.293738307560587E+001
  0.205289670022270E+000 -0.515187031014573E+001  0.243988145685227E+001
  0.205289670022270E+000 -0.516174393876206E+001  0.244514138294170E+001
  0.205289670022270E+000 -0.518578773720871E+001  0.245819448766851E+001
  0.205289670022270E+000 -0.518766409142624E+001  0.245922815081279E+001
  0.205289670022270E+000 -0.518849354966294E+001  0.245968571861085E+001
  0.205289670022270E+000 -0.518888717873703E+001  0.245990254546124E+001
  0.205289670022270E+000 -0.519978028519761E+001  0.246595120720193E+001
  0.205289670022270E+000 -0.521178370698105E+001  0.247269987272480E+001
  0.205289670022270E+000 -0.521304398759018E+001  0.247341380252474E+001
  0.205289670022270E+000 -0.522017770989548E+001  0.291009312680170E+001
  0.205289670022270E+000 -0.522600036843430E+001  0.248080155930428E+001
  0.205289670022270E+000 -0.522957187874924E+001  0.248285904713017E+001
  0.205289670022270E+000 -0.523385292275559E+001  0.248533233080117E+001
  0.205289670022270E+000 -0.525719195588242E+001  0.289636405982565E+001
  0.205289670022270E+000 -0.525812512620102E+001  0.249959278759123E+001
  0.205289670022270E+000 -0.525813108666550E+001  0.289600400092559E+001
  0.205289670022270E+000 -0.527765494568955E+001  0.288832319144320E+001
  0.205289670022270E+000 -0.527827459557663E+001  0.288807338987416E+001
  0.205289670022270E+000 -0.528746229394089E+001  0.288433581416802E+001
  0.205289670022270E+000 -0.528875595315110E+001  0.251820134095254E+001
  0.205289670022270E+000 -0.529957205041062E+001  0.252495957879919E+001
  0.205289670022270E+000 -0.530026155694138E+001  0.252539391991751E+001
  0.205289670022270E+000 -0.530361205323349E+001  0.287755471336534E+001
  0.205289670022270E+000 -0.530522590859543E+001  0.252853825893045E+001
  0.205289670022270E+000 -0.531198555215012E+001  0.287392319082946E+001
  0.205289670022270E+000 -0.531868940575730E+001  0.253719374562961E+001
  0.205289670022270E+000 -0.531904703362595E+001  0.253742694224693E+001
  0.205289670022270E+000 -0.532809954865586E+001  0.286668767144716E+001
  0.205289670022270E+000 -0.532958513482224E+001  0.254435222061065E+001
  0.205289670022270E+000 -0.533104664071213E+001  0.286532813473098E+001
  0.205289670022270E+000 -0.533165055497300E+001  0.286504530619004E+001
  0.205289670022270E+000 -0.533648544533860E+001  0.254896624399550E+001
  0.205289670022270E+000 -0.534215503914963E+001  0.286007213018676E+001
  0.205289670022270E+000 -0.534927541001450E+001  0.255769818246942E+001
  0.205289670022270E+000 -0.535012799485337E+001  0.285617146835457E+001
  0.205289670022270E+000 -0.535105329735886E+001  0.255892907364908E+001
  0.205289670022270E+000 -0.535126978142868E+001  0.255907831431481E+001
  0.205289670022270E+000 -0.535184293969284E+001  0.285531990883653E+001
  0.205289670022270E+000 -0.535275989754807E+001  0.256011619899397E+001
  0.205289670022270E+000 -0.535908633454453E+001  0.285165355446530E+001
  0.205289670022270E+000 -0.536313348992478E+001  0.256746210146503E+001
  0.205289670022270E+000 -0.536360412819992E+001  0.284931261400018E+001
  0.205289670022270E+000 -0.536805778725754E+001  0.257102113018740E+001
  0.205289670022270E+000 -0.536933284981858E+001  0.257195040211586E+001
  0.205289670022270E+000 -0.537227946503769E+001  0.284469266627530E+001
  0.205289670022270E+000 -0.538220244629990E+001  0.283918117699295E+001
  0.205289670022270E+000 -0.538953119500290E+001  0.258719887703293E+001
  0.205289670022270E+000 -0.539585548623215E+001  0.259220164443812E+001
  0.205289670022270E+000 -0.539859586938034E+001  0.282944321954029E+001
  0.205289670022270E+000 -0.540107971413742E+001  0.282788522604917E+001
  0.205289670022270E+000 -0.540414530022751E+001  0.259897015177018E+001
  0.205289670022270E+000 -0.541090208275925E+001  0.260468080350988E+001
  0.205289670022270E+000 -0.541136509163987E+001  0.282117896181976E+001
  0.205289670022270E+000 -0.541485029442917E+001  0.281879651947490E+001
  0.205289670022270E+000 -0.542199522240769E+001  0.281371309552602E+001
  0.205289670022270E+000 -0.542318731530320E+001  0.281283309366405E+001
  0.205289670022270E+000 -0.542337709649216E+001  0.261579699003056E+001
  0.205289670022270E+000 -0.542577320321213E+001  0.261803235496308E+001
  0.205289670022270E+000 -0.542855077965867E+001  0.262066667263599E+001
  0.205289670022270E+000 -0.542877775414597E+001  0.262088453042749E+001
  0.205289670022270E+000 -0.543108755334031E+001  0.262312323034770E+001
  0.205289670022270E+000 -0.543303924782883E+001  0.262504775004840E+001
  0.205289670022270E+000 -0.543478447182785E+001  0.262679040120918E+001
  0.205289670022270E+000 -0.543495947106492E+001  0.280365412580227E+001
  0.205289670022270E+000 -0.543681865914475E+001  0.280210900675174E+001
  0.205289670022270E+000 -0.543783622964035E+001  0.262990269172341E+001
  0.205289670022270E+000 -0.543863588555466E+001  0.280055965181680E+001
  0.205289670022270E+000 -0.543951517327439E+001  0.263164702065637E+001
  0.205289670022270E+000 -0.544032675011765E+001  0.279909298368674E+001
  0.205289670022270E+000 -0.544060093148362E+001  0.279885258826296E+001
  0.205289670022270E+000 -0.544079071267258E+001  0.279868363023465E+001
  0.205289670022270E+000 -0.544083410485398E+001  0.263304437150562E+001
  0.205289670022270E+000 -0.544206148369919E+001  0.279756038784502E+001
  0.205289670022270E+000 -0.494616443625941E+001  0.277819984272233E+001
  0.205289670022270E+000 -0.495225603095545E+001  0.277024642336238E+001
  0.205289670022270E+000 -0.495791370383753E+001  0.276142749785601E+001
  0.205289670022270E+000 -0.495904047004237E+001  0.275943136520241E+001
  0.205289670022270E+000 -0.495993740073695E+001  0.275775062512698E+001
  0.205289670022270E+000 -0.496239311210169E+001  0.275271955841086E+001
  0.205289670022270E+000 -0.496355087272181E+001  0.275004609701562E+001
  0.205289670022270E+000 -0.496364433280482E+001  0.274981423407707E+001
  0.205289670022270E+000 -0.409754323959351E+001  0.274310989778300E+001
  0.205289670022270E+000 -0.409929227828979E+001  0.273666812032514E+001
  0.205289670022270E+000 -0.409969472885132E+001  0.273476992444344E+001
