  0.127299033136352E-001 -0.630039041914223E+001  0.327946399167112E+001
  0.127299033136352E-001 -0.623878878034829E+001  0.329098471310701E+001
  0.127299033136352E-001  0.754947450412263E+000  0.722725786501903E+001
  0.127299033136352E-001  0.803000238193025E+000  0.547853412276255E+001
  0.127299033136352E-001 -0.613660519994973E+001  0.330994151759467E+001
  0.127299033136352E-001 -0.847067531721577E+000  0.421088143281795E+001
  0.127299033136352E-001 -0.137499302305458E+001  0.411061702683771E+001
  0.127299033136352E-001 -0.166129940428017E+001  0.405998344948549E+001
  0.127299033136352E-001 -0.169610565580605E+001  0.405395695979034E+001
  0.127299033136352E-001 -0.595857923902748E+001  0.334254910319088E+001
  0.127299033136352E-001 -0.569982975401162E+001  0.338910364158450E+001
  0.127299033136352E-001 -0.282641952909706E+001  0.386687930474564E+001
  0.127299033136352E-001 -0.344989555753945E+001  0.376652624649452E+001
  0.127299033136352E-001 -0.378321331419228E+001  0.371267486857203E+001
  0.127299033136352E-001 -0.378788250364540E+001  0.371191956220954E+001
  0.127299033136352E-001 -0.385697668470620E+001  0.370070651474410E+001
  0.127299033136352E-001 -0.568874710478066E+001  0.339107679405105E+001
  0.127299033136352E-001 -0.397469967283486E+001  0.368155123076258E+001
  0.127299033136352E-001 -0.403790777601479E+001  0.367124033186718E+001
  0.127299033136352E-001 -0.442150228895424E+001  0.360815583700978E+001
  0.127299033136352E-001 -0.443820923246621E+001  0.360538632194733E+001
  0.127299033136352E-001 -0.462936371244667E+001  0.357354985041108E+001
  0.127299033136352E-001 -0.563874929823159E+001  0.339996162230904E+001
  0.127299033136352E-001 -0.492125385679482E+001  0.352436808742353E+001
  0.127299033136352E-001 -0.510367077268837E+001  0.349324373980037E+001
  0.127299033136352E-001 -0.557664221204995E+001  0.341095710048742E+001
  0.127299033136352E-001 -0.639049166120766E+001  0.326247707147759E+001
  0.127299033136352E-001 -0.654408019460915E+001  0.323311313137412E+001
  0.127299033136352E-001 -0.660377949156044E+001  0.322154608060389E+001
  0.127299033136352E-001 -0.661937230505226E+001  0.321850932193922E+001
  0.127299033136352E-001 -0.674765413679360E+001  0.319326725485629E+001
  0.127299033136352E-001 -0.675610559858559E+001  0.319158630276596E+001
  0.127299033136352E-001 -0.683411091245888E+001  0.317596822857217E+001
  0.127299033136352E-001 -0.686768430151223E+001  0.316918270556136E+001
  0.127299033136352E-001 -0.688486927427529E+001  0.316569386250326E+001
  0.127299033136352E-001 -0.695455687917946E+001  0.315143030422351E+001
  0.127299033136352E-001 -0.695618742384194E+001  0.315109386300551E+001
  0.127299033136352E-001 -0.697704165853737E+001  0.314678727874155E+001
  0.127299033136352E-001 -0.698527282156227E+001  0.314508210330080E+001
  0.127299033136352E-001 -0.706187551893471E+001  0.312907234078661E+001
  0.127299033136352E-001 -0.710746472753762E+001  0.311941541460161E+001
  0.127299033136352E-001 -0.710754102148293E+001  0.311939919516397E+001
  0.127299033136352E-001 -0.721009891905068E+001  0.309728400752346E+001
  0.127299033136352E-001 -0.723571818746804E+001  0.309166649244451E+001
  0.127299033136352E-001 -0.729323595442055E+001  0.307890831474731E+001
  0.127299033136352E-001 -0.732998460211037E+001  0.307064350703433E+001
  0.127299033136352E-001 -0.734934013761757E+001  0.306625053005600E+001
  0.127299033136352E-001 -0.744177239813088E+001  0.304488643867567E+001
  0.127299033136352E-001 -0.756198948301552E+001  0.301597864025472E+001
  0.127299033136352E-001 -0.758638590254067E+001  0.300993361232764E+001
  0.127299033136352E-001 -0.759239834226845E+001  0.300843297185334E+001
  0.127299033136352E-001 -0.768956654943703E+001  0.298357627925514E+001
  0.127299033136352E-001 -0.770295613683937E+001  0.298005238866695E+001
  0.127299033136352E-001 -0.770422929205178E+001  0.297971530176517E+001
  0.127299033136352E-001 -0.771996491827248E+001  0.297553737284734E+001
  0.127299033136352E-001 -0.773867529310463E+001  0.297052171053737E+001
  0.127299033136352E-001 -0.778888100065468E+001  0.295677775139996E+001
  0.127299033136352E-001 -0.780241387762307E+001  0.295299820156986E+001
  0.127299033136352E-001 -0.780246156133889E+001  0.295298535274382E+001
  0.127299033136352E-001 -0.780294149793862E+001  0.295285029832814E+001
  0.127299033136352E-001 -0.781289761938332E+001  0.295004661683059E+001
  0.127299033136352E-001 -0.782413357176064E+001  0.294686008426562E+001
  0.127299033136352E-001 -0.783198517240761E+001  0.294461847248320E+001
  0.127299033136352E-001 -0.784096496977089E+001  0.294203900681087E+001
  0.127299033136352E-001 -0.789182203687905E+001  0.292710413077871E+001
  0.127299033136352E-001 -0.790278833784340E+001  0.292380551787699E+001
  0.127299033136352E-001 -0.790490692533730E+001  0.292316497028073E+001
  0.127299033136352E-001 -0.792189711012123E+001  0.291798535649706E+001
  0.127299033136352E-001 -0.793771546758889E+001  0.291309489865430E+001
  0.127299033136352E-001 -0.795784896291970E+001  0.290676964934874E+001
  0.127299033136352E-001 -0.798614710249184E+001  0.289767319015818E+001
  0.127299033136352E-001 -0.800328272260903E+001  0.289203909093855E+001
  0.127299033136352E-001 -0.801161592878579E+001  0.288926238771692E+001
  0.127299033136352E-001 -0.801785105146645E+001  0.288716920414773E+001
  0.127299033136352E-001 -0.804885452665566E+001  0.287653626617852E+001
  0.127299033136352E-001 -0.805797785200356E+001  0.287333331190557E+001
  0.127299033136352E-001 -0.806154650129555E+001  0.287207003930418E+001
  0.127299033136352E-001 -0.806293385900734E+001  0.287157803675051E+001
  0.127299033136352E-001 -0.807453030027626E+001  0.286742858615488E+001
  0.127299033136352E-001 -0.807871883787392E+001  0.286591357515405E+001
  0.127299033136352E-001 -0.808885496534584E+001  0.286221450119992E+001
  0.127299033136352E-001 -0.810377090849160E+001  0.285667639134451E+001
  0.127299033136352E-001 -0.810708397306679E+001  0.285543076396478E+001
  0.127299033136352E-001 -0.812464445509194E+001  0.284872413285751E+001
  0.127299033136352E-001 -0.813274067320107E+001  0.284557178593811E+001
  0.127299033136352E-001 -0.813577240385292E+001  0.284438031065607E+001
  0.127299033136352E-001 -0.774748074773958E+001  0.283397663436131E+001
  0.127299033136352E-001 -0.775377309087923E+001  0.283137379853448E+001
  0.127299033136352E-001 -0.778338801626375E+001  0.281869494544364E+001
  0.127299033136352E-001 -0.778383481268098E+001  0.281849770763344E+001
  0.127299033136352E-001 -0.780012929205110E+001  0.281117898292023E+001
  0.127299033136352E-001 -0.781378352407625E+001  0.280483527620558E+001
  0.127299033136352E-001 -0.781759965185335E+001  0.280302482438689E+001
  0.127299033136352E-001 -0.784681308035066E+001  0.278854910484156E+001
  0.127299033136352E-001 -0.786038481954744E+001  0.278139786497581E+001
  0.127299033136352E-001 -0.786082684759309E+001  0.278116069912461E+001
  0.127299033136352E-001 -0.786347520116975E+001  0.277972549173506E+001
  0.127299033136352E-001 -0.786598574880769E+001  0.277835480317188E+001
  0.127299033136352E-001 -0.786961209539583E+001  0.277635391620402E+001
  0.127299033136352E-001 -0.787580525640657E+001  0.277287587072002E+001
  0.127299033136352E-001 -0.788000714544466E+001  0.277047117632888E+001
  0.127299033136352E-001 -0.788356435064485E+001  0.276840557735364E+001
  0.127299033136352E-001 -0.788459861044099E+001  0.276779979640525E+001
  0.127299033136352E-001 -0.789345252279451E+001  0.276250757601058E+001
  0.127299033136352E-001 -0.790082967046907E+001  0.275794338554907E+001
  0.127299033136352E-001 -0.791009652380159E+001  0.275198604332976E+001
  0.127299033136352E-001 -0.793235575918367E+001  0.273642043296207E+001
  0.127299033136352E-001 -0.793885075811555E+001  0.273145838539867E+001
  0.127299033136352E-001 -0.794065272573640E+001  0.273004194299196E+001
  0.127299033136352E-001 -0.794084632162263E+001  0.272988724448227E+001
  0.127299033136352E-001 -0.794299542669466E+001  0.272817003703273E+001
  0.127299033136352E-001 -0.794623028997591E+001  0.272552872849470E+001
  0.127299033136352E-001 -0.794674384359529E+001  0.272510328634729E+001
  0.127299033136352E-001 -0.794703233007600E+001  0.272486309106811E+001
  0.127299033136352E-001 -0.796204459432771E+001  0.271146977594751E+001
  0.127299033136352E-001 -0.796540868047884E+001  0.270817181622062E+001
  0.127299033136352E-001 -0.796991002325227E+001  0.270354133709855E+001
  0.127299033136352E-001 -0.797144162420442E+001  0.270190020595202E+001
  0.127299033136352E-001 -0.593932663308285E+001  0.263767539668794E+001
  0.127299033136352E-001 -0.593945108758114E+001  0.263655396911372E+001
  0.127299033136352E-001 -0.593946205483578E+001  0.263644348166615E+001
  0.127299033136352E-001 -0.434568500518799E+001  0.262927727642706E+001
