  0.181061963286378E-001 -0.594221506156451E+001  0.327946399167112E+001
  0.181061963286378E-001 -0.588061342277057E+001  0.329098471310701E+001
  0.181061963286378E-001  0.111312280798998E+001  0.722725786501903E+001
  0.181061963286378E-001  0.116117559577074E+001  0.547853412276255E+001
  0.181061963286378E-001 -0.577842984237201E+001  0.330994151759467E+001
  0.181061963286378E-001 -0.488892174143857E+000  0.421088143281795E+001
  0.181061963286378E-001 -0.101681766547686E+001  0.411061702683771E+001
  0.181061963286378E-001 -0.130312404670245E+001  0.405998344948549E+001
  0.181061963286378E-001 -0.133793029822833E+001  0.405395695979034E+001
  0.181061963286378E-001 -0.560040388144976E+001  0.334254910319088E+001
  0.181061963286378E-001 -0.534165439643390E+001  0.338910364158450E+001
  0.181061963286378E-001 -0.246824417151934E+001  0.386687930474564E+001
  0.181061963286378E-001 -0.309172019996173E+001  0.376652624649452E+001
  0.181061963286378E-001 -0.342503795661456E+001  0.371267486857203E+001
  0.181061963286378E-001 -0.342970714606768E+001  0.371191956220954E+001
  0.181061963286378E-001 -0.349880132712848E+001  0.370070651474410E+001
  0.181061963286378E-001 -0.533057174720294E+001  0.339107679405105E+001
  0.181061963286378E-001 -0.361652431525714E+001  0.368155123076258E+001
  0.181061963286378E-001 -0.367973241843707E+001  0.367124033186718E+001
  0.181061963286378E-001 -0.406332693137652E+001  0.360815583700978E+001
  0.181061963286378E-001 -0.408003387488849E+001  0.360538632194733E+001
  0.181061963286378E-001 -0.427118835486895E+001  0.357354985041108E+001
  0.181061963286378E-001 -0.528057394065387E+001  0.339996162230904E+001
  0.181061963286378E-001 -0.456307849921710E+001  0.352436808742353E+001
  0.181061963286378E-001 -0.474549541511065E+001  0.349324373980037E+001
  0.181061963286378E-001 -0.521846685447223E+001  0.341095710048742E+001
  0.181061963286378E-001 -0.603231630362994E+001  0.326247707147759E+001
  0.181061963286378E-001 -0.618590483703143E+001  0.323311313137412E+001
  0.181061963286378E-001 -0.624560413398272E+001  0.322154608060389E+001
  0.181061963286378E-001 -0.626119694747455E+001  0.321850932193922E+001
  0.181061963286378E-001 -0.638947877921588E+001  0.319326725485629E+001
  0.181061963286378E-001 -0.639793024100787E+001  0.319158630276596E+001
  0.181061963286378E-001 -0.647593555488116E+001  0.317596822857217E+001
  0.181061963286378E-001 -0.650950894393451E+001  0.316918270556136E+001
  0.181061963286378E-001 -0.652669391669757E+001  0.316569386250326E+001
  0.181061963286378E-001 -0.659638152160174E+001  0.315143030422351E+001
  0.181061963286378E-001 -0.659801206626422E+001  0.315109386300551E+001
  0.181061963286378E-001 -0.661886630095965E+001  0.314678727874155E+001
  0.181061963286378E-001 -0.662709746398455E+001  0.314508210330080E+001
  0.181061963286378E-001 -0.670370016135699E+001  0.312907234078661E+001
  0.181061963286378E-001 -0.674928936995990E+001  0.311941541460161E+001
  0.181061963286378E-001 -0.674936566390521E+001  0.311939919516397E+001
  0.181061963286378E-001 -0.685192356147296E+001  0.309728400752346E+001
  0.181061963286378E-001 -0.687754282989032E+001  0.309166649244451E+001
  0.181061963286378E-001 -0.693506059684283E+001  0.307890831474731E+001
  0.181061963286378E-001 -0.697180924453265E+001  0.307064350703433E+001
  0.181061963286378E-001 -0.699116478003985E+001  0.306625053005600E+001
  0.181061963286378E-001 -0.708359704055316E+001  0.304488643867567E+001
  0.181061963286378E-001 -0.720381412543780E+001  0.301597864025472E+001
  0.181061963286378E-001 -0.722821054496295E+001  0.300993361232764E+001
  0.181061963286378E-001 -0.723422298469073E+001  0.300843297185334E+001
  0.181061963286378E-001 -0.733139119185931E+001  0.298357627925514E+001
  0.181061963286378E-001 -0.734478077926165E+001  0.298005238866695E+001
  0.181061963286378E-001 -0.734605393447406E+001  0.297971530176517E+001
  0.181061963286378E-001 -0.736178956069476E+001  0.297553737284734E+001
  0.181061963286378E-001 -0.738049993552691E+001  0.297052171053737E+001
  0.181061963286378E-001 -0.743070564307696E+001  0.295677775139996E+001
  0.181061963286378E-001 -0.744423852004535E+001  0.295299820156986E+001
  0.181061963286378E-001 -0.744428620376117E+001  0.295298535274382E+001
  0.181061963286378E-001 -0.744476614036090E+001  0.295285029832814E+001
  0.181061963286378E-001 -0.745472226180560E+001  0.295004661683059E+001
  0.181061963286378E-001 -0.746595821418292E+001  0.294686008426562E+001
  0.181061963286378E-001 -0.747380981482989E+001  0.294461847248320E+001
  0.181061963286378E-001 -0.748278961219317E+001  0.294203900681087E+001
  0.181061963286378E-001 -0.753364667930133E+001  0.292710413077871E+001
  0.181061963286378E-001 -0.754461298026568E+001  0.292380551787699E+001
  0.181061963286378E-001 -0.754673156775958E+001  0.292316497028073E+001
  0.181061963286378E-001 -0.756372175254351E+001  0.291798535649706E+001
  0.181061963286378E-001 -0.757954011001117E+001  0.291309489865430E+001
  0.181061963286378E-001 -0.759967360534198E+001  0.290676964934874E+001
  0.181061963286378E-001 -0.762797174491412E+001  0.289767319015818E+001
  0.181061963286378E-001 -0.764510736503131E+001  0.289203909093855E+001
  0.181061963286378E-001 -0.765344057120807E+001  0.288926238771692E+001
  0.181061963286378E-001 -0.765967569388873E+001  0.288716920414773E+001
  0.181061963286378E-001 -0.769067916907794E+001  0.287653626617852E+001
  0.181061963286378E-001 -0.769980249442584E+001  0.287333331190557E+001
  0.181061963286378E-001 -0.770337114371783E+001  0.287207003930418E+001
  0.181061963286378E-001 -0.770475850142962E+001  0.287157803675051E+001
  0.181061963286378E-001 -0.771635494269854E+001  0.286742858615488E+001
  0.181061963286378E-001 -0.772054348029620E+001  0.286591357515405E+001
  0.181061963286378E-001 -0.773067960776812E+001  0.286221450119992E+001
  0.181061963286378E-001 -0.774559555091388E+001  0.285667639134451E+001
  0.181061963286378E-001 -0.774890861548907E+001  0.285543076396478E+001
  0.181061963286378E-001 -0.776646909751422E+001  0.284872413285751E+001
  0.181061963286378E-001 -0.777456531562335E+001  0.284557178593811E+001
  0.181061963286378E-001 -0.777759704627520E+001  0.284438031065607E+001
  0.181061963286378E-001 -0.738930539016186E+001  0.283397663436131E+001
  0.181061963286378E-001 -0.739559773330151E+001  0.283137379853448E+001
  0.181061963286378E-001 -0.742521265868603E+001  0.281869494544364E+001
  0.181061963286378E-001 -0.742565945510326E+001  0.281849770763344E+001
  0.181061963286378E-001 -0.744195393447338E+001  0.281117898292023E+001
  0.181061963286378E-001 -0.745560816649853E+001  0.280483527620558E+001
  0.181061963286378E-001 -0.745942429427563E+001  0.280302482438689E+001
  0.181061963286378E-001 -0.748863772277294E+001  0.278854910484156E+001
  0.181061963286378E-001 -0.750220946196972E+001  0.278139786497581E+001
  0.181061963286378E-001 -0.750265149001537E+001  0.278116069912461E+001
  0.181061963286378E-001 -0.750529984359203E+001  0.277972549173506E+001
  0.181061963286378E-001 -0.750781039122997E+001  0.277835480317188E+001
  0.181061963286378E-001 -0.751143673781811E+001  0.277635391620402E+001
  0.181061963286378E-001 -0.751762989882885E+001  0.277287587072002E+001
  0.181061963286378E-001 -0.752183178786694E+001  0.277047117632888E+001
  0.181061963286378E-001 -0.752538899306713E+001  0.276840557735364E+001
  0.181061963286378E-001 -0.752642325286327E+001  0.276779979640525E+001
  0.181061963286378E-001 -0.753527716521679E+001  0.276250757601058E+001
  0.181061963286378E-001 -0.754265431289135E+001  0.275794338554907E+001
  0.181061963286378E-001 -0.755192116622387E+001  0.275198604332976E+001
  0.181061963286378E-001 -0.757418040160595E+001  0.273642043296207E+001
  0.181061963286378E-001 -0.758067540053784E+001  0.273145838539867E+001
  0.181061963286378E-001 -0.758247736815868E+001  0.273004194299196E+001
  0.181061963286378E-001 -0.758267096404492E+001  0.272988724448227E+001
  0.181061963286378E-001 -0.758482006911694E+001  0.272817003703273E+001
  0.181061963286378E-001 -0.758805493239819E+001  0.272552872849470E+001
  0.181061963286378E-001 -0.758856848601757E+001  0.272510328634729E+001
  0.181061963286378E-001 -0.758885697249828E+001  0.272486309106811E+001
  0.181061963286378E-001 -0.760386923674999E+001  0.271146977594751E+001
  0.181061963286378E-001 -0.760723332290112E+001  0.270817181622062E+001
  0.181061963286378E-001 -0.761173466567455E+001  0.270354133709855E+001
  0.181061963286378E-001 -0.761326626662670E+001  0.270190020595202E+001
  0.181061963286378E-001 -0.603972063824554E+001  0.261165286746831E+001
  0.181061963286378E-001 -0.604018984600922E+001  0.261392769595711E+001
  0.181061963286378E-001 -0.604064141079803E+001  0.261649808154082E+001
