  0.101071405513354E-001 -0.652772144986265E+001  0.327946399167112E+001
  0.101071405513354E-001 -0.646611981106871E+001  0.329098471310701E+001
  0.101071405513354E-001  0.527616419691842E+000  0.722725786501903E+001
  0.101071405513354E-001  0.575669207472604E+000  0.547853412276255E+001
  0.101071405513354E-001 -0.636393623067015E+001  0.330994151759467E+001
  0.101071405513354E-001 -0.107439856244200E+001  0.421088143281795E+001
  0.101071405513354E-001 -0.160232405377501E+001  0.411061702683771E+001
  0.101071405513354E-001 -0.188863043500059E+001  0.405998344948549E+001
  0.101071405513354E-001 -0.192343668652647E+001  0.405395695979034E+001
  0.101071405513354E-001 -0.618591026974791E+001  0.334254910319088E+001
  0.101071405513354E-001 -0.592716078473204E+001  0.338910364158450E+001
  0.101071405513354E-001 -0.305375055981749E+001  0.386687930474564E+001
  0.101071405513354E-001 -0.367722658825987E+001  0.376652624649452E+001
  0.101071405513354E-001 -0.401054434491270E+001  0.371267486857203E+001
  0.101071405513354E-001 -0.401521353436583E+001  0.371191956220954E+001
  0.101071405513354E-001 -0.408430771542662E+001  0.370070651474410E+001
  0.101071405513354E-001 -0.591607813550108E+001  0.339107679405105E+001
  0.101071405513354E-001 -0.420203070355528E+001  0.368155123076258E+001
  0.101071405513354E-001 -0.426523880673521E+001  0.367124033186718E+001
  0.101071405513354E-001 -0.464883331967466E+001  0.360815583700978E+001
  0.101071405513354E-001 -0.466554026318663E+001  0.360538632194733E+001
  0.101071405513354E-001 -0.485669474316710E+001  0.357354985041108E+001
  0.101071405513354E-001 -0.586608032895201E+001  0.339996162230904E+001
  0.101071405513354E-001 -0.514858488751524E+001  0.352436808742353E+001
  0.101071405513354E-001 -0.533100180340879E+001  0.349324373980037E+001
  0.101071405513354E-001 -0.580397324277037E+001  0.341095710048742E+001
  0.101071405513354E-001 -0.661782269192808E+001  0.326247707147759E+001
  0.101071405513354E-001 -0.677141122532957E+001  0.323311313137412E+001
  0.101071405513354E-001 -0.683111052228086E+001  0.322154608060389E+001
  0.101071405513354E-001 -0.684670333577269E+001  0.321850932193922E+001
  0.101071405513354E-001 -0.697498516751402E+001  0.319326725485629E+001
  0.101071405513354E-001 -0.698343662930601E+001  0.319158630276596E+001
  0.101071405513354E-001 -0.706144194317930E+001  0.317596822857217E+001
  0.101071405513354E-001 -0.709501533223265E+001  0.316918270556136E+001
  0.101071405513354E-001 -0.711220030499571E+001  0.316569386250326E+001
  0.101071405513354E-001 -0.718188790989988E+001  0.315143030422351E+001
  0.101071405513354E-001 -0.718351845456236E+001  0.315109386300551E+001
  0.101071405513354E-001 -0.720437268925779E+001  0.314678727874155E+001
  0.101071405513354E-001 -0.721260385228270E+001  0.314508210330080E+001
  0.101071405513354E-001 -0.728920654965513E+001  0.312907234078661E+001
  0.101071405513354E-001 -0.733479575825804E+001  0.311941541460161E+001
  0.101071405513354E-001 -0.733487205220335E+001  0.311939919516397E+001
  0.101071405513354E-001 -0.743742994977110E+001  0.309728400752346E+001
  0.101071405513354E-001 -0.746304921818846E+001  0.309166649244451E+001
  0.101071405513354E-001 -0.752056698514097E+001  0.307890831474731E+001
  0.101071405513354E-001 -0.755731563283079E+001  0.307064350703433E+001
  0.101071405513354E-001 -0.757667116833799E+001  0.306625053005600E+001
  0.101071405513354E-001 -0.766910342885130E+001  0.304488643867567E+001
  0.101071405513354E-001 -0.778932051373594E+001  0.301597864025472E+001
  0.101071405513354E-001 -0.781371693326109E+001  0.300993361232764E+001
  0.101071405513354E-001 -0.781972937298887E+001  0.300843297185334E+001
  0.101071405513354E-001 -0.791689758015745E+001  0.298357627925514E+001
  0.101071405513354E-001 -0.793028716755980E+001  0.298005238866695E+001
  0.101071405513354E-001 -0.793156032277220E+001  0.297971530176517E+001
  0.101071405513354E-001 -0.794729594899290E+001  0.297553737284734E+001
  0.101071405513354E-001 -0.796600632382505E+001  0.297052171053737E+001
  0.101071405513354E-001 -0.801621203137510E+001  0.295677775139996E+001
  0.101071405513354E-001 -0.802974490834349E+001  0.295299820156986E+001
  0.101071405513354E-001 -0.802979259205931E+001  0.295298535274382E+001
  0.101071405513354E-001 -0.803027252865904E+001  0.295285029832814E+001
  0.101071405513354E-001 -0.804022865010374E+001  0.295004661683059E+001
  0.101071405513354E-001 -0.805146460248106E+001  0.294686008426562E+001
  0.101071405513354E-001 -0.805931620312803E+001  0.294461847248320E+001
  0.101071405513354E-001 -0.806829600049131E+001  0.294203900681087E+001
  0.101071405513354E-001 -0.811915306759947E+001  0.292710413077871E+001
  0.101071405513354E-001 -0.813011936856382E+001  0.292380551787699E+001
  0.101071405513354E-001 -0.813223795605772E+001  0.292316497028073E+001
  0.101071405513354E-001 -0.814922814084166E+001  0.291798535649706E+001
  0.101071405513354E-001 -0.816504649830931E+001  0.291309489865430E+001
  0.101071405513354E-001 -0.818517999364012E+001  0.290676964934874E+001
  0.101071405513354E-001 -0.821347813321226E+001  0.289767319015818E+001
  0.101071405513354E-001 -0.823061375332945E+001  0.289203909093855E+001
  0.101071405513354E-001 -0.823894695950621E+001  0.288926238771692E+001
  0.101071405513354E-001 -0.824518208218687E+001  0.288716920414773E+001
  0.101071405513354E-001 -0.827618555737608E+001  0.287653626617852E+001
  0.101071405513354E-001 -0.828530888272398E+001  0.287333331190557E+001
  0.101071405513354E-001 -0.828887753201597E+001  0.287207003930418E+001
  0.101071405513354E-001 -0.829026488972776E+001  0.287157803675051E+001
  0.101071405513354E-001 -0.830186133099668E+001  0.286742858615488E+001
  0.101071405513354E-001 -0.830604986859434E+001  0.286591357515405E+001
  0.101071405513354E-001 -0.831618599606626E+001  0.286221450119992E+001
  0.101071405513354E-001 -0.833110193921202E+001  0.285667639134451E+001
  0.101071405513354E-001 -0.833441500378721E+001  0.285543076396478E+001
  0.101071405513354E-001 -0.835197548581236E+001  0.284872413285751E+001
  0.101071405513354E-001 -0.836007170392149E+001  0.284557178593811E+001
  0.101071405513354E-001 -0.836310343457335E+001  0.284438031065607E+001
  0.101071405513354E-001 -0.797481177846000E+001  0.283397663436131E+001
  0.101071405513354E-001 -0.798110412159965E+001  0.283137379853448E+001
  0.101071405513354E-001 -0.801071904698417E+001  0.281869494544364E+001
  0.101071405513354E-001 -0.801116584340141E+001  0.281849770763344E+001
  0.101071405513354E-001 -0.802746032277152E+001  0.281117898292023E+001
  0.101071405513354E-001 -0.804111455479667E+001  0.280483527620558E+001
  0.101071405513354E-001 -0.804493068257377E+001  0.280302482438689E+001
  0.101071405513354E-001 -0.807414411107108E+001  0.278854910484156E+001
  0.101071405513354E-001 -0.808771585026786E+001  0.278139786497581E+001
  0.101071405513354E-001 -0.808815787831352E+001  0.278116069912461E+001
  0.101071405513354E-001 -0.809080623189018E+001  0.277972549173506E+001
  0.101071405513354E-001 -0.809331677952811E+001  0.277835480317188E+001
  0.101071405513354E-001 -0.809694312611625E+001  0.277635391620402E+001
  0.101071405513354E-001 -0.810313628712699E+001  0.277287587072002E+001
  0.101071405513354E-001 -0.810733817616508E+001  0.277047117632888E+001
  0.101071405513354E-001 -0.811089538136527E+001  0.276840557735364E+001
  0.101071405513354E-001 -0.811192964116142E+001  0.276779979640525E+001
  0.101071405513354E-001 -0.812078355351493E+001  0.276250757601058E+001
  0.101071405513354E-001 -0.812816070118949E+001  0.275794338554907E+001
  0.101071405513354E-001 -0.813742755452201E+001  0.275198604332976E+001
  0.101071405513354E-001 -0.815968678990409E+001  0.273642043296207E+001
  0.101071405513354E-001 -0.816618178883598E+001  0.273145838539867E+001
  0.101071405513354E-001 -0.816798375645683E+001  0.273004194299196E+001
  0.101071405513354E-001 -0.816817735234306E+001  0.272988724448227E+001
  0.101071405513354E-001 -0.817032645741508E+001  0.272817003703273E+001
  0.101071405513354E-001 -0.817356132069633E+001  0.272552872849470E+001
  0.101071405513354E-001 -0.817407487431571E+001  0.272510328634729E+001
  0.101071405513354E-001 -0.817436336079643E+001  0.272486309106811E+001
  0.101071405513354E-001 -0.818937562504813E+001  0.271146977594751E+001
  0.101071405513354E-001 -0.819273971119926E+001  0.270817181622062E+001
  0.101071405513354E-001 -0.819724105397269E+001  0.270354133709855E+001
  0.101071405513354E-001 -0.819877265492484E+001  0.270190020595202E+001
  0.101071405513354E-001 -0.662522702654369E+001  0.261165286746831E+001
  0.101071405513354E-001 -0.662569623430736E+001  0.261392769595711E+001
  0.101071405513354E-001 -0.662614779909618E+001  0.261649808154082E+001
  0.101071405513354E-001 -0.434568166732788E+001  0.262759672890443E+001
