  0.131586636279660E+000  0.244029480932878E+001  0.188971970418412E+001
  0.131586636279660E+000  0.444982296942400E+001  0.563995707434086E+001
  0.131586636279660E+000  0.675960976599382E+001  0.723661856793181E+001
  0.131586636279660E+000  0.199928242682146E+001  0.459652458653405E+001
  0.131586636279660E+000  0.159491593359636E+001  0.449305030191165E+001
  0.131586636279660E+000  0.153421647070574E+001  0.447817395954610E+001
  0.131586636279660E+000  0.813482828127611E+000  0.431154519968916E+001
  0.131586636279660E+000  0.533916063296068E+000  0.425080250362847E+001
  0.131586636279660E+000  0.135437078463305E+000  0.416689497720273E+001
  0.131586636279660E+000 -0.195515089047682E+000  0.409904531806373E+001
  0.131586636279660E+000 -0.227625303281080E+000  0.409253513116908E+001
  0.131586636279660E+000 -0.989111356747877E+000  0.201376713174292E+001
  0.131586636279660E+000 -0.110789435387922E+001  0.391732554427109E+001
  0.131586636279660E+000 -0.126940291405989E+001  0.388561571738073E+001
  0.131586636279660E+000 -0.138121836663557E+001  0.386369555006547E+001
  0.131586636279660E+000 -0.448326986314131E+001  0.324697129969094E+001
  0.131586636279660E+000 -0.158456652642561E+001  0.382388239643994E+001
  0.131586636279660E+000 -0.168855708123518E+001  0.380353340444859E+001
  0.131586636279660E+000 -0.226486342431379E+001  0.369058457166227E+001
  0.131586636279660E+000 -0.233374732018782E+001  0.367704136928195E+001
  0.131586636279660E+000 -0.268174593926741E+001  0.360844642250529E+001
  0.131586636279660E+000 -0.280801337243391E+001  0.208896909522766E+001
  0.131586636279660E+000 -0.288207047463728E+001  0.356879184745049E+001
  0.131586636279660E+000 -0.299377100945784E+001  0.354662397675065E+001
  0.131586636279660E+000 -0.303725903512312E+001  0.353798135836497E+001
  0.131586636279660E+000 -0.307368033410383E+001  0.353074121589676E+001
  0.131586636279660E+000 -0.310292141915632E+001  0.352492472310271E+001
  0.131586636279660E+000 -0.446116321564985E+001  0.325150155029933E+001
  0.131586636279660E+000 -0.314909070016218E+001  0.351573380822685E+001
  0.131586636279660E+000 -0.355565732003523E+001  0.212344852387474E+001
  0.131586636279660E+000 -0.358236544610335E+001  0.342916717185580E+001
  0.131586636279660E+000 -0.438976805688215E+001  0.217077833164724E+001
  0.131586636279660E+000 -0.376406901360823E+001  0.339269452077299E+001
  0.131586636279660E+000 -0.404435770989729E+001  0.214933990371370E+001
  0.131586636279660E+000 -0.437116353989912E+001  0.326989480062749E+001
  0.131586636279660E+000 -0.408623450280501E+001  0.332774606199236E+001
  0.131586636279660E+000 -0.408795254708601E+001  0.332739890585266E+001
  0.131586636279660E+000 -0.411924593926741E+001  0.332106434012670E+001
  0.131586636279660E+000 -0.417560618401838E+001  0.330965053449343E+001
  0.131586636279660E+000 -0.417640774728132E+001  0.330948672956649E+001
  0.131586636279660E+000 -0.423415701867415E+001  0.329777211476878E+001
  0.131586636279660E+000 -0.427568524361921E+001  0.328933430234856E+001
  0.131586636279660E+000 -0.433727233887983E+001  0.327680342245454E+001
  0.131586636279660E+000 -0.426460651565750E+001  0.324450432886535E+001
  0.131586636279660E+000 -0.428783826042373E+001  0.323973677007886E+001
  0.131586636279660E+000 -0.432490829635818E+001  0.323211714313784E+001
  0.131586636279660E+000 -0.432738594223221E+001  0.323160400776854E+001
  0.131586636279660E+000 -0.452257017303665E+001  0.319116081179322E+001
  0.131586636279660E+000 -0.457174448181351E+001  0.318086879563448E+001
  0.131586636279660E+000 -0.463171104599197E+001  0.316825098554808E+001
  0.131586636279660E+000 -0.464662412811477E+001  0.316509763959855E+001
  0.131586636279660E+000 -0.465936664749344E+001  0.316240078369942E+001
  0.131586636279660E+000 -0.466360906768997E+001  0.316150309850179E+001
  0.131586636279660E+000 -0.467509607483108E+001  0.315906617185718E+001
  0.131586636279660E+000 -0.469807724167068E+001  0.315417934515015E+001
  0.131586636279660E+000 -0.473503498245437E+001  0.314629244387448E+001
  0.131586636279660E+000 -0.477116827179153E+001  0.313853954246723E+001
  0.131586636279660E+000 -0.477932027984817E+001  0.313678259457953E+001
  0.131586636279660E+000 -0.482274107147415E+001  0.312739880374248E+001
  0.131586636279660E+000 -0.482307581115921E+001  0.312732583908769E+001
  0.131586636279660E+000 -0.486906007934769E+001  0.311730363295120E+001
  0.131586636279660E+000 -0.495204166580398E+001  0.309898696216399E+001
  0.131586636279660E+000 -0.495240859199722E+001  0.309890639115280E+001
  0.131586636279660E+000 -0.495637897659500E+001  0.309802058577017E+001
  0.131586636279660E+000 -0.505261234451492E+001  0.307629675030220E+001
  0.131586636279660E+000 -0.506149152923782E+001  0.307426368567505E+001
  0.131586636279660E+000 -0.507214883972366E+001  0.307181516954307E+001
  0.131586636279660E+000 -0.508183340240677E+001  0.306958615003553E+001
  0.131586636279660E+000 -0.514117626358230E+001  0.305575786765628E+001
  0.131586636279660E+000 -0.516322735954483E+001  0.305054493225445E+001
  0.131586636279660E+000 -0.519607357193191E+001  0.304270027784838E+001
  0.131586636279660E+000 -0.520698694397171E+001  0.304007081361424E+001
  0.131586636279660E+000 -0.523352245498855E+001  0.303362590195221E+001
  0.131586636279660E+000 -0.523444346595962E+001  0.303340143477822E+001
  0.131586636279660E+000 -0.533680895973404E+001  0.300774540173141E+001
  0.131586636279660E+000 -0.533873323608597E+001  0.300725047989437E+001
  0.131586636279660E+000 -0.535609749962051E+001  0.300274880278350E+001
  0.131586636279660E+000 -0.537917689491470E+001  0.299669142215552E+001
  0.131586636279660E+000 -0.540279964615066E+001  0.299039849404816E+001
  0.131586636279660E+000 -0.540889481712539E+001  0.298875597086956E+001
  0.131586636279660E+000 -0.544519786049087E+001  0.297883078315655E+001
  0.131586636279660E+000 -0.544526843239029E+001  0.297881336719566E+001
  0.131586636279660E+000 -0.546430186439712E+001  0.297349558565558E+001
  0.131586636279660E+000 -0.549648145843704E+001  0.296431002754488E+001
  0.131586636279660E+000 -0.551530174423416E+001  0.295881290753498E+001
  0.131586636279660E+000 -0.555209211517532E+001  0.294776253393359E+001
  0.131586636279660E+000 -0.555549697090347E+001  0.294671638698791E+001
  0.131586636279660E+000 -0.558534149337967E+001  0.293738307560587E+001
  0.131586636279660E+000 -0.559801725555618E+001  0.243988145685227E+001
  0.131586636279660E+000 -0.560789088417251E+001  0.244514138294170E+001
  0.131586636279660E+000 -0.563193468261917E+001  0.245819448766851E+001
  0.131586636279660E+000 -0.563381103683670E+001  0.245922815081279E+001
  0.131586636279660E+000 -0.563464049507339E+001  0.245968571861085E+001
  0.131586636279660E+000 -0.563503412414749E+001  0.245990254546124E+001
  0.131586636279660E+000 -0.564592723060806E+001  0.246595120720193E+001
  0.131586636279660E+000 -0.565793065239151E+001  0.247269987272480E+001
  0.131586636279660E+000 -0.565919093300064E+001  0.247341380252474E+001
  0.131586636279660E+000 -0.566632465530594E+001  0.291009312680170E+001
  0.131586636279660E+000 -0.567214731384476E+001  0.248080155930428E+001
  0.131586636279660E+000 -0.567571882415970E+001  0.248285904713017E+001
  0.131586636279660E+000 -0.567999986816604E+001  0.248533233080117E+001
  0.131586636279660E+000 -0.570333890129288E+001  0.289636405982565E+001
  0.131586636279660E+000 -0.570427207161148E+001  0.249959278759123E+001
  0.131586636279660E+000 -0.570427803207596E+001  0.289600400092559E+001
  0.131586636279660E+000 -0.572380189110000E+001  0.288832319144320E+001
  0.131586636279660E+000 -0.572442154098709E+001  0.288807338987416E+001
  0.131586636279660E+000 -0.573360923935135E+001  0.288433581416802E+001
  0.131586636279660E+000 -0.573490289856155E+001  0.251820134095254E+001
  0.131586636279660E+000 -0.574571899582107E+001  0.252495957879919E+001
  0.131586636279660E+000 -0.574640850235184E+001  0.252539391991751E+001
  0.131586636279660E+000 -0.574975899864395E+001  0.287755471336534E+001
  0.131586636279660E+000 -0.575137285400589E+001  0.252853825893045E+001
  0.131586636279660E+000 -0.575813249756058E+001  0.287392319082946E+001
  0.131586636279660E+000 -0.576483635116775E+001  0.253719374562961E+001
  0.131586636279660E+000 -0.576519397903641E+001  0.253742694224693E+001
  0.131586636279660E+000 -0.577424649406631E+001  0.286668767144716E+001
  0.131586636279660E+000 -0.577573208023269E+001  0.254435222061065E+001
  0.131586636279660E+000 -0.577719358612259E+001  0.286532813473098E+001
  0.131586636279660E+000 -0.577779750038345E+001  0.286504530619004E+001
  0.131586636279660E+000 -0.578263239074905E+001  0.254896624399550E+001
  0.131586636279660E+000 -0.578830198456009E+001  0.286007213018676E+001
  0.131586636279660E+000 -0.579542235542496E+001  0.255769818246942E+001
  0.131586636279660E+000 -0.579627494026382E+001  0.285617146835457E+001
  0.131586636279660E+000 -0.579720024276932E+001  0.255892907364908E+001
  0.131586636279660E+000 -0.579741672683914E+001  0.255907831431481E+001
  0.131586636279660E+000 -0.579798988510330E+001  0.285531990883653E+001
  0.131586636279660E+000 -0.579890684295852E+001  0.256011619899397E+001
  0.131586636279660E+000 -0.580523327995498E+001  0.285165355446530E+001
  0.131586636279660E+000 -0.580928043533523E+001  0.256746210146503E+001
  0.131586636279660E+000 -0.580975107361038E+001  0.284931261400018E+001
  0.131586636279660E+000 -0.581420473266800E+001  0.257102113018740E+001
  0.131586636279660E+000 -0.581547979522903E+001  0.257195040211586E+001
  0.131586636279660E+000 -0.581842641044815E+001  0.284469266627530E+001
  0.131586636279660E+000 -0.582834939171036E+001  0.283918117699295E+001
  0.131586636279660E+000 -0.583567814041336E+001  0.258719887703293E+001
  0.131586636279660E+000 -0.584200243164261E+001  0.259220164443812E+001
  0.131586636279660E+000 -0.584474281479080E+001  0.282944321954029E+001
  0.131586636279660E+000 -0.584722665954788E+001  0.282788522604917E+001
  0.131586636279660E+000 -0.585029224563797E+001  0.259897015177018E+001
  0.131586636279660E+000 -0.585704902816971E+001  0.260468080350988E+001
  0.131586636279660E+000 -0.585751203705032E+001  0.282117896181976E+001
  0.131586636279660E+000 -0.586099723983963E+001  0.281879651947490E+001
  0.131586636279660E+000 -0.586814216781814E+001  0.281371309552602E+001
  0.131586636279660E+000 -0.586933426071365E+001  0.281283309366405E+001
  0.131586636279660E+000 -0.586952404190262E+001  0.261579699003056E+001
  0.131586636279660E+000 -0.587192014862259E+001  0.261803235496308E+001
  0.131586636279660E+000 -0.587469772506912E+001  0.262066667263599E+001
  0.131586636279660E+000 -0.587492469955643E+001  0.262088453042749E+001
  0.131586636279660E+000 -0.587723449875076E+001  0.262312323034770E+001
  0.131586636279660E+000 -0.587918619323929E+001  0.262504775004840E+001
  0.131586636279660E+000 -0.588093141723831E+001  0.262679040120918E+001
  0.131586636279660E+000 -0.588110641647537E+001  0.280365412580227E+001
  0.131586636279660E+000 -0.588296560455520E+001  0.280210900675174E+001
  0.131586636279660E+000 -0.588398317505081E+001  0.262990269172341E+001
  0.131586636279660E+000 -0.588478283096512E+001  0.280055965181680E+001
  0.131586636279660E+000 -0.588566211868484E+001  0.263164702065637E+001
  0.131586636279660E+000 -0.588647369552810E+001  0.279909298368674E+001
  0.131586636279660E+000 -0.588674787689407E+001  0.279885258826296E+001
  0.131586636279660E+000 -0.588693765808304E+001  0.279868363023465E+001
  0.131586636279660E+000 -0.588698105026443E+001  0.263304437150562E+001
  0.131586636279660E+000 -0.588820842910965E+001  0.279756038784502E+001
  0.131586636279660E+000 -0.539231138166986E+001  0.277819984272233E+001
  0.131586636279660E+000 -0.539840297636591E+001  0.277024642336238E+001
  0.131586636279660E+000 -0.540406064924799E+001  0.276142749785601E+001
  0.131586636279660E+000 -0.540518741545282E+001  0.275943136520241E+001
  0.131586636279660E+000 -0.540608434614740E+001  0.275775062512698E+001
  0.131586636279660E+000 -0.540854005751215E+001  0.275271955841086E+001
  0.131586636279660E+000 -0.540969781813227E+001  0.275004609701562E+001
  0.131586636279660E+000 -0.540979127821527E+001  0.274981423407707E+001
  0.131586636279660E+000 -0.487164278139142E+001  0.271341905803460E+001
  0.131586636279660E+000 -0.487173624147442E+001  0.271469427928473E+001
