  0.616574825492555E-001 -0.472224191589213E+001  0.327946399167112E+001
  0.616574825492555E-001 -0.466064027709819E+001  0.329098471310701E+001
  0.616574825492555E-001  0.233309595366236E+001  0.722725786501903E+001
  0.616574825492555E-001  0.238114874144312E+001  0.547853412276255E+001
  0.616574825492555E-001 -0.455845669669963E+001  0.330994151759467E+001
  0.616574825492555E-001  0.731080971528520E+000  0.421088143281795E+001
  0.616574825492555E-001  0.203155480195512E+000  0.411061702683771E+001
  0.616574825492555E-001 -0.831509010300735E-001  0.405998344948549E+001
  0.616574825492555E-001 -0.117957152555952E+000  0.405395695979034E+001
  0.616574825492555E-001 -0.438043073577739E+001  0.334254910319088E+001
  0.616574825492555E-001 -0.412168125076152E+001  0.338910364158450E+001
  0.616574825492555E-001 -0.124827102584697E+001  0.386687930474564E+001
  0.616574825492555E-001 -0.187174705428935E+001  0.376652624649452E+001
  0.616574825492555E-001 -0.220506481094218E+001  0.371267486857203E+001
  0.616574825492555E-001 -0.220973400039531E+001  0.371191956220954E+001
  0.616574825492555E-001 -0.227882818145610E+001  0.370070651474410E+001
  0.616574825492555E-001 -0.411059860153056E+001  0.339107679405105E+001
  0.616574825492555E-001 -0.239655116958476E+001  0.368155123076258E+001
  0.616574825492555E-001 -0.245975927276469E+001  0.367124033186718E+001
  0.616574825492555E-001 -0.284335378570415E+001  0.360815583700978E+001
  0.616574825492555E-001 -0.286006072921611E+001  0.360538632194733E+001
  0.616574825492555E-001 -0.305121520919658E+001  0.357354985041108E+001
  0.616574825492555E-001 -0.406060079498149E+001  0.339996162230904E+001
  0.616574825492555E-001 -0.334310535354472E+001  0.352436808742353E+001
  0.616574825492555E-001 -0.352552226943828E+001  0.349324373980037E+001
  0.616574825492555E-001 -0.399849370879985E+001  0.341095710048742E+001
  0.616574825492555E-001 -0.481234315795756E+001  0.326247707147759E+001
  0.616574825492555E-001 -0.496593169135905E+001  0.323311313137412E+001
  0.616574825492555E-001 -0.502563098831035E+001  0.322154608060389E+001
  0.616574825492555E-001 -0.504122380180217E+001  0.321850932193922E+001
  0.616574825492555E-001 -0.516950563354350E+001  0.319326725485629E+001
  0.616574825492555E-001 -0.517795709533549E+001  0.319158630276596E+001
  0.616574825492555E-001 -0.525596240920878E+001  0.317596822857217E+001
  0.616574825492555E-001 -0.528953579826213E+001  0.316918270556136E+001
  0.616574825492555E-001 -0.530672077102519E+001  0.316569386250326E+001
  0.616574825492555E-001 -0.537640837592937E+001  0.315143030422351E+001
  0.616574825492555E-001 -0.537803892059184E+001  0.315109386300551E+001
  0.616574825492555E-001 -0.539889315528728E+001  0.314678727874155E+001
  0.616574825492555E-001 -0.540712431831218E+001  0.314508210330080E+001
  0.616574825492555E-001 -0.548372701568461E+001  0.312907234078661E+001
  0.616574825492555E-001 -0.552931622428752E+001  0.311941541460161E+001
  0.616574825492555E-001 -0.552939251823283E+001  0.311939919516397E+001
  0.616574825492555E-001 -0.563195041580058E+001  0.309728400752346E+001
  0.616574825492555E-001 -0.565756968421794E+001  0.309166649244451E+001
  0.616574825492555E-001 -0.571508745117045E+001  0.307890831474731E+001
  0.616574825492555E-001 -0.575183609886027E+001  0.307064350703433E+001
  0.616574825492555E-001 -0.577119163436748E+001  0.306625053005600E+001
  0.616574825492555E-001 -0.586362389488078E+001  0.304488643867567E+001
  0.616574825492555E-001 -0.598384097976543E+001  0.301597864025472E+001
  0.616574825492555E-001 -0.600823739929057E+001  0.300993361232764E+001
  0.616574825492555E-001 -0.601424983901835E+001  0.300843297185334E+001
  0.616574825492555E-001 -0.611141804618693E+001  0.298357627925514E+001
  0.616574825492555E-001 -0.612480763358928E+001  0.298005238866695E+001
  0.616574825492555E-001 -0.612608078880168E+001  0.297971530176517E+001
  0.616574825492555E-001 -0.614181641502238E+001  0.297553737284734E+001
  0.616574825492555E-001 -0.616052678985454E+001  0.297052171053737E+001
  0.616574825492555E-001 -0.621073249740459E+001  0.295677775139996E+001
  0.616574825492555E-001 -0.622426537437297E+001  0.295299820156986E+001
  0.616574825492555E-001 -0.622431305808879E+001  0.295298535274382E+001
  0.616574825492555E-001 -0.622479299468852E+001  0.295285029832814E+001
  0.616574825492555E-001 -0.623474911613322E+001  0.295004661683059E+001
  0.616574825492555E-001 -0.624598506851054E+001  0.294686008426562E+001
  0.616574825492555E-001 -0.625383666915751E+001  0.294461847248320E+001
  0.616574825492555E-001 -0.626281646652080E+001  0.294203900681087E+001
  0.616574825492555E-001 -0.631367353362895E+001  0.292710413077871E+001
  0.616574825492555E-001 -0.632463983459331E+001  0.292380551787699E+001
  0.616574825492555E-001 -0.632675842208720E+001  0.292316497028073E+001
  0.616574825492555E-001 -0.634374860687114E+001  0.291798535649706E+001
  0.616574825492555E-001 -0.635956696433879E+001  0.291309489865430E+001
  0.616574825492555E-001 -0.637970045966960E+001  0.290676964934874E+001
  0.616574825492555E-001 -0.640799859924174E+001  0.289767319015818E+001
  0.616574825492555E-001 -0.642513421935893E+001  0.289203909093855E+001
  0.616574825492555E-001 -0.643346742553569E+001  0.288926238771692E+001
  0.616574825492555E-001 -0.643970254821635E+001  0.288716920414773E+001
  0.616574825492555E-001 -0.647070602340556E+001  0.287653626617852E+001
  0.616574825492555E-001 -0.647982934875346E+001  0.287333331190557E+001
  0.616574825492555E-001 -0.648339799804545E+001  0.287207003930418E+001
  0.616574825492555E-001 -0.648478535575725E+001  0.287157803675051E+001
  0.616574825492555E-001 -0.649638179702617E+001  0.286742858615488E+001
  0.616574825492555E-001 -0.650057033462382E+001  0.286591357515405E+001
  0.616574825492555E-001 -0.651070646209575E+001  0.286221450119992E+001
  0.616574825492555E-001 -0.652562240524150E+001  0.285667639134451E+001
  0.616574825492555E-001 -0.652893546981669E+001  0.285543076396478E+001
  0.616574825492555E-001 -0.654649595184184E+001  0.284872413285751E+001
  0.616574825492555E-001 -0.655459216995097E+001  0.284557178593811E+001
  0.616574825492555E-001 -0.655762390060283E+001  0.284438031065607E+001
  0.616574825492555E-001 -0.616933224448948E+001  0.283397663436131E+001
  0.616574825492555E-001 -0.617562458762913E+001  0.283137379853448E+001
  0.616574825492555E-001 -0.620523951301365E+001  0.281869494544364E+001
  0.616574825492555E-001 -0.620568630943089E+001  0.281849770763344E+001
  0.616574825492555E-001 -0.622198078880101E+001  0.281117898292023E+001
  0.616574825492555E-001 -0.623563502082615E+001  0.280483527620558E+001
  0.616574825492555E-001 -0.623945114860325E+001  0.280302482438689E+001
  0.616574825492555E-001 -0.626866457710057E+001  0.278854910484156E+001
  0.616574825492555E-001 -0.628223631629734E+001  0.278139786497581E+001
  0.616574825492555E-001 -0.628267834434300E+001  0.278116069912461E+001
  0.616574825492555E-001 -0.628532669791966E+001  0.277972549173506E+001
  0.616574825492555E-001 -0.628783724555760E+001  0.277835480317188E+001
  0.616574825492555E-001 -0.629146359214573E+001  0.277635391620402E+001
  0.616574825492555E-001 -0.629765675315647E+001  0.277287587072002E+001
  0.616574825492555E-001 -0.630185864219456E+001  0.277047117632888E+001
  0.616574825492555E-001 -0.630541584739476E+001  0.276840557735364E+001
  0.616574825492555E-001 -0.630645010719090E+001  0.276779979640525E+001
  0.616574825492555E-001 -0.631530401954441E+001  0.276250757601058E+001
  0.616574825492555E-001 -0.632268116721897E+001  0.275794338554907E+001
  0.616574825492555E-001 -0.633194802055149E+001  0.275198604332976E+001
  0.616574825492555E-001 -0.635420725593357E+001  0.273642043296207E+001
  0.616574825492555E-001 -0.636070225486546E+001  0.273145838539867E+001
  0.616574825492555E-001 -0.636250422248631E+001  0.273004194299196E+001
  0.616574825492555E-001 -0.636269781837254E+001  0.272988724448227E+001
  0.616574825492555E-001 -0.636484692344456E+001  0.272817003703273E+001
  0.616574825492555E-001 -0.636808178672581E+001  0.272552872849470E+001
  0.616574825492555E-001 -0.636859534034519E+001  0.272510328634729E+001
  0.616574825492555E-001 -0.636888382682591E+001  0.272486309106811E+001
  0.616574825492555E-001 -0.638389609107762E+001  0.271146977594751E+001
  0.616574825492555E-001 -0.638726017722874E+001  0.270817181622062E+001
  0.616574825492555E-001 -0.639176152000218E+001  0.270354133709855E+001
  0.616574825492555E-001 -0.639329312095433E+001  0.270190020595202E+001
  0.616574825492555E-001 -0.481974749257317E+001  0.261165286746831E+001
  0.616574825492555E-001 -0.482021670033684E+001  0.261392769595711E+001
  0.616574825492555E-001 -0.482066826512566E+001  0.261649808154082E+001
