  0.152520153066138E+000  0.259456871357898E+001  0.188971970418412E+001
  0.152520153066138E+000  0.460409687367419E+001  0.563995707434086E+001
  0.152520153066138E+000  0.691388367024402E+001  0.723661856793181E+001
  0.152520153066138E+000  0.215355633107165E+001  0.459652458653405E+001
  0.152520153066138E+000  0.174918983784655E+001  0.449305030191165E+001
  0.152520153066138E+000  0.168849037495593E+001  0.447817395954610E+001
  0.152520153066138E+000  0.967756732377803E+000  0.431154519968916E+001
  0.152520153066138E+000  0.688189967546260E+000  0.425080250362847E+001
  0.152520153066138E+000  0.289710982713497E+000  0.416689497720273E+001
  0.152520153066138E+000 -0.412411847974897E-001  0.409904531806373E+001
  0.152520153066138E+000 -0.733513990308882E-001  0.409253513116908E+001
  0.152520153066138E+000 -0.834837452497685E+000  0.201376713174292E+001
  0.152520153066138E+000 -0.953620449629033E+000  0.391732554427109E+001
  0.152520153066138E+000 -0.111512900980970E+001  0.388561571738073E+001
  0.152520153066138E+000 -0.122694446238538E+001  0.386369555006547E+001
  0.152520153066138E+000 -0.432899595889112E+001  0.324697129969094E+001
  0.152520153066138E+000 -0.143029262217542E+001  0.382388239643994E+001
  0.152520153066138E+000 -0.153428317698499E+001  0.380353340444859E+001
  0.152520153066138E+000 -0.211058952006360E+001  0.369058457166227E+001
  0.152520153066138E+000 -0.217947341593763E+001  0.367704136928195E+001
  0.152520153066138E+000 -0.252747203501722E+001  0.360844642250529E+001
  0.152520153066138E+000 -0.265373946818372E+001  0.208896909522766E+001
  0.152520153066138E+000 -0.272779657038709E+001  0.356879184745049E+001
  0.152520153066138E+000 -0.283949710520765E+001  0.354662397675065E+001
  0.152520153066138E+000 -0.288298513087293E+001  0.353798135836497E+001
  0.152520153066138E+000 -0.291940642985364E+001  0.353074121589676E+001
  0.152520153066138E+000 -0.294864751490613E+001  0.352492472310271E+001
  0.152520153066138E+000 -0.430688931139966E+001  0.325150155029933E+001
  0.152520153066138E+000 -0.299481679591199E+001  0.351573380822685E+001
  0.152520153066138E+000 -0.340138341578504E+001  0.212344852387474E+001
  0.152520153066138E+000 -0.342809154185315E+001  0.342916717185580E+001
  0.152520153066138E+000 -0.423549415263196E+001  0.217077833164724E+001
  0.152520153066138E+000 -0.360979510935804E+001  0.339269452077299E+001
  0.152520153066138E+000 -0.389008380564710E+001  0.214933990371370E+001
  0.152520153066138E+000 -0.421688963564893E+001  0.326989480062749E+001
  0.152520153066138E+000 -0.393196059855481E+001  0.332774606199236E+001
  0.152520153066138E+000 -0.393367864283582E+001  0.332739890585266E+001
  0.152520153066138E+000 -0.396497203501722E+001  0.332106434012670E+001
  0.152520153066138E+000 -0.402133227976819E+001  0.330965053449343E+001
  0.152520153066138E+000 -0.402213384303113E+001  0.330948672956649E+001
  0.152520153066138E+000 -0.407988311442395E+001  0.329777211476878E+001
  0.152520153066138E+000 -0.412141133936902E+001  0.328933430234856E+001
  0.152520153066138E+000 -0.418299843462964E+001  0.327680342245454E+001
  0.152520153066138E+000 -0.411033261140731E+001  0.324450432886535E+001
  0.152520153066138E+000 -0.413356435617354E+001  0.323973677007886E+001
  0.152520153066138E+000 -0.417063439210799E+001  0.323211714313784E+001
  0.152520153066138E+000 -0.417311203798201E+001  0.323160400776854E+001
  0.152520153066138E+000 -0.436829626878646E+001  0.319116081179322E+001
  0.152520153066138E+000 -0.441747057756331E+001  0.318086879563448E+001
  0.152520153066138E+000 -0.447743714174178E+001  0.316825098554808E+001
  0.152520153066138E+000 -0.449235022386458E+001  0.316509763959855E+001
  0.152520153066138E+000 -0.450509274324325E+001  0.316240078369942E+001
  0.152520153066138E+000 -0.450933516343978E+001  0.316150309850179E+001
  0.152520153066138E+000 -0.452082217058089E+001  0.315906617185718E+001
  0.152520153066138E+000 -0.454380333742049E+001  0.315417934515015E+001
  0.152520153066138E+000 -0.458076107820418E+001  0.314629244387448E+001
  0.152520153066138E+000 -0.461689436754134E+001  0.313853954246723E+001
  0.152520153066138E+000 -0.462504637559798E+001  0.313678259457953E+001
  0.152520153066138E+000 -0.466846716722396E+001  0.312739880374248E+001
  0.152520153066138E+000 -0.466880190690902E+001  0.312732583908769E+001
  0.152520153066138E+000 -0.471478617509749E+001  0.311730363295120E+001
  0.152520153066138E+000 -0.479776776155379E+001  0.309898696216399E+001
  0.152520153066138E+000 -0.479813468774703E+001  0.309890639115280E+001
  0.152520153066138E+000 -0.480210507234481E+001  0.309802058577017E+001
  0.152520153066138E+000 -0.489833844026473E+001  0.307629675030220E+001
  0.152520153066138E+000 -0.490721762498763E+001  0.307426368567505E+001
  0.152520153066138E+000 -0.491787493547347E+001  0.307181516954307E+001
  0.152520153066138E+000 -0.492755949815657E+001  0.306958615003553E+001
  0.152520153066138E+000 -0.498690235933211E+001  0.305575786765628E+001
  0.152520153066138E+000 -0.500895345529464E+001  0.305054493225445E+001
  0.152520153066138E+000 -0.504179966768172E+001  0.304270027784838E+001
  0.152520153066138E+000 -0.505271303972152E+001  0.304007081361424E+001
  0.152520153066138E+000 -0.507924855073836E+001  0.303362590195221E+001
  0.152520153066138E+000 -0.508016956170943E+001  0.303340143477822E+001
  0.152520153066138E+000 -0.518253505548384E+001  0.300774540173141E+001
  0.152520153066138E+000 -0.518445933183577E+001  0.300725047989437E+001
  0.152520153066138E+000 -0.520182359537032E+001  0.300274880278350E+001
  0.152520153066138E+000 -0.522490299066451E+001  0.299669142215552E+001
  0.152520153066138E+000 -0.524852574190047E+001  0.299039849404816E+001
  0.152520153066138E+000 -0.525462091287520E+001  0.298875597086956E+001
  0.152520153066138E+000 -0.529092395624068E+001  0.297883078315655E+001
  0.152520153066138E+000 -0.529099452814009E+001  0.297881336719566E+001
  0.152520153066138E+000 -0.531002796014693E+001  0.297349558565558E+001
  0.152520153066138E+000 -0.534220755418685E+001  0.296431002754488E+001
  0.152520153066138E+000 -0.536102783998397E+001  0.295881290753498E+001
  0.152520153066138E+000 -0.539781821092513E+001  0.294776253393359E+001
  0.152520153066138E+000 -0.540122306665328E+001  0.294671638698791E+001
  0.152520153066138E+000 -0.543106758912947E+001  0.293738307560587E+001
  0.152520153066138E+000 -0.544374335130599E+001  0.243988145685227E+001
  0.152520153066138E+000 -0.545361697992232E+001  0.244514138294170E+001
  0.152520153066138E+000 -0.547766077836898E+001  0.245819448766851E+001
  0.152520153066138E+000 -0.547953713258651E+001  0.245922815081279E+001
  0.152520153066138E+000 -0.548036659082320E+001  0.245968571861085E+001
  0.152520153066138E+000 -0.548076021989730E+001  0.245990254546124E+001
  0.152520153066138E+000 -0.549165332635787E+001  0.246595120720193E+001
  0.152520153066138E+000 -0.550365674814132E+001  0.247269987272480E+001
  0.152520153066138E+000 -0.550491702875045E+001  0.247341380252474E+001
  0.152520153066138E+000 -0.551205075105574E+001  0.291009312680170E+001
  0.152520153066138E+000 -0.551787340959456E+001  0.248080155930428E+001
  0.152520153066138E+000 -0.552144491990950E+001  0.248285904713017E+001
  0.152520153066138E+000 -0.552572596391585E+001  0.248533233080117E+001
  0.152520153066138E+000 -0.554906499704268E+001  0.289636405982565E+001
  0.152520153066138E+000 -0.554999816736129E+001  0.249959278759123E+001
  0.152520153066138E+000 -0.555000412782576E+001  0.289600400092559E+001
  0.152520153066138E+000 -0.556952798684981E+001  0.288832319144320E+001
  0.152520153066138E+000 -0.557014763673690E+001  0.288807338987416E+001
  0.152520153066138E+000 -0.557933533510115E+001  0.288433581416802E+001
  0.152520153066138E+000 -0.558062899431136E+001  0.251820134095254E+001
  0.152520153066138E+000 -0.559144509157088E+001  0.252495957879919E+001
  0.152520153066138E+000 -0.559213459810164E+001  0.252539391991751E+001
  0.152520153066138E+000 -0.559548509439376E+001  0.287755471336534E+001
  0.152520153066138E+000 -0.559709894975570E+001  0.252853825893045E+001
  0.152520153066138E+000 -0.560385859331038E+001  0.287392319082946E+001
  0.152520153066138E+000 -0.561056244691756E+001  0.253719374562961E+001
  0.152520153066138E+000 -0.561092007478621E+001  0.253742694224693E+001
  0.152520153066138E+000 -0.561997258981612E+001  0.286668767144716E+001
  0.152520153066138E+000 -0.562145817598250E+001  0.254435222061065E+001
  0.152520153066138E+000 -0.562291968187239E+001  0.286532813473098E+001
  0.152520153066138E+000 -0.562352359613326E+001  0.286504530619004E+001
  0.152520153066138E+000 -0.562835848649886E+001  0.254896624399550E+001
  0.152520153066138E+000 -0.563402808030989E+001  0.286007213018676E+001
  0.152520153066138E+000 -0.564114845117476E+001  0.255769818246942E+001
  0.152520153066138E+000 -0.564200103601363E+001  0.285617146835457E+001
  0.152520153066138E+000 -0.564292633851912E+001  0.255892907364908E+001
  0.152520153066138E+000 -0.564314282258895E+001  0.255907831431481E+001
  0.152520153066138E+000 -0.564371598085311E+001  0.285531990883653E+001
  0.152520153066138E+000 -0.564463293870833E+001  0.256011619899397E+001
  0.152520153066138E+000 -0.565095937570479E+001  0.285165355446530E+001
  0.152520153066138E+000 -0.565500653108504E+001  0.256746210146503E+001
  0.152520153066138E+000 -0.565547716936019E+001  0.284931261400018E+001
  0.152520153066138E+000 -0.565993082841780E+001  0.257102113018740E+001
  0.152520153066138E+000 -0.566120589097884E+001  0.257195040211586E+001
  0.152520153066138E+000 -0.566415250619796E+001  0.284469266627530E+001
  0.152520153066138E+000 -0.567407548746016E+001  0.283918117699295E+001
  0.152520153066138E+000 -0.568140423616317E+001  0.258719887703293E+001
  0.152520153066138E+000 -0.568772852739241E+001  0.259220164443812E+001
  0.152520153066138E+000 -0.569046891054061E+001  0.282944321954029E+001
  0.152520153066138E+000 -0.569295275529769E+001  0.282788522604917E+001
  0.152520153066138E+000 -0.569601834138778E+001  0.259897015177018E+001
  0.152520153066138E+000 -0.570277512391951E+001  0.260468080350988E+001
  0.152520153066138E+000 -0.570323813280013E+001  0.282117896181976E+001
  0.152520153066138E+000 -0.570672333558944E+001  0.281879651947490E+001
  0.152520153066138E+000 -0.571386826356795E+001  0.281371309552602E+001
  0.152520153066138E+000 -0.571506035646346E+001  0.281283309366405E+001
  0.152520153066138E+000 -0.571525013765242E+001  0.261579699003056E+001
  0.152520153066138E+000 -0.571764624437239E+001  0.261803235496308E+001
  0.152520153066138E+000 -0.572042382081893E+001  0.262066667263599E+001
  0.152520153066138E+000 -0.572065079530623E+001  0.262088453042749E+001
  0.152520153066138E+000 -0.572296059450057E+001  0.262312323034770E+001
  0.152520153066138E+000 -0.572491228898909E+001  0.262504775004840E+001
  0.152520153066138E+000 -0.572665751298812E+001  0.262679040120918E+001
  0.152520153066138E+000 -0.572683251222518E+001  0.280365412580227E+001
  0.152520153066138E+000 -0.572869170030501E+001  0.280210900675174E+001
  0.152520153066138E+000 -0.572970927080062E+001  0.262990269172341E+001
  0.152520153066138E+000 -0.573050892671492E+001  0.280055965181680E+001
  0.152520153066138E+000 -0.573138821443465E+001  0.263164702065637E+001
  0.152520153066138E+000 -0.573219979127791E+001  0.279909298368674E+001
  0.152520153066138E+000 -0.573247397264388E+001  0.279885258826296E+001
  0.152520153066138E+000 -0.573266375383284E+001  0.279868363023465E+001
  0.152520153066138E+000 -0.573270714601424E+001  0.263304437150562E+001
  0.152520153066138E+000 -0.573393452485946E+001  0.279756038784502E+001
  0.152520153066138E+000 -0.482995095502793E+001  0.264162113729277E+001
  0.152520153066138E+000 -0.483717742216050E+001  0.265037518384938E+001
  0.152520153066138E+000 -0.484144988309800E+001  0.265601525243634E+001
  0.152520153066138E+000 -0.484816613447129E+001  0.266588070215394E+001
  0.152520153066138E+000 -0.485064854871690E+001  0.266995315843136E+001
  0.152520153066138E+000 -0.485820498716294E+001  0.268483355312979E+001
  0.152520153066138E+000 -0.485963025342881E+001  0.268835149777414E+001
