  0.291427368503618E+000 -0.316811682629757E+001  0.327946399167112E+001
  0.291427368503618E+000 -0.310651518750362E+001  0.329098471310701E+001
  0.291427368503618E+000  0.388722104325693E+001  0.722725786501903E+001
  0.291427368503618E+000  0.393527383103769E+001  0.547853412276255E+001
  0.291427368503618E+000 -0.300433160710506E+001  0.330994151759467E+001
  0.291427368503618E+000  0.228520606112309E+001  0.421088143281795E+001
  0.291427368503618E+000  0.175728056979008E+001  0.411061702683771E+001
  0.291427368503618E+000  0.147097418856449E+001  0.405998344948549E+001
  0.291427368503618E+000  0.143616793703862E+001  0.405395695979034E+001
  0.291427368503618E+000 -0.282630564618282E+001  0.334254910319088E+001
  0.291427368503618E+000 -0.256755616116695E+001  0.338910364158450E+001
  0.291427368503618E+000  0.305854063747600E+000  0.386687930474564E+001
  0.291427368503618E+000 -0.317621964694783E+000  0.376652624649452E+001
  0.291427368503618E+000 -0.650939721347615E+000  0.371267486857203E+001
  0.291427368503618E+000 -0.655608910800740E+000  0.371191956220954E+001
  0.291427368503618E+000 -0.724703091861531E+000  0.370070651474410E+001
  0.291427368503618E+000 -0.255647351193599E+001  0.339107679405105E+001
  0.291427368503618E+000 -0.842426079990193E+000  0.368155123076258E+001
  0.291427368503618E+000 -0.905634183170124E+000  0.367124033186718E+001
  0.291427368503618E+000 -0.128922869610958E+001  0.360815583700978E+001
  0.291427368503618E+000 -0.130593563962154E+001  0.360538632194733E+001
  0.291427368503618E+000 -0.149709011960201E+001  0.357354985041108E+001
  0.291427368503618E+000 -0.250647570538692E+001  0.339996162230904E+001
  0.291427368503618E+000 -0.178898026395015E+001  0.352436808742353E+001
  0.291427368503618E+000 -0.197139717984371E+001  0.349324373980037E+001
  0.291427368503618E+000 -0.244436861920528E+001  0.341095710048742E+001
  0.291427368503618E+000 -0.325821806836300E+001  0.326247707147759E+001
  0.291427368503618E+000 -0.341180660176448E+001  0.323311313137412E+001
  0.291427368503618E+000 -0.347150589871578E+001  0.322154608060389E+001
  0.291427368503618E+000 -0.348709871220760E+001  0.321850932193922E+001
  0.291427368503618E+000 -0.361538054394893E+001  0.319326725485629E+001
  0.291427368503618E+000 -0.362383200574093E+001  0.319158630276596E+001
  0.291427368503618E+000 -0.370183731961422E+001  0.317596822857217E+001
  0.291427368503618E+000 -0.373541070866756E+001  0.316918270556136E+001
  0.291427368503618E+000 -0.375259568143062E+001  0.316569386250326E+001
  0.291427368503618E+000 -0.382228328633480E+001  0.315143030422351E+001
  0.291427368503618E+000 -0.382391383099727E+001  0.315109386300551E+001
  0.291427368503618E+000 -0.384476806569271E+001  0.314678727874155E+001
  0.291427368503618E+000 -0.385299922871761E+001  0.314508210330080E+001
  0.291427368503618E+000 -0.392960192609005E+001  0.312907234078661E+001
  0.291427368503618E+000 -0.397519113469295E+001  0.311941541460161E+001
  0.291427368503618E+000 -0.397526742863826E+001  0.311939919516397E+001
  0.291427368503618E+000 -0.407782532620601E+001  0.309728400752346E+001
  0.291427368503618E+000 -0.410344459462337E+001  0.309166649244451E+001
  0.291427368503618E+000 -0.416096236157589E+001  0.307890831474731E+001
  0.291427368503618E+000 -0.419771100926571E+001  0.307064350703433E+001
  0.291427368503618E+000 -0.421706654477291E+001  0.306625053005600E+001
  0.291427368503618E+000 -0.430949880528621E+001  0.304488643867567E+001
  0.291427368503618E+000 -0.442971589017086E+001  0.301597864025472E+001
  0.291427368503618E+000 -0.445411230969600E+001  0.300993361232764E+001
  0.291427368503618E+000 -0.446012474942379E+001  0.300843297185334E+001
  0.291427368503618E+000 -0.455729295659237E+001  0.298357627925514E+001
  0.291427368503618E+000 -0.457068254399471E+001  0.298005238866695E+001
  0.291427368503618E+000 -0.457195569920711E+001  0.297971530176517E+001
  0.291427368503618E+000 -0.458769132542781E+001  0.297553737284734E+001
  0.291427368503618E+000 -0.460640170025997E+001  0.297052171053737E+001
  0.291427368503618E+000 -0.465660740781002E+001  0.295677775139996E+001
  0.291427368503618E+000 -0.467014028477840E+001  0.295299820156986E+001
  0.291427368503618E+000 -0.467018796849422E+001  0.295298535274382E+001
  0.291427368503618E+000 -0.467066790509395E+001  0.295285029832814E+001
  0.291427368503618E+000 -0.468062402653865E+001  0.295004661683059E+001
  0.291427368503618E+000 -0.469185997891597E+001  0.294686008426562E+001
  0.291427368503618E+000 -0.469971157956295E+001  0.294461847248320E+001
  0.291427368503618E+000 -0.470869137692623E+001  0.294203900681087E+001
  0.291427368503618E+000 -0.475954844403438E+001  0.292710413077871E+001
  0.291427368503618E+000 -0.477051474499874E+001  0.292380551787699E+001
  0.291427368503618E+000 -0.477263333249263E+001  0.292316497028073E+001
  0.291427368503618E+000 -0.478962351727657E+001  0.291798535649706E+001
  0.291427368503618E+000 -0.480544187474422E+001  0.291309489865430E+001
  0.291427368503618E+000 -0.482557537007503E+001  0.290676964934874E+001
  0.291427368503618E+000 -0.485387350964718E+001  0.289767319015818E+001
  0.291427368503618E+000 -0.487100912976436E+001  0.289203909093855E+001
  0.291427368503618E+000 -0.487934233594112E+001  0.288926238771692E+001
  0.291427368503618E+000 -0.488557745862178E+001  0.288716920414773E+001
  0.291427368503618E+000 -0.491658093381099E+001  0.287653626617852E+001
  0.291427368503618E+000 -0.492570425915889E+001  0.287333331190557E+001
  0.291427368503618E+000 -0.492927290845089E+001  0.287207003930418E+001
  0.291427368503618E+000 -0.493066026616268E+001  0.287157803675051E+001
  0.291427368503618E+000 -0.494225670743160E+001  0.286742858615488E+001
  0.291427368503618E+000 -0.494644524502926E+001  0.286591357515405E+001
  0.291427368503618E+000 -0.495658137250118E+001  0.286221450119992E+001
  0.291427368503618E+000 -0.497149731564693E+001  0.285667639134451E+001
  0.291427368503618E+000 -0.497481038022213E+001  0.285543076396478E+001
  0.291427368503618E+000 -0.499237086224727E+001  0.284872413285751E+001
  0.291427368503618E+000 -0.500046708035640E+001  0.284557178593811E+001
  0.291427368503618E+000 -0.500349881100826E+001  0.284438031065607E+001
  0.291427368503618E+000 -0.461520715489491E+001  0.283397663436131E+001
  0.291427368503618E+000 -0.462149949803456E+001  0.283137379853448E+001
  0.291427368503618E+000 -0.465111442341908E+001  0.281869494544364E+001
  0.291427368503618E+000 -0.465156121983632E+001  0.281849770763344E+001
  0.291427368503618E+000 -0.466785569920644E+001  0.281117898292023E+001
  0.291427368503618E+000 -0.468150993123158E+001  0.280483527620558E+001
  0.291427368503618E+000 -0.468532605900868E+001  0.280302482438689E+001
  0.291427368503618E+000 -0.471453948750600E+001  0.278854910484156E+001
  0.291427368503618E+000 -0.472811122670277E+001  0.278139786497581E+001
  0.291427368503618E+000 -0.472855325474843E+001  0.278116069912461E+001
  0.291427368503618E+000 -0.473120160832509E+001  0.277972549173506E+001
  0.291427368503618E+000 -0.473371215596303E+001  0.277835480317188E+001
  0.291427368503618E+000 -0.473733850255116E+001  0.277635391620402E+001
  0.291427368503618E+000 -0.474353166356191E+001  0.277287587072002E+001
  0.291427368503618E+000 -0.474773355259999E+001  0.277047117632888E+001
  0.291427368503618E+000 -0.475129075780019E+001  0.276840557735364E+001
  0.291427368503618E+000 -0.475232501759633E+001  0.276779979640525E+001
  0.291427368503618E+000 -0.476117892994985E+001  0.276250757601058E+001
  0.291427368503618E+000 -0.476855607762441E+001  0.275794338554907E+001
  0.291427368503618E+000 -0.477782293095693E+001  0.275198604332976E+001
  0.291427368503618E+000 -0.480008216633901E+001  0.273642043296207E+001
  0.291427368503618E+000 -0.480657716527089E+001  0.273145838539867E+001
  0.291427368503618E+000 -0.480837913289174E+001  0.273004194299196E+001
  0.291427368503618E+000 -0.480857272877797E+001  0.272988724448227E+001
  0.291427368503618E+000 -0.481072183384999E+001  0.272817003703273E+001
  0.291427368503618E+000 -0.481395669713124E+001  0.272552872849470E+001
  0.291427368503618E+000 -0.481447025075063E+001  0.272510328634729E+001
  0.291427368503618E+000 -0.481475873723134E+001  0.272486309106811E+001
  0.291427368503618E+000 -0.482977100148305E+001  0.271146977594751E+001
  0.291427368503618E+000 -0.483313508763417E+001  0.270817181622062E+001
  0.291427368503618E+000 -0.483763643040761E+001  0.270354133709855E+001
  0.291427368503618E+000 -0.483916803135976E+001  0.270190020595202E+001
  0.291427368503618E+000 -0.432427167892456E+001  0.268648084747310E+001
  0.291427368503618E+000 -0.433281993865967E+001  0.267338878068353E+001
  0.291427368503618E+000 -0.433558940887451E+001  0.266824948290640E+001
  0.291427368503618E+000 -0.433692121505737E+001  0.266553162578413E+001
  0.291427368503618E+000 -0.433767795562744E+001  0.266389448714474E+001
  0.291427368503618E+000 -0.433937978744507E+001  0.265990734318079E+001
  0.291427368503618E+000 -0.433961677551270E+001  0.265930954064425E+001
  0.291427368503618E+000 -0.434091711044312E+001  0.265581341920853E+001
  0.291427368503618E+000 -0.434137630462646E+001  0.265446855269259E+001
  0.291427368503618E+000 -0.434149360656738E+001  0.265411099923583E+001
  0.291427368503618E+000 -0.434287405014038E+001  0.264948586407786E+001
  0.291427368503618E+000 -0.434354782104492E+001  0.264681099964090E+001
  0.291427368503618E+000 -0.434455776214600E+001  0.264183246363402E+001
  0.291427368503618E+000 -0.434490489959717E+001  0.263961918020596E+001
