  0.236277192522318E+000  0.216345014533406E+001  0.556383548092060E+001
  0.236277192522318E+000  0.220935192069417E+001  0.558846938192257E+001
  0.236277192522318E+000 -0.233238937255235E+001  0.212610833171242E+001
  0.236277192522318E+000 -0.229169299002976E+001  0.212341844352750E+001
  0.236277192522318E+000  0.466465463599568E+001  0.686679043286005E+001
  0.236277192522318E+000 -0.221986891623826E+001  0.211872380128633E+001
  0.236277192522318E+000 -0.193961264487596E+001  0.210099443380610E+001
  0.236277192522318E+000  0.147574319800740E+001  0.519408694714710E+001
  0.236277192522318E+000 -0.322284223433824E+001  0.219276087148836E+001
  0.236277192522318E+000  0.243870955740500E+000  0.198109874190030E+001
  0.236277192522318E+000  0.115924102102805E+000  0.198750915587843E+001
  0.236277192522318E+000 -0.388805407250833E+000  0.201346975521455E+001
  0.236277192522318E+000 -0.454360979760599E+000  0.201691988461351E+001
  0.236277192522318E+000 -0.712232845986795E+000  0.203066972350751E+001
  0.236277192522318E+000 -0.186255552169175E+001  0.209626312438271E+001
  0.236277192522318E+000 -0.167442824241013E+001  0.208493435897200E+001
  0.236277192522318E+000 -0.171630312796922E+001  0.208743009014633E+001
  0.236277192522318E+000 -0.185915924903245E+001  0.209605588621205E+001
  0.236277192522318E+000 -0.270322968360276E+001  0.215181312144399E+001
  0.236277192522318E+000 -0.297011091109605E+001  0.217196723405825E+001
  0.236277192522318E+000 -0.322036625739427E+001  0.219254854991133E+001
  0.236277192522318E+000 -0.352389408942552E+001  0.222041066412326E+001
  0.236277192522318E+000 -0.354632450934739E+001  0.222262403349404E+001
  0.236277192522318E+000 -0.391435958739610E+001  0.226289504129116E+001
  0.236277192522318E+000 -0.392121579047532E+001  0.226372830718123E+001
  0.236277192522318E+000 -0.395196344252915E+001  0.226750897455776E+001
  0.236277192522318E+000 -0.406896616813035E+001  0.228260599417947E+001
  0.236277192522318E+000 -0.408726860877366E+001  0.228507678784075E+001
  0.236277192522318E+000 -0.410407425757737E+001  0.228737355740716E+001
  0.236277192522318E+000 -0.411917068358750E+001  0.228946078961326E+001
  0.236277192522318E+000 -0.416803743239732E+001  0.229637645501798E+001
  0.236277192522318E+000 -0.419203020926805E+001  0.229986350972875E+001
  0.236277192522318E+000 -0.419914795752854E+001  0.230091114038248E+001
  0.236277192522318E+000 -0.423397065993638E+001  0.230611754498330E+001
  0.236277192522318E+000 -0.423709680434556E+001  0.230659267051701E+001
  0.236277192522318E+000 -0.428190948363633E+001  0.231352775354836E+001
  0.236277192522318E+000 -0.430146600600572E+001  0.231663440276778E+001
  0.236277192522318E+000 -0.430457713004441E+001  0.231713178241701E+001
  0.236277192522318E+000 -0.433363272544236E+001  0.232185908962714E+001
  0.236277192522318E+000 -0.438552643653245E+001  0.233060219737789E+001
  0.236277192522318E+000 -0.438586975928636E+001  0.233066199194481E+001
  0.236277192522318E+000 -0.448952152129502E+001  0.234946148321974E+001
  0.236277192522318E+000 -0.452104045745225E+001  0.235557673730280E+001
  0.236277192522318E+000 -0.453616644736619E+001  0.235858648169780E+001
  0.236277192522318E+000 -0.455328394767137E+001  0.236205244790144E+001
  0.236277192522318E+000 -0.455993487235398E+001  0.236341755864320E+001
  0.236277192522318E+000 -0.460990907546372E+001  0.237401483143914E+001
  0.236277192522318E+000 -0.463367273207994E+001  0.237928007692243E+001
  0.236277192522318E+000 -0.465700675841661E+001  0.238460832810620E+001
  0.236277192522318E+000 -0.465924550887437E+001  0.238512827037766E+001
  0.236277192522318E+000 -0.468660261031480E+001  0.239160331681611E+001
  0.236277192522318E+000 -0.469535996314378E+001  0.239372822603888E+001
  0.236277192522318E+000 -0.470757390853257E+001  0.239673445537586E+001
  0.236277192522318E+000 -0.473893739577622E+001  0.240470575243455E+001
  0.236277192522318E+000 -0.475184680816026E+001  0.240809515926568E+001
  0.236277192522318E+000 -0.476191903945298E+001  0.241078836842060E+001
  0.236277192522318E+000 -0.477041651603074E+001  0.241309376820065E+001
  0.236277192522318E+000 -0.482194854613633E+001  0.242780131703419E+001
  0.236277192522318E+000 -0.484618307944627E+001  0.243520067385054E+001
  0.236277192522318E+000 -0.485874726172776E+001  0.243917564506594E+001
  0.236277192522318E+000 -0.486397864219041E+001  0.244085977766969E+001
  0.236277192522318E+000 -0.487925030585618E+001  0.244588182317757E+001
  0.236277192522318E+000 -0.491690422889085E+001  0.245901165093422E+001
  0.236277192522318E+000 -0.491892792579026E+001  0.245975212164576E+001
  0.236277192522318E+000 -0.493283821936936E+001  0.246493099624382E+001
  0.236277192522318E+000 -0.496152188178391E+001  0.247623187824278E+001
  0.236277192522318E+000 -0.497916437980027E+001  0.248366201511486E+001
  0.236277192522318E+000 -0.498184944983811E+001  0.248482777105458E+001
  0.236277192522318E+000 -0.498469092246385E+001  0.248607485785109E+001
  0.236277192522318E+000 -0.498624207373948E+001  0.248675877277318E+001
  0.236277192522318E+000 -0.500494076606126E+001  0.249530705458082E+001
  0.236277192522318E+000 -0.501895405646653E+001  0.250210441320455E+001
  0.236277192522318E+000 -0.502911640998216E+001  0.250727639378798E+001
  0.236277192522318E+000 -0.503489186164231E+001  0.251031864464682E+001
  0.236277192522318E+000 -0.503827645179124E+001  0.251213654245294E+001
  0.236277192522318E+000 -0.506421973105760E+001  0.252713212305849E+001
  0.236277192522318E+000 -0.506505324241014E+001  0.252765023668081E+001
  0.236277192522318E+000 -0.506885315772386E+001  0.253004230778352E+001
  0.236277192522318E+000 -0.507382275458665E+001  0.253325646348564E+001
  0.236277192522318E+000 -0.507404543753953E+001  0.253340365102161E+001
  0.236277192522318E+000 -0.507940651770921E+001  0.253699054612678E+001
  0.236277192522318E+000 -0.507982994910569E+001  0.253728051699825E+001
  0.236277192522318E+000 -0.508597161170335E+001  0.254157319133714E+001
  0.236277192522318E+000 -0.508776070472093E+001  0.275110935508360E+001
  0.236277192522318E+000 -0.509358860846848E+001  0.254718286559219E+001
  0.236277192522318E+000 -0.509560801383348E+001  0.254873034795009E+001
  0.236277192522318E+000 -0.509801461097093E+001  0.274279804053370E+001
  0.236277192522318E+000 -0.509885384436936E+001  0.255127503033494E+001
  0.236277192522318E+000 -0.510402991172166E+001  0.255548971417949E+001
  0.236277192522318E+000 -0.510530878897996E+001  0.255656479396796E+001
  0.236277192522318E+000 -0.510547615882249E+001  0.273629061944878E+001
  0.236277192522318E+000 -0.510613371726365E+001  0.255726716581480E+001
  0.236277192522318E+000 -0.510642840262742E+001  0.255751897803212E+001
  0.236277192522318E+000 -0.510645462867112E+001  0.255754209554721E+001
  0.236277192522318E+000 -0.510760189887376E+001  0.273435320552331E+001
  0.236277192522318E+000 -0.511104466315598E+001  0.256156666153029E+001
  0.236277192522318E+000 -0.511258723136277E+001  0.272963646495798E+001
  0.236277192522318E+000 -0.511317469474168E+001  0.272906447990410E+001
  0.236277192522318E+000 -0.511558415290208E+001  0.256577336186625E+001
  0.236277192522318E+000 -0.511615540381761E+001  0.272609876186356E+001
  0.236277192522318E+000 -0.511739899512620E+001  0.272483018785551E+001
  0.236277192522318E+000 -0.512061859961839E+001  0.257072567232730E+001
  0.236277192522318E+000 -0.512117173072190E+001  0.272085233725603E+001
  0.236277192522318E+000 -0.512360121604295E+001  0.271817960776406E+001
  0.236277192522318E+000 -0.512444092627854E+001  0.257472953251462E+001
  0.236277192522318E+000 -0.512466503974290E+001  0.271697611956164E+001
  0.236277192522318E+000 -0.512478949424119E+001  0.271683666509636E+001
  0.236277192522318E+000 -0.512608506080003E+001  0.257653199318999E+001
  0.236277192522318E+000 -0.512691046592088E+001  0.271437627207712E+001
  0.236277192522318E+000 -0.512771536704392E+001  0.271342067461118E+001
  0.236277192522318E+000 -0.512805868979783E+001  0.257876204900290E+001
  0.236277192522318E+000 -0.512828423377366E+001  0.257901867933620E+001
  0.236277192522318E+000 -0.512883068915696E+001  0.271207330961285E+001
  0.236277192522318E+000 -0.513034083243699E+001  0.271020641583331E+001
  0.236277192522318E+000 -0.513048817511888E+001  0.258161514506474E+001
  0.236277192522318E+000 -0.513214852210374E+001  0.258364319908125E+001
  0.236277192522318E+000 -0.513242842551560E+001  0.270753462618087E+001
  0.236277192522318E+000 -0.513291336890550E+001  0.270689696696861E+001
  0.236277192522318E+000 -0.513328816291184E+001  0.258508072088870E+001
  0.236277192522318E+000 -0.513667942878098E+001  0.258957958619330E+001
  0.236277192522318E+000 -0.513669850226731E+001  0.270168962283652E+001
  0.236277192522318E+000 -0.513744427558274E+001  0.259065004306262E+001
  0.236277192522318E+000 -0.513772274848313E+001  0.270019811297625E+001
  0.236277192522318E+000 -0.513910748359056E+001  0.269811579463924E+001
  0.236277192522318E+000 -0.513928963538499E+001  0.259331949674902E+001
  0.236277192522318E+000 -0.514010311957688E+001  0.269656803090854E+001
  0.236277192522318E+000 -0.514101721640916E+001  0.259595851978492E+001
  0.236277192522318E+000 -0.514118744727464E+001  0.259622381821882E+001
  0.236277192522318E+000 -0.514185549613328E+001  0.259729521675007E+001
  0.236277192522318E+000 -0.514398266669602E+001  0.269003411753060E+001
  0.236277192522318E+000 -0.514482285376878E+001  0.268849667588555E+001
  0.236277192522318E+000 -0.514661003943772E+001  0.268502270608307E+001
  0.236277192522318E+000 -0.514665343161912E+001  0.268493575360976E+001
  0.236277192522318E+000 -0.514703013297410E+001  0.268416772212980E+001
  0.236277192522318E+000 -0.514794518348069E+001  0.268222227354245E+001
  0.236277192522318E+000 -0.514882304068894E+001  0.268026232626986E+001
  0.236277192522318E+000 -0.514909150000901E+001  0.261098164224174E+001
  0.236277192522318E+000 -0.514909150000901E+001  0.261098532101689E+001
  0.236277192522318E+000 -0.514917113181443E+001  0.267944864224558E+001
  0.236277192522318E+000 -0.514970185157151E+001  0.261240294237205E+001
  0.236277192522318E+000 -0.514989926215501E+001  0.261288207108347E+001
  0.236277192522318E+000 -0.515022827979417E+001  0.267687391359399E+001
  0.236277192522318E+000 -0.515040280219407E+001  0.267642752234533E+001
  0.236277192522318E+000 -0.515158535834641E+001  0.267322793808435E+001
  0.236277192522318E+000 -0.515173651572557E+001  0.261768827786579E+001
  0.236277192522318E+000 -0.515279414054246E+001  0.262089020514225E+001
  0.236277192522318E+000 -0.515282704230638E+001  0.262100143828519E+001
  0.236277192522318E+000 -0.515313412543626E+001  0.266838223817497E+001
  0.236277192522318E+000 -0.426002979278564E+001  0.262372017511866E+001
  0.236277192522318E+000 -0.426006317138672E+001  0.262384134509735E+001
  0.236277192522318E+000 -0.426056957244873E+001  0.262579967394422E+001
  0.236277192522318E+000 -0.426121282577515E+001  0.262863559835457E+001
  0.236277192522318E+000 -0.426152086257935E+001  0.263017557737377E+001
  0.236277192522318E+000 -0.426254463195801E+001  0.263727006473416E+001
  0.236277192522318E+000 -0.426263141632080E+001  0.263817318929939E+001
  0.236277192522318E+000 -0.426270484924316E+001  0.263909151899438E+001
