  0.152823111049906E+000  0.258982654329975E+001  0.188971970418412E+001
  0.152823111049906E+000  0.459935470339496E+001  0.563995707434086E+001
  0.152823111049906E+000  0.690914149996479E+001  0.723661856793181E+001
  0.152823111049906E+000  0.214881416079242E+001  0.459652458653405E+001
  0.152823111049906E+000  0.174444766756733E+001  0.449305030191165E+001
  0.152823111049906E+000  0.168374820467670E+001  0.447817395954610E+001
  0.152823111049906E+000  0.963014562098575E+000  0.431154519968916E+001
  0.152823111049906E+000  0.683447797267032E+000  0.425080250362847E+001
  0.152823111049906E+000  0.284968812434268E+000  0.416689497720273E+001
  0.152823111049906E+000 -0.459833550767180E-001  0.409904531806373E+001
  0.152823111049906E+000 -0.780935693101165E-001  0.409253513116908E+001
  0.152823111049906E+000 -0.839579622776913E+000  0.201376713174292E+001
  0.152823111049906E+000 -0.958362619908261E+000  0.391732554427109E+001
  0.152823111049906E+000 -0.111987118008893E+001  0.388561571738073E+001
  0.152823111049906E+000 -0.123168663266461E+001  0.386369555006547E+001
  0.152823111049906E+000 -0.433373812917035E+001  0.324697129969094E+001
  0.152823111049906E+000 -0.143503479245465E+001  0.382388239643994E+001
  0.152823111049906E+000 -0.153902534726422E+001  0.380353340444859E+001
  0.152823111049906E+000 -0.211533169034283E+001  0.369058457166227E+001
  0.152823111049906E+000 -0.218421558621685E+001  0.367704136928195E+001
  0.152823111049906E+000 -0.253221420529644E+001  0.360844642250529E+001
  0.152823111049906E+000 -0.265848163846295E+001  0.208896909522766E+001
  0.152823111049906E+000 -0.273253874066632E+001  0.356879184745049E+001
  0.152823111049906E+000 -0.284423927548687E+001  0.354662397675065E+001
  0.152823111049906E+000 -0.288772730115216E+001  0.353798135836497E+001
  0.152823111049906E+000 -0.292414860013287E+001  0.353074121589676E+001
  0.152823111049906E+000 -0.295338968518536E+001  0.352492472310271E+001
  0.152823111049906E+000 -0.431163148167889E+001  0.325150155029933E+001
  0.152823111049906E+000 -0.299955896619122E+001  0.351573380822685E+001
  0.152823111049906E+000 -0.340612558606427E+001  0.212344852387474E+001
  0.152823111049906E+000 -0.343283371213238E+001  0.342916717185580E+001
  0.152823111049906E+000 -0.424023632291119E+001  0.217077833164724E+001
  0.152823111049906E+000 -0.361453727963726E+001  0.339269452077299E+001
  0.152823111049906E+000 -0.389482597592633E+001  0.214933990371370E+001
  0.152823111049906E+000 -0.422163180592816E+001  0.326989480062749E+001
  0.152823111049906E+000 -0.393670276883404E+001  0.332774606199236E+001
  0.152823111049906E+000 -0.393842081311505E+001  0.332739890585266E+001
  0.152823111049906E+000 -0.396971420529644E+001  0.332106434012670E+001
  0.152823111049906E+000 -0.402607445004742E+001  0.330965053449343E+001
  0.152823111049906E+000 -0.402687601331036E+001  0.330948672956649E+001
  0.152823111049906E+000 -0.408462528470318E+001  0.329777211476878E+001
  0.152823111049906E+000 -0.412615350964825E+001  0.328933430234856E+001
  0.152823111049906E+000 -0.418774060490887E+001  0.327680342245454E+001
  0.152823111049906E+000 -0.411507478168654E+001  0.324450432886535E+001
  0.152823111049906E+000 -0.413830652645277E+001  0.323973677007886E+001
  0.152823111049906E+000 -0.417537656238722E+001  0.323211714313784E+001
  0.152823111049906E+000 -0.417785420826124E+001  0.323160400776854E+001
  0.152823111049906E+000 -0.437303843906569E+001  0.319116081179322E+001
  0.152823111049906E+000 -0.442221274784254E+001  0.318086879563448E+001
  0.152823111049906E+000 -0.448217931202101E+001  0.316825098554808E+001
  0.152823111049906E+000 -0.449709239414381E+001  0.316509763959855E+001
  0.152823111049906E+000 -0.450983491352247E+001  0.316240078369942E+001
  0.152823111049906E+000 -0.451407733371901E+001  0.316150309850179E+001
  0.152823111049906E+000 -0.452556434086012E+001  0.315906617185718E+001
  0.152823111049906E+000 -0.454854550769972E+001  0.315417934515015E+001
  0.152823111049906E+000 -0.458550324848341E+001  0.314629244387448E+001
  0.152823111049906E+000 -0.462163653782057E+001  0.313853954246723E+001
  0.152823111049906E+000 -0.462978854587721E+001  0.313678259457953E+001
  0.152823111049906E+000 -0.467320933750319E+001  0.312739880374248E+001
  0.152823111049906E+000 -0.467354407718824E+001  0.312732583908769E+001
  0.152823111049906E+000 -0.471952834537672E+001  0.311730363295120E+001
  0.152823111049906E+000 -0.480250993183302E+001  0.309898696216399E+001
  0.152823111049906E+000 -0.480287685802626E+001  0.309890639115280E+001
  0.152823111049906E+000 -0.480684724262404E+001  0.309802058577017E+001
  0.152823111049906E+000 -0.490308061054396E+001  0.307629675030220E+001
  0.152823111049906E+000 -0.491195979526686E+001  0.307426368567505E+001
  0.152823111049906E+000 -0.492261710575270E+001  0.307181516954307E+001
  0.152823111049906E+000 -0.493230166843580E+001  0.306958615003553E+001
  0.152823111049906E+000 -0.499164452961134E+001  0.305575786765628E+001
  0.152823111049906E+000 -0.501369562557386E+001  0.305054493225445E+001
  0.152823111049906E+000 -0.504654183796095E+001  0.304270027784838E+001
  0.152823111049906E+000 -0.505745521000074E+001  0.304007081361424E+001
  0.152823111049906E+000 -0.508399072101759E+001  0.303362590195221E+001
  0.152823111049906E+000 -0.508491173198866E+001  0.303340143477822E+001
  0.152823111049906E+000 -0.518727722576307E+001  0.300774540173141E+001
  0.152823111049906E+000 -0.518920150211500E+001  0.300725047989437E+001
  0.152823111049906E+000 -0.520656576564955E+001  0.300274880278350E+001
  0.152823111049906E+000 -0.522964516094374E+001  0.299669142215552E+001
  0.152823111049906E+000 -0.525326791217970E+001  0.299039849404816E+001
  0.152823111049906E+000 -0.525936308315443E+001  0.298875597086956E+001
  0.152823111049906E+000 -0.529566612651991E+001  0.297883078315655E+001
  0.152823111049906E+000 -0.529573669841932E+001  0.297881336719566E+001
  0.152823111049906E+000 -0.531477013042616E+001  0.297349558565558E+001
  0.152823111049906E+000 -0.534694972446608E+001  0.296431002754488E+001
  0.152823111049906E+000 -0.536577001026320E+001  0.295881290753498E+001
  0.152823111049906E+000 -0.540256038120436E+001  0.294776253393359E+001
  0.152823111049906E+000 -0.540596523693251E+001  0.294671638698791E+001
  0.152823111049906E+000 -0.543580975940870E+001  0.293738307560587E+001
  0.152823111049906E+000 -0.544848552158522E+001  0.243988145685227E+001
  0.152823111049906E+000 -0.545835915020155E+001  0.244514138294170E+001
  0.152823111049906E+000 -0.548240294864821E+001  0.245819448766851E+001
  0.152823111049906E+000 -0.548427930286574E+001  0.245922815081279E+001
  0.152823111049906E+000 -0.548510876110243E+001  0.245968571861085E+001
  0.152823111049906E+000 -0.548550239017653E+001  0.245990254546124E+001
  0.152823111049906E+000 -0.549639549663710E+001  0.246595120720193E+001
  0.152823111049906E+000 -0.550839891842054E+001  0.247269987272480E+001
  0.152823111049906E+000 -0.550965919902968E+001  0.247341380252474E+001
  0.152823111049906E+000 -0.551679292133497E+001  0.291009312680170E+001
  0.152823111049906E+000 -0.552261557987379E+001  0.248080155930428E+001
  0.152823111049906E+000 -0.552618709018873E+001  0.248285904713017E+001
  0.152823111049906E+000 -0.553046813419508E+001  0.248533233080117E+001
  0.152823111049906E+000 -0.555380716732191E+001  0.289636405982565E+001
  0.152823111049906E+000 -0.555474033764052E+001  0.249959278759123E+001
  0.152823111049906E+000 -0.555474629810499E+001  0.289600400092559E+001
  0.152823111049906E+000 -0.557427015712904E+001  0.288832319144320E+001
  0.152823111049906E+000 -0.557488980701613E+001  0.288807338987416E+001
  0.152823111049906E+000 -0.558407750538038E+001  0.288433581416802E+001
  0.152823111049906E+000 -0.558537116459059E+001  0.251820134095254E+001
  0.152823111049906E+000 -0.559618726185011E+001  0.252495957879919E+001
  0.152823111049906E+000 -0.559687676838087E+001  0.252539391991751E+001
  0.152823111049906E+000 -0.560022726467299E+001  0.287755471336534E+001
  0.152823111049906E+000 -0.560184112003492E+001  0.252853825893045E+001
  0.152823111049906E+000 -0.560860076358961E+001  0.287392319082946E+001
  0.152823111049906E+000 -0.561530461719679E+001  0.253719374562961E+001
  0.152823111049906E+000 -0.561566224506544E+001  0.253742694224693E+001
  0.152823111049906E+000 -0.562471476009535E+001  0.286668767144716E+001
  0.152823111049906E+000 -0.562620034626173E+001  0.254435222061065E+001
  0.152823111049906E+000 -0.562766185215162E+001  0.286532813473098E+001
  0.152823111049906E+000 -0.562826576641249E+001  0.286504530619004E+001
  0.152823111049906E+000 -0.563310065677809E+001  0.254896624399550E+001
  0.152823111049906E+000 -0.563877025058912E+001  0.286007213018676E+001
  0.152823111049906E+000 -0.564589062145399E+001  0.255769818246942E+001
  0.152823111049906E+000 -0.564674320629286E+001  0.285617146835457E+001
  0.152823111049906E+000 -0.564766850879835E+001  0.255892907364908E+001
  0.152823111049906E+000 -0.564788499286818E+001  0.255907831431481E+001
  0.152823111049906E+000 -0.564845815113234E+001  0.285531990883653E+001
  0.152823111049906E+000 -0.564937510898756E+001  0.256011619899397E+001
  0.152823111049906E+000 -0.565570154598402E+001  0.285165355446530E+001
  0.152823111049906E+000 -0.565974870136427E+001  0.256746210146503E+001
  0.152823111049906E+000 -0.566021933963942E+001  0.284931261400018E+001
  0.152823111049906E+000 -0.566467299869703E+001  0.257102113018740E+001
  0.152823111049906E+000 -0.566594806125807E+001  0.257195040211586E+001
  0.152823111049906E+000 -0.566889467647719E+001  0.284469266627530E+001
  0.152823111049906E+000 -0.567881765773939E+001  0.283918117699295E+001
  0.152823111049906E+000 -0.568614640644240E+001  0.258719887703293E+001
  0.152823111049906E+000 -0.569247069767164E+001  0.259220164443812E+001
  0.152823111049906E+000 -0.569521108081984E+001  0.282944321954029E+001
  0.152823111049906E+000 -0.569769492557692E+001  0.282788522604917E+001
  0.152823111049906E+000 -0.570076051166700E+001  0.259897015177018E+001
  0.152823111049906E+000 -0.570751729419874E+001  0.260468080350988E+001
  0.152823111049906E+000 -0.570798030307936E+001  0.282117896181976E+001
  0.152823111049906E+000 -0.571146550586866E+001  0.281879651947490E+001
  0.152823111049906E+000 -0.571861043384718E+001  0.281371309552602E+001
  0.152823111049906E+000 -0.571980252674269E+001  0.281283309366405E+001
  0.152823111049906E+000 -0.571999230793165E+001  0.261579699003056E+001
  0.152823111049906E+000 -0.572238841465162E+001  0.261803235496308E+001
  0.152823111049906E+000 -0.572516599109816E+001  0.262066667263599E+001
  0.152823111049906E+000 -0.572539296558546E+001  0.262088453042749E+001
  0.152823111049906E+000 -0.572770276477980E+001  0.262312323034770E+001
  0.152823111049906E+000 -0.572965445926832E+001  0.262504775004840E+001
  0.152823111049906E+000 -0.573139968326735E+001  0.262679040120918E+001
  0.152823111049906E+000 -0.573157468250441E+001  0.280365412580227E+001
  0.152823111049906E+000 -0.573343387058424E+001  0.280210900675174E+001
  0.152823111049906E+000 -0.573445144107985E+001  0.262990269172341E+001
  0.152823111049906E+000 -0.573525109699415E+001  0.280055965181680E+001
  0.152823111049906E+000 -0.573613038471388E+001  0.263164702065637E+001
  0.152823111049906E+000 -0.573694196155714E+001  0.279909298368674E+001
  0.152823111049906E+000 -0.573721614292311E+001  0.279885258826296E+001
  0.152823111049906E+000 -0.573740592411207E+001  0.279868363023465E+001
  0.152823111049906E+000 -0.573744931629347E+001  0.263304437150562E+001
  0.152823111049906E+000 -0.573867669513868E+001  0.279756038784502E+001
  0.152823111049906E+000 -0.524277964769890E+001  0.277819984272233E+001
  0.152823111049906E+000 -0.524887124239494E+001  0.277024642336238E+001
  0.152823111049906E+000 -0.525452891527702E+001  0.276142749785601E+001
  0.152823111049906E+000 -0.525565568148186E+001  0.275943136520241E+001
  0.152823111049906E+000 -0.525655261217644E+001  0.275775062512698E+001
  0.152823111049906E+000 -0.525900832354118E+001  0.275271955841086E+001
  0.152823111049906E+000 -0.526016608416130E+001  0.275004609701562E+001
  0.152823111049906E+000 -0.526025954424431E+001  0.274981423407707E+001
  0.152823111049906E+000 -0.472211104742045E+001  0.271341905803460E+001
  0.152823111049906E+000 -0.472220450750346E+001  0.271469427928473E+001
