  0.175523547877628E+000  0.273271905205979E+001  0.188971970418412E+001
  0.175523547877628E+000  0.474224721215501E+001  0.563995707434086E+001
  0.175523547877628E+000  0.705203400872483E+001  0.723661856793181E+001
  0.175523547877628E+000  0.229170666955247E+001  0.459652458653405E+001
  0.175523547877628E+000  0.188734017632737E+001  0.449305030191165E+001
  0.175523547877628E+000  0.182664071343675E+001  0.447817395954610E+001
  0.175523547877628E+000  0.110590707085862E+001  0.431154519968916E+001
  0.175523547877628E+000  0.826340306027078E+000  0.425080250362847E+001
  0.175523547877628E+000  0.427861321194314E+000  0.416689497720273E+001
  0.175523547877628E+000  0.969091536833274E-001  0.409904531806373E+001
  0.175523547877628E+000  0.647989394499290E-001  0.409253513116908E+001
  0.175523547877628E+000 -0.696687114016868E+000  0.201376713174292E+001
  0.175523547877628E+000 -0.815470111148216E+000  0.391732554427109E+001
  0.175523547877628E+000 -0.976978671328880E+000  0.388561571738073E+001
  0.175523547877628E+000 -0.108879412390456E+001  0.386369555006547E+001
  0.175523547877628E+000 -0.419084562041030E+001  0.324697129969094E+001
  0.175523547877628E+000 -0.129214228369460E+001  0.382388239643994E+001
  0.175523547877628E+000 -0.139613283850417E+001  0.380353340444859E+001
  0.175523547877628E+000 -0.197243918158279E+001  0.369058457166227E+001
  0.175523547877628E+000 -0.204132307745681E+001  0.367704136928195E+001
  0.175523547877628E+000 -0.238932169653640E+001  0.360844642250529E+001
  0.175523547877628E+000 -0.251558912970290E+001  0.208896909522766E+001
  0.175523547877628E+000 -0.258964623190627E+001  0.356879184745049E+001
  0.175523547877628E+000 -0.270134676672683E+001  0.354662397675065E+001
  0.175523547877628E+000 -0.274483479239211E+001  0.353798135836497E+001
  0.175523547877628E+000 -0.278125609137282E+001  0.353074121589676E+001
  0.175523547877628E+000 -0.281049717642532E+001  0.352492472310271E+001
  0.175523547877628E+000 -0.416873897291885E+001  0.325150155029933E+001
  0.175523547877628E+000 -0.285666645743117E+001  0.351573380822685E+001
  0.175523547877628E+000 -0.326323307730422E+001  0.212344852387474E+001
  0.175523547877628E+000 -0.328994120337234E+001  0.342916717185580E+001
  0.175523547877628E+000 -0.409734381415115E+001  0.217077833164724E+001
  0.175523547877628E+000 -0.347164477087722E+001  0.339269452077299E+001
  0.175523547877628E+000 -0.375193346716628E+001  0.214933990371370E+001
  0.175523547877628E+000 -0.407873929716811E+001  0.326989480062749E+001
  0.175523547877628E+000 -0.379381026007400E+001  0.332774606199236E+001
  0.175523547877628E+000 -0.379552830435500E+001  0.332739890585266E+001
  0.175523547877628E+000 -0.382682169653640E+001  0.332106434012670E+001
  0.175523547877628E+000 -0.388318194128738E+001  0.330965053449343E+001
  0.175523547877628E+000 -0.388398350455032E+001  0.330948672956649E+001
  0.175523547877628E+000 -0.394173277594314E+001  0.329777211476878E+001
  0.175523547877628E+000 -0.398326100088821E+001  0.328933430234856E+001
  0.175523547877628E+000 -0.404484809614883E+001  0.327680342245454E+001
  0.175523547877628E+000 -0.397218227292649E+001  0.324450432886535E+001
  0.175523547877628E+000 -0.399541401769273E+001  0.323973677007886E+001
  0.175523547877628E+000 -0.403248405362717E+001  0.323211714313784E+001
  0.175523547877628E+000 -0.403496169950120E+001  0.323160400776854E+001
  0.175523547877628E+000 -0.423014593030564E+001  0.319116081179322E+001
  0.175523547877628E+000 -0.427932023908250E+001  0.318086879563448E+001
  0.175523547877628E+000 -0.433928680326096E+001  0.316825098554808E+001
  0.175523547877628E+000 -0.435419988538377E+001  0.316509763959855E+001
  0.175523547877628E+000 -0.436694240476243E+001  0.316240078369942E+001
  0.175523547877628E+000 -0.437118482495896E+001  0.316150309850179E+001
  0.175523547877628E+000 -0.438267183210007E+001  0.315906617185718E+001
  0.175523547877628E+000 -0.440565299893967E+001  0.315417934515015E+001
  0.175523547877628E+000 -0.444261073972337E+001  0.314629244387448E+001
  0.175523547877628E+000 -0.447874402906052E+001  0.313853954246723E+001
  0.175523547877628E+000 -0.448689603711716E+001  0.313678259457953E+001
  0.175523547877628E+000 -0.453031682874314E+001  0.312739880374248E+001
  0.175523547877628E+000 -0.453065156842820E+001  0.312732583908769E+001
  0.175523547877628E+000 -0.457663583661668E+001  0.311730363295120E+001
  0.175523547877628E+000 -0.465961742307297E+001  0.309898696216399E+001
  0.175523547877628E+000 -0.465998434926621E+001  0.309890639115280E+001
  0.175523547877628E+000 -0.466395473386399E+001  0.309802058577017E+001
  0.175523547877628E+000 -0.476018810178391E+001  0.307629675030220E+001
  0.175523547877628E+000 -0.476906728650681E+001  0.307426368567505E+001
  0.175523547877628E+000 -0.477972459699265E+001  0.307181516954307E+001
  0.175523547877628E+000 -0.478940915967576E+001  0.306958615003553E+001
  0.175523547877628E+000 -0.484875202085130E+001  0.305575786765628E+001
  0.175523547877628E+000 -0.487080311681382E+001  0.305054493225445E+001
  0.175523547877628E+000 -0.490364932920090E+001  0.304270027784838E+001
  0.175523547877628E+000 -0.491456270124070E+001  0.304007081361424E+001
  0.175523547877628E+000 -0.494109821225755E+001  0.303362590195221E+001
  0.175523547877628E+000 -0.494201922322861E+001  0.303340143477822E+001
  0.175523547877628E+000 -0.504438471700303E+001  0.300774540173141E+001
  0.175523547877628E+000 -0.504630899335496E+001  0.300725047989437E+001
  0.175523547877628E+000 -0.506367325688950E+001  0.300274880278350E+001
  0.175523547877628E+000 -0.508675265218369E+001  0.299669142215552E+001
  0.175523547877628E+000 -0.511037540341965E+001  0.299039849404816E+001
  0.175523547877628E+000 -0.511647057439439E+001  0.298875597086956E+001
  0.175523547877628E+000 -0.515277361775986E+001  0.297883078315655E+001
  0.175523547877628E+000 -0.515284418965928E+001  0.297881336719566E+001
  0.175523547877628E+000 -0.517187762166611E+001  0.297349558565558E+001
  0.175523547877628E+000 -0.520405721570603E+001  0.296431002754488E+001
  0.175523547877628E+000 -0.522287750150315E+001  0.295881290753498E+001
  0.175523547877628E+000 -0.525966787244431E+001  0.294776253393359E+001
  0.175523547877628E+000 -0.526307272817246E+001  0.294671638698791E+001
  0.175523547877628E+000 -0.529291725064866E+001  0.293738307560587E+001
  0.175523547877628E+000 -0.530559301282517E+001  0.243988145685227E+001
  0.175523547877628E+000 -0.531546664144151E+001  0.244514138294170E+001
  0.175523547877628E+000 -0.533951043988816E+001  0.245819448766851E+001
  0.175523547877628E+000 -0.534138679410569E+001  0.245922815081279E+001
  0.175523547877628E+000 -0.534221625234238E+001  0.245968571861085E+001
  0.175523547877628E+000 -0.534260988141648E+001  0.245990254546124E+001
  0.175523547877628E+000 -0.535350298787705E+001  0.246595120720193E+001
  0.175523547877628E+000 -0.536550640966050E+001  0.247269987272480E+001
  0.175523547877628E+000 -0.536676669026963E+001  0.247341380252474E+001
  0.175523547877628E+000 -0.537390041257493E+001  0.291009312680170E+001
  0.175523547877628E+000 -0.537972307111375E+001  0.248080155930428E+001
  0.175523547877628E+000 -0.538329458142869E+001  0.248285904713017E+001
  0.175523547877628E+000 -0.538757562543504E+001  0.248533233080117E+001
  0.175523547877628E+000 -0.541091465856187E+001  0.289636405982565E+001
  0.175523547877628E+000 -0.541184782888047E+001  0.249959278759123E+001
  0.175523547877628E+000 -0.541185378934495E+001  0.289600400092559E+001
  0.175523547877628E+000 -0.543137764836900E+001  0.288832319144320E+001
  0.175523547877628E+000 -0.543199729825608E+001  0.288807338987416E+001
  0.175523547877628E+000 -0.544118499662034E+001  0.288433581416802E+001
  0.175523547877628E+000 -0.544247865583054E+001  0.251820134095254E+001
  0.175523547877628E+000 -0.545329475309006E+001  0.252495957879919E+001
  0.175523547877628E+000 -0.545398425962083E+001  0.252539391991751E+001
  0.175523547877628E+000 -0.545733475591294E+001  0.287755471336534E+001
  0.175523547877628E+000 -0.545894861127488E+001  0.252853825893045E+001
  0.175523547877628E+000 -0.546570825482957E+001  0.287392319082946E+001
  0.175523547877628E+000 -0.547241210843674E+001  0.253719374562961E+001
  0.175523547877628E+000 -0.547276973630540E+001  0.253742694224693E+001
  0.175523547877628E+000 -0.548182225133530E+001  0.286668767144716E+001
  0.175523547877628E+000 -0.548330783750169E+001  0.254435222061065E+001
  0.175523547877628E+000 -0.548476934339158E+001  0.286532813473098E+001
  0.175523547877628E+000 -0.548537325765244E+001  0.286504530619004E+001
  0.175523547877628E+000 -0.549020814801804E+001  0.254896624399550E+001
  0.175523547877628E+000 -0.549587774182908E+001  0.286007213018676E+001
  0.175523547877628E+000 -0.550299811269395E+001  0.255769818246942E+001
  0.175523547877628E+000 -0.550385069753281E+001  0.285617146835457E+001
  0.175523547877628E+000 -0.550477600003831E+001  0.255892907364908E+001
  0.175523547877628E+000 -0.550499248410813E+001  0.255907831431481E+001
  0.175523547877628E+000 -0.550556564237229E+001  0.285531990883653E+001
  0.175523547877628E+000 -0.550648260022752E+001  0.256011619899397E+001
  0.175523547877628E+000 -0.551280903722398E+001  0.285165355446530E+001
  0.175523547877628E+000 -0.551685619260422E+001  0.256746210146503E+001
  0.175523547877628E+000 -0.551732683087937E+001  0.284931261400018E+001
  0.175523547877628E+000 -0.552178048993699E+001  0.257102113018740E+001
  0.175523547877628E+000 -0.552305555249802E+001  0.257195040211586E+001
  0.175523547877628E+000 -0.552600216771714E+001  0.284469266627530E+001
  0.175523547877628E+000 -0.553592514897935E+001  0.283918117699295E+001
  0.175523547877628E+000 -0.554325389768235E+001  0.258719887703293E+001
  0.175523547877628E+000 -0.554957818891160E+001  0.259220164443812E+001
  0.175523547877628E+000 -0.555231857205979E+001  0.282944321954029E+001
  0.175523547877628E+000 -0.555480241681687E+001  0.282788522604917E+001
  0.175523547877628E+000 -0.555786800290696E+001  0.259897015177018E+001
  0.175523547877628E+000 -0.556462478543870E+001  0.260468080350988E+001
  0.175523547877628E+000 -0.556508779431931E+001  0.282117896181976E+001
  0.175523547877628E+000 -0.556857299710862E+001  0.281879651947490E+001
  0.175523547877628E+000 -0.557571792508713E+001  0.281371309552602E+001
  0.175523547877628E+000 -0.557691001798264E+001  0.281283309366405E+001
  0.175523547877628E+000 -0.557709979917161E+001  0.261579699003056E+001
  0.175523547877628E+000 -0.557949590589158E+001  0.261803235496308E+001
  0.175523547877628E+000 -0.558227348233811E+001  0.262066667263599E+001
  0.175523547877628E+000 -0.558250045682542E+001  0.262088453042749E+001
  0.175523547877628E+000 -0.558481025601975E+001  0.262312323034770E+001
  0.175523547877628E+000 -0.558676195050828E+001  0.262504775004840E+001
  0.175523547877628E+000 -0.558850717450730E+001  0.262679040120918E+001
  0.175523547877628E+000 -0.558868217374436E+001  0.280365412580227E+001
  0.175523547877628E+000 -0.559054136182420E+001  0.280210900675174E+001
  0.175523547877628E+000 -0.559155893231980E+001  0.262990269172341E+001
  0.175523547877628E+000 -0.559235858823411E+001  0.280055965181680E+001
  0.175523547877628E+000 -0.559323787595383E+001  0.263164702065637E+001
  0.175523547877628E+000 -0.559404945279710E+001  0.279909298368674E+001
  0.175523547877628E+000 -0.559432363416306E+001  0.279885258826296E+001
  0.175523547877628E+000 -0.559451341535203E+001  0.279868363023465E+001
  0.175523547877628E+000 -0.559455680753342E+001  0.263304437150562E+001
  0.175523547877628E+000 -0.559578418637864E+001  0.279756038784502E+001
  0.175523547877628E+000 -0.469180061654711E+001  0.264162113729277E+001
  0.175523547877628E+000 -0.469902708367968E+001  0.265037518384938E+001
  0.175523547877628E+000 -0.470329954461718E+001  0.265601525243634E+001
  0.175523547877628E+000 -0.471001579599047E+001  0.266588070215394E+001
  0.175523547877628E+000 -0.471249821023608E+001  0.266995315843136E+001
  0.175523547877628E+000 -0.472005464868212E+001  0.268483355312979E+001
  0.175523547877628E+000 -0.472147991494799E+001  0.268835149777414E+001
  0.175523547877628E+000 -0.409642362594604E+001  0.269219922371109E+001
