  0.329811487059801E-001  0.200026413786040E+000  0.556383548092060E+001
  0.329811487059801E-001  0.245928189146148E+000  0.558846938192257E+001
  0.329811487059801E-001 -0.429581310410037E+001  0.212610833171242E+001
  0.329811487059801E-001 -0.425511672157779E+001  0.212341844352750E+001
  0.329811487059801E-001  0.270123090444766E+001  0.686679043286005E+001
  0.329811487059801E-001 -0.418329264778628E+001  0.211872380128633E+001
  0.329811487059801E-001 -0.390303637642398E+001  0.210099443380610E+001
  0.329811487059801E-001 -0.487680533540620E+000  0.519408694714710E+001
  0.329811487059801E-001 -0.518626596588626E+001  0.219276087148836E+001
  0.329811487059801E-001 -0.171955277580752E+001  0.198109874190030E+001
  0.329811487059801E-001 -0.184749962944522E+001  0.198750915587843E+001
  0.329811487059801E-001 -0.235222913879885E+001  0.201346975521455E+001
  0.329811487059801E-001 -0.241778471130862E+001  0.201691988461351E+001
  0.329811487059801E-001 -0.267565657753482E+001  0.203066972350751E+001
  0.329811487059801E-001 -0.382597925323977E+001  0.209626312438271E+001
  0.329811487059801E-001 -0.363785197395816E+001  0.208493435897200E+001
  0.329811487059801E-001 -0.367972685951724E+001  0.208743009014633E+001
  0.329811487059801E-001 -0.382258298058047E+001  0.209605588621205E+001
  0.329811487059801E-001 -0.466665341515078E+001  0.215181312144399E+001
  0.329811487059801E-001 -0.493353464264407E+001  0.217196723405825E+001
  0.329811487059801E-001 -0.518378998894229E+001  0.219254854991133E+001
  0.329811487059801E-001 -0.548731782097354E+001  0.222041066412326E+001
  0.329811487059801E-001 -0.550974824089541E+001  0.222262403349404E+001
  0.329811487059801E-001 -0.587778331894412E+001  0.226289504129116E+001
  0.329811487059801E-001 -0.588463952202334E+001  0.226372830718123E+001
  0.329811487059801E-001 -0.591538717407717E+001  0.226750897455776E+001
  0.329811487059801E-001 -0.603238989967837E+001  0.228260599417947E+001
  0.329811487059801E-001 -0.605069234032168E+001  0.228507678784075E+001
  0.329811487059801E-001 -0.606749798912539E+001  0.228737355740716E+001
  0.329811487059801E-001 -0.608259441513552E+001  0.228946078961326E+001
  0.329811487059801E-001 -0.613146116394534E+001  0.229637645501798E+001
  0.329811487059801E-001 -0.615545394081607E+001  0.229986350972875E+001
  0.329811487059801E-001 -0.616257168907656E+001  0.230091114038248E+001
  0.329811487059801E-001 -0.619739439148440E+001  0.230611754498330E+001
  0.329811487059801E-001 -0.620052053589358E+001  0.230659267051701E+001
  0.329811487059801E-001 -0.624533321518435E+001  0.231352775354836E+001
  0.329811487059801E-001 -0.626488973755374E+001  0.231663440276778E+001
  0.329811487059801E-001 -0.626800086159243E+001  0.231713178241701E+001
  0.329811487059801E-001 -0.629705645699038E+001  0.232185908962714E+001
  0.329811487059801E-001 -0.634895016808047E+001  0.233060219737789E+001
  0.329811487059801E-001 -0.634929349083438E+001  0.233066199194481E+001
  0.329811487059801E-001 -0.645294525284304E+001  0.234946148321974E+001
  0.329811487059801E-001 -0.648446418900027E+001  0.235557673730280E+001
  0.329811487059801E-001 -0.649959017891421E+001  0.235858648169780E+001
  0.329811487059801E-001 -0.651670767921939E+001  0.236205244790144E+001
  0.329811487059801E-001 -0.652335860390200E+001  0.236341755864320E+001
  0.329811487059801E-001 -0.657333280701175E+001  0.237401483143914E+001
  0.329811487059801E-001 -0.659709646362796E+001  0.237928007692243E+001
  0.329811487059801E-001 -0.662043048996463E+001  0.238460832810620E+001
  0.329811487059801E-001 -0.662266924042239E+001  0.238512827037766E+001
  0.329811487059801E-001 -0.665002634186282E+001  0.239160331681611E+001
  0.329811487059801E-001 -0.665878369469180E+001  0.239372822603888E+001
  0.329811487059801E-001 -0.667099764008059E+001  0.239673445537586E+001
  0.329811487059801E-001 -0.670236112732425E+001  0.240470575243455E+001
  0.329811487059801E-001 -0.671527053970828E+001  0.240809515926568E+001
  0.329811487059801E-001 -0.672534277100100E+001  0.241078836842060E+001
  0.329811487059801E-001 -0.673384024757876E+001  0.241309376820065E+001
  0.329811487059801E-001 -0.678537227768435E+001  0.242780131703419E+001
  0.329811487059801E-001 -0.680960681099429E+001  0.243520067385054E+001
  0.329811487059801E-001 -0.682217099327578E+001  0.243917564506594E+001
  0.329811487059801E-001 -0.682740237373843E+001  0.244085977766969E+001
  0.329811487059801E-001 -0.684267403740420E+001  0.244588182317757E+001
  0.329811487059801E-001 -0.688032796043887E+001  0.245901165093422E+001
  0.329811487059801E-001 -0.688235165733828E+001  0.245975212164576E+001
  0.329811487059801E-001 -0.689626195091738E+001  0.246493099624382E+001
  0.329811487059801E-001 -0.692494561333194E+001  0.247623187824278E+001
  0.329811487059801E-001 -0.694258811134829E+001  0.248366201511486E+001
  0.329811487059801E-001 -0.694527318138613E+001  0.248482777105458E+001
  0.329811487059801E-001 -0.694811465401187E+001  0.248607485785109E+001
  0.329811487059801E-001 -0.694966580528750E+001  0.248675877277318E+001
  0.329811487059801E-001 -0.696836449760928E+001  0.249530705458082E+001
  0.329811487059801E-001 -0.698237778801455E+001  0.250210441320455E+001
  0.329811487059801E-001 -0.699254014153018E+001  0.250727639378798E+001
  0.329811487059801E-001 -0.699831559319033E+001  0.251031864464682E+001
  0.329811487059801E-001 -0.700170018333926E+001  0.251213654245294E+001
  0.329811487059801E-001 -0.702764346260562E+001  0.252713212305849E+001
  0.329811487059801E-001 -0.702847697395816E+001  0.252765023668081E+001
  0.329811487059801E-001 -0.703227688927188E+001  0.253004230778352E+001
  0.329811487059801E-001 -0.703724648613467E+001  0.253325646348564E+001
  0.329811487059801E-001 -0.703746916908755E+001  0.253340365102161E+001
  0.329811487059801E-001 -0.704283024925723E+001  0.253699054612678E+001
  0.329811487059801E-001 -0.704325368065371E+001  0.253728051699825E+001
  0.329811487059801E-001 -0.704939534325137E+001  0.254157319133714E+001
  0.329811487059801E-001 -0.705118443626895E+001  0.275110935508360E+001
  0.329811487059801E-001 -0.705701234001651E+001  0.254718286559219E+001
  0.329811487059801E-001 -0.705903174538150E+001  0.254873034795009E+001
  0.329811487059801E-001 -0.706143834251895E+001  0.274279804053370E+001
  0.329811487059801E-001 -0.706227757591738E+001  0.255127503033494E+001
  0.329811487059801E-001 -0.706745364326968E+001  0.255548971417949E+001
  0.329811487059801E-001 -0.706873252052798E+001  0.255656479396796E+001
  0.329811487059801E-001 -0.706889989037051E+001  0.273629061944878E+001
  0.329811487059801E-001 -0.706955744881167E+001  0.255726716581480E+001
  0.329811487059801E-001 -0.706985213417544E+001  0.255751897803212E+001
  0.329811487059801E-001 -0.706987836021914E+001  0.255754209554721E+001
  0.329811487059801E-001 -0.707102563042178E+001  0.273435320552331E+001
  0.329811487059801E-001 -0.707446839470401E+001  0.256156666153029E+001
  0.329811487059801E-001 -0.707601096291079E+001  0.272963646495798E+001
  0.329811487059801E-001 -0.707659842628970E+001  0.272906447990410E+001
  0.329811487059801E-001 -0.707900788445010E+001  0.256577336186625E+001
  0.329811487059801E-001 -0.707957913536563E+001  0.272609876186356E+001
  0.329811487059801E-001 -0.708082272667422E+001  0.272483018785551E+001
  0.329811487059801E-001 -0.708404233116641E+001  0.257072567232730E+001
  0.329811487059801E-001 -0.708459546226992E+001  0.272085233725603E+001
  0.329811487059801E-001 -0.708702494759097E+001  0.271817960776406E+001
  0.329811487059801E-001 -0.708786465782656E+001  0.257472953251462E+001
  0.329811487059801E-001 -0.708808877129092E+001  0.271697611956164E+001
  0.329811487059801E-001 -0.708821322578921E+001  0.271683666509636E+001
  0.329811487059801E-001 -0.708950879234805E+001  0.257653199318999E+001
  0.329811487059801E-001 -0.709033419746890E+001  0.271437627207712E+001
  0.329811487059801E-001 -0.709113909859195E+001  0.271342067461118E+001
  0.329811487059801E-001 -0.709148242134585E+001  0.257876204900290E+001
  0.329811487059801E-001 -0.709170796532168E+001  0.257901867933620E+001
  0.329811487059801E-001 -0.709225442070498E+001  0.271207330961285E+001
  0.329811487059801E-001 -0.709376456398501E+001  0.271020641583331E+001
  0.329811487059801E-001 -0.709391190666690E+001  0.258161514506474E+001
  0.329811487059801E-001 -0.709557225365176E+001  0.258364319908125E+001
  0.329811487059801E-001 -0.709585215706363E+001  0.270753462618087E+001
  0.329811487059801E-001 -0.709633710045352E+001  0.270689696696861E+001
  0.329811487059801E-001 -0.709671189445987E+001  0.258508072088870E+001
  0.329811487059801E-001 -0.710010316032901E+001  0.258957958619330E+001
  0.329811487059801E-001 -0.710012223381533E+001  0.270168962283652E+001
  0.329811487059801E-001 -0.710086800713076E+001  0.259065004306262E+001
  0.329811487059801E-001 -0.710114648003115E+001  0.270019811297625E+001
  0.329811487059801E-001 -0.710253121513858E+001  0.269811579463924E+001
  0.329811487059801E-001 -0.710271336693301E+001  0.259331949674902E+001
  0.329811487059801E-001 -0.710352685112490E+001  0.269656803090854E+001
  0.329811487059801E-001 -0.710444094795718E+001  0.259595851978492E+001
  0.329811487059801E-001 -0.710461117882266E+001  0.259622381821882E+001
  0.329811487059801E-001 -0.710527922768130E+001  0.259729521675007E+001
  0.329811487059801E-001 -0.710740639824404E+001  0.269003411753060E+001
  0.329811487059801E-001 -0.710824658531680E+001  0.268849667588555E+001
  0.329811487059801E-001 -0.711003377098574E+001  0.268502270608307E+001
  0.329811487059801E-001 -0.711007716316714E+001  0.268493575360976E+001
  0.329811487059801E-001 -0.711045386452212E+001  0.268416772212980E+001
  0.329811487059801E-001 -0.711136891502871E+001  0.268222227354245E+001
  0.329811487059801E-001 -0.711224677223696E+001  0.268026232626986E+001
  0.329811487059801E-001 -0.711251523155703E+001  0.261098164224174E+001
  0.329811487059801E-001 -0.711251523155703E+001  0.261098532101689E+001
  0.329811487059801E-001 -0.711259486336245E+001  0.267944864224558E+001
  0.329811487059801E-001 -0.711312558311953E+001  0.261240294237205E+001
  0.329811487059801E-001 -0.711332299370303E+001  0.261288207108347E+001
  0.329811487059801E-001 -0.711365201134219E+001  0.267687391359399E+001
  0.329811487059801E-001 -0.711382653374209E+001  0.267642752234533E+001
  0.329811487059801E-001 -0.711500908989444E+001  0.267322793808435E+001
  0.329811487059801E-001 -0.711516024727359E+001  0.261768827786579E+001
  0.329811487059801E-001 -0.711621787209048E+001  0.262089020514225E+001
  0.329811487059801E-001 -0.711625077385440E+001  0.262100143828519E+001
  0.329811487059801E-001 -0.711655785698428E+001  0.266838223817497E+001
  0.329811487059801E-001 -0.659070279308086E+001  0.266695981334072E+001
  0.329811487059801E-001 -0.659078767009502E+001  0.266664501208736E+001
  0.329811487059801E-001 -0.659199502177959E+001  0.266155965786623E+001
  0.329811487059801E-001 -0.659262683101421E+001  0.265813756985496E+001
  0.329811487059801E-001 -0.659293343730693E+001  0.265608811119711E+001
  0.329811487059801E-001 -0.659323003001934E+001  0.265366644163913E+001
