  0.177826911283005E-002 -0.826232250525076E+001  0.327946399167112E+001
  0.177826911283005E-002 -0.820072086645681E+001  0.329098471310701E+001
  0.177826911283005E-002 -0.120698463569626E+001  0.722725786501903E+001
  0.177826911283005E-002 -0.115893184791550E+001  0.547853412276255E+001
  0.177826911283005E-002 -0.809853728605825E+001  0.330994151759467E+001
  0.177826911283005E-002 -0.280899961783010E+001  0.421088143281795E+001
  0.177826911283005E-002 -0.333692510916311E+001  0.411061702683771E+001
  0.177826911283005E-002 -0.362323149038870E+001  0.405998344948549E+001
  0.177826911283005E-002 -0.365803774191458E+001  0.405395695979034E+001
  0.177826911283005E-002 -0.792051132513601E+001  0.334254910319088E+001
  0.177826911283005E-002 -0.766176184012014E+001  0.338910364158450E+001
  0.177826911283005E-002 -0.478835161520559E+001  0.386687930474564E+001
  0.177826911283005E-002 -0.541182764364798E+001  0.376652624649452E+001
  0.177826911283005E-002 -0.574514540030081E+001  0.371267486857203E+001
  0.177826911283005E-002 -0.574981458975393E+001  0.371191956220954E+001
  0.177826911283005E-002 -0.581890877081472E+001  0.370070651474410E+001
  0.177826911283005E-002 -0.765067919088919E+001  0.339107679405105E+001
  0.177826911283005E-002 -0.593663175894339E+001  0.368155123076258E+001
  0.177826911283005E-002 -0.599983986212332E+001  0.367124033186718E+001
  0.177826911283005E-002 -0.638343437506277E+001  0.360815583700978E+001
  0.177826911283005E-002 -0.640014131857473E+001  0.360538632194733E+001
  0.177826911283005E-002 -0.659129579855520E+001  0.357354985041108E+001
  0.177826911283005E-002 -0.760068138434011E+001  0.339996162230904E+001
  0.177826911283005E-002 -0.688318594290335E+001  0.352436808742353E+001
  0.177826911283005E-002 -0.706560285879690E+001  0.349324373980037E+001
  0.177826911283005E-002 -0.753857429815847E+001  0.341095710048742E+001
  0.177826911283005E-002 -0.835242374731619E+001  0.326247707147759E+001
  0.177826911283005E-002 -0.850601228071768E+001  0.323311313137412E+001
  0.177826911283005E-002 -0.856571157766897E+001  0.322154608060389E+001
  0.177826911283005E-002 -0.858130439116079E+001  0.321850932193922E+001
  0.177826911283005E-002 -0.870958622290213E+001  0.319326725485629E+001
  0.177826911283005E-002 -0.871803768469412E+001  0.319158630276596E+001
  0.177826911283005E-002 -0.879604299856741E+001  0.317596822857217E+001
  0.177826911283005E-002 -0.882961638762075E+001  0.316918270556136E+001
  0.177826911283005E-002 -0.884680136038381E+001  0.316569386250326E+001
  0.177826911283005E-002 -0.891648896528799E+001  0.315143030422351E+001
  0.177826911283005E-002 -0.891811950995046E+001  0.315109386300551E+001
  0.177826911283005E-002 -0.893897374464590E+001  0.314678727874155E+001
  0.177826911283005E-002 -0.894720490767080E+001  0.314508210330080E+001
  0.177826911283005E-002 -0.902380760504324E+001  0.312907234078661E+001
  0.177826911283005E-002 -0.906939681364614E+001  0.311941541460161E+001
  0.177826911283005E-002 -0.906947310759146E+001  0.311939919516397E+001
  0.177826911283005E-002 -0.917203100515921E+001  0.309728400752346E+001
  0.177826911283005E-002 -0.919765027357656E+001  0.309166649244451E+001
  0.177826911283005E-002 -0.925516804052908E+001  0.307890831474731E+001
  0.177826911283005E-002 -0.929191668821890E+001  0.307064350703433E+001
  0.177826911283005E-002 -0.931127222372610E+001  0.306625053005600E+001
  0.177826911283005E-002 -0.940370448423941E+001  0.304488643867567E+001
  0.177826911283005E-002 -0.952392156912405E+001  0.301597864025472E+001
  0.177826911283005E-002 -0.954831798864920E+001  0.300993361232764E+001
  0.177826911283005E-002 -0.955433042837698E+001  0.300843297185334E+001
  0.177826911283005E-002 -0.965149863554556E+001  0.298357627925514E+001
  0.177826911283005E-002 -0.966488822294790E+001  0.298005238866695E+001
  0.177826911283005E-002 -0.966616137816030E+001  0.297971530176517E+001
  0.177826911283005E-002 -0.968189700438101E+001  0.297553737284734E+001
  0.177826911283005E-002 -0.970060737921316E+001  0.297052171053737E+001
  0.177826911283005E-002 -0.975081308676321E+001  0.295677775139996E+001
  0.177826911283005E-002 -0.976434596373159E+001  0.295299820156986E+001
  0.177826911283005E-002 -0.976439364744741E+001  0.295298535274382E+001
  0.177826911283005E-002 -0.976487358404714E+001  0.295285029832814E+001
  0.177826911283005E-002 -0.977482970549185E+001  0.295004661683059E+001
  0.177826911283005E-002 -0.978606565786917E+001  0.294686008426562E+001
  0.177826911283005E-002 -0.979391725851614E+001  0.294461847248320E+001
  0.177826911283005E-002 -0.980289705587942E+001  0.294203900681087E+001
  0.177826911283005E-002 -0.985375412298757E+001  0.292710413077871E+001
  0.177826911283005E-002 -0.986472042395193E+001  0.292380551787699E+001
  0.177826911283005E-002 -0.986683901144583E+001  0.292316497028073E+001
  0.177826911283005E-002 -0.988382919622976E+001  0.291798535649706E+001
  0.177826911283005E-002 -0.989964755369741E+001  0.291309489865430E+001
  0.177826911283005E-002 -0.991978104902822E+001  0.290676964934874E+001
  0.177826911283005E-002 -0.994807918860037E+001  0.289767319015818E+001
  0.177826911283005E-002 -0.996521480871755E+001  0.289203909093855E+001
  0.177826911283005E-002 -0.997354801489431E+001  0.288926238771692E+001
  0.177826911283005E-002 -0.997978313757498E+001  0.288716920414773E+001
  0.177826911283005E-002 -0.100107866127642E+002  0.287653626617852E+001
  0.177826911283005E-002 -0.100199099381121E+002  0.287333331190557E+001
  0.177826911283005E-002 -0.100234785874041E+002  0.287207003930418E+001
  0.177826911283005E-002 -0.100248659451159E+002  0.287157803675051E+001
  0.177826911283005E-002 -0.100364623863848E+002  0.286742858615488E+001
  0.177826911283005E-002 -0.100406509239824E+002  0.286591357515405E+001
  0.177826911283005E-002 -0.100507870514544E+002  0.286221450119992E+001
  0.177826911283005E-002 -0.100657029946001E+002  0.285667639134451E+001
  0.177826911283005E-002 -0.100690160591753E+002  0.285543076396478E+001
  0.177826911283005E-002 -0.100865765412005E+002  0.284872413285751E+001
  0.177826911283005E-002 -0.100946727593096E+002  0.284557178593811E+001
  0.177826911283005E-002 -0.100977044899615E+002  0.284438031065607E+001
  0.177826911283005E-002 -0.970941283384811E+001  0.283397663436131E+001
  0.177826911283005E-002 -0.971570517698775E+001  0.283137379853448E+001
  0.177826911283005E-002 -0.974532010237228E+001  0.281869494544364E+001
  0.177826911283005E-002 -0.974576689878951E+001  0.281849770763344E+001
  0.177826911283005E-002 -0.976206137815963E+001  0.281117898292023E+001
  0.177826911283005E-002 -0.977571561018478E+001  0.280483527620558E+001
  0.177826911283005E-002 -0.977953173796188E+001  0.280302482438689E+001
  0.177826911283005E-002 -0.980874516645919E+001  0.278854910484156E+001
  0.177826911283005E-002 -0.982231690565597E+001  0.278139786497581E+001
  0.177826911283005E-002 -0.982275893370162E+001  0.278116069912461E+001
  0.177826911283005E-002 -0.982540728727828E+001  0.277972549173506E+001
  0.177826911283005E-002 -0.982791783491622E+001  0.277835480317188E+001
  0.177826911283005E-002 -0.983154418150436E+001  0.277635391620402E+001
  0.177826911283005E-002 -0.983773734251510E+001  0.277287587072002E+001
  0.177826911283005E-002 -0.984193923155318E+001  0.277047117632888E+001
  0.177826911283005E-002 -0.984549643675338E+001  0.276840557735364E+001
  0.177826911283005E-002 -0.984653069654952E+001  0.276779979640525E+001
  0.177826911283005E-002 -0.985538460890304E+001  0.276250757601058E+001
  0.177826911283005E-002 -0.986276175657760E+001  0.275794338554907E+001
  0.177826911283005E-002 -0.987202860991012E+001  0.275198604332976E+001
  0.177826911283005E-002 -0.989428784529220E+001  0.273642043296207E+001
  0.177826911283005E-002 -0.990078284422408E+001  0.273145838539867E+001
  0.177826911283005E-002 -0.990258481184493E+001  0.273004194299196E+001
  0.177826911283005E-002 -0.990277840773116E+001  0.272988724448227E+001
  0.177826911283005E-002 -0.990492751280318E+001  0.272817003703273E+001
  0.177826911283005E-002 -0.990816237608443E+001  0.272552872849470E+001
  0.177826911283005E-002 -0.990867592970382E+001  0.272510328634729E+001
  0.177826911283005E-002 -0.990896441618453E+001  0.272486309106811E+001
  0.177826911283005E-002 -0.992397668043624E+001  0.271146977594751E+001
  0.177826911283005E-002 -0.992734076658736E+001  0.270817181622062E+001
  0.177826911283005E-002 -0.993184210936080E+001  0.270354133709855E+001
  0.177826911283005E-002 -0.993337371031295E+001  0.270190020595202E+001
  0.177826911283005E-002 -0.835982808193179E+001  0.261165286746831E+001
  0.177826911283005E-002 -0.836029728969546E+001  0.261392769595711E+001
  0.177826911283005E-002 -0.836074885448428E+001  0.261649808154082E+001
