  0.896431338724009E-002 -0.110832501934588E+001  0.556383548092060E+001
  0.896431338724009E-002 -0.106242324398578E+001  0.558846938192257E+001
  0.896431338724009E-002 -0.560416453723229E+001  0.212610833171242E+001
  0.896431338724009E-002 -0.556346815470971E+001  0.212341844352750E+001
  0.896431338724009E-002  0.139287947131574E+001  0.686679043286005E+001
  0.896431338724009E-002 -0.549164408091821E+001  0.211872380128633E+001
  0.896431338724009E-002 -0.521138780955590E+001  0.210099443380610E+001
  0.896431338724009E-002 -0.179603196667254E+001  0.519408694714710E+001
  0.896431338724009E-002 -0.649461739901818E+001  0.219276087148836E+001
  0.896431338724009E-002 -0.302790420893945E+001  0.198109874190030E+001
  0.896431338724009E-002 -0.315585106257714E+001  0.198750915587843E+001
  0.896431338724009E-002 -0.366058057193078E+001  0.201346975521455E+001
  0.896431338724009E-002 -0.372613614444054E+001  0.201691988461351E+001
  0.896431338724009E-002 -0.398400801066674E+001  0.203066972350751E+001
  0.896431338724009E-002 -0.513433068637170E+001  0.209626312438271E+001
  0.896431338724009E-002 -0.494620340709008E+001  0.208493435897200E+001
  0.896431338724009E-002 -0.498807829264916E+001  0.208743009014633E+001
  0.896431338724009E-002 -0.513093441371240E+001  0.209605588621205E+001
  0.896431338724009E-002 -0.597500484828271E+001  0.215181312144399E+001
  0.896431338724009E-002 -0.624188607577599E+001  0.217196723405825E+001
  0.896431338724009E-002 -0.649214142207421E+001  0.219254854991133E+001
  0.896431338724009E-002 -0.679566925410546E+001  0.222041066412326E+001
  0.896431338724009E-002 -0.681809967402734E+001  0.222262403349404E+001
  0.896431338724009E-002 -0.718613475207604E+001  0.226289504129116E+001
  0.896431338724009E-002 -0.719299095515527E+001  0.226372830718123E+001
  0.896431338724009E-002 -0.722373860720910E+001  0.226750897455776E+001
  0.896431338724009E-002 -0.734074133281030E+001  0.228260599417947E+001
  0.896431338724009E-002 -0.735904377345361E+001  0.228507678784075E+001
  0.896431338724009E-002 -0.737584942225732E+001  0.228737355740716E+001
  0.896431338724009E-002 -0.739094584826745E+001  0.228946078961326E+001
  0.896431338724009E-002 -0.743981259707726E+001  0.229637645501798E+001
  0.896431338724009E-002 -0.746380537394799E+001  0.229986350972875E+001
  0.896431338724009E-002 -0.747092312220849E+001  0.230091114038248E+001
  0.896431338724009E-002 -0.750574582461633E+001  0.230611754498330E+001
  0.896431338724009E-002 -0.750887196902551E+001  0.230659267051701E+001
  0.896431338724009E-002 -0.755368464831628E+001  0.231352775354836E+001
  0.896431338724009E-002 -0.757324117068566E+001  0.231663440276778E+001
  0.896431338724009E-002 -0.757635229472436E+001  0.231713178241701E+001
  0.896431338724009E-002 -0.760540789012231E+001  0.232185908962714E+001
  0.896431338724009E-002 -0.765730160121239E+001  0.233060219737789E+001
  0.896431338724009E-002 -0.765764492396630E+001  0.233066199194481E+001
  0.896431338724009E-002 -0.776129668597497E+001  0.234946148321974E+001
  0.896431338724009E-002 -0.779281562213219E+001  0.235557673730280E+001
  0.896431338724009E-002 -0.780794161204613E+001  0.235858648169780E+001
  0.896431338724009E-002 -0.782505911235131E+001  0.236205244790144E+001
  0.896431338724009E-002 -0.783171003703393E+001  0.236341755864320E+001
  0.896431338724009E-002 -0.788168424014367E+001  0.237401483143914E+001
  0.896431338724009E-002 -0.790544789675988E+001  0.237928007692243E+001
  0.896431338724009E-002 -0.792878192309655E+001  0.238460832810620E+001
  0.896431338724009E-002 -0.793102067355431E+001  0.238512827037766E+001
  0.896431338724009E-002 -0.795837777499474E+001  0.239160331681611E+001
  0.896431338724009E-002 -0.796713512782372E+001  0.239372822603888E+001
  0.896431338724009E-002 -0.797934907321252E+001  0.239673445537586E+001
  0.896431338724009E-002 -0.801071256045617E+001  0.240470575243455E+001
  0.896431338724009E-002 -0.802362197284020E+001  0.240809515926568E+001
  0.896431338724009E-002 -0.803369420413293E+001  0.241078836842060E+001
  0.896431338724009E-002 -0.804219168071069E+001  0.241309376820065E+001
  0.896431338724009E-002 -0.809372371081628E+001  0.242780131703419E+001
  0.896431338724009E-002 -0.811795824412621E+001  0.243520067385054E+001
  0.896431338724009E-002 -0.813052242640771E+001  0.243917564506594E+001
  0.896431338724009E-002 -0.813575380687035E+001  0.244085977766969E+001
  0.896431338724009E-002 -0.815102547053612E+001  0.244588182317757E+001
  0.896431338724009E-002 -0.818867939357079E+001  0.245901165093422E+001
  0.896431338724009E-002 -0.819070309047021E+001  0.245975212164576E+001
  0.896431338724009E-002 -0.820461338404931E+001  0.246493099624382E+001
  0.896431338724009E-002 -0.823329704646386E+001  0.247623187824278E+001
  0.896431338724009E-002 -0.825093954448022E+001  0.248366201511486E+001
  0.896431338724009E-002 -0.825362461451806E+001  0.248482777105458E+001
  0.896431338724009E-002 -0.825646608714379E+001  0.248607485785109E+001
  0.896431338724009E-002 -0.825801723841943E+001  0.248675877277318E+001
  0.896431338724009E-002 -0.827671593074120E+001  0.249530705458082E+001
  0.896431338724009E-002 -0.829072922114648E+001  0.250210441320455E+001
  0.896431338724009E-002 -0.830089157466210E+001  0.250727639378798E+001
  0.896431338724009E-002 -0.830666702632226E+001  0.251031864464682E+001
  0.896431338724009E-002 -0.831005161647118E+001  0.251213654245294E+001
  0.896431338724009E-002 -0.833599489573754E+001  0.252713212305849E+001
  0.896431338724009E-002 -0.833682840709008E+001  0.252765023668081E+001
  0.896431338724009E-002 -0.834062832240380E+001  0.253004230778352E+001
  0.896431338724009E-002 -0.834559791926659E+001  0.253325646348564E+001
  0.896431338724009E-002 -0.834582060221947E+001  0.253340365102161E+001
  0.896431338724009E-002 -0.835118168238915E+001  0.253699054612678E+001
  0.896431338724009E-002 -0.835160511378564E+001  0.253728051699825E+001
  0.896431338724009E-002 -0.835774677638329E+001  0.254157319133714E+001
  0.896431338724009E-002 -0.835953586940087E+001  0.275110935508360E+001
  0.896431338724009E-002 -0.836536377314843E+001  0.254718286559219E+001
  0.896431338724009E-002 -0.836738317851342E+001  0.254873034795009E+001
  0.896431338724009E-002 -0.836978977565087E+001  0.274279804053370E+001
  0.896431338724009E-002 -0.837062900904931E+001  0.255127503033494E+001
  0.896431338724009E-002 -0.837580507640160E+001  0.255548971417949E+001
  0.896431338724009E-002 -0.837708395365990E+001  0.255656479396796E+001
  0.896431338724009E-002 -0.837725132350243E+001  0.273629061944878E+001
  0.896431338724009E-002 -0.837790888194360E+001  0.255726716581480E+001
  0.896431338724009E-002 -0.837820356730736E+001  0.255751897803212E+001
  0.896431338724009E-002 -0.837822979335107E+001  0.255754209554721E+001
  0.896431338724009E-002 -0.837937706355370E+001  0.273435320552331E+001
  0.896431338724009E-002 -0.838281982783593E+001  0.256156666153029E+001
  0.896431338724009E-002 -0.838436239604272E+001  0.272963646495798E+001
  0.896431338724009E-002 -0.838494985942162E+001  0.272906447990410E+001
  0.896431338724009E-002 -0.838735931758202E+001  0.256577336186625E+001
  0.896431338724009E-002 -0.838793056849755E+001  0.272609876186356E+001
  0.896431338724009E-002 -0.838917415980614E+001  0.272483018785551E+001
  0.896431338724009E-002 -0.839239376429833E+001  0.257072567232730E+001
  0.896431338724009E-002 -0.839294689540185E+001  0.272085233725603E+001
  0.896431338724009E-002 -0.839537638072289E+001  0.271817960776406E+001
  0.896431338724009E-002 -0.839621609095849E+001  0.257472953251462E+001
  0.896431338724009E-002 -0.839644020442284E+001  0.271697611956164E+001
  0.896431338724009E-002 -0.839656465892113E+001  0.271683666509636E+001
  0.896431338724009E-002 -0.839786022547997E+001  0.257653199318999E+001
  0.896431338724009E-002 -0.839868563060082E+001  0.271437627207712E+001
  0.896431338724009E-002 -0.839949053172387E+001  0.271342067461118E+001
  0.896431338724009E-002 -0.839983385447777E+001  0.257876204900290E+001
  0.896431338724009E-002 -0.840005939845360E+001  0.257901867933620E+001
  0.896431338724009E-002 -0.840060585383691E+001  0.271207330961285E+001
  0.896431338724009E-002 -0.840211599711694E+001  0.271020641583331E+001
  0.896431338724009E-002 -0.840226333979882E+001  0.258161514506474E+001
  0.896431338724009E-002 -0.840392368678368E+001  0.258364319908125E+001
  0.896431338724009E-002 -0.840420359019555E+001  0.270753462618087E+001
  0.896431338724009E-002 -0.840468853358544E+001  0.270689696696861E+001
  0.896431338724009E-002 -0.840506332759179E+001  0.258508072088870E+001
  0.896431338724009E-002 -0.840845459346093E+001  0.258957958619330E+001
  0.896431338724009E-002 -0.840847366694726E+001  0.270168962283652E+001
  0.896431338724009E-002 -0.840921944026269E+001  0.259065004306262E+001
  0.896431338724009E-002 -0.840949791316308E+001  0.270019811297625E+001
  0.896431338724009E-002 -0.841088264827050E+001  0.269811579463924E+001
  0.896431338724009E-002 -0.841106480006493E+001  0.259331949674902E+001
  0.896431338724009E-002 -0.841187828425683E+001  0.269656803090854E+001
  0.896431338724009E-002 -0.841279238108910E+001  0.259595851978492E+001
  0.896431338724009E-002 -0.841296261195458E+001  0.259622381821882E+001
  0.896431338724009E-002 -0.841363066081322E+001  0.259729521675007E+001
  0.896431338724009E-002 -0.841575783137597E+001  0.269003411753060E+001
  0.896431338724009E-002 -0.841659801844872E+001  0.268849667588555E+001
  0.896431338724009E-002 -0.841838520411767E+001  0.268502270608307E+001
  0.896431338724009E-002 -0.841842859629906E+001  0.268493575360976E+001
  0.896431338724009E-002 -0.841880529765404E+001  0.268416772212980E+001
  0.896431338724009E-002 -0.841972034816064E+001  0.268222227354245E+001
  0.896431338724009E-002 -0.842059820536889E+001  0.268026232626986E+001
  0.896431338724009E-002 -0.842086666468896E+001  0.261098164224174E+001
  0.896431338724009E-002 -0.842086666468896E+001  0.261098532101689E+001
  0.896431338724009E-002 -0.842094629649438E+001  0.267944864224558E+001
  0.896431338724009E-002 -0.842147701625146E+001  0.261240294237205E+001
  0.896431338724009E-002 -0.842167442683495E+001  0.261288207108347E+001
  0.896431338724009E-002 -0.842200344447411E+001  0.267687391359399E+001
  0.896431338724009E-002 -0.842217796687402E+001  0.267642752234533E+001
  0.896431338724009E-002 -0.842336052302636E+001  0.267322793808435E+001
  0.896431338724009E-002 -0.842351168040551E+001  0.261768827786579E+001
  0.896431338724009E-002 -0.842456930522240E+001  0.262089020514225E+001
  0.896431338724009E-002 -0.842460220698632E+001  0.262100143828519E+001
  0.896431338724009E-002 -0.842490929011620E+001  0.266838223817497E+001
  0.896431338724009E-002 -0.789905422621278E+001  0.266695981334072E+001
  0.896431338724009E-002 -0.789913910322694E+001  0.266664501208736E+001
  0.896431338724009E-002 -0.790034645491151E+001  0.266155965786623E+001
  0.896431338724009E-002 -0.790097826414613E+001  0.265813756985496E+001
  0.896431338724009E-002 -0.790128487043886E+001  0.265608811119711E+001
  0.896431338724009E-002 -0.790158146315126E+001  0.265366644163913E+001
