  0.169969896794298E-001 -0.464949889807209E+000  0.556383548092060E+001
  0.169969896794298E-001 -0.419048114447101E+000  0.558846938192257E+001
  0.169969896794298E-001 -0.496078940769362E+001  0.212610833171242E+001
  0.169969896794298E-001 -0.492009302517103E+001  0.212341844352750E+001
  0.169969896794298E-001  0.203625460085441E+001  0.686679043286005E+001
  0.169969896794298E-001 -0.484826895137953E+001  0.211872380128633E+001
  0.169969896794298E-001 -0.456801268001723E+001  0.210099443380610E+001
  0.169969896794298E-001 -0.115265683713387E+001  0.519408694714710E+001
  0.169969896794298E-001 -0.585124226947951E+001  0.219276087148836E+001
  0.169969896794298E-001 -0.238452907940077E+001  0.198109874190030E+001
  0.169969896794298E-001 -0.251247593303847E+001  0.198750915587843E+001
  0.169969896794298E-001 -0.301720544239210E+001  0.201346975521455E+001
  0.169969896794298E-001 -0.308276101490187E+001  0.201691988461351E+001
  0.169969896794298E-001 -0.334063288112807E+001  0.203066972350751E+001
  0.169969896794298E-001 -0.449095555683302E+001  0.209626312438271E+001
  0.169969896794298E-001 -0.430282827755141E+001  0.208493435897200E+001
  0.169969896794298E-001 -0.434470316311049E+001  0.208743009014633E+001
  0.169969896794298E-001 -0.448755928417372E+001  0.209605588621205E+001
  0.169969896794298E-001 -0.533162971874403E+001  0.215181312144399E+001
  0.169969896794298E-001 -0.559851094623732E+001  0.217196723405825E+001
  0.169969896794298E-001 -0.584876629253554E+001  0.219254854991133E+001
  0.169969896794298E-001 -0.615229412456679E+001  0.222041066412326E+001
  0.169969896794298E-001 -0.617472454448866E+001  0.222262403349404E+001
  0.169969896794298E-001 -0.654275962253737E+001  0.226289504129116E+001
  0.169969896794298E-001 -0.654961582561659E+001  0.226372830718123E+001
  0.169969896794298E-001 -0.658036347767042E+001  0.226750897455776E+001
  0.169969896794298E-001 -0.669736620327162E+001  0.228260599417947E+001
  0.169969896794298E-001 -0.671566864391493E+001  0.228507678784075E+001
  0.169969896794298E-001 -0.673247429271864E+001  0.228737355740716E+001
  0.169969896794298E-001 -0.674757071872877E+001  0.228946078961326E+001
  0.169969896794298E-001 -0.679643746753859E+001  0.229637645501798E+001
  0.169969896794298E-001 -0.682043024440932E+001  0.229986350972875E+001
  0.169969896794298E-001 -0.682754799266981E+001  0.230091114038248E+001
  0.169969896794298E-001 -0.686237069507765E+001  0.230611754498330E+001
  0.169969896794298E-001 -0.686549683948683E+001  0.230659267051701E+001
  0.169969896794298E-001 -0.691030951877760E+001  0.231352775354836E+001
  0.169969896794298E-001 -0.692986604114699E+001  0.231663440276778E+001
  0.169969896794298E-001 -0.693297716518568E+001  0.231713178241701E+001
  0.169969896794298E-001 -0.696203276058363E+001  0.232185908962714E+001
  0.169969896794298E-001 -0.701392647167372E+001  0.233060219737789E+001
  0.169969896794298E-001 -0.701426979442763E+001  0.233066199194481E+001
  0.169969896794298E-001 -0.711792155643629E+001  0.234946148321974E+001
  0.169969896794298E-001 -0.714944049259352E+001  0.235557673730280E+001
  0.169969896794298E-001 -0.716456648250746E+001  0.235858648169780E+001
  0.169969896794298E-001 -0.718168398281264E+001  0.236205244790144E+001
  0.169969896794298E-001 -0.718833490749525E+001  0.236341755864320E+001
  0.169969896794298E-001 -0.723830911060499E+001  0.237401483143914E+001
  0.169969896794298E-001 -0.726207276722120E+001  0.237928007692243E+001
  0.169969896794298E-001 -0.728540679355787E+001  0.238460832810620E+001
  0.169969896794298E-001 -0.728764554401564E+001  0.238512827037766E+001
  0.169969896794298E-001 -0.731500264545607E+001  0.239160331681611E+001
  0.169969896794298E-001 -0.732375999828505E+001  0.239372822603888E+001
  0.169969896794298E-001 -0.733597394367384E+001  0.239673445537586E+001
  0.169969896794298E-001 -0.736733743091749E+001  0.240470575243455E+001
  0.169969896794298E-001 -0.738024684330153E+001  0.240809515926568E+001
  0.169969896794298E-001 -0.739031907459425E+001  0.241078836842060E+001
  0.169969896794298E-001 -0.739881655117201E+001  0.241309376820065E+001
  0.169969896794298E-001 -0.745034858127760E+001  0.242780131703419E+001
  0.169969896794298E-001 -0.747458311458754E+001  0.243520067385054E+001
  0.169969896794298E-001 -0.748714729686903E+001  0.243917564506594E+001
  0.169969896794298E-001 -0.749237867733168E+001  0.244085977766969E+001
  0.169969896794298E-001 -0.750765034099745E+001  0.244588182317757E+001
  0.169969896794298E-001 -0.754530426403212E+001  0.245901165093422E+001
  0.169969896794298E-001 -0.754732796093153E+001  0.245975212164576E+001
  0.169969896794298E-001 -0.756123825451063E+001  0.246493099624382E+001
  0.169969896794298E-001 -0.758992191692518E+001  0.247623187824278E+001
  0.169969896794298E-001 -0.760756441494154E+001  0.248366201511486E+001
  0.169969896794298E-001 -0.761024948497938E+001  0.248482777105458E+001
  0.169969896794298E-001 -0.761309095760512E+001  0.248607485785109E+001
  0.169969896794298E-001 -0.761464210888075E+001  0.248675877277318E+001
  0.169969896794298E-001 -0.763334080120253E+001  0.249530705458082E+001
  0.169969896794298E-001 -0.764735409160780E+001  0.250210441320455E+001
  0.169969896794298E-001 -0.765751644512343E+001  0.250727639378798E+001
  0.169969896794298E-001 -0.766329189678358E+001  0.251031864464682E+001
  0.169969896794298E-001 -0.766667648693251E+001  0.251213654245294E+001
  0.169969896794298E-001 -0.769261976619887E+001  0.252713212305849E+001
  0.169969896794298E-001 -0.769345327755140E+001  0.252765023668081E+001
  0.169969896794298E-001 -0.769725319286513E+001  0.253004230778352E+001
  0.169969896794298E-001 -0.770222278972792E+001  0.253325646348564E+001
  0.169969896794298E-001 -0.770244547268080E+001  0.253340365102161E+001
  0.169969896794298E-001 -0.770780655285048E+001  0.253699054612678E+001
  0.169969896794298E-001 -0.770822998424696E+001  0.253728051699825E+001
  0.169969896794298E-001 -0.771437164684462E+001  0.254157319133714E+001
  0.169969896794298E-001 -0.771616073986220E+001  0.275110935508360E+001
  0.169969896794298E-001 -0.772198864360975E+001  0.254718286559219E+001
  0.169969896794298E-001 -0.772400804897474E+001  0.254873034795009E+001
  0.169969896794298E-001 -0.772641464611220E+001  0.274279804053370E+001
  0.169969896794298E-001 -0.772725387951063E+001  0.255127503033494E+001
  0.169969896794298E-001 -0.773242994686293E+001  0.255548971417949E+001
  0.169969896794298E-001 -0.773370882412123E+001  0.255656479396796E+001
  0.169969896794298E-001 -0.773387619396376E+001  0.273629061944878E+001
  0.169969896794298E-001 -0.773453375240492E+001  0.255726716581480E+001
  0.169969896794298E-001 -0.773482843776869E+001  0.255751897803212E+001
  0.169969896794298E-001 -0.773485466381239E+001  0.255754209554721E+001
  0.169969896794298E-001 -0.773600193401503E+001  0.273435320552331E+001
  0.169969896794298E-001 -0.773944469829725E+001  0.256156666153029E+001
  0.169969896794298E-001 -0.774098726650404E+001  0.272963646495798E+001
  0.169969896794298E-001 -0.774157472988295E+001  0.272906447990410E+001
  0.169969896794298E-001 -0.774398418804335E+001  0.256577336186625E+001
  0.169969896794298E-001 -0.774455543895888E+001  0.272609876186356E+001
  0.169969896794298E-001 -0.774579903026747E+001  0.272483018785551E+001
  0.169969896794298E-001 -0.774901863475966E+001  0.257072567232730E+001
  0.169969896794298E-001 -0.774957176586317E+001  0.272085233725603E+001
  0.169969896794298E-001 -0.775200125118422E+001  0.271817960776406E+001
  0.169969896794298E-001 -0.775284096141981E+001  0.257472953251462E+001
  0.169969896794298E-001 -0.775306507488417E+001  0.271697611956164E+001
  0.169969896794298E-001 -0.775318952938246E+001  0.271683666509636E+001
  0.169969896794298E-001 -0.775448509594130E+001  0.257653199318999E+001
  0.169969896794298E-001 -0.775531050106215E+001  0.271437627207712E+001
  0.169969896794298E-001 -0.775611540218519E+001  0.271342067461118E+001
  0.169969896794298E-001 -0.775645872493910E+001  0.257876204900290E+001
  0.169969896794298E-001 -0.775668426891493E+001  0.257901867933620E+001
  0.169969896794298E-001 -0.775723072429823E+001  0.271207330961285E+001
  0.169969896794298E-001 -0.775874086757826E+001  0.271020641583331E+001
  0.169969896794298E-001 -0.775888821026015E+001  0.258161514506474E+001
  0.169969896794298E-001 -0.776054855724501E+001  0.258364319908125E+001
  0.169969896794298E-001 -0.776082846065687E+001  0.270753462618087E+001
  0.169969896794298E-001 -0.776131340404677E+001  0.270689696696861E+001
  0.169969896794298E-001 -0.776168819805311E+001  0.258508072088870E+001
  0.169969896794298E-001 -0.776507946392225E+001  0.258957958619330E+001
  0.169969896794298E-001 -0.776509853740858E+001  0.270168962283652E+001
  0.169969896794298E-001 -0.776584431072401E+001  0.259065004306262E+001
  0.169969896794298E-001 -0.776612278362440E+001  0.270019811297625E+001
  0.169969896794298E-001 -0.776750751873182E+001  0.269811579463924E+001
  0.169969896794298E-001 -0.776768967052626E+001  0.259331949674902E+001
  0.169969896794298E-001 -0.776850315471815E+001  0.269656803090854E+001
  0.169969896794298E-001 -0.776941725155043E+001  0.259595851978492E+001
  0.169969896794298E-001 -0.776958748241591E+001  0.259622381821882E+001
  0.169969896794298E-001 -0.777025553127455E+001  0.259729521675007E+001
  0.169969896794298E-001 -0.777238270183729E+001  0.269003411753060E+001
  0.169969896794298E-001 -0.777322288891005E+001  0.268849667588555E+001
  0.169969896794298E-001 -0.777501007457899E+001  0.268502270608307E+001
  0.169969896794298E-001 -0.777505346676039E+001  0.268493575360976E+001
  0.169969896794298E-001 -0.777543016811537E+001  0.268416772212980E+001
  0.169969896794298E-001 -0.777634521862196E+001  0.268222227354245E+001
  0.169969896794298E-001 -0.777722307583021E+001  0.268026232626986E+001
  0.169969896794298E-001 -0.777749153515028E+001  0.261098164224174E+001
  0.169969896794298E-001 -0.777749153515028E+001  0.261098532101689E+001
  0.169969896794298E-001 -0.777757116695570E+001  0.267944864224558E+001
  0.169969896794298E-001 -0.777810188671278E+001  0.261240294237205E+001
  0.169969896794298E-001 -0.777829929729628E+001  0.261288207108347E+001
  0.169969896794298E-001 -0.777862831493544E+001  0.267687391359399E+001
  0.169969896794298E-001 -0.777880283733534E+001  0.267642752234533E+001
  0.169969896794298E-001 -0.777998539348768E+001  0.267322793808435E+001
  0.169969896794298E-001 -0.778013655086683E+001  0.261768827786579E+001
  0.169969896794298E-001 -0.778119417568373E+001  0.262089020514225E+001
  0.169969896794298E-001 -0.778122707744765E+001  0.262100143828519E+001
  0.169969896794298E-001 -0.778153416057753E+001  0.266838223817497E+001
  0.169969896794298E-001 -0.725567909667411E+001  0.266695981334072E+001
  0.169969896794298E-001 -0.725576397368827E+001  0.266664501208736E+001
  0.169969896794298E-001 -0.725697132537284E+001  0.266155965786623E+001
  0.169969896794298E-001 -0.725760313460746E+001  0.265813756985496E+001
  0.169969896794298E-001 -0.725790974090018E+001  0.265608811119711E+001
  0.169969896794298E-001 -0.725820633361259E+001  0.265366644163913E+001
