  0.269500524353869E+000  0.465662594140023E+001  0.574301669634747E+001
  0.269500524353869E+000  0.347639900991196E+001  0.528867823944557E+001
  0.269500524353869E+000  0.898691221932802E+000  0.198385854373473E+001
  0.269500524353869E+000  0.732779590899066E+000  0.442989218201327E+001
  0.269500524353869E+000  0.625330993208186E+000  0.199404445188183E+001
  0.269500524353869E+000 -0.344229304244156E+001  0.338438156533081E+001
  0.269500524353869E+000 -0.202527533892049E+000  0.417963213973152E+001
  0.269500524353869E+000 -0.547811757928582E+000  0.409093816919317E+001
  0.269500524353869E+000 -0.737317928625468E+000  0.404296749441610E+001
  0.269500524353869E+000 -0.774946026199254E+000  0.403349759480710E+001
  0.269500524353869E+000 -0.102281548735471E+001  0.397153967842559E+001
  0.269500524353869E+000 -0.104941348649264E+001  0.396493264692136E+001
  0.269500524353869E+000 -0.106045885482317E+001  0.396219118296868E+001
  0.269500524353869E+000 -0.336162628610412E+001  0.340424724952195E+001
  0.269500524353869E+000 -0.330105991033045E+001  0.341910203021813E+001
  0.269500524353869E+000 -0.126088868826496E+001  0.391266268848877E+001
  0.269500524353869E+000 -0.129508322908604E+001  0.390425209171632E+001
  0.269500524353869E+000 -0.329145161100256E+001  0.342145419302287E+001
  0.269500524353869E+000 -0.166068301379210E+001  0.209715781820779E+001
  0.269500524353869E+000 -0.178631221451137E+001  0.210408016288238E+001
  0.269500524353869E+000 -0.199559322654614E+001  0.211601242658059E+001
  0.269500524353869E+000 -0.214707796463484E+001  0.212498574533400E+001
  0.269500524353869E+000 -0.217005833656531E+001  0.369194082036086E+001
  0.269500524353869E+000 -0.222550619182753E+001  0.367861266221281E+001
  0.269500524353869E+000 -0.227743093639387E+001  0.366613742424133E+001
  0.269500524353869E+000 -0.236842089526066E+001  0.364428660710029E+001
  0.269500524353869E+000 -0.243221060233250E+001  0.362897212423623E+001
  0.269500524353869E+000 -0.268160623062998E+001  0.356907668903838E+001
  0.269500524353869E+000 -0.328250447591031E+001  0.342364346023358E+001
  0.269500524353869E+000 -0.271955840111559E+001  0.355995185088290E+001
  0.269500524353869E+000 -0.281739110990559E+001  0.216872694120374E+001
  0.269500524353869E+000 -0.293887325942790E+001  0.350710989078080E+001
  0.269500524353869E+000 -0.303017675442424E+001  0.348503169404244E+001
  0.269500524353869E+000 -0.305637840702487E+001  0.347868460457403E+001
  0.269500524353869E+000 -0.320096554777553E+001  0.344355152024527E+001
  0.269500524353869E+000 -0.320287005773714E+001  0.344308737822497E+001
  0.269500524353869E+000 -0.323403363226881E+001  0.343548698082795E+001
  0.269500524353869E+000 -0.323971413154689E+001  0.343410041123213E+001
  0.269500524353869E+000 -0.345599321345848E+001  0.338099766634814E+001
  0.269500524353869E+000 -0.351910449332213E+001  0.222403971260073E+001
  0.269500524353869E+000 -0.363106175180286E+001  0.223410778249241E+001
  0.269500524353869E+000 -0.363861424726752E+001  0.333557111042916E+001
  0.269500524353869E+000 -0.365815440248101E+001  0.223660752836532E+001
  0.269500524353869E+000 -0.368113096873855E+001  0.332489889418074E+001
  0.269500524353869E+000 -0.380088958581299E+001  0.329460662453879E+001
  0.269500524353869E+000 -0.386816361031405E+001  0.327742244835635E+001
  0.269500524353869E+000 -0.391183355523466E+001  0.326619547594872E+001
  0.269500524353869E+000 -0.391881409338074E+001  0.326439529906996E+001
  0.269500524353869E+000 -0.398876850991910E+001  0.226940703244949E+001
  0.269500524353869E+000 -0.400848132529013E+001  0.324112512122110E+001
  0.269500524353869E+000 -0.414461652846707E+001  0.228661292366408E+001
  0.269500524353869E+000 -0.414601466234619E+001  0.320483923745760E+001
  0.269500524353869E+000 -0.420222371087144E+001  0.229331534919485E+001
  0.269500524353869E+000 -0.421781522326822E+001  0.229516412233172E+001
  0.269500524353869E+000 -0.422609069879414E+001  0.318332603902184E+001
  0.269500524353869E+000 -0.424916845712683E+001  0.317706629423841E+001
  0.269500524353869E+000 -0.426389234627219E+001  0.230071863384069E+001
  0.269500524353869E+000 -0.428062438459064E+001  0.230277040491795E+001
  0.269500524353869E+000 -0.430830186062846E+001  0.316089378130014E+001
  0.269500524353869E+000 -0.431271794505260E+001  0.315967798279353E+001
  0.269500524353869E+000 -0.445553921717364E+001  0.311968130953858E+001
  0.269500524353869E+000 -0.446885347877460E+001  0.311587936033877E+001
  0.269500524353869E+000 -0.448098606796091E+001  0.232896326094609E+001
  0.269500524353869E+000 -0.449145571301023E+001  0.233042380686900E+001
  0.269500524353869E+000 -0.449704599608596E+001  0.310778290639452E+001
  0.269500524353869E+000 -0.450095445058070E+001  0.310665539400959E+001
  0.269500524353869E+000 -0.450725071832713E+001  0.310483638881550E+001
  0.269500524353869E+000 -0.450930336806047E+001  0.233293716624796E+001
  0.269500524353869E+000 -0.453543513426688E+001  0.233667228946579E+001
  0.269500524353869E+000 -0.457214845054074E+001  0.308588702565031E+001
  0.269500524353869E+000 -0.458625402020697E+001  0.308171735601897E+001
  0.269500524353869E+000 -0.460541106554033E+001  0.307602336415596E+001
  0.269500524353869E+000 -0.460716671683080E+001  0.307549970395323E+001
  0.269500524353869E+000 -0.464545567169712E+001  0.306399951527157E+001
  0.269500524353869E+000 -0.465029914781107E+001  0.306253356527991E+001
  0.269500524353869E+000 -0.465296529496966E+001  0.306172550843875E+001
  0.269500524353869E+000 -0.466025285452348E+001  0.305951273671383E+001
  0.269500524353869E+000 -0.469005136333978E+001  0.305040124418358E+001
  0.269500524353869E+000 -0.469757696013293E+001  0.304808345765154E+001
  0.269500524353869E+000 -0.469979553468802E+001  0.304739884394036E+001
  0.269500524353869E+000 -0.470415840997344E+001  0.304605076263667E+001
  0.269500524353869E+000 -0.470754694330235E+001  0.304500210815321E+001
  0.269500524353869E+000 -0.470972238327384E+001  0.304432811277794E+001
  0.269500524353869E+000 -0.472505431573238E+001  0.236602996369898E+001
  0.269500524353869E+000 -0.474913999442388E+001  0.237008818651054E+001
  0.269500524353869E+000 -0.475129474941330E+001  0.303133000040423E+001
  0.269500524353869E+000 -0.475629956689212E+001  0.237131101977780E+001
  0.269500524353869E+000 -0.476033893304156E+001  0.302847125740373E+001
  0.269500524353869E+000 -0.477424395849001E+001  0.302405337387169E+001
  0.269500524353869E+000 -0.480416504951765E+001  0.237969223221862E+001
  0.269500524353869E+000 -0.482598282326448E+001  0.238363849024246E+001
  0.269500524353869E+000 -0.485670705448608E+001  0.299723657579325E+001
  0.269500524353869E+000 -0.488081146354082E+001  0.298917693790304E+001
  0.269500524353869E+000 -0.489062433655396E+001  0.298586417066632E+001
  0.269500524353869E+000 -0.489468732993265E+001  0.298448696699734E+001
  0.269500524353869E+000 -0.489518289773010E+001  0.239673821888134E+001
  0.269500524353869E+000 -0.491476008469038E+001  0.297763368927466E+001
  0.269500524353869E+000 -0.492067079295641E+001  0.240180990584148E+001
  0.269500524353869E+000 -0.492490189133853E+001  0.240266585462245E+001
  0.269500524353869E+000 -0.492621735002087E+001  0.297368383191304E+001
  0.269500524353869E+000 -0.494689005521408E+001  0.240718156300566E+001
  0.269500524353869E+000 -0.495301764848705E+001  0.296432993405491E+001
  0.269500524353869E+000 -0.496334262781550E+001  0.241063763447482E+001
  0.269500524353869E+000 -0.496422530331316E+001  0.241082499340296E+001
  0.269500524353869E+000 -0.496834377758917E+001  0.241170186206557E+001
  0.269500524353869E+000 -0.496887391353645E+001  0.295871585597793E+001
  0.269500524353869E+000 -0.498222101498306E+001  0.295394134637118E+001
  0.269500524353869E+000 -0.498277433440725E+001  0.295374241874898E+001
  0.269500524353869E+000 -0.498336751588938E+001  0.295352907067920E+001
  0.269500524353869E+000 -0.498983324081665E+001  0.241635055655964E+001
  0.269500524353869E+000 -0.499177997172824E+001  0.295049332253835E+001
  0.269500524353869E+000 -0.499457695055679E+001  0.241739386057701E+001
  0.269500524353869E+000 -0.500318772882581E+001  0.294634595481774E+001
  0.269500524353869E+000 -0.500377392131858E+001  0.241943491164603E+001
  0.269500524353869E+000 -0.501816590110546E+001  0.242267892758262E+001
  0.269500524353869E+000 -0.502513779589674E+001  0.293826147804986E+001
  0.269500524353869E+000 -0.503325145902860E+001  0.242614776471758E+001
  0.269500524353869E+000 -0.504540759479197E+001  0.242899651436905E+001
  0.269500524353869E+000 -0.505165380919276E+001  0.243047962192589E+001
  0.269500524353869E+000 -0.505344416485340E+001  0.292761765567499E+001
  0.269500524353869E+000 -0.506458279139246E+001  0.292335660806798E+001
  0.269500524353869E+000 -0.506960838080329E+001  0.243481917202414E+001
  0.269500524353869E+000 -0.507408612548476E+001  0.243591973340811E+001
  0.269500524353869E+000 -0.507463107881872E+001  0.291947516156890E+001
  0.269500524353869E+000 -0.508595692204421E+001  0.243887436029813E+001
  0.269500524353869E+000 -0.509353232172508E+001  0.291207230553347E+001
  0.269500524353869E+000 -0.510060282197643E+001  0.290926722203215E+001
  0.269500524353869E+000 -0.510306319544377E+001  0.244323082303651E+001
  0.269500524353869E+000 -0.510901076455080E+001  0.244477413424618E+001
  0.269500524353869E+000 -0.511663774977075E+001  0.290282891297654E+001
  0.269500524353869E+000 -0.512385710995529E+001  0.244869457914522E+001
  0.269500524353869E+000 -0.512596510295991E+001  0.289903241667620E+001
  0.269500524353869E+000 -0.513271279353183E+001  0.245108137812324E+001
  0.269500524353869E+000 -0.513541283527653E+001  0.289514631521543E+001
  0.269500524353869E+000 -0.513729111080257E+001  0.245233009429597E+001
  0.269500524353869E+000 -0.514849908509755E+001  0.288969265187357E+001
  0.269500524353869E+000 -0.515719875640413E+001  0.288601914776529E+001
  0.269500524353869E+000 -0.517284129841023E+001  0.246239624100863E+001
  0.269500524353869E+000 -0.520885438395429E+001  0.247335444369052E+001
  0.269500524353869E+000 -0.522950468905366E+001  0.248004652919021E+001
  0.269500524353869E+000 -0.523025192311591E+001  0.285338135519622E+001
  0.269500524353869E+000 -0.524068611880277E+001  0.284840814828192E+001
  0.269500524353869E+000 -0.524323471792814E+001  0.284717935098092E+001
  0.269500524353869E+000 -0.524710796828781E+001  0.284530089062522E+001
  0.269500524353869E+000 -0.525455197286352E+001  0.248863525123947E+001
  0.269500524353869E+000 -0.526156952901083E+001  0.249114579991288E+001
  0.269500524353869E+000 -0.526636606142310E+001  0.283575181899059E+001
  0.269500524353869E+000 -0.526863848609966E+001  0.249372532371994E+001
  0.269500524353869E+000 -0.527398101400371E+001  0.283187228962603E+001
  0.269500524353869E+000 -0.527553059039430E+001  0.249629184499966E+001
  0.269500524353869E+000 -0.527786414529942E+001  0.282986952546927E+001
  0.269500524353869E+000 -0.529044743043033E+001  0.250203475044941E+001
  0.269500524353869E+000 -0.529389623388574E+001  0.282141226372559E+001
  0.269500524353869E+000 -0.529639292187785E+001  0.282006610451621E+001
  0.269500524353869E+000 -0.530275737327595E+001  0.281659637488197E+001
  0.269500524353869E+000 -0.530806103671079E+001  0.281366122209004E+001
  0.269500524353869E+000 -0.531446455993699E+001  0.281006127839086E+001
  0.269500524353869E+000 -0.532145789156496E+001  0.280605517258320E+001
  0.269500524353869E+000 -0.532439062244026E+001  0.251623239834098E+001
  0.269500524353869E+000 -0.533909034975131E+001  0.279556868134390E+001
  0.269500524353869E+000 -0.534294278036784E+001  0.279319578951353E+001
  0.269500524353869E+000 -0.535180494224468E+001  0.278761165837071E+001
  0.269500524353869E+000 -0.535433272706159E+001  0.253045364730639E+001
  0.269500524353869E+000 -0.535840537554872E+001  0.253254617369902E+001
  0.269500524353869E+000 -0.537467752434458E+001  0.277224812192232E+001
  0.269500524353869E+000 -0.538006761525937E+001  0.276838809989077E+001
  0.269500524353869E+000 -0.538229063874850E+001  0.254581186949599E+001
  0.269500524353869E+000 -0.538263703595462E+001  0.276651021507982E+001
  0.269500524353869E+000 -0.538404658771625E+001  0.254686541501798E+001
  0.269500524353869E+000 -0.538844707601277E+001  0.276216608017707E+001
  0.269500524353869E+000 -0.538998391000741E+001  0.255052272218888E+001
  0.269500524353869E+000 -0.540602601738446E+001  0.274803692728962E+001
  0.269500524353869E+000 -0.540689366188062E+001  0.274729386648580E+001
  0.269500524353869E+000 -0.541070497765311E+001  0.274396919001882E+001
  0.269500524353869E+000 -0.541176100448371E+001  0.274302961841606E+001
  0.269500524353869E+000 -0.541321319247361E+001  0.274172377919905E+001
  0.269500524353869E+000 -0.541357300249484E+001  0.274139769378453E+001
  0.269500524353869E+000 -0.541375621441431E+001  0.274123125967662E+001
  0.269500524353869E+000 -0.541529699780824E+001  0.273982082797841E+001
  0.269500524353869E+000 -0.412625546340668E+001  0.258933257112495E+001
  0.269500524353869E+000 -0.413754773155847E+001  0.260333538607098E+001
  0.269500524353869E+000 -0.414021971634958E+001  0.260736332318781E+001
  0.269500524353869E+000 -0.414071437181450E+001  0.260815375632091E+001
  0.269500524353869E+000 -0.414215475721005E+001  0.261054988187282E+001
  0.269500524353869E+000 -0.414250058919097E+001  0.261114817720436E+001
