  0.955380748375313E-001  0.535146307815590E+001  0.665789076403448E+001
  0.955380748375313E-001  0.563008263261027E+001  0.681453878249132E+001
  0.955380748375313E-001  0.746858559458329E+001  0.807547005477566E+001
  0.955380748375313E-001  0.689909500229279E+001  0.763529186503040E+001
  0.955380748375313E-001  0.259613439702118E+001  0.192660473240915E+001
  0.955380748375313E-001 -0.277392314032333E+001  0.216373424196510E+001
  0.955380748375313E-001 -0.556109685426139E+000  0.204146188889082E+001
  0.955380748375313E-001 -0.261589071093079E+001  0.215295773985520E+001
  0.955380748375313E-001 -0.199938320216326E+001  0.211462914475723E+001
  0.955380748375313E-001 -0.231814453200371E+001  0.213376691847150E+001
  0.955380748375313E-001 -0.240765087792052E+001  0.213939300083887E+001
  0.955380748375313E-001 -0.195690040509629E+001  0.220292755242337E+001
  0.955380748375313E-001 -0.195901236867652E+001  0.220309867141198E+001
  0.955380748375313E-001 -0.230236223727520E+001  0.223259661322300E+001
  0.955380748375313E-001 -0.245090343949868E+001  0.224653963702798E+001
  0.955380748375313E-001 -0.269622786987721E+001  0.227150674923921E+001
  0.955380748375313E-001 -0.273565140646720E+001  0.227577837499303E+001
  0.955380748375313E-001 -0.286294743263424E+001  0.229013878674309E+001
  0.955380748375313E-001 -0.292870228147908E+001  0.229792832804191E+001
  0.955380748375313E-001 -0.299557420480303E+001  0.230613892439032E+001
  0.955380748375313E-001 -0.300390912155542E+001  0.230718397288734E+001
  0.955380748375313E-001 -0.304600765239009E+001  0.231253975777241E+001
  0.955380748375313E-001 -0.307320925796432E+001  0.231607157817380E+001
  0.955380748375313E-001 -0.315157213621420E+001  0.232658168244765E+001
  0.955380748375313E-001 -0.325808365976798E+001  0.234175787821232E+001
  0.955380748375313E-001 -0.333395618604011E+001  0.235329046672447E+001
