  0.274790093863030E-001  0.240533414279374E+001  0.574301669634747E+001
  0.274790093863030E-001  0.122510721130546E+001  0.528867823944557E+001
  0.274790093863030E-001 -0.135260057667369E+001  0.198385854373473E+001
  0.274790093863030E-001 -0.151851220770743E+001  0.442989218201327E+001
  0.274790093863030E-001 -0.162596080539831E+001  0.199404445188183E+001
  0.274790093863030E-001 -0.569358484104805E+001  0.338438156533081E+001
  0.274790093863030E-001 -0.245381933249854E+001  0.417963213973152E+001
  0.274790093863030E-001 -0.279910355653508E+001  0.409093816919317E+001
  0.274790093863030E-001 -0.298860972723196E+001  0.404296749441610E+001
  0.274790093863030E-001 -0.302623782480575E+001  0.403349759480710E+001
  0.274790093863030E-001 -0.327410728596120E+001  0.397153967842559E+001
  0.274790093863030E-001 -0.330070528509914E+001  0.396493264692136E+001
  0.274790093863030E-001 -0.331175065342967E+001  0.396219118296868E+001
  0.274790093863030E-001 -0.561291808471062E+001  0.340424724952195E+001
  0.274790093863030E-001 -0.555235170893694E+001  0.341910203021813E+001
  0.274790093863030E-001 -0.351218048687145E+001  0.391266268848877E+001
  0.274790093863030E-001 -0.354637502769253E+001  0.390425209171632E+001
  0.274790093863030E-001 -0.554274340960905E+001  0.342145419302287E+001
  0.274790093863030E-001 -0.391197481239860E+001  0.209715781820779E+001
  0.274790093863030E-001 -0.403760401311786E+001  0.210408016288238E+001
  0.274790093863030E-001 -0.424688502515263E+001  0.211601242658059E+001
  0.274790093863030E-001 -0.439836976324133E+001  0.212498574533400E+001
  0.274790093863030E-001 -0.442135013517180E+001  0.369194082036086E+001
  0.274790093863030E-001 -0.447679799043403E+001  0.367861266221281E+001
  0.274790093863030E-001 -0.452872273500036E+001  0.366613742424133E+001
  0.274790093863030E-001 -0.461971269386715E+001  0.364428660710029E+001
  0.274790093863030E-001 -0.468350240093900E+001  0.362897212423623E+001
  0.274790093863030E-001 -0.493289802923648E+001  0.356907668903838E+001
  0.274790093863030E-001 -0.553379627451680E+001  0.342364346023358E+001
  0.274790093863030E-001 -0.497085019972208E+001  0.355995185088290E+001
  0.274790093863030E-001 -0.506868290851208E+001  0.216872694120374E+001
  0.274790093863030E-001 -0.519016505803439E+001  0.350710989078080E+001
  0.274790093863030E-001 -0.528146855303074E+001  0.348503169404244E+001
  0.274790093863030E-001 -0.530767020563136E+001  0.347868460457403E+001
  0.274790093863030E-001 -0.545225734638202E+001  0.344355152024527E+001
  0.274790093863030E-001 -0.545416185634364E+001  0.344308737822497E+001
  0.274790093863030E-001 -0.548532543087530E+001  0.343548698082795E+001
  0.274790093863030E-001 -0.549100593015339E+001  0.343410041123213E+001
  0.274790093863030E-001 -0.570728501206498E+001  0.338099766634814E+001
  0.274790093863030E-001 -0.577039629192863E+001  0.222403971260073E+001
  0.274790093863030E-001 -0.588235355040936E+001  0.223410778249241E+001
  0.274790093863030E-001 -0.588990604587401E+001  0.333557111042916E+001
  0.274790093863030E-001 -0.590944620108750E+001  0.223660752836532E+001
  0.274790093863030E-001 -0.593242276734505E+001  0.332489889418074E+001
  0.274790093863030E-001 -0.605218138441949E+001  0.329460662453879E+001
  0.274790093863030E-001 -0.611945540892054E+001  0.327742244835635E+001
  0.274790093863030E-001 -0.616312535384115E+001  0.326619547594872E+001
  0.274790093863030E-001 -0.617010589198724E+001  0.326439529906996E+001
  0.274790093863030E-001 -0.624006030852560E+001  0.226940703244949E+001
  0.274790093863030E-001 -0.625977312389662E+001  0.324112512122110E+001
  0.274790093863030E-001 -0.639590832707357E+001  0.228661292366408E+001
  0.274790093863030E-001 -0.639730646095269E+001  0.320483923745760E+001
  0.274790093863030E-001 -0.645351550947793E+001  0.229331534919485E+001
  0.274790093863030E-001 -0.646910702187472E+001  0.229516412233172E+001
  0.274790093863030E-001 -0.647738249740064E+001  0.318332603902184E+001
  0.274790093863030E-001 -0.650046025573332E+001  0.317706629423841E+001
  0.274790093863030E-001 -0.651518414487869E+001  0.230071863384069E+001
  0.274790093863030E-001 -0.653191618319713E+001  0.230277040491795E+001
  0.274790093863030E-001 -0.655959365923496E+001  0.316089378130014E+001
  0.274790093863030E-001 -0.656400974365910E+001  0.315967798279353E+001
  0.274790093863030E-001 -0.670683101578013E+001  0.311968130953858E+001
  0.274790093863030E-001 -0.672014527738109E+001  0.311587936033877E+001
  0.274790093863030E-001 -0.673227786656741E+001  0.232896326094609E+001
  0.274790093863030E-001 -0.674274751161672E+001  0.233042380686900E+001
  0.274790093863030E-001 -0.674833779469246E+001  0.310778290639452E+001
  0.274790093863030E-001 -0.675224624918719E+001  0.310665539400959E+001
  0.274790093863030E-001 -0.675854251693363E+001  0.310483638881550E+001
  0.274790093863030E-001 -0.676059516666696E+001  0.233293716624796E+001
  0.274790093863030E-001 -0.678672693287338E+001  0.233667228946579E+001
  0.274790093863030E-001 -0.682344024914723E+001  0.308588702565031E+001
  0.274790093863030E-001 -0.683754581881346E+001  0.308171735601897E+001
  0.274790093863030E-001 -0.685670286414682E+001  0.307602336415596E+001
  0.274790093863030E-001 -0.685845851543730E+001  0.307549970395323E+001
  0.274790093863030E-001 -0.689674747030362E+001  0.306399951527157E+001
  0.274790093863030E-001 -0.690159094641757E+001  0.306253356527991E+001
  0.274790093863030E-001 -0.690425709357615E+001  0.306172550843875E+001
  0.274790093863030E-001 -0.691154465312997E+001  0.305951273671383E+001
  0.274790093863030E-001 -0.694134316194627E+001  0.305040124418358E+001
  0.274790093863030E-001 -0.694886875873943E+001  0.304808345765154E+001
  0.274790093863030E-001 -0.695108733329452E+001  0.304739884394036E+001
  0.274790093863030E-001 -0.695545020857993E+001  0.304605076263667E+001
  0.274790093863030E-001 -0.695883874190884E+001  0.304500210815321E+001
  0.274790093863030E-001 -0.696101418188033E+001  0.304432811277794E+001
  0.274790093863030E-001 -0.697634611433887E+001  0.236602996369898E+001
  0.274790093863030E-001 -0.700043179303037E+001  0.237008818651054E+001
  0.274790093863030E-001 -0.700258654801980E+001  0.303133000040423E+001
  0.274790093863030E-001 -0.700759136549862E+001  0.237131101977780E+001
  0.274790093863030E-001 -0.701163073164806E+001  0.302847125740373E+001
  0.274790093863030E-001 -0.702553575709651E+001  0.302405337387169E+001
  0.274790093863030E-001 -0.705545684812414E+001  0.237969223221862E+001
  0.274790093863030E-001 -0.707727462187098E+001  0.238363849024246E+001
  0.274790093863030E-001 -0.710799885309257E+001  0.299723657579325E+001
  0.274790093863030E-001 -0.713210326214732E+001  0.298917693790304E+001
  0.274790093863030E-001 -0.714191613516046E+001  0.298586417066632E+001
  0.274790093863030E-001 -0.714597912853915E+001  0.298448696699734E+001
  0.274790093863030E-001 -0.714647469633660E+001  0.239673821888134E+001
  0.274790093863030E-001 -0.716605188329687E+001  0.297763368927466E+001
  0.274790093863030E-001 -0.717196259156290E+001  0.240180990584148E+001
  0.274790093863030E-001 -0.717619368994502E+001  0.240266585462245E+001
  0.274790093863030E-001 -0.717750914862736E+001  0.297368383191304E+001
  0.274790093863030E-001 -0.719818185382058E+001  0.240718156300566E+001
  0.274790093863030E-001 -0.720430944709355E+001  0.296432993405491E+001
  0.274790093863030E-001 -0.721463442642199E+001  0.241063763447482E+001
  0.274790093863030E-001 -0.721551710191966E+001  0.241082499340296E+001
  0.274790093863030E-001 -0.721963557619567E+001  0.241170186206557E+001
  0.274790093863030E-001 -0.722016571214295E+001  0.295871585597793E+001
  0.274790093863030E-001 -0.723351281358955E+001  0.295394134637118E+001
  0.274790093863030E-001 -0.723406613301374E+001  0.295374241874898E+001
  0.274790093863030E-001 -0.723465931449588E+001  0.295352907067920E+001
  0.274790093863030E-001 -0.724112503942315E+001  0.241635055655964E+001
  0.274790093863030E-001 -0.724307177033473E+001  0.295049332253835E+001
  0.274790093863030E-001 -0.724586874916329E+001  0.241739386057701E+001
  0.274790093863030E-001 -0.725447952743230E+001  0.294634595481774E+001
  0.274790093863030E-001 -0.725506571992508E+001  0.241943491164603E+001
  0.274790093863030E-001 -0.726945769971196E+001  0.242267892758262E+001
  0.274790093863030E-001 -0.727642959450324E+001  0.293826147804986E+001
  0.274790093863030E-001 -0.728454325763509E+001  0.242614776471758E+001
  0.274790093863030E-001 -0.729669939339846E+001  0.242899651436905E+001
  0.274790093863030E-001 -0.730294560779926E+001  0.243047962192589E+001
  0.274790093863030E-001 -0.730473596345989E+001  0.292761765567499E+001
  0.274790093863030E-001 -0.731587458999896E+001  0.292335660806798E+001
  0.274790093863030E-001 -0.732090017940979E+001  0.243481917202414E+001
  0.274790093863030E-001 -0.732537792409126E+001  0.243591973340811E+001
  0.274790093863030E-001 -0.732592287742521E+001  0.291947516156890E+001
  0.274790093863030E-001 -0.733724872065070E+001  0.243887436029813E+001
  0.274790093863030E-001 -0.734482412033157E+001  0.291207230553347E+001
  0.274790093863030E-001 -0.735189462058293E+001  0.290926722203215E+001
  0.274790093863030E-001 -0.735435499405026E+001  0.244323082303651E+001
  0.274790093863030E-001 -0.736030256315729E+001  0.244477413424618E+001
  0.274790093863030E-001 -0.736792954837725E+001  0.290282891297654E+001
  0.274790093863030E-001 -0.737514890856179E+001  0.244869457914522E+001
  0.274790093863030E-001 -0.737725690156641E+001  0.289903241667620E+001
  0.274790093863030E-001 -0.738400459213832E+001  0.245108137812324E+001
  0.274790093863030E-001 -0.738670463388302E+001  0.289514631521543E+001
  0.274790093863030E-001 -0.738858290940906E+001  0.245233009429597E+001
  0.274790093863030E-001 -0.739979088370405E+001  0.288969265187357E+001
  0.274790093863030E-001 -0.740849055501062E+001  0.288601914776529E+001
  0.274790093863030E-001 -0.742413309701673E+001  0.246239624100863E+001
  0.274790093863030E-001 -0.746014618256079E+001  0.247335444369052E+001
  0.274790093863030E-001 -0.748079648766016E+001  0.248004652919021E+001
  0.274790093863030E-001 -0.748154372172241E+001  0.285338135519622E+001
  0.274790093863030E-001 -0.749197791740927E+001  0.284840814828192E+001
  0.274790093863030E-001 -0.749452651653463E+001  0.284717935098092E+001
  0.274790093863030E-001 -0.749839976689431E+001  0.284530089062522E+001
  0.274790093863030E-001 -0.750584377147002E+001  0.248863525123947E+001
  0.274790093863030E-001 -0.751286132761732E+001  0.249114579991288E+001
  0.274790093863030E-001 -0.751765786002959E+001  0.283575181899059E+001
  0.274790093863030E-001 -0.751993028470615E+001  0.249372532371994E+001
  0.274790093863030E-001 -0.752527281261020E+001  0.283187228962603E+001
  0.274790093863030E-001 -0.752682238900080E+001  0.249629184499966E+001
  0.274790093863030E-001 -0.752915594390591E+001  0.282986952546927E+001
  0.274790093863030E-001 -0.754173922903683E+001  0.250203475044941E+001
  0.274790093863030E-001 -0.754518803249224E+001  0.282141226372559E+001
  0.274790093863030E-001 -0.754768472048434E+001  0.282006610451621E+001
  0.274790093863030E-001 -0.755404917188244E+001  0.281659637488197E+001
  0.274790093863030E-001 -0.755935283531728E+001  0.281366122209004E+001
  0.274790093863030E-001 -0.756575635854349E+001  0.281006127839086E+001
  0.274790093863030E-001 -0.757274969017146E+001  0.280605517258320E+001
  0.274790093863030E-001 -0.757568242104675E+001  0.251623239834098E+001
  0.274790093863030E-001 -0.759038214835781E+001  0.279556868134390E+001
  0.274790093863030E-001 -0.759423457897434E+001  0.279319578951353E+001
  0.274790093863030E-001 -0.760309674085118E+001  0.278761165837071E+001
  0.274790093863030E-001 -0.760562452566809E+001  0.253045364730639E+001
  0.274790093863030E-001 -0.760969717415521E+001  0.253254617369902E+001
  0.274790093863030E-001 -0.762596932295107E+001  0.277224812192232E+001
  0.274790093863030E-001 -0.763135941386587E+001  0.276838809989077E+001
  0.274790093863030E-001 -0.763358243735499E+001  0.254581186949599E+001
  0.274790093863030E-001 -0.763392883456112E+001  0.276651021507982E+001
  0.274790093863030E-001 -0.763533838632274E+001  0.254686541501798E+001
  0.274790093863030E-001 -0.763973887461926E+001  0.276216608017707E+001
  0.274790093863030E-001 -0.764127570861391E+001  0.255052272218888E+001
  0.274790093863030E-001 -0.765731781599096E+001  0.274803692728962E+001
  0.274790093863030E-001 -0.765818546048711E+001  0.274729386648580E+001
  0.274790093863030E-001 -0.766199677625960E+001  0.274396919001882E+001
  0.274790093863030E-001 -0.766305280309020E+001  0.274302961841606E+001
  0.274790093863030E-001 -0.766450499108010E+001  0.274172377919905E+001
  0.274790093863030E-001 -0.766486480110133E+001  0.274139769378453E+001
  0.274790093863030E-001 -0.766504801302080E+001  0.274123125967662E+001
  0.274790093863030E-001 -0.766658879641474E+001  0.273982082797841E+001
  0.274790093863030E-001 -0.413989664448122E+001  0.269611749684785E+001
