  0.294451348314272E-001  0.247432701428069E+001  0.574301669634747E+001
  0.294451348314272E-001  0.129410008279241E+001  0.528867823944557E+001
  0.294451348314272E-001 -0.128360770518674E+001  0.198385854373473E+001
  0.294451348314272E-001 -0.144951933622048E+001  0.442989218201327E+001
  0.294451348314272E-001 -0.155696793391136E+001  0.199404445188183E+001
  0.294451348314272E-001 -0.562459196956110E+001  0.338438156533081E+001
  0.294451348314272E-001 -0.238482646101159E+001  0.417963213973152E+001
  0.294451348314272E-001 -0.273011068504813E+001  0.409093816919317E+001
  0.294451348314272E-001 -0.291961685574501E+001  0.404296749441610E+001
  0.294451348314272E-001 -0.295724495331880E+001  0.403349759480710E+001
  0.294451348314272E-001 -0.320511441447425E+001  0.397153967842559E+001
  0.294451348314272E-001 -0.323171241361218E+001  0.396493264692136E+001
  0.294451348314272E-001 -0.324275778194271E+001  0.396219118296868E+001
  0.294451348314272E-001 -0.554392521322367E+001  0.340424724952195E+001
  0.294451348314272E-001 -0.548335883744999E+001  0.341910203021813E+001
  0.294451348314272E-001 -0.344318761538450E+001  0.391266268848877E+001
  0.294451348314272E-001 -0.347738215620558E+001  0.390425209171632E+001
  0.294451348314272E-001 -0.547375053812210E+001  0.342145419302287E+001
  0.294451348314272E-001 -0.384298194091165E+001  0.209715781820779E+001
  0.294451348314272E-001 -0.396861114163091E+001  0.210408016288238E+001
  0.294451348314272E-001 -0.417789215366568E+001  0.211601242658059E+001
  0.294451348314272E-001 -0.432937689175438E+001  0.212498574533400E+001
  0.294451348314272E-001 -0.435235726368485E+001  0.369194082036086E+001
  0.294451348314272E-001 -0.440780511894708E+001  0.367861266221281E+001
  0.294451348314272E-001 -0.445972986351341E+001  0.366613742424133E+001
  0.294451348314272E-001 -0.455071982238020E+001  0.364428660710029E+001
  0.294451348314272E-001 -0.461450952945205E+001  0.362897212423623E+001
  0.294451348314272E-001 -0.486390515774953E+001  0.356907668903838E+001
  0.294451348314272E-001 -0.546480340302985E+001  0.342364346023358E+001
  0.294451348314272E-001 -0.490185732823513E+001  0.355995185088290E+001
  0.294451348314272E-001 -0.499969003702513E+001  0.216872694120374E+001
  0.294451348314272E-001 -0.512117218654744E+001  0.350710989078080E+001
  0.294451348314272E-001 -0.521247568154379E+001  0.348503169404244E+001
  0.294451348314272E-001 -0.523867733414441E+001  0.347868460457403E+001
  0.294451348314272E-001 -0.538326447489507E+001  0.344355152024527E+001
  0.294451348314272E-001 -0.538516898485668E+001  0.344308737822497E+001
  0.294451348314272E-001 -0.541633255938835E+001  0.343548698082795E+001
  0.294451348314272E-001 -0.542201305866644E+001  0.343410041123213E+001
  0.294451348314272E-001 -0.563829214057802E+001  0.338099766634814E+001
  0.294451348314272E-001 -0.570140342044168E+001  0.222403971260073E+001
  0.294451348314272E-001 -0.581336067892240E+001  0.223410778249241E+001
  0.294451348314272E-001 -0.582091317438706E+001  0.333557111042916E+001
  0.294451348314272E-001 -0.584045332960055E+001  0.223660752836532E+001
  0.294451348314272E-001 -0.586342989585810E+001  0.332489889418074E+001
  0.294451348314272E-001 -0.598318851293253E+001  0.329460662453879E+001
  0.294451348314272E-001 -0.605046253743359E+001  0.327742244835635E+001
  0.294451348314272E-001 -0.609413248235420E+001  0.326619547594872E+001
  0.294451348314272E-001 -0.610111302050029E+001  0.326439529906996E+001
  0.294451348314272E-001 -0.617106743703865E+001  0.226940703244949E+001
  0.294451348314272E-001 -0.619078025240967E+001  0.324112512122110E+001
  0.294451348314272E-001 -0.632691545558662E+001  0.228661292366408E+001
  0.294451348314272E-001 -0.632831358946574E+001  0.320483923745760E+001
  0.294451348314272E-001 -0.638452263799098E+001  0.229331534919485E+001
  0.294451348314272E-001 -0.640011415038777E+001  0.229516412233172E+001
  0.294451348314272E-001 -0.640838962591368E+001  0.318332603902184E+001
  0.294451348314272E-001 -0.643146738424637E+001  0.317706629423841E+001
  0.294451348314272E-001 -0.644619127339174E+001  0.230071863384069E+001
  0.294451348314272E-001 -0.646292331171018E+001  0.230277040491795E+001
  0.294451348314272E-001 -0.649060078774801E+001  0.316089378130014E+001
  0.294451348314272E-001 -0.649501687217214E+001  0.315967798279353E+001
  0.294451348314272E-001 -0.663783814429318E+001  0.311968130953858E+001
  0.294451348314272E-001 -0.665115240589414E+001  0.311587936033877E+001
  0.294451348314272E-001 -0.666328499508045E+001  0.232896326094609E+001
  0.294451348314272E-001 -0.667375464012977E+001  0.233042380686900E+001
  0.294451348314272E-001 -0.667934492320551E+001  0.310778290639452E+001
  0.294451348314272E-001 -0.668325337770024E+001  0.310665539400959E+001
  0.294451348314272E-001 -0.668954964544667E+001  0.310483638881550E+001
  0.294451348314272E-001 -0.669160229518001E+001  0.233293716624796E+001
  0.294451348314272E-001 -0.671773406138642E+001  0.233667228946579E+001
  0.294451348314272E-001 -0.675444737766028E+001  0.308588702565031E+001
  0.294451348314272E-001 -0.676855294732651E+001  0.308171735601897E+001
  0.294451348314272E-001 -0.678770999265987E+001  0.307602336415596E+001
  0.294451348314272E-001 -0.678946564395035E+001  0.307549970395323E+001
  0.294451348314272E-001 -0.682775459881666E+001  0.306399951527157E+001
  0.294451348314272E-001 -0.683259807493061E+001  0.306253356527991E+001
  0.294451348314272E-001 -0.683526422208920E+001  0.306172550843875E+001
  0.294451348314272E-001 -0.684255178164302E+001  0.305951273671383E+001
  0.294451348314272E-001 -0.687235029045932E+001  0.305040124418358E+001
  0.294451348314272E-001 -0.687987588725247E+001  0.304808345765154E+001
  0.294451348314272E-001 -0.688209446180756E+001  0.304739884394036E+001
  0.294451348314272E-001 -0.688645733709298E+001  0.304605076263667E+001
  0.294451348314272E-001 -0.688984587042189E+001  0.304500210815321E+001
  0.294451348314272E-001 -0.689202131039338E+001  0.304432811277794E+001
  0.294451348314272E-001 -0.690735324285192E+001  0.236602996369898E+001
  0.294451348314272E-001 -0.693143892154342E+001  0.237008818651054E+001
  0.294451348314272E-001 -0.693359367653285E+001  0.303133000040423E+001
  0.294451348314272E-001 -0.693859849401167E+001  0.237131101977780E+001
  0.294451348314272E-001 -0.694263786016111E+001  0.302847125740373E+001
  0.294451348314272E-001 -0.695654288560956E+001  0.302405337387169E+001
  0.294451348314272E-001 -0.698646397663719E+001  0.237969223221862E+001
  0.294451348314272E-001 -0.700828175038403E+001  0.238363849024246E+001
  0.294451348314272E-001 -0.703900598160562E+001  0.299723657579325E+001
  0.294451348314272E-001 -0.706311039066037E+001  0.298917693790304E+001
  0.294451348314272E-001 -0.707292326367350E+001  0.298586417066632E+001
  0.294451348314272E-001 -0.707698625705219E+001  0.298448696699734E+001
  0.294451348314272E-001 -0.707748182484965E+001  0.239673821888134E+001
  0.294451348314272E-001 -0.709705901180992E+001  0.297763368927466E+001
  0.294451348314272E-001 -0.710296972007595E+001  0.240180990584148E+001
  0.294451348314272E-001 -0.710720081845807E+001  0.240266585462245E+001
  0.294451348314272E-001 -0.710851627714041E+001  0.297368383191304E+001
  0.294451348314272E-001 -0.712918898233363E+001  0.240718156300566E+001
  0.294451348314272E-001 -0.713531657560660E+001  0.296432993405491E+001
  0.294451348314272E-001 -0.714564155493504E+001  0.241063763447482E+001
  0.294451348314272E-001 -0.714652423043271E+001  0.241082499340296E+001
  0.294451348314272E-001 -0.715064270470872E+001  0.241170186206557E+001
  0.294451348314272E-001 -0.715117284065600E+001  0.295871585597793E+001
  0.294451348314272E-001 -0.716451994210260E+001  0.295394134637118E+001
  0.294451348314272E-001 -0.716507326152679E+001  0.295374241874898E+001
  0.294451348314272E-001 -0.716566644300892E+001  0.295352907067920E+001
  0.294451348314272E-001 -0.717213216793620E+001  0.241635055655964E+001
  0.294451348314272E-001 -0.717407889884778E+001  0.295049332253835E+001
  0.294451348314272E-001 -0.717687587767633E+001  0.241739386057701E+001
  0.294451348314272E-001 -0.718548665594535E+001  0.294634595481774E+001
  0.294451348314272E-001 -0.718607284843812E+001  0.241943491164603E+001
  0.294451348314272E-001 -0.720046482822501E+001  0.242267892758262E+001
  0.294451348314272E-001 -0.720743672301629E+001  0.293826147804986E+001
  0.294451348314272E-001 -0.721555038614814E+001  0.242614776471758E+001
  0.294451348314272E-001 -0.722770652191151E+001  0.242899651436905E+001
  0.294451348314272E-001 -0.723395273631231E+001  0.243047962192589E+001
  0.294451348314272E-001 -0.723574309197294E+001  0.292761765567499E+001
  0.294451348314272E-001 -0.724688171851201E+001  0.292335660806798E+001
  0.294451348314272E-001 -0.725190730792284E+001  0.243481917202414E+001
  0.294451348314272E-001 -0.725638505260431E+001  0.243591973340811E+001
  0.294451348314272E-001 -0.725693000593826E+001  0.291947516156890E+001
  0.294451348314272E-001 -0.726825584916375E+001  0.243887436029813E+001
  0.294451348314272E-001 -0.727583124884462E+001  0.291207230553347E+001
  0.294451348314272E-001 -0.728290174909598E+001  0.290926722203215E+001
  0.294451348314272E-001 -0.728536212256331E+001  0.244323082303651E+001
  0.294451348314272E-001 -0.729130969167034E+001  0.244477413424618E+001
  0.294451348314272E-001 -0.729893667689029E+001  0.290282891297654E+001
  0.294451348314272E-001 -0.730615603707483E+001  0.244869457914522E+001
  0.294451348314272E-001 -0.730826403007946E+001  0.289903241667620E+001
  0.294451348314272E-001 -0.731501172065137E+001  0.245108137812324E+001
  0.294451348314272E-001 -0.731771176239607E+001  0.289514631521543E+001
  0.294451348314272E-001 -0.731959003792211E+001  0.245233009429597E+001
  0.294451348314272E-001 -0.733079801221710E+001  0.288969265187357E+001
  0.294451348314272E-001 -0.733949768352367E+001  0.288601914776529E+001
  0.294451348314272E-001 -0.735514022552977E+001  0.246239624100863E+001
  0.294451348314272E-001 -0.739115331107384E+001  0.247335444369052E+001
  0.294451348314272E-001 -0.741180361617320E+001  0.248004652919021E+001
  0.294451348314272E-001 -0.741255085023546E+001  0.285338135519622E+001
  0.294451348314272E-001 -0.742298504592232E+001  0.284840814828192E+001
  0.294451348314272E-001 -0.742553364504768E+001  0.284717935098092E+001
  0.294451348314272E-001 -0.742940689540736E+001  0.284530089062522E+001
  0.294451348314272E-001 -0.743685089998307E+001  0.248863525123947E+001
  0.294451348314272E-001 -0.744386845613037E+001  0.249114579991288E+001
  0.294451348314272E-001 -0.744866498854264E+001  0.283575181899059E+001
  0.294451348314272E-001 -0.745093741321920E+001  0.249372532371994E+001
  0.294451348314272E-001 -0.745627994112325E+001  0.283187228962603E+001
  0.294451348314272E-001 -0.745782951751384E+001  0.249629184499966E+001
  0.294451348314272E-001 -0.746016307241896E+001  0.282986952546927E+001
  0.294451348314272E-001 -0.747274635754987E+001  0.250203475044941E+001
  0.294451348314272E-001 -0.747619516100529E+001  0.282141226372559E+001
  0.294451348314272E-001 -0.747869184899739E+001  0.282006610451621E+001
  0.294451348314272E-001 -0.748505630039549E+001  0.281659637488197E+001
  0.294451348314272E-001 -0.749035996383033E+001  0.281366122209004E+001
  0.294451348314272E-001 -0.749676348705653E+001  0.281006127839086E+001
  0.294451348314272E-001 -0.750375681868451E+001  0.280605517258320E+001
  0.294451348314272E-001 -0.750668954955980E+001  0.251623239834098E+001
  0.294451348314272E-001 -0.752138927687086E+001  0.279556868134390E+001
  0.294451348314272E-001 -0.752524170748738E+001  0.279319578951353E+001
  0.294451348314272E-001 -0.753410386936423E+001  0.278761165837071E+001
  0.294451348314272E-001 -0.753663165418114E+001  0.253045364730639E+001
  0.294451348314272E-001 -0.754070430266826E+001  0.253254617369902E+001
  0.294451348314272E-001 -0.755697645146412E+001  0.277224812192232E+001
  0.294451348314272E-001 -0.756236654237892E+001  0.276838809989077E+001
  0.294451348314272E-001 -0.756458956586804E+001  0.254581186949599E+001
  0.294451348314272E-001 -0.756493596307416E+001  0.276651021507982E+001
  0.294451348314272E-001 -0.756634551483579E+001  0.254686541501798E+001
  0.294451348314272E-001 -0.757074600313231E+001  0.276216608017707E+001
  0.294451348314272E-001 -0.757228283712695E+001  0.255052272218888E+001
  0.294451348314272E-001 -0.758832494450401E+001  0.274803692728962E+001
  0.294451348314272E-001 -0.758919258900016E+001  0.274729386648580E+001
  0.294451348314272E-001 -0.759300390477265E+001  0.274396919001882E+001
  0.294451348314272E-001 -0.759405993160325E+001  0.274302961841606E+001
  0.294451348314272E-001 -0.759551211959315E+001  0.274172377919905E+001
  0.294451348314272E-001 -0.759587192961438E+001  0.274139769378453E+001
  0.294451348314272E-001 -0.759605514153385E+001  0.274123125967662E+001
  0.294451348314272E-001 -0.759759592492778E+001  0.273982082797841E+001
