  0.184006848977354E+000  0.156615228972667E+001  0.494861658067074E+001
  0.184006848977354E+000  0.180477480727543E+001  0.502643317672990E+001
  0.184006848977354E+000  0.183296251400323E+001  0.503575123094468E+001
  0.184006848977354E+000  0.341147734917852E+001  0.560681155786580E+001
  0.184006848977354E+000 -0.105818656851699E+001  0.207980058999241E+001
  0.184006848977354E+000 -0.115033362430264E+001  0.208455249330818E+001
  0.184006848977354E+000 -0.204742685812620E+001  0.213565523097272E+001
  0.184006848977354E+000 -0.207570130072848E+001  0.213743225592759E+001
  0.184006848977354E+000 -0.210760692907341E+001  0.213945168379983E+001
  0.184006848977354E+000 -0.263508938250588E+001  0.217526881347279E+001
  0.184006848977354E+000 -0.315069230042677E+001  0.221580382158535E+001
  0.184006848977354E+000 -0.351478164879015E+001  0.224897433115567E+001
  0.184006848977354E+000 -0.360019969798257E+001  0.225746017089510E+001
  0.184006848977354E+000 -0.374762359711749E+001  0.227286228257507E+001
  0.184006848977354E+000 -0.376357988503859E+001  0.227459182418189E+001
  0.184006848977354E+000 -0.385281029129776E+001  0.228451016562440E+001
  0.184006848977354E+000 -0.397330881893988E+001  0.229862856414466E+001
  0.184006848977354E+000 -0.399157556979681E+001  0.230084842157533E+001
  0.184006848977354E+000 -0.412179599430026E+001  0.231735559850332E+001
  0.184006848977354E+000 -0.418433078916878E+001  0.232575189049018E+001
  0.184006848977354E+000 -0.422232086829284E+001  0.233101887678914E+001
  0.184006848977354E+000 -0.424493076697204E+001  0.233421708574069E+001
  0.184006848977354E+000 -0.426250736203463E+001  0.233673748623962E+001
  0.184006848977354E+000 -0.436491689246271E+001  0.235206710769138E+001
  0.184006848977354E+000 -0.441054479549302E+001  0.235928821830354E+001
  0.184006848977354E+000 -0.441436371270739E+001  0.235990460473695E+001
  0.184006848977354E+000 -0.442656072963240E+001  0.236188616837046E+001
  0.184006848977354E+000 -0.444891839583694E+001  0.236557090666847E+001
  0.184006848977354E+000 -0.448393793931466E+001  0.237148554400940E+001
  0.184006848977354E+000 -0.449223025444718E+001  0.237291286723819E+001
  0.184006848977354E+000 -0.449361246582934E+001  0.237315181172307E+001
  0.184006848977354E+000 -0.457312237658005E+001  0.238742710610849E+001
  0.184006848977354E+000 -0.459594397547686E+001  0.239173351636554E+001
  0.184006848977354E+000 -0.459703920859864E+001  0.239194273348426E+001
  0.184006848977354E+000 -0.460823753084719E+001  0.239409569295628E+001
  0.184006848977354E+000 -0.461735975478742E+001  0.239586843657769E+001
  0.184006848977354E+000 -0.467927644318097E+001  0.240838508830296E+001
  0.184006848977354E+000 -0.469837401552408E+001  0.241243124807303E+001
  0.184006848977354E+000 -0.473624533991158E+001  0.242074630352854E+001
  0.184006848977354E+000 -0.473832978038256E+001  0.242121593856966E+001
  0.184006848977354E+000 -0.474896890596791E+001  0.242363355945959E+001
  0.184006848977354E+000 -0.475367931013761E+001  0.242471515357257E+001
  0.184006848977354E+000 -0.476989813759880E+001  0.242849387481020E+001
  0.184006848977354E+000 -0.478107105319652E+001  0.243114811137774E+001
  0.184006848977354E+000 -0.478461568886661E+001  0.243199922213004E+001
  0.184006848977354E+000 -0.481205594444701E+001  0.243874348172828E+001
  0.184006848977354E+000 -0.485047201966030E+001  0.244869315607118E+001
  0.184006848977354E+000 -0.493174221387732E+001  0.247217865983436E+001
  0.184006848977354E+000 -0.493525298622011E+001  0.247328434936488E+001
  0.184006848977354E+000 -0.494996114361059E+001  0.247801467964122E+001
  0.184006848977354E+000 -0.497319865702918E+001  0.248584024943355E+001
  0.184006848977354E+000 -0.497896522358394E+001  0.248785563531172E+001
  0.184006848977354E+000 -0.498083232767095E+001  0.248851488572213E+001
  0.184006848977354E+000 -0.498168293898267E+001  0.248881633542670E+001
  0.184006848977354E+000 -0.499294117792347E+001  0.249287387430152E+001
  0.184006848977354E+000 -0.506350452574692E+001  0.252193897044390E+001
  0.184006848977354E+000 -0.506998570167705E+001  0.252502186587820E+001
  0.184006848977354E+000 -0.509178557118674E+001  0.253611903856946E+001
  0.184006848977354E+000 -0.509859448195722E+001  0.253985475478226E+001
  0.184006848977354E+000 -0.510334248915449E+001  0.254254914540044E+001
  0.184006848977354E+000 -0.511710413060975E+001  0.255083775958417E+001
  0.184006848977354E+000 -0.511955449805941E+001  0.255239849063617E+001
  0.184006848977354E+000 -0.512513650103777E+001  0.255606434826866E+001
  0.184006848977354E+000 -0.512999046515898E+001  0.255938915533772E+001
  0.184006848977354E+000 -0.513694862617013E+001  0.274430225494927E+001
  0.184006848977354E+000 -0.513858655885387E+001  0.256564093548727E+001
  0.184006848977354E+000 -0.514453333174206E+001  0.273738010376955E+001
  0.184006848977354E+000 -0.514470887794320E+001  0.257043012472678E+001
  0.184006848977354E+000 -0.514581415526048E+001  0.257132935564607E+001
  0.184006848977354E+000 -0.514644603614088E+001  0.257184859639264E+001
  0.184006848977354E+000 -0.514729602348695E+001  0.257255314726649E+001
  0.184006848977354E+000 -0.516131504242336E+001  0.258539551332433E+001
  0.184006848977354E+000 -0.516183291896751E+001  0.258592406823186E+001
  0.184006848977354E+000 -0.516538467297045E+001  0.271511703848783E+001
  0.184006848977354E+000 -0.516625074159810E+001  0.271404200041307E+001
  0.184006848977354E+000 -0.413756358672224E+001  0.269993477530392E+001
  0.184006848977354E+000 -0.413859387135170E+001  0.269828422535958E+001
  0.184006848977354E+000 -0.414207927729151E+001  0.269225267836148E+001
  0.184006848977354E+000 -0.414307262334323E+001  0.269037747966891E+001
  0.184006848977354E+000 -0.414639037541768E+001  0.268339312246413E+001
  0.184006848977354E+000 -0.414696281143414E+001  0.268203999438767E+001
  0.184006848977354E+000 -0.414807857773928E+001  0.267922811415992E+001
  0.184006848977354E+000 -0.414830160025356E+001  0.267863377758898E+001
  0.184006848977354E+000 -0.414869461410763E+001  0.267755589792224E+001
