  0.478205507067470E+000  0.108313367940719E+002  0.919999381169798E+001
  0.478205507067470E+000  0.336260350856947E+001  0.492976996939020E+001
  0.478205507067470E+000  0.365989089241915E+001  0.502643317672990E+001
  0.478205507067470E+000  0.503874245462189E+001  0.551772123918729E+001
  0.478205507067470E+000  0.665591164758123E+001  0.621199341500551E+001
  0.478205507067470E+000  0.759068168282570E+001  0.669409266843618E+001
  0.478205507067470E+000  0.685215678364806E+001  0.630748663269434E+001
  0.478205507067470E+000  0.359102334928931E+001  0.488597365417565E+001
  0.478205507067470E+000  0.330498238731917E+001  0.479680438526714E+001
  0.478205507067470E+000  0.289315259372666E+001  0.467250377222473E+001
  0.478205507067470E+000  0.273152640386170E+001  0.462494871668912E+001
  0.478205507067470E+000  0.231273022216148E+001  0.450469308160077E+001
  0.478205507067470E+000  0.228269368761020E+001  0.449622438318526E+001
  0.478205507067470E+000 -0.254115641121815E+001  0.328121945304168E+001
  0.478205507067470E+000 -0.250509710136855E+001  0.329043089276063E+001
  0.478205507067470E+000  0.707000666034973E+000  0.407636470188320E+001
  0.478205507067470E+000 -0.614893019833662E-002  0.389853910817581E+001
  0.478205507067470E+000 -0.247013142129013E+001  0.329932823727896E+001
  0.478205507067470E+000 -0.245385631550834E+001  0.330345841493020E+001
  0.478205507067470E+000 -0.138320037326108E+000  0.386615571112730E+001
  0.478205507067470E+000 -0.145316708215542E+000  0.386444557595745E+001
  0.478205507067470E+000 -0.396937793617954E+000  0.380319111701364E+001
  0.478205507067470E+000 -0.596693335935718E+000  0.375485605681993E+001
  0.478205507067470E+000 -0.686268631823766E+000  0.373324821277537E+001
  0.478205507067470E+000 -0.945395400374017E+000  0.367090569766546E+001
  0.478205507067470E+000 -0.244031344421085E+001  0.330688998279634E+001
  0.478205507067470E+000 -0.110356959649794E+001  0.363292235006223E+001
  0.478205507067470E+000 -0.112662694066935E+001  0.362738703397245E+001
  0.478205507067470E+000 -0.112796605643139E+001  0.362706555826606E+001
  0.478205507067470E+000 -0.113095628996918E+001  0.362634770617803E+001
  0.478205507067470E+000 -0.115970250706058E+001  0.361944669711897E+001
  0.478205507067470E+000 -0.117957348481279E+001  0.361467621470552E+001
  0.478205507067470E+000 -0.134201444429095E+001  0.357566331360300E+001
  0.478205507067470E+000 -0.240051682849002E+001  0.331694722358894E+001
  0.478205507067470E+000 -0.148655664786169E+001  0.354089796052009E+001
  0.478205507067470E+000 -0.150636714041353E+001  0.353612717047369E+001
  0.478205507067470E+000 -0.151905243650742E+001  0.353307136385768E+001
  0.478205507067470E+000 -0.236494838860379E+001  0.332590371024002E+001
  0.478205507067470E+000 -0.173081536581380E+001  0.348192563994840E+001
  0.478205507067470E+000 -0.175950335155536E+001  0.347497303648513E+001
  0.478205507067470E+000 -0.230096408086282E+001  0.334194404869646E+001
  0.478205507067470E+000 -0.182400054782301E+001  0.345931628858948E+001
  0.478205507067470E+000 -0.182893156533462E+001  0.345811771863522E+001
  0.478205507067470E+000 -0.188631013995801E+001  0.344415317924609E+001
  0.478205507067470E+000 -0.192756191869276E+001  0.343409206797134E+001
  0.478205507067470E+000 -0.195546879514813E+001  0.342727475113252E+001
  0.478205507067470E+000 -0.195697756661888E+001  0.342690591363643E+001
  0.478205507067470E+000 -0.196574673804816E+001  0.342476163812159E+001
  0.478205507067470E+000 -0.204030763174061E+001  0.340649024817973E+001
  0.478205507067470E+000 -0.217836814535426E+001  0.337244736503676E+001
  0.478205507067470E+000 -0.221300146892272E+001  0.336385861206081E+001
  0.478205507067470E+000 -0.223590074669681E+001  0.335816790679687E+001
  0.478205507067470E+000 -0.255602606130554E+001  0.327740992499497E+001
  0.478205507067470E+000 -0.259191871257831E+001  0.326818670624533E+001
  0.478205507067470E+000 -0.262296251806517E+001  0.326017659317831E+001
  0.478205507067470E+000 -0.262470600370327E+001  0.325972579287927E+001
  0.478205507067470E+000 -0.287786243374834E+001  0.319304759939854E+001
  0.478205507067470E+000 -0.289455983014573E+001  0.318855191696869E+001
  0.478205507067470E+000 -0.291812430998791E+001  0.318218346630393E+001
  0.478205507067470E+000 -0.292741425563457E+001  0.317966492579067E+001
  0.478205507067470E+000 -0.294790824350444E+001  0.317409272696522E+001
  0.478205507067470E+000 -0.296687644022636E+001  0.316891499124893E+001
  0.478205507067470E+000 -0.298010262953837E+001  0.316529271376636E+001
  0.478205507067470E+000 -0.298057111256084E+001  0.316516422656410E+001
  0.478205507067470E+000 -0.305030425820564E+001  0.314589281055933E+001
  0.478205507067470E+000 -0.306308859947034E+001  0.314232672919309E+001
  0.478205507067470E+000 -0.307267581579961E+001  0.313964539300996E+001
  0.478205507067470E+000 -0.308364789239804E+001  0.313656916787341E+001
  0.478205507067470E+000 -0.310892000691266E+001  0.312945208380409E+001
  0.478205507067470E+000 -0.312748282680383E+001  0.312419549535180E+001
  0.478205507067470E+000 -0.318640366634547E+001  0.310733762570451E+001
  0.478205507067470E+000 -0.333251725281396E+001  0.306422689681445E+001
  0.478205507067470E+000 -0.334555747716052E+001  0.306027523192476E+001
  0.478205507067470E+000 -0.337378003566818E+001  0.305165648265381E+001
  0.478205507067470E+000 -0.338192850002791E+001  0.304915058715276E+001
  0.478205507067470E+000 -0.338419283306536E+001  0.304845280761903E+001
  0.478205507067470E+000 -0.343655679888281E+001  0.303213445196309E+001
  0.478205507067470E+000 -0.346777696684546E+001  0.302222804908679E+001
  0.478205507067470E+000 -0.348376914323268E+001  0.301709820394598E+001
  0.478205507067470E+000 -0.348919171932374E+001  0.301534990184161E+001
  0.478205507067470E+000 -0.352728927277639E+001  0.300293336773654E+001
  0.478205507067470E+000 -0.353393314797992E+001  0.300074306508588E+001
  0.478205507067470E+000 -0.353951369477878E+001  0.299889732781084E+001
  0.478205507067470E+000 -0.355561575425152E+001  0.299354024213830E+001
  0.478205507067470E+000 -0.357427824305806E+001  0.298727076385966E+001
  0.478205507067470E+000 -0.357855859729354E+001  0.298582332226164E+001
  0.478205507067470E+000 -0.362694425161221E+001  0.296919734285181E+001
  0.478205507067470E+000 -0.370469579239246E+001  0.294131871226866E+001
  0.478205507067470E+000 -0.371161522246240E+001  0.293875768638279E+001
  0.478205507067470E+000 -0.372703149101585E+001  0.293299914222228E+001
  0.478205507067470E+000 -0.374191603500627E+001  0.292736702387423E+001
  0.478205507067470E+000 -0.374582723951720E+001  0.292587479558416E+001
  0.478205507067470E+000 -0.375970550826131E+001  0.292053686421036E+001
  0.478205507067470E+000 -0.376161685807054E+001  0.291979631698356E+001
  0.478205507067470E+000 -0.376718510156867E+001  0.291763125891216E+001
  0.478205507067470E+000 -0.377154999102070E+001  0.291592599178120E+001
  0.478205507067470E+000 -0.379737403144696E+001  0.290568402845384E+001
  0.478205507067470E+000 -0.381221142870688E+001  0.289967308351623E+001
  0.478205507067470E+000 -0.383799907349346E+001  0.288898362957364E+001
  0.478205507067470E+000 -0.384111051299811E+001  0.288767161059875E+001
  0.478205507067470E+000 -0.384402803485909E+001  0.288643677691442E+001
  0.478205507067470E+000 -0.384779085445846E+001  0.288483751284419E+001
  0.478205507067470E+000 -0.391162947682658E+001  0.285640471873153E+001
  0.478205507067470E+000 -0.391697529822248E+001  0.285389581239032E+001
  0.478205507067470E+000 -0.392295829216161E+001  0.285106066096250E+001
  0.478205507067470E+000 -0.393025157903949E+001  0.284756411086311E+001
  0.478205507067470E+000 -0.393644579444363E+001  0.284455797067968E+001
  0.478205507067470E+000 -0.393692915554197E+001  0.284432193228425E+001
  0.478205507067470E+000 -0.393938936279041E+001  0.284311720761453E+001
  0.478205507067470E+000 -0.396644670683226E+001  0.282947090734479E+001
  0.478205507067470E+000 -0.399739348075906E+001  0.281281303726187E+001
  0.478205507067470E+000 -0.400542327210041E+001  0.280826956574846E+001
  0.478205507067470E+000 -0.402396852638573E+001  0.279735594741786E+001
  0.478205507067470E+000 -0.403061922988876E+001  0.279328082019258E+001
  0.478205507067470E+000 -0.403143258754248E+001  0.279277599372026E+001
  0.478205507067470E+000 -0.404483895542156E+001  0.278423378904282E+001
  0.478205507067470E+000 -0.406720502482715E+001  0.276887813593192E+001
  0.478205507067470E+000 -0.407346658172952E+001  0.276427273703843E+001
  0.478205507067470E+000 -0.408110963031125E+001  0.275842760679622E+001
  0.478205507067470E+000 -0.408318934878291E+001  0.275678991657800E+001
  0.478205507067470E+000 -0.408754174347335E+001  0.275329054650474E+001
  0.478205507067470E+000 -0.409171923632555E+001  0.274983253681752E+001
