  0.175097651414857E+000  0.422182627347178E+001  0.574301669634747E+001
  0.175097651414857E+000  0.304159934198350E+001  0.528867823944557E+001
  0.175097651414857E+000  0.463891554004348E+000  0.198385854373473E+001
  0.175097651414857E+000  0.297979922970611E+000  0.442989218201327E+001
  0.175097651414857E+000  0.190531325279732E+000  0.199404445188183E+001
  0.175097651414857E+000 -0.387709271037001E+001  0.338438156533081E+001
  0.175097651414857E+000 -0.637327201820504E+000  0.417963213973152E+001
  0.175097651414857E+000 -0.982611425857036E+000  0.409093816919317E+001
  0.175097651414857E+000 -0.117211759655392E+001  0.404296749441610E+001
  0.175097651414857E+000 -0.120974569412771E+001  0.403349759480710E+001
  0.175097651414857E+000 -0.145761515528316E+001  0.397153967842559E+001
  0.175097651414857E+000 -0.148421315442109E+001  0.396493264692136E+001
  0.175097651414857E+000 -0.149525852275163E+001  0.396219118296868E+001
  0.175097651414857E+000 -0.379642595403258E+001  0.340424724952195E+001
  0.175097651414857E+000 -0.373585957825890E+001  0.341910203021813E+001
  0.175097651414857E+000 -0.169568835619341E+001  0.391266268848877E+001
  0.175097651414857E+000 -0.172988289701449E+001  0.390425209171632E+001
  0.175097651414857E+000 -0.372625127893101E+001  0.342145419302287E+001
  0.175097651414857E+000 -0.209548268172056E+001  0.209715781820779E+001
  0.175097651414857E+000 -0.222111188243982E+001  0.210408016288238E+001
  0.175097651414857E+000 -0.243039289447459E+001  0.211601242658059E+001
  0.175097651414857E+000 -0.258187763256329E+001  0.212498574533400E+001
  0.175097651414857E+000 -0.260485800449376E+001  0.369194082036086E+001
  0.175097651414857E+000 -0.266030585975599E+001  0.367861266221281E+001
  0.175097651414857E+000 -0.271223060432232E+001  0.366613742424133E+001
  0.175097651414857E+000 -0.280322056318911E+001  0.364428660710029E+001
  0.175097651414857E+000 -0.286701027026096E+001  0.362897212423623E+001
  0.175097651414857E+000 -0.311640589855844E+001  0.356907668903838E+001
  0.175097651414857E+000 -0.371730414383876E+001  0.342364346023358E+001
  0.175097651414857E+000 -0.315435806904404E+001  0.355995185088290E+001
  0.175097651414857E+000 -0.325219077783404E+001  0.216872694120374E+001
  0.175097651414857E+000 -0.337367292735635E+001  0.350710989078080E+001
  0.175097651414857E+000 -0.346497642235270E+001  0.348503169404244E+001
  0.175097651414857E+000 -0.349117807495332E+001  0.347868460457403E+001
  0.175097651414857E+000 -0.363576521570398E+001  0.344355152024527E+001
  0.175097651414857E+000 -0.363766972566559E+001  0.344308737822497E+001
  0.175097651414857E+000 -0.366883330019726E+001  0.343548698082795E+001
  0.175097651414857E+000 -0.367451379947535E+001  0.343410041123213E+001
  0.175097651414857E+000 -0.389079288138694E+001  0.338099766634814E+001
  0.175097651414857E+000 -0.395390416125059E+001  0.222403971260073E+001
  0.175097651414857E+000 -0.406586141973132E+001  0.223410778249241E+001
  0.175097651414857E+000 -0.407341391519597E+001  0.333557111042916E+001
  0.175097651414857E+000 -0.409295407040946E+001  0.223660752836532E+001
  0.175097651414857E+000 -0.411593063666701E+001  0.332489889418074E+001
  0.175097651414857E+000 -0.423568925374145E+001  0.329460662453879E+001
  0.175097651414857E+000 -0.430296327824250E+001  0.327742244835635E+001
  0.175097651414857E+000 -0.434663322316311E+001  0.326619547594872E+001
  0.175097651414857E+000 -0.435361376130920E+001  0.326439529906996E+001
  0.175097651414857E+000 -0.442356817784756E+001  0.226940703244949E+001
  0.175097651414857E+000 -0.444328099321858E+001  0.324112512122110E+001
  0.175097651414857E+000 -0.457941619639553E+001  0.228661292366408E+001
  0.175097651414857E+000 -0.458081433027465E+001  0.320483923745760E+001
  0.175097651414857E+000 -0.463702337879989E+001  0.229331534919485E+001
  0.175097651414857E+000 -0.465261489119668E+001  0.229516412233172E+001
  0.175097651414857E+000 -0.466089036672260E+001  0.318332603902184E+001
  0.175097651414857E+000 -0.468396812505528E+001  0.317706629423841E+001
  0.175097651414857E+000 -0.469869201420065E+001  0.230071863384069E+001
  0.175097651414857E+000 -0.471542405251909E+001  0.230277040491795E+001
  0.175097651414857E+000 -0.474310152855692E+001  0.316089378130014E+001
  0.175097651414857E+000 -0.474751761298105E+001  0.315967798279353E+001
  0.175097651414857E+000 -0.489033888510209E+001  0.311968130953858E+001
  0.175097651414857E+000 -0.490365314670305E+001  0.311587936033877E+001
  0.175097651414857E+000 -0.491578573588937E+001  0.232896326094609E+001
  0.175097651414857E+000 -0.492625538093868E+001  0.233042380686900E+001
  0.175097651414857E+000 -0.493184566401442E+001  0.310778290639452E+001
  0.175097651414857E+000 -0.493575411850915E+001  0.310665539400959E+001
  0.175097651414857E+000 -0.494205038625558E+001  0.310483638881550E+001
  0.175097651414857E+000 -0.494410303598892E+001  0.233293716624796E+001
  0.175097651414857E+000 -0.497023480219534E+001  0.233667228946579E+001
  0.175097651414857E+000 -0.500694811846919E+001  0.308588702565031E+001
  0.175097651414857E+000 -0.502105368813542E+001  0.308171735601897E+001
  0.175097651414857E+000 -0.504021073346878E+001  0.307602336415596E+001
  0.175097651414857E+000 -0.504196638475926E+001  0.307549970395323E+001
  0.175097651414857E+000 -0.508025533962557E+001  0.306399951527157E+001
  0.175097651414857E+000 -0.508509881573952E+001  0.306253356527991E+001
  0.175097651414857E+000 -0.508776496289811E+001  0.306172550843875E+001
  0.175097651414857E+000 -0.509505252245193E+001  0.305951273671383E+001
  0.175097651414857E+000 -0.512485103126823E+001  0.305040124418358E+001
  0.175097651414857E+000 -0.513237662806138E+001  0.304808345765154E+001
  0.175097651414857E+000 -0.513459520261648E+001  0.304739884394036E+001
  0.175097651414857E+000 -0.513895807790189E+001  0.304605076263667E+001
  0.175097651414857E+000 -0.514234661123080E+001  0.304500210815321E+001
  0.175097651414857E+000 -0.514452205120229E+001  0.304432811277794E+001
  0.175097651414857E+000 -0.515985398366083E+001  0.236602996369898E+001
  0.175097651414857E+000 -0.518393966235233E+001  0.237008818651054E+001
  0.175097651414857E+000 -0.518609441734176E+001  0.303133000040423E+001
  0.175097651414857E+000 -0.519109923482058E+001  0.237131101977780E+001
  0.175097651414857E+000 -0.519513860097002E+001  0.302847125740373E+001
  0.175097651414857E+000 -0.520904362641847E+001  0.302405337387169E+001
  0.175097651414857E+000 -0.523896471744610E+001  0.237969223221862E+001
  0.175097651414857E+000 -0.526078249119294E+001  0.238363849024246E+001
  0.175097651414857E+000 -0.529150672241453E+001  0.299723657579325E+001
  0.175097651414857E+000 -0.531561113146928E+001  0.298917693790304E+001
  0.175097651414857E+000 -0.532542400448241E+001  0.298586417066632E+001
  0.175097651414857E+000 -0.532948699786111E+001  0.298448696699734E+001
  0.175097651414857E+000 -0.532998256565856E+001  0.239673821888134E+001
  0.175097651414857E+000 -0.534955975261883E+001  0.297763368927466E+001
  0.175097651414857E+000 -0.535547046088486E+001  0.240180990584148E+001
  0.175097651414857E+000 -0.535970155926698E+001  0.240266585462245E+001
  0.175097651414857E+000 -0.536101701794932E+001  0.297368383191304E+001
  0.175097651414857E+000 -0.538168972314254E+001  0.240718156300566E+001
  0.175097651414857E+000 -0.538781731641551E+001  0.296432993405491E+001
  0.175097651414857E+000 -0.539814229574395E+001  0.241063763447482E+001
  0.175097651414857E+000 -0.539902497124162E+001  0.241082499340296E+001
  0.175097651414857E+000 -0.540314344551763E+001  0.241170186206557E+001
  0.175097651414857E+000 -0.540367358146491E+001  0.295871585597793E+001
  0.175097651414857E+000 -0.541702068291151E+001  0.295394134637118E+001
  0.175097651414857E+000 -0.541757400233570E+001  0.295374241874898E+001
  0.175097651414857E+000 -0.541816718381783E+001  0.295352907067920E+001
  0.175097651414857E+000 -0.542463290874511E+001  0.241635055655964E+001
  0.175097651414857E+000 -0.542657963965669E+001  0.295049332253835E+001
  0.175097651414857E+000 -0.542937661848524E+001  0.241739386057701E+001
  0.175097651414857E+000 -0.543798739675426E+001  0.294634595481774E+001
  0.175097651414857E+000 -0.543857358924704E+001  0.241943491164603E+001
  0.175097651414857E+000 -0.545296556903392E+001  0.242267892758262E+001
  0.175097651414857E+000 -0.545993746382520E+001  0.293826147804986E+001
  0.175097651414857E+000 -0.546805112695705E+001  0.242614776471758E+001
  0.175097651414857E+000 -0.548020726272042E+001  0.242899651436905E+001
  0.175097651414857E+000 -0.548645347712122E+001  0.243047962192589E+001
  0.175097651414857E+000 -0.548824383278185E+001  0.292761765567499E+001
  0.175097651414857E+000 -0.549938245932092E+001  0.292335660806798E+001
  0.175097651414857E+000 -0.550440804873175E+001  0.243481917202414E+001
  0.175097651414857E+000 -0.550888579341322E+001  0.243591973340811E+001
  0.175097651414857E+000 -0.550943074674717E+001  0.291947516156890E+001
  0.175097651414857E+000 -0.552075658997266E+001  0.243887436029813E+001
  0.175097651414857E+000 -0.552833198965353E+001  0.291207230553347E+001
  0.175097651414857E+000 -0.553540248990489E+001  0.290926722203215E+001
  0.175097651414857E+000 -0.553786286337222E+001  0.244323082303651E+001
  0.175097651414857E+000 -0.554381043247925E+001  0.244477413424618E+001
  0.175097651414857E+000 -0.555143741769920E+001  0.290282891297654E+001
  0.175097651414857E+000 -0.555865677788374E+001  0.244869457914522E+001
  0.175097651414857E+000 -0.556076477088837E+001  0.289903241667620E+001
  0.175097651414857E+000 -0.556751246146028E+001  0.245108137812324E+001
  0.175097651414857E+000 -0.557021250320498E+001  0.289514631521543E+001
  0.175097651414857E+000 -0.557209077873102E+001  0.245233009429597E+001
  0.175097651414857E+000 -0.558329875302601E+001  0.288969265187357E+001
  0.175097651414857E+000 -0.559199842433258E+001  0.288601914776529E+001
  0.175097651414857E+000 -0.560764096633869E+001  0.246239624100863E+001
  0.175097651414857E+000 -0.564365405188275E+001  0.247335444369052E+001
  0.175097651414857E+000 -0.566430435698211E+001  0.248004652919021E+001
  0.175097651414857E+000 -0.566505159104437E+001  0.285338135519622E+001
  0.175097651414857E+000 -0.567548578673123E+001  0.284840814828192E+001
  0.175097651414857E+000 -0.567803438585659E+001  0.284717935098092E+001
  0.175097651414857E+000 -0.568190763621627E+001  0.284530089062522E+001
  0.175097651414857E+000 -0.568935164079198E+001  0.248863525123947E+001
  0.175097651414857E+000 -0.569636919693928E+001  0.249114579991288E+001
  0.175097651414857E+000 -0.570116572935155E+001  0.283575181899059E+001
  0.175097651414857E+000 -0.570343815402811E+001  0.249372532371994E+001
  0.175097651414857E+000 -0.570878068193216E+001  0.283187228962603E+001
  0.175097651414857E+000 -0.571033025832275E+001  0.249629184499966E+001
  0.175097651414857E+000 -0.571266381322787E+001  0.282986952546927E+001
  0.175097651414857E+000 -0.572524709835879E+001  0.250203475044941E+001
  0.175097651414857E+000 -0.572869590181420E+001  0.282141226372559E+001
  0.175097651414857E+000 -0.573119258980630E+001  0.282006610451621E+001
  0.175097651414857E+000 -0.573755704120440E+001  0.281659637488197E+001
  0.175097651414857E+000 -0.574286070463924E+001  0.281366122209004E+001
  0.175097651414857E+000 -0.574926422786544E+001  0.281006127839086E+001
  0.175097651414857E+000 -0.575625755949342E+001  0.280605517258320E+001
  0.175097651414857E+000 -0.575919029036871E+001  0.251623239834098E+001
  0.175097651414857E+000 -0.577389001767977E+001  0.279556868134390E+001
  0.175097651414857E+000 -0.577774244829630E+001  0.279319578951353E+001
  0.175097651414857E+000 -0.578660461017314E+001  0.278761165837071E+001
  0.175097651414857E+000 -0.578913239499005E+001  0.253045364730639E+001
  0.175097651414857E+000 -0.579320504347717E+001  0.253254617369902E+001
  0.175097651414857E+000 -0.580947719227303E+001  0.277224812192232E+001
  0.175097651414857E+000 -0.581486728318783E+001  0.276838809989077E+001
  0.175097651414857E+000 -0.581709030667695E+001  0.254581186949599E+001
  0.175097651414857E+000 -0.581743670388308E+001  0.276651021507982E+001
  0.175097651414857E+000 -0.581884625564470E+001  0.254686541501798E+001
  0.175097651414857E+000 -0.582324674394122E+001  0.276216608017707E+001
  0.175097651414857E+000 -0.582478357793587E+001  0.255052272218888E+001
  0.175097651414857E+000 -0.584082568531292E+001  0.274803692728962E+001
  0.175097651414857E+000 -0.584169332980907E+001  0.274729386648580E+001
  0.175097651414857E+000 -0.584550464558156E+001  0.274396919001882E+001
  0.175097651414857E+000 -0.584656067241216E+001  0.274302961841606E+001
  0.175097651414857E+000 -0.584801286040206E+001  0.274172377919905E+001
  0.175097651414857E+000 -0.584837267042329E+001  0.274139769378453E+001
  0.175097651414857E+000 -0.584855588234276E+001  0.274123125967662E+001
  0.175097651414857E+000 -0.585009666573669E+001  0.273982082797841E+001
  0.175097651414857E+000 -0.511463004479598E+001  0.268598584247772E+001
  0.175097651414857E+000 -0.511512566957547E+001  0.268490172252952E+001
  0.175097651414857E+000 -0.511623388462758E+001  0.261967011544841E+001
  0.175097651414857E+000 -0.511676581534337E+001  0.262089361377968E+001
  0.175097651414857E+000 -0.511677898406487E+001  0.262092457224720E+001
  0.175097651414857E+000 -0.415061971972463E+001  0.267152276110549E+001
  0.175097651414857E+000 -0.415133564966834E+001  0.266879512006045E+001
