  0.183401246239691E+000  0.426627803604261E+001  0.574301669634747E+001
  0.183401246239691E+000  0.308605110455434E+001  0.528867823944557E+001
  0.183401246239691E+000  0.508343316575182E+000  0.198385854373473E+001
  0.183401246239691E+000  0.342431685541445E+000  0.442989218201327E+001
  0.183401246239691E+000  0.234983087850565E+000  0.199404445188183E+001
  0.183401246239691E+000 -0.383264094779918E+001  0.338438156533081E+001
  0.183401246239691E+000 -0.592875439249670E+000  0.417963213973152E+001
  0.183401246239691E+000 -0.938159663286203E+000  0.409093816919317E+001
  0.183401246239691E+000 -0.112766583398309E+001  0.404296749441610E+001
  0.183401246239691E+000 -0.116529393155687E+001  0.403349759480710E+001
  0.183401246239691E+000 -0.141316339271233E+001  0.397153967842559E+001
  0.183401246239691E+000 -0.143976139185026E+001  0.396493264692136E+001
  0.183401246239691E+000 -0.145080676018079E+001  0.396219118296868E+001
  0.183401246239691E+000 -0.375197419146174E+001  0.340424724952195E+001
  0.183401246239691E+000 -0.369140781568807E+001  0.341910203021813E+001
  0.183401246239691E+000 -0.165123659362258E+001  0.391266268848877E+001
  0.183401246239691E+000 -0.168543113444366E+001  0.390425209171632E+001
  0.183401246239691E+000 -0.368179951636018E+001  0.342145419302287E+001
  0.183401246239691E+000 -0.205103091914972E+001  0.209715781820779E+001
  0.183401246239691E+000 -0.217666011986899E+001  0.210408016288238E+001
  0.183401246239691E+000 -0.238594113190376E+001  0.211601242658059E+001
  0.183401246239691E+000 -0.253742586999246E+001  0.212498574533400E+001
  0.183401246239691E+000 -0.256040624192293E+001  0.369194082036086E+001
  0.183401246239691E+000 -0.261585409718515E+001  0.367861266221281E+001
  0.183401246239691E+000 -0.266777884175149E+001  0.366613742424133E+001
  0.183401246239691E+000 -0.275876880061828E+001  0.364428660710029E+001
  0.183401246239691E+000 -0.282255850769012E+001  0.362897212423623E+001
  0.183401246239691E+000 -0.307195413598761E+001  0.356907668903838E+001
  0.183401246239691E+000 -0.367285238126793E+001  0.342364346023358E+001
  0.183401246239691E+000 -0.310990630647321E+001  0.355995185088290E+001
  0.183401246239691E+000 -0.320773901526321E+001  0.216872694120374E+001
  0.183401246239691E+000 -0.332922116478552E+001  0.350710989078080E+001
  0.183401246239691E+000 -0.342052465978187E+001  0.348503169404244E+001
  0.183401246239691E+000 -0.344672631238249E+001  0.347868460457403E+001
  0.183401246239691E+000 -0.359131345313315E+001  0.344355152024527E+001
  0.183401246239691E+000 -0.359321796309476E+001  0.344308737822497E+001
  0.183401246239691E+000 -0.362438153762643E+001  0.343548698082795E+001
  0.183401246239691E+000 -0.363006203690451E+001  0.343410041123213E+001
  0.183401246239691E+000 -0.384634111881610E+001  0.338099766634814E+001
  0.183401246239691E+000 -0.390945239867975E+001  0.222403971260073E+001
  0.183401246239691E+000 -0.402140965716048E+001  0.223410778249241E+001
  0.183401246239691E+000 -0.402896215262514E+001  0.333557111042916E+001
  0.183401246239691E+000 -0.404850230783863E+001  0.223660752836532E+001
  0.183401246239691E+000 -0.407147887409617E+001  0.332489889418074E+001
  0.183401246239691E+000 -0.419123749117061E+001  0.329460662453879E+001
  0.183401246239691E+000 -0.425851151567167E+001  0.327742244835635E+001
  0.183401246239691E+000 -0.430218146059228E+001  0.326619547594872E+001
  0.183401246239691E+000 -0.430916199873836E+001  0.326439529906996E+001
  0.183401246239691E+000 -0.437911641527672E+001  0.226940703244949E+001
  0.183401246239691E+000 -0.439882923064775E+001  0.324112512122110E+001
  0.183401246239691E+000 -0.453496443382469E+001  0.228661292366408E+001
  0.183401246239691E+000 -0.453636256770382E+001  0.320483923745760E+001
  0.183401246239691E+000 -0.459257161622906E+001  0.229331534919485E+001
  0.183401246239691E+000 -0.460816312862584E+001  0.229516412233172E+001
  0.183401246239691E+000 -0.461643860415176E+001  0.318332603902184E+001
  0.183401246239691E+000 -0.463951636248445E+001  0.317706629423841E+001
  0.183401246239691E+000 -0.465424025162981E+001  0.230071863384069E+001
  0.183401246239691E+000 -0.467097228994826E+001  0.230277040491795E+001
  0.183401246239691E+000 -0.469864976598608E+001  0.316089378130014E+001
  0.183401246239691E+000 -0.470306585041022E+001  0.315967798279353E+001
  0.183401246239691E+000 -0.484588712253126E+001  0.311968130953858E+001
  0.183401246239691E+000 -0.485920138413222E+001  0.311587936033877E+001
  0.183401246239691E+000 -0.487133397331853E+001  0.232896326094609E+001
  0.183401246239691E+000 -0.488180361836785E+001  0.233042380686900E+001
  0.183401246239691E+000 -0.488739390144358E+001  0.310778290639452E+001
  0.183401246239691E+000 -0.489130235593832E+001  0.310665539400959E+001
  0.183401246239691E+000 -0.489759862368475E+001  0.310483638881550E+001
  0.183401246239691E+000 -0.489965127341809E+001  0.233293716624796E+001
  0.183401246239691E+000 -0.492578303962450E+001  0.233667228946579E+001
  0.183401246239691E+000 -0.496249635589836E+001  0.308588702565031E+001
  0.183401246239691E+000 -0.497660192556459E+001  0.308171735601897E+001
  0.183401246239691E+000 -0.499575897089795E+001  0.307602336415596E+001
  0.183401246239691E+000 -0.499751462218842E+001  0.307549970395323E+001
  0.183401246239691E+000 -0.503580357705474E+001  0.306399951527157E+001
  0.183401246239691E+000 -0.504064705316869E+001  0.306253356527991E+001
  0.183401246239691E+000 -0.504331320032728E+001  0.306172550843875E+001
  0.183401246239691E+000 -0.505060075988110E+001  0.305951273671383E+001
  0.183401246239691E+000 -0.508039926869740E+001  0.305040124418358E+001
  0.183401246239691E+000 -0.508792486549055E+001  0.304808345765154E+001
  0.183401246239691E+000 -0.509014344004564E+001  0.304739884394036E+001
  0.183401246239691E+000 -0.509450631533106E+001  0.304605076263667E+001
  0.183401246239691E+000 -0.509789484865997E+001  0.304500210815321E+001
  0.183401246239691E+000 -0.510007028863146E+001  0.304432811277794E+001
  0.183401246239691E+000 -0.511540222109000E+001  0.236602996369898E+001
  0.183401246239691E+000 -0.513948789978150E+001  0.237008818651054E+001
  0.183401246239691E+000 -0.514164265477092E+001  0.303133000040423E+001
  0.183401246239691E+000 -0.514664747224974E+001  0.237131101977780E+001
  0.183401246239691E+000 -0.515068683839918E+001  0.302847125740373E+001
  0.183401246239691E+000 -0.516459186384763E+001  0.302405337387169E+001
  0.183401246239691E+000 -0.519451295487527E+001  0.237969223221862E+001
  0.183401246239691E+000 -0.521633072862210E+001  0.238363849024246E+001
  0.183401246239691E+000 -0.524705495984370E+001  0.299723657579325E+001
  0.183401246239691E+000 -0.527115936889844E+001  0.298917693790304E+001
  0.183401246239691E+000 -0.528097224191158E+001  0.298586417066632E+001
  0.183401246239691E+000 -0.528503523529027E+001  0.298448696699734E+001
  0.183401246239691E+000 -0.528553080308772E+001  0.239673821888134E+001
  0.183401246239691E+000 -0.530510799004800E+001  0.297763368927466E+001
  0.183401246239691E+000 -0.531101869831403E+001  0.240180990584148E+001
  0.183401246239691E+000 -0.531524979669615E+001  0.240266585462245E+001
  0.183401246239691E+000 -0.531656525537849E+001  0.297368383191304E+001
  0.183401246239691E+000 -0.533723796057170E+001  0.240718156300566E+001
  0.183401246239691E+000 -0.534336555384467E+001  0.296432993405491E+001
  0.183401246239691E+000 -0.535369053317312E+001  0.241063763447482E+001
  0.183401246239691E+000 -0.535457320867078E+001  0.241082499340296E+001
  0.183401246239691E+000 -0.535869168294679E+001  0.241170186206557E+001
  0.183401246239691E+000 -0.535922181889408E+001  0.295871585597793E+001
  0.183401246239691E+000 -0.537256892034068E+001  0.295394134637118E+001
  0.183401246239691E+000 -0.537312223976487E+001  0.295374241874898E+001
  0.183401246239691E+000 -0.537371542124700E+001  0.295352907067920E+001
  0.183401246239691E+000 -0.538018114617427E+001  0.241635055655964E+001
  0.183401246239691E+000 -0.538212787708586E+001  0.295049332253835E+001
  0.183401246239691E+000 -0.538492485591441E+001  0.241739386057701E+001
  0.183401246239691E+000 -0.539353563418343E+001  0.294634595481774E+001
  0.183401246239691E+000 -0.539412182667620E+001  0.241943491164603E+001
  0.183401246239691E+000 -0.540851380646308E+001  0.242267892758262E+001
  0.183401246239691E+000 -0.541548570125436E+001  0.293826147804986E+001
  0.183401246239691E+000 -0.542359936438622E+001  0.242614776471758E+001
  0.183401246239691E+000 -0.543575550014959E+001  0.242899651436905E+001
  0.183401246239691E+000 -0.544200171455039E+001  0.243047962192589E+001
  0.183401246239691E+000 -0.544379207021102E+001  0.292761765567499E+001
  0.183401246239691E+000 -0.545493069675008E+001  0.292335660806798E+001
  0.183401246239691E+000 -0.545995628616091E+001  0.243481917202414E+001
  0.183401246239691E+000 -0.546443403084238E+001  0.243591973340811E+001
  0.183401246239691E+000 -0.546497898417634E+001  0.291947516156890E+001
  0.183401246239691E+000 -0.547630482740183E+001  0.243887436029813E+001
  0.183401246239691E+000 -0.548388022708270E+001  0.291207230553347E+001
  0.183401246239691E+000 -0.549095072733405E+001  0.290926722203215E+001
  0.183401246239691E+000 -0.549341110080139E+001  0.244323082303651E+001
  0.183401246239691E+000 -0.549935866990842E+001  0.244477413424618E+001
  0.183401246239691E+000 -0.550698565512837E+001  0.290282891297654E+001
  0.183401246239691E+000 -0.551420501531291E+001  0.244869457914522E+001
  0.183401246239691E+000 -0.551631300831753E+001  0.289903241667620E+001
  0.183401246239691E+000 -0.552306069888945E+001  0.245108137812324E+001
  0.183401246239691E+000 -0.552576074063415E+001  0.289514631521543E+001
  0.183401246239691E+000 -0.552763901616019E+001  0.245233009429597E+001
  0.183401246239691E+000 -0.553884699045517E+001  0.288969265187357E+001
  0.183401246239691E+000 -0.554754666176175E+001  0.288601914776529E+001
  0.183401246239691E+000 -0.556318920376785E+001  0.246239624100863E+001
  0.183401246239691E+000 -0.559920228931192E+001  0.247335444369052E+001
  0.183401246239691E+000 -0.561985259441128E+001  0.248004652919021E+001
  0.183401246239691E+000 -0.562059982847353E+001  0.285338135519622E+001
  0.183401246239691E+000 -0.563103402416040E+001  0.284840814828192E+001
  0.183401246239691E+000 -0.563358262328576E+001  0.284717935098092E+001
  0.183401246239691E+000 -0.563745587364543E+001  0.284530089062522E+001
  0.183401246239691E+000 -0.564489987822115E+001  0.248863525123947E+001
  0.183401246239691E+000 -0.565191743436845E+001  0.249114579991288E+001
  0.183401246239691E+000 -0.565671396678072E+001  0.283575181899059E+001
  0.183401246239691E+000 -0.565898639145728E+001  0.249372532371994E+001
  0.183401246239691E+000 -0.566432891936133E+001  0.283187228962603E+001
  0.183401246239691E+000 -0.566587849575192E+001  0.249629184499966E+001
  0.183401246239691E+000 -0.566821205065704E+001  0.282986952546927E+001
  0.183401246239691E+000 -0.568079533578795E+001  0.250203475044941E+001
  0.183401246239691E+000 -0.568424413924336E+001  0.282141226372559E+001
  0.183401246239691E+000 -0.568674082723547E+001  0.282006610451621E+001
  0.183401246239691E+000 -0.569310527863357E+001  0.281659637488197E+001
  0.183401246239691E+000 -0.569840894206841E+001  0.281366122209004E+001
  0.183401246239691E+000 -0.570481246529461E+001  0.281006127839086E+001
  0.183401246239691E+000 -0.571180579692258E+001  0.280605517258320E+001
  0.183401246239691E+000 -0.571473852779788E+001  0.251623239834098E+001
  0.183401246239691E+000 -0.572943825510894E+001  0.279556868134390E+001
  0.183401246239691E+000 -0.573329068572546E+001  0.279319578951353E+001
  0.183401246239691E+000 -0.574215284760230E+001  0.278761165837071E+001
  0.183401246239691E+000 -0.574468063241921E+001  0.253045364730639E+001
  0.183401246239691E+000 -0.574875328090634E+001  0.253254617369902E+001
  0.183401246239691E+000 -0.576502542970220E+001  0.277224812192232E+001
  0.183401246239691E+000 -0.577041552061699E+001  0.276838809989077E+001
  0.183401246239691E+000 -0.577263854410612E+001  0.254581186949599E+001
  0.183401246239691E+000 -0.577298494131224E+001  0.276651021507982E+001
  0.183401246239691E+000 -0.577439449307387E+001  0.254686541501798E+001
  0.183401246239691E+000 -0.577879498137039E+001  0.276216608017707E+001
  0.183401246239691E+000 -0.578033181536503E+001  0.255052272218888E+001
  0.183401246239691E+000 -0.579637392274209E+001  0.274803692728962E+001
  0.183401246239691E+000 -0.579724156723824E+001  0.274729386648580E+001
  0.183401246239691E+000 -0.580105288301073E+001  0.274396919001882E+001
  0.183401246239691E+000 -0.580210890984133E+001  0.274302961841606E+001
  0.183401246239691E+000 -0.580356109783123E+001  0.274172377919905E+001
  0.183401246239691E+000 -0.580392090785246E+001  0.274139769378453E+001
  0.183401246239691E+000 -0.580410411977193E+001  0.274123125967662E+001
  0.183401246239691E+000 -0.580564490316586E+001  0.273982082797841E+001
  0.183401246239691E+000 -0.507017828222514E+001  0.268598584247772E+001
  0.183401246239691E+000 -0.507067390700464E+001  0.268490172252952E+001
  0.183401246239691E+000 -0.507178212205675E+001  0.261967011544841E+001
  0.183401246239691E+000 -0.507231405277254E+001  0.262089361377968E+001
  0.183401246239691E+000 -0.507232722149403E+001  0.262092457224720E+001
  0.183401246239691E+000 -0.459581204325768E+001  0.262190320325297E+001
  0.183401246239691E+000 -0.459815985110425E+001  0.262838000072218E+001
  0.183401246239691E+000 -0.459863876145510E+001  0.262995944113647E+001
  0.183401246239691E+000 -0.460013579702222E+001  0.263599842195576E+001
  0.183401246239691E+000 -0.460053104779432E+001  0.263808494950027E+001
  0.183401246239691E+000 -0.415304491344752E+001  0.264170376362217E+001
