  0.910115509252051E-001 -0.376588399755910E+001  0.219630336057847E+001
  0.910115509252051E-001  0.507801405031023E+001  0.681453878249132E+001
  0.910115509252051E-001 -0.338632873108767E+001  0.216796767751215E+001
  0.910115509252051E-001  0.634702641999275E+001  0.763529186503040E+001
  0.910115509252051E-001 -0.332599172262337E+001  0.216373424196510E+001
  0.910115509252051E-001 -0.316795929323083E+001  0.215295773985520E+001
  0.910115509252051E-001 -0.287021311430375E+001  0.213376691847150E+001
  0.910115509252051E-001 -0.229020013928517E+001  0.209988451274995E+001
  0.910115509252051E-001 -0.255145178446330E+001  0.211462914475723E+001
  0.910115509252051E-001 -0.376082781408438E+001  0.243565558751944E+001
  0.910115509252051E-001 -0.385098710740556E+001  0.245959062107008E+001
  0.910115509252051E-001 -0.386325230982687E+001  0.246315925549315E+001
  0.910115509252051E-001 -0.386522944716913E+001  0.246374275009364E+001
  0.910115509252051E-001 -0.388463152996631E+001  0.246959745132161E+001
  0.910115509252051E-001 -0.389729901436644E+001  0.247355420877100E+001
  0.910115509252051E-001 -0.390765870045747E+001  0.247687559689350E+001
  0.910115509252051E-001 -0.394336081149828E+001  0.248898834847028E+001
  0.910115509252051E-001 -0.395453679871476E+001  0.249302124679639E+001
  0.910115509252051E-001 -0.398148498608056E+001  0.250331216962702E+001
  0.910115509252051E-001 -0.399224004178918E+001  0.250767481899850E+001
  0.910115509252051E-001 -0.400304370104891E+001  0.251222638278495E+001
