  0.391909911887584E+000  0.611250059425870E+001  0.665789076403448E+001
  0.391909911887584E+000  0.639112014871307E+001  0.681453878249132E+001
  0.391909911887584E+000  0.822962311068609E+001  0.807547005477566E+001
  0.391909911887584E+000  0.766013251839559E+001  0.763529186503040E+001
  0.391909911887584E+000  0.335717191312398E+001  0.192660473240915E+001
  0.391909911887584E+000  0.305405034654268E+001  0.193589921637949E+001
  0.391909911887584E+000  0.204927830676659E+000  0.204146188889082E+001
  0.391909911887584E+000 -0.977094040882333E+000  0.209988451274995E+001
  0.391909911887584E+000 -0.123834568606047E+001  0.211462914475723E+001
  0.391909911887584E+000 -0.155710701590091E+001  0.213376691847150E+001
  0.391909911887584E+000 -0.164661336181772E+001  0.213939300083887E+001
  0.391909911887584E+000 -0.185485319482799E+001  0.215295773985520E+001
  0.391909911887584E+000 -0.201288562422053E+001  0.216373424196510E+001
  0.391909911887584E+000 -0.207322263268483E+001  0.216796767751215E+001
  0.391909911887584E+000 -0.245277789915627E+001  0.219630336057847E+001
  0.391909911887584E+000 -0.379124013803705E+001  0.292629772042355E+001
  0.391909911887584E+000 -0.381326903293938E+001  0.291780123366613E+001
  0.391909911887584E+000 -0.382674197412914E+001  0.291251637753475E+001
  0.391909911887584E+000 -0.386017853153062E+001  0.289908159033720E+001
  0.391909911887584E+000 -0.386378814038818E+001  0.289760198362586E+001
  0.391909911887584E+000 -0.387185682328662E+001  0.289427250157168E+001
  0.391909911887584E+000 -0.388352325436200E+001  0.288940249519829E+001
  0.391909911887584E+000 -0.388973909502592E+001  0.288677961375220E+001
  0.391909911887584E+000 -0.389625997501374E+001  0.288400611626919E+001
  0.391909911887584E+000 -0.391681655450082E+001  0.287510747868091E+001
  0.391909911887584E+000 -0.392434637594888E+001  0.287178517246503E+001
  0.391909911887584E+000 -0.394305702626059E+001  0.286337084297843E+001
  0.391909911887584E+000 -0.399129854677748E+001  0.284045832318888E+001
  0.391909911887584E+000 -0.399724399130506E+001  0.283749221253913E+001
  0.391909911887584E+000 -0.400541488452973E+001  0.283335696117406E+001
  0.391909911887584E+000 -0.401207296104374E+001  0.282993416274658E+001
  0.391909911887584E+000 -0.401335361845116E+001  0.282927008688749E+001
  0.391909911887584E+000 -0.401658505885824E+001  0.282758600250859E+001
  0.391909911887584E+000 -0.402609688092902E+001  0.282255585538234E+001
  0.391909911887584E+000 -0.402632023121479E+001  0.282243638226380E+001
  0.391909911887584E+000 -0.403101670248517E+001  0.281990912280792E+001
  0.391909911887584E+000 -0.403304216945762E+001  0.281881012572798E+001
  0.391909911887584E+000 -0.404578573217294E+001  0.281176268773507E+001
  0.391909911887584E+000 -0.405395304117016E+001  0.280711618119927E+001
  0.391909911887584E+000 -0.405731497365880E+001  0.280517160138842E+001
  0.391909911887584E+000 -0.406491327863458E+001  0.251902226542034E+001
  0.391909911887584E+000 -0.406562265440268E+001  0.251934658021624E+001
  0.391909911887584E+000 -0.406733038214306E+001  0.252013128242610E+001
  0.391909911887584E+000 -0.407586007549072E+001  0.252413801131723E+001
  0.391909911887584E+000 -0.408435653446772E+001  0.278874924892937E+001
  0.391909911887584E+000 -0.408619043457988E+001  0.278757843382045E+001
  0.391909911887584E+000 -0.408826869218190E+001  0.253025162222906E+001
  0.391909911887584E+000 -0.409342376759670E+001  0.278287831711980E+001
  0.391909911887584E+000 -0.409371612019504E+001  0.253305474427643E+001
  0.391909911887584E+000 -0.409575697766039E+001  0.278133277192164E+001
  0.391909911887584E+000 -0.410009139130370E+001  0.277842086662043E+001
  0.391909911887584E+000 -0.410009675280649E+001  0.277841723081607E+001
  0.391909911887584E+000 -0.410982125511672E+001  0.277167456597926E+001
  0.391909911887584E+000 -0.411442057730977E+001  0.276837406256370E+001
  0.391909911887584E+000 -0.411505973371542E+001  0.276790924604746E+001
  0.391909911887584E+000 -0.411574384208615E+001  0.254528820367437E+001
  0.391909911887584E+000 -0.412067835892133E+001  0.254826320255590E+001
  0.391909911887584E+000 -0.412625259429934E+001  0.255174838109074E+001
  0.391909911887584E+000 -0.412631118215084E+001  0.275945493372220E+001
  0.391909911887584E+000 -0.413268278093786E+001  0.275441020399840E+001
  0.391909911887584E+000 -0.413808069868079E+001  0.255965306303959E+001
  0.391909911887584E+000 -0.414063694125971E+001  0.256146667217810E+001
  0.391909911887584E+000 -0.414623842399542E+001  0.256559433669558E+001
  0.391909911887584E+000 -0.415034778681134E+001  0.273915762745741E+001
  0.391909911887584E+000 -0.415137817786790E+001  0.273819705529497E+001
  0.391909911887584E+000 -0.415478272677909E+001  0.257236455090488E+001
  0.391909911887584E+000 -0.415697534392613E+001  0.273280742300728E+001
  0.391909911887584E+000 -0.415754831139738E+001  0.257470109418731E+001
  0.391909911887584E+000 -0.415807845209284E+001  0.273170797625859E+001
  0.391909911887584E+000 -0.415874772065185E+001  0.257573969382519E+001
  0.391909911887584E+000 -0.415963634858251E+001  0.257651961490870E+001
  0.391909911887584E+000 -0.416067623918899E+001  0.272906490012348E+001
  0.391909911887584E+000 -0.416206312999328E+001  0.272762083029047E+001
  0.391909911887584E+000 -0.416226758352894E+001  0.272740589878655E+001
  0.391909911887584E+000 -0.416259560717986E+001  0.272705993655807E+001
  0.391909911887584E+000 -0.416401990266775E+001  0.258050797338991E+001
  0.391909911887584E+000 -0.416507843259891E+001  0.258150927950070E+001
  0.391909911887584E+000 -0.416760136182417E+001  0.272159413515715E+001
  0.391909911887584E+000 -0.416927002178141E+001  0.258564149214112E+001
  0.391909911887584E+000 -0.416982959250296E+001  0.258621519793726E+001
  0.391909911887584E+000 -0.417149204452509E+001  0.258795359671708E+001
  0.391909911887584E+000 -0.417199899444039E+001  0.258849429440408E+001
  0.391909911887584E+000 -0.417562793907067E+001  0.259252538189613E+001
  0.391909911887584E+000 -0.417797496146599E+001  0.270882878763963E+001
  0.391909911887584E+000 -0.417904223700391E+001  0.270736794409920E+001
  0.391909911887584E+000 -0.418188530456309E+001  0.270329545627114E+001
  0.391909911887584E+000 -0.418267280984230E+001  0.260137170115318E+001
  0.391909911887584E+000 -0.418548592843601E+001  0.260542553524244E+001
  0.391909911887584E+000 -0.418548607257538E+001  0.260542575292928E+001
  0.391909911887584E+000 -0.418628551353512E+001  0.260665080395304E+001
  0.391909911887584E+000 -0.418874897324119E+001  0.261067745024826E+001
  0.391909911887584E+000 -0.419003758206697E+001  0.261296591837086E+001
  0.391909911887584E+000 -0.419024400147032E+001  0.268910123804295E+001
  0.391909911887584E+000 -0.419231005485221E+001  0.268475728255057E+001
  0.391909911887584E+000 -0.419360038220464E+001  0.262023192451790E+001
  0.391909911887584E+000 -0.419379778373473E+001  0.262068878212726E+001
  0.391909911887584E+000 -0.419423136171488E+001  0.262171875027167E+001
  0.391909911887584E+000 -0.419482236296375E+001  0.262318773433053E+001
  0.391909911887584E+000 -0.419511626108136E+001  0.262394966634205E+001
  0.391909911887584E+000 -0.414921148847740E+001  0.267607184287524E+001
  0.391909911887584E+000 -0.414978102100725E+001  0.267433365896842E+001
  0.391909911887584E+000 -0.415041026865784E+001  0.262927263467074E+001
  0.391909911887584E+000 -0.415056266529168E+001  0.262978408057583E+001
  0.391909911887584E+000 -0.415059261388079E+001  0.267161928298306E+001
  0.391909911887584E+000 -0.415110178130387E+001  0.263170791895855E+001
  0.391909911887584E+000 -0.415166747990104E+001  0.263397205769315E+001
  0.391909911887584E+000 -0.415288477049589E+001  0.264048869037773E+001
  0.391909911887584E+000 -0.415290491661296E+001  0.264063324740041E+001
  0.391909911887584E+000 -0.415294918964394E+001  0.266022358269570E+001
  0.391909911887584E+000 -0.415310626695646E+001  0.265894398015423E+001
  0.391909911887584E+000 -0.415351696248765E+001  0.265375383091790E+001
  0.391909911887584E+000 -0.415353861308882E+001  0.264788553498908E+001
  0.391909911887584E+000 -0.415356976647024E+001  0.265215323954143E+001
