  0.403240541044819E+000  0.964992712574651E+001  0.807547005477566E+001
  0.403240541044819E+000 -0.180942157922930E+001  0.346285862230424E+001
  0.403240541044819E+000  0.222264032364525E+001  0.447935248723012E+001
  0.403240541044819E+000 -0.157605273043333E+001  0.351933070708297E+001
  0.403240541044819E+000  0.194921793592505E+001  0.440351307115013E+001
  0.403240541044819E+000  0.179496794967371E+001  0.436140553383678E+001
  0.403240541044819E+000 -0.147862896533222E+001  0.354280664736360E+001
  0.403240541044819E+000 -0.144323292502533E+001  0.355132562735317E+001
  0.403240541044819E+000  0.107067377514967E+001  0.416952896256697E+001
  0.403240541044819E+000  0.102636912130600E+001  0.415807558946440E+001
  0.403240541044819E+000  0.100152865114380E+001  0.415166702630674E+001
  0.403240541044819E+000  0.986587314619061E+000  0.414781679714521E+001
  0.403240541044819E+000 -0.143033396147710E+001  0.355442893699556E+001
  0.403240541044819E+000 -0.131455610858327E+001  0.358226088346608E+001
  0.403240541044819E+000 -0.328910628140336E+001  0.307725054273609E+001
  0.403240541044819E+000 -0.322206804577032E+001  0.309699691715114E+001
  0.403240541044819E+000  0.536571626450236E+000  0.403332945278513E+001
  0.403240541044819E+000  0.303267282682430E+000  0.397499464978197E+001
  0.403240541044819E+000  0.221525187744974E+000  0.395470158356581E+001
  0.403240541044819E+000 -0.100954161683869E+001  0.365549840495576E+001
  0.403240541044819E+000  0.189204246085029E+000  0.394669722077127E+001
  0.403240541044819E+000 -0.967895124874130E+000  0.366550073928654E+001
  0.403240541044819E+000 -0.958023953496090E+000  0.366787191545261E+001
  0.403240541044819E+000 -0.853880011064574E+000  0.369290067178466E+001
  0.403240541044819E+000 -0.325405861165517E+000  0.382055867996338E+001
  0.403240541044819E+000 -0.527074109336030E+000  0.377167667773754E+001
  0.403240541044819E+000 -0.825190015845004E+000  0.369980041420374E+001
  0.403240541044819E+000 -0.731948803256091E+000  0.372224216808079E+001
  0.403240541044819E+000 -0.197183620252895E+001  0.342327206367650E+001
  0.403240541044819E+000 -0.211963236932774E+001  0.338696665381839E+001
  0.403240541044819E+000 -0.224481212636275E+001  0.335595069212238E+001
  0.403240541044819E+000 -0.224676301864809E+001  0.335546509510137E+001
  0.403240541044819E+000 -0.241383025123064E+001  0.331358704914279E+001
  0.403240541044819E+000 -0.244105676750812E+001  0.330670175721074E+001
  0.403240541044819E+000 -0.249234653739694E+001  0.329367926024397E+001
  0.403240541044819E+000 -0.252874412595517E+001  0.328439442390490E+001
  0.403240541044819E+000 -0.261721438209704E+001  0.326166213312987E+001
  0.403240541044819E+000 -0.267767152903100E+001  0.324598142497640E+001
  0.403240541044819E+000 -0.278052272243855E+001  0.321899591637067E+001
  0.403240541044819E+000 -0.279888510747151E+001  0.321413327788128E+001
  0.403240541044819E+000 -0.316579992989701E+001  0.311326347881710E+001
  0.403240541044819E+000 -0.287286392465285E+001  0.319439075923453E+001
  0.403240541044819E+000 -0.290646980719685E+001  0.318533671100177E+001
  0.403240541044819E+000 -0.292632997781315E+001  0.317995911114442E+001
  0.403240541044819E+000 -0.293321737266607E+001  0.317808937195248E+001
  0.403240541044819E+000 -0.295932512692072E+001  0.317097865714563E+001
  0.403240541044819E+000 -0.296433671798894E+001  0.316960941685199E+001
  0.403240541044819E+000 -0.299436150706987E+001  0.316137634818611E+001
  0.403240541044819E+000 -0.306074872281859E+001  0.314298021710070E+001
  0.403240541044819E+000 -0.308333614821543E+001  0.313665668401604E+001
  0.403240541044819E+000 -0.309465981430206E+001  0.313347349452753E+001
  0.403240541044819E+000 -0.310420005992058E+001  0.313078471199939E+001
  0.403240541044819E+000 -0.313952383174952E+001  0.312077218964240E+001
  0.403240541044819E+000 -0.336760380322890E+001  0.305355055800260E+001
  0.403240541044819E+000 -0.338503212482661E+001  0.304819401122734E+001
  0.403240541044819E+000 -0.344599233185780E+001  0.302915511519357E+001
  0.403240541044819E+000 -0.350966821411072E+001  0.300870599980063E+001
  0.403240541044819E+000 -0.356405924874433E+001  0.299071196797317E+001
  0.403240541044819E+000 -0.357313274115494E+001  0.298765751495942E+001
  0.403240541044819E+000 -0.358080396176932E+001  0.298506258046580E+001
  0.403240541044819E+000 -0.360432607932109E+001  0.297703139219312E+001
  0.403240541044819E+000 -0.363146811788342E+001  0.296761666089744E+001
  0.403240541044819E+000 -0.367303377894047E+001  0.295286213463327E+001
