  0.198960436947077E+000  0.609290446545994E+000  0.478358042736818E+001
  0.198960436947077E+000  0.415363058021299E+001  0.664676605255908E+001
  0.198960436947077E+000  0.758066977765477E+000  0.485946864855940E+001
  0.198960436947077E+000  0.373223909309140E+001  0.179672461723118E+001
  0.198960436947077E+000  0.125120767524472E+001  0.511822351258902E+001
  0.198960436947077E+000 -0.342417124234659E+001  0.216875536076409E+001
  0.198960436947077E+000  0.240644439628354E+001  0.183751344679148E+001
  0.198960436947077E+000 -0.147668817960245E+001  0.204534884436830E+001
  0.198960436947077E+000 -0.389229324780924E+001  0.321343582653413E+001
  0.198960436947077E+000 -0.171898582898600E+001  0.205886417547335E+001
  0.198960436947077E+000 -0.182463291608317E+001  0.206485973762636E+001
  0.198960436947077E+000 -0.253206685506327E+001  0.210705202760696E+001
  0.198960436947077E+000 -0.375981787168009E+001  0.323829142968215E+001
  0.198960436947077E+000 -0.359454587422831E+001  0.218236776458431E+001
  0.198960436947077E+000 -0.373210481130106E+001  0.324346395361678E+001
  0.198960436947077E+000 -0.397100285016520E+001  0.319853961825730E+001
  0.198960436947077E+000 -0.401144889317972E+001  0.319083751841674E+001
  0.198960436947077E+000 -0.402137187444193E+001  0.318894264034690E+001
  0.198960436947077E+000 -0.409810379468424E+001  0.317420810578310E+001
  0.198960436947077E+000 -0.412549904309733E+001  0.316891039280470E+001
  0.198960436947077E+000 -0.423418787442667E+001  0.224270029902321E+001
  0.198960436947077E+000 -0.430075601064188E+001  0.313443781324101E+001
  0.198960436947077E+000 -0.430688694440348E+001  0.313321163982319E+001
  0.198960436947077E+000 -0.432755044423563E+001  0.312906645029003E+001
  0.198960436947077E+000 -0.433269909345133E+001  0.312802891846788E+001
  0.198960436947077E+000 -0.438383296452982E+001  0.225980670616935E+001
  0.198960436947077E+000 -0.438847878896219E+001  0.226036050647679E+001
  0.198960436947077E+000 -0.440512088262064E+001  0.311332656687226E+001
  0.198960436947077E+000 -0.446743801557047E+001  0.310046264040407E+001
  0.198960436947077E+000 -0.449050405942423E+001  0.309564497771446E+001
  0.198960436947077E+000 -0.450329044782145E+001  0.227461298472528E+001
  0.198960436947077E+000 -0.450651958905680E+001  0.309228071862304E+001
  0.198960436947077E+000 -0.450796369039042E+001  0.309197807953774E+001
  0.198960436947077E+000 -0.451198914967997E+001  0.227573504219177E+001
  0.198960436947077E+000 -0.452029326879007E+001  0.227681467645282E+001
  0.198960436947077E+000 -0.455054048024637E+001  0.228079308069721E+001
  0.198960436947077E+000 -0.456056383573038E+001  0.308081154196031E+001
  0.198960436947077E+000 -0.458790591680033E+001  0.307493288508564E+001
  0.198960436947077E+000 -0.459854653798563E+001  0.228728128773680E+001
  0.198960436947077E+000 -0.459913185559733E+001  0.307250347745876E+001
  0.198960436947077E+000 -0.462692550145609E+001  0.306644892930974E+001
  0.198960436947077E+000 -0.468289140187723E+001  0.305407043441491E+001
  0.198960436947077E+000 -0.468636015378458E+001  0.305329384934427E+001
  0.198960436947077E+000 -0.471299532376749E+001  0.230368953674827E+001
  0.198960436947077E+000 -0.475274947606546E+001  0.303822668006637E+001
  0.198960436947077E+000 -0.475795153104288E+001  0.231053966813098E+001
  0.198960436947077E+000 -0.476060155354960E+001  0.303641714444743E+001
  0.198960436947077E+000 -0.476313332044108E+001  0.231134510858014E+001
  0.198960436947077E+000 -0.479553798161966E+001  0.231646238449847E+001
  0.198960436947077E+000 -0.479664662801249E+001  0.231663852238447E+001
  0.198960436947077E+000 -0.483408740483744E+001  0.232273360561843E+001
  0.198960436947077E+000 -0.483664563619120E+001  0.301854090689340E+001
  0.198960436947077E+000 -0.483696011029703E+001  0.301846634526748E+001
  0.198960436947077E+000 -0.489127090894205E+001  0.300527343962848E+001
  0.198960436947077E+000 -0.489269808255655E+001  0.300492066509449E+001
  0.198960436947077E+000 -0.490115955792887E+001  0.233416841196449E+001
  0.198960436947077E+000 -0.491608909093363E+001  0.299911296001091E+001
  0.198960436947077E+000 -0.491667941533548E+001  0.233691886560542E+001
  0.198960436947077E+000 -0.492713812314493E+001  0.233879390246260E+001
  0.198960436947077E+000 -0.493303421460611E+001  0.233985786069704E+001
  0.198960436947077E+000 -0.493813613378031E+001  0.299356481455630E+001
  0.198960436947077E+000 -0.497395924054606E+001  0.234742825818705E+001
  0.198960436947077E+000 -0.499664619885904E+001  0.235176081339398E+001
  0.198960436947077E+000 -0.501231888257486E+001  0.297432862067966E+001
  0.198960436947077E+000 -0.503203848325235E+001  0.235873228686599E+001
  0.198960436947077E+000 -0.504140499555094E+001  0.296651905020577E+001
  0.198960436947077E+000 -0.506108692609293E+001  0.236465744620837E+001
  0.198960436947077E+000 -0.508780578099711E+001  0.295370461312316E+001
  0.198960436947077E+000 -0.509019640408976E+001  0.237079831208327E+001
  0.198960436947077E+000 -0.510189131223185E+001  0.237332461210314E+001
  0.198960436947077E+000 -0.511236837827189E+001  0.294672722550059E+001
  0.198960436947077E+000 -0.512460926496012E+001  0.294319561160232E+001
  0.198960436947077E+000 -0.513620737515909E+001  0.293981450108562E+001
  0.198960436947077E+000 -0.514311793767435E+001  0.293778399457415E+001
  0.198960436947077E+000 -0.515260914288981E+001  0.238471335606772E+001
  0.198960436947077E+000 -0.515672424756510E+001  0.238566853529196E+001
  0.198960436947077E+000 -0.517095998250467E+001  0.238902073972222E+001
  0.198960436947077E+000 -0.517133763753397E+001  0.292935302600443E+001
  0.198960436947077E+000 -0.517570689641459E+001  0.292802659345546E+001
  0.198960436947077E+000 -0.519747069798929E+001  0.292133699618221E+001
  0.198960436947077E+000 -0.521853998624308E+001  0.291471505101199E+001
  0.198960436947077E+000 -0.522347095929606E+001  0.291314294314989E+001
  0.198960436947077E+000 -0.522579792462809E+001  0.240256132897506E+001
  0.198960436947077E+000 -0.524383858167154E+001  0.240726080688420E+001
  0.198960436947077E+000 -0.525479606114847E+001  0.241017809112754E+001
  0.198960436947077E+000 -0.529427603208048E+001  0.288954767180090E+001
  0.198960436947077E+000 -0.531053880177958E+001  0.242585552823177E+001
  0.198960436947077E+000 -0.531129697286112E+001  0.242608072294742E+001
  0.198960436947077E+000 -0.532094601117594E+001  0.288008650747822E+001
  0.198960436947077E+000 -0.533631638013346E+001  0.287446699930321E+001
  0.198960436947077E+000 -0.534598830663187E+001  0.287086349328473E+001
  0.198960436947077E+000 -0.534906128369791E+001  0.243763444318645E+001
  0.198960436947077E+000 -0.535579970799906E+001  0.243978683098461E+001
  0.198960436947077E+000 -0.536914661847574E+001  0.244413664005206E+001
  0.198960436947077E+000 -0.538163975202067E+001  0.244832312414216E+001
  0.198960436947077E+000 -0.540813234769327E+001  0.245759240729769E+001
  0.198960436947077E+000 -0.542439726315958E+001  0.283931296664863E+001
  0.198960436947077E+000 -0.543252066098673E+001  0.246666051026360E+001
  0.198960436947077E+000 -0.543324831449015E+001  0.283543772379467E+001
  0.198960436947077E+000 -0.543421581708414E+001  0.246731084730570E+001
  0.198960436947077E+000 -0.543637398206217E+001  0.283405169546486E+001
  0.198960436947077E+000 -0.544320944272501E+001  0.283098360856587E+001
  0.198960436947077E+000 -0.547277048551066E+001  0.248299507942620E+001
  0.198960436947077E+000 -0.547356489621622E+001  0.248333910919205E+001
  0.198960436947077E+000 -0.472660892984488E+001  0.281623743757393E+001
  0.198960436947077E+000 -0.473339050790884E+001  0.281288409861952E+001
  0.198960436947077E+000 -0.473693340799429E+001  0.281110547372531E+001
  0.198960436947077E+000 -0.475478714487173E+001  0.280184943233737E+001
  0.198960436947077E+000 -0.476115292093374E+001  0.279841798720288E+001
  0.198960436947077E+000 -0.476164644739248E+001  0.279814923646585E+001
  0.198960436947077E+000 -0.476365631601431E+001  0.279704842677492E+001
  0.198960436947077E+000 -0.477260941049673E+001  0.279204821551381E+001
  0.198960436947077E+000 -0.478904932520010E+001  0.278240915749433E+001
  0.198960436947077E+000 -0.479588192483999E+001  0.277820441628009E+001
  0.198960436947077E+000 -0.480350750467398E+001  0.277335397837600E+001
  0.198960436947077E+000 -0.481534498712637E+001  0.276545009792394E+001
  0.198960436947077E+000 -0.481855553171255E+001  0.276321808005461E+001
  0.198960436947077E+000 -0.482056873819448E+001  0.276179640474034E+001
  0.198960436947077E+000 -0.482461517831900E+001  0.275888973288078E+001
  0.198960436947077E+000 -0.482531946680166E+001  0.275837567648157E+001
  0.198960436947077E+000 -0.482852858087637E+001  0.275600690377848E+001
  0.198960436947077E+000 -0.482936161539175E+001  0.275538348337469E+001
  0.198960436947077E+000 -0.483020275613882E+001  0.275475022724328E+001
  0.198960436947077E+000 -0.483111351511099E+001  0.275406113796646E+001
  0.198960436947077E+000 -0.484102934381582E+001  0.274626480504838E+001
  0.198960436947077E+000 -0.484123915216543E+001  0.274609355199127E+001
  0.198960436947077E+000 -0.484227484247305E+001  0.274524355010433E+001
  0.198960436947077E+000 -0.485454863092520E+001  0.273457946662120E+001
  0.198960436947077E+000 -0.486460512659170E+001  0.272481685897435E+001
  0.198960436947077E+000 -0.425316190719604E+001  0.268474278279897E+001
  0.198960436947077E+000 -0.425508880615234E+001  0.268060330305110E+001
  0.198960436947077E+000 -0.425764083862305E+001  0.267423652134167E+001
  0.198960436947077E+000 -0.425803279876709E+001  0.267313682883993E+001
