  0.949373534253355E-002 -0.617925042805168E+001  0.343201986757458E+001
  0.949373534253355E-002 -0.601328820881340E+001  0.346523685276335E+001
  0.949373534253355E-002  0.927007010607988E+000  0.511326497797736E+001
  0.949373534253355E-002 -0.600073737797233E+001  0.211539717978924E+001
  0.949373534253355E-002  0.574577361634074E-001  0.479011125053291E+001
  0.949373534253355E-002 -0.598805780109856E+001  0.347028172398888E+001
  0.949373534253355E-002 -0.595588655170891E+001  0.347670891602153E+001
  0.949373534253355E-002 -0.302645749744865E+001  0.405468576165163E+001
  0.949373534253355E-002 -0.332651872333977E+001  0.399480697537694E+001
  0.949373534253355E-002 -0.589674586948845E+001  0.348851716792636E+001
  0.949373534253355E-002 -0.584731025394890E+001  0.349837636784273E+001
  0.949373534253355E-002 -0.414517183002922E+001  0.383376623900479E+001
  0.949373534253355E-002 -0.583013601002190E+001  0.210739819447195E+001
  0.949373534253355E-002 -0.462114638981316E+001  0.374058401491650E+001
  0.949373534253355E-002 -0.469946927723381E+001  0.205844175626812E+001
  0.949373534253355E-002 -0.481189460453484E+001  0.370316826541398E+001
  0.949373534253355E-002 -0.491170758900139E+001  0.368356429415128E+001
  0.949373534253355E-002 -0.492849273380730E+001  0.206799205090132E+001
  0.949373534253355E-002 -0.512280244526359E+001  0.364200999009884E+001
  0.949373534253355E-002 -0.525266904530022E+001  0.361638500918507E+001
  0.949373534253355E-002 -0.564092702564690E+001  0.209878677794209E+001
  0.949373534253355E-002 -0.560600108799431E+001  0.354640206216416E+001
  0.949373534253355E-002 -0.625676507648918E+001  0.212794393462485E+001
  0.949373534253355E-002 -0.626715345081779E+001  0.212846899121345E+001
  0.949373534253355E-002 -0.656774992641899E+001  0.214438550278209E+001
  0.949373534253355E-002 -0.670281738934013E+001  0.215208506663243E+001
  0.949373534253355E-002 -0.677427739796135E+001  0.215633137173958E+001
  0.949373534253355E-002 -0.690624828037712E+001  0.328538248992371E+001
  0.949373534253355E-002 -0.692308063206169E+001  0.328195673497121E+001
  0.949373534253355E-002 -0.693133659061882E+001  0.216616609418159E+001
  0.949373534253355E-002 -0.697224921879265E+001  0.216885875460793E+001
  0.949373534253355E-002 -0.702812499699089E+001  0.217263513366696E+001
  0.949373534253355E-002 -0.705090899166557E+001  0.325587447765133E+001
  0.949373534253355E-002 -0.705258674320671E+001  0.217432738746600E+001
  0.949373534253355E-002 -0.710116738972160E+001  0.324558022264109E+001
  0.949373534253355E-002 -0.724865503010246E+001  0.218888885173968E+001
  0.949373534253355E-002 -0.725616140064689E+001  0.218948717238642E+001
  0.949373534253355E-002 -0.726815242466423E+001  0.321117263508582E+001
  0.949373534253355E-002 -0.735098619160148E+001  0.319395641914199E+001
  0.949373534253355E-002 -0.736898441013786E+001  0.219891633332543E+001
  0.949373534253355E-002 -0.744769615826103E+001  0.317369495873281E+001
  0.949373534253355E-002 -0.747063226398918E+001  0.316885866514568E+001
  0.949373534253355E-002 -0.749172610935661E+001  0.221029000848343E+001
  0.949373534253355E-002 -0.751919336018059E+001  0.315858197170194E+001
  0.949373534253355E-002 -0.753828687366936E+001  0.315452065829014E+001
  0.949373534253355E-002 -0.753934306797478E+001  0.221508482817013E+001
  0.949373534253355E-002 -0.755555529293510E+001  0.315084202478771E+001
  0.949373534253355E-002 -0.758351750072929E+001  0.314486423452991E+001
  0.949373534253355E-002 -0.758493895229790E+001  0.314456038778484E+001
  0.949373534253355E-002 -0.761441440281364E+001  0.222317515604599E+001
  0.949373534253355E-002 -0.762484759983513E+001  0.313598431586198E+001
  0.949373534253355E-002 -0.763931102451774E+001  0.313286277416415E+001
  0.949373534253355E-002 -0.766037840542290E+001  0.222849630310622E+001
  0.949373534253355E-002 -0.767225522694084E+001  0.222992102202598E+001
  0.949373534253355E-002 -0.769213599857780E+001  0.223235819531913E+001
  0.949373534253355E-002 -0.769374723133537E+001  0.312104491045759E+001
  0.949373534253355E-002 -0.784379214939567E+001  0.308779406093133E+001
  0.949373534253355E-002 -0.785697145161125E+001  0.308481780252902E+001
  0.949373534253355E-002 -0.786930532154533E+001  0.225750334767703E+001
  0.949373534253355E-002 -0.788732618984672E+001  0.226048947355296E+001
  0.949373534253355E-002 -0.791114253696892E+001  0.307246303626793E+001
  0.949373534253355E-002 -0.791658181843254E+001  0.226555307595464E+001
  0.949373534253355E-002 -0.792567748722526E+001  0.226718238050197E+001
  0.949373534253355E-002 -0.796925182041618E+001  0.227540889592491E+001
  0.949373534253355E-002 -0.797333378490898E+001  0.305802344447471E+001
  0.949373534253355E-002 -0.800338501629326E+001  0.228238019160791E+001
  0.949373534253355E-002 -0.800576586422417E+001  0.305037320570531E+001
  0.949373534253355E-002 -0.800582236942741E+001  0.228289747172238E+001
  0.949373534253355E-002 -0.800778455433342E+001  0.228331624969388E+001
  0.949373534253355E-002 -0.803166670498344E+001  0.304419453933942E+001
  0.949373534253355E-002 -0.803926677402946E+001  0.229027661645627E+001
  0.949373534253355E-002 -0.805200714764091E+001  0.229323374902772E+001
  0.949373534253355E-002 -0.805719227489922E+001  0.303803992397801E+001
  0.949373534253355E-002 -0.806167835888359E+001  0.229553856534204E+001
  0.949373534253355E-002 -0.807525272068474E+001  0.303364386106680E+001
  0.949373534253355E-002 -0.809237808880302E+001  0.302944593229228E+001
  0.949373534253355E-002 -0.812076682743523E+001  0.231079696512236E+001
  0.949373534253355E-002 -0.816831082996818E+001  0.301039364354690E+001
  0.949373534253355E-002 -0.818419046101067E+001  0.300630643499947E+001
  0.949373534253355E-002 -0.820446510014030E+001  0.300103623367529E+001
  0.949373534253355E-002 -0.820447582897636E+001  0.300103333731120E+001
  0.949373534253355E-002 -0.820903296169731E+001  0.299983921296252E+001
  0.949373534253355E-002 -0.824733252224419E+001  0.235183572329441E+001
  0.949373534253355E-002 -0.825005287823173E+001  0.235286364458734E+001
  0.949373534253355E-002 -0.826399941143486E+001  0.298515087485136E+001
  0.949373534253355E-002 -0.827078003582451E+001  0.298330094125009E+001
  0.949373534253355E-002 -0.828803581890556E+001  0.236787929398863E+001
  0.949373534253355E-002 -0.829090423283073E+001  0.236906690980953E+001
  0.949373534253355E-002 -0.830541414913628E+001  0.237517545051785E+001
  0.949373534253355E-002 -0.831795448955986E+001  0.297014470947904E+001
  0.949373534253355E-002 -0.832979769405815E+001  0.238585659071979E+001
  0.949373534253355E-002 -0.835400027927849E+001  0.239695162846569E+001
  0.949373534253355E-002 -0.836513561901543E+001  0.240221574013098E+001
  0.949373534253355E-002 -0.836566919979546E+001  0.295627753144105E+001
  0.949373534253355E-002 -0.837042016682121E+001  0.295486217385589E+001
  0.949373534253355E-002 -0.841710371670219E+001  0.294056110598020E+001
  0.949373534253355E-002 -0.841727037128899E+001  0.242810292295729E+001
  0.949373534253355E-002 -0.842397136387321E+001  0.293839198407231E+001
  0.949373534253355E-002 -0.842415733036491E+001  0.243166531377271E+001
  0.949373534253355E-002 -0.843178052601311E+001  0.293590277562615E+001
  0.949373534253355E-002 -0.843876142200920E+001  0.243931908075619E+001
  0.949373534253355E-002 -0.844149727520439E+001  0.244076737962490E+001
  0.949373534253355E-002 -0.844386882481071E+001  0.244202984010515E+001
  0.949373534253355E-002 -0.844513053593132E+001  0.244270095037926E+001
  0.949373534253355E-002 -0.844701571163628E+001  0.293097548620123E+001
  0.949373534253355E-002 -0.844718427357170E+001  0.244379825707023E+001
  0.949373534253355E-002 -0.845024437603447E+001  0.244543545301420E+001
  0.949373534253355E-002 -0.846631354984734E+001  0.245412396116258E+001
  0.949373534253355E-002 -0.846819300350639E+001  0.245515142884329E+001
  0.949373534253355E-002 -0.847876925167534E+001  0.246096720461598E+001
  0.949373534253355E-002 -0.849022001919243E+001  0.246734155034657E+001
  0.949373534253355E-002 -0.849159569439384E+001  0.246811018285000E+001
  0.949373534253355E-002 -0.850218887028191E+001  0.247408633328699E+001
  0.949373534253355E-002 -0.850820178684685E+001  0.247750961559006E+001
  0.949373534253355E-002 -0.851245517429802E+001  0.247994082043683E+001
  0.949373534253355E-002 -0.851672620472404E+001  0.248239583265636E+001
  0.949373534253355E-002 -0.805294332816498E+001  0.248902712213762E+001
  0.949373534253355E-002 -0.805682311370270E+001  0.249129686007900E+001
  0.949373534253355E-002 -0.806875453307526E+001  0.249833875165248E+001
  0.949373534253355E-002 -0.808522544219391E+001  0.250822389968743E+001
  0.949373534253355E-002 -0.808532986953156E+001  0.250828870475430E+001
  0.949373534253355E-002 -0.808533606841461E+001  0.250829163598824E+001
  0.949373534253355E-002 -0.810308466269867E+001  0.251918772769333E+001
  0.949373534253355E-002 -0.810807023360626E+001  0.252229910465811E+001
  0.949373534253355E-002 -0.812790808989899E+001  0.253491196543229E+001
  0.949373534253355E-002 -0.814046035125153E+001  0.254311612838815E+001
  0.949373534253355E-002 -0.814405761077301E+001  0.254550448713231E+001
  0.949373534253355E-002 -0.814552603080170E+001  0.254648254397109E+001
  0.949373534253355E-002 -0.814724955871002E+001  0.254763742376045E+001
  0.949373534253355E-002 -0.817309365584747E+001  0.256547352919561E+001
  0.949373534253355E-002 -0.817966971709625E+001  0.257019893165130E+001
  0.949373534253355E-002 -0.818384490325348E+001  0.257325080192184E+001
  0.949373534253355E-002 -0.820144734694855E+001  0.258655212983434E+001
  0.949373534253355E-002 -0.822073254897492E+001  0.260219834508778E+001
  0.949373534253355E-002 -0.822894177749054E+001  0.260930878954683E+001
  0.949373534253355E-002 -0.823045859649078E+001  0.261065781641282E+001
  0.949373534253355E-002 -0.823095975234406E+001  0.261110450849176E+001
  0.949373534253355E-002 -0.823962722136871E+001  0.261908570845340E+001
  0.949373534253355E-002 -0.824408421828644E+001  0.262337713987277E+001
  0.949373534253355E-002 -0.825052962615387E+001  0.262985691607164E+001
  0.949373534253355E-002 -0.825696978881256E+001  0.263671748845998E+001
  0.949373534253355E-002 -0.826151213958160E+001  0.264183813662958E+001
  0.949373534253355E-002 -0.826355967833893E+001  0.264424247468127E+001
  0.949373534253355E-002 -0.826479182555573E+001  0.264572028026063E+001
  0.949373534253355E-002 -0.827007518126862E+001  0.265234736136683E+001
  0.949373534253355E-002 -0.807429857131215E+001  0.266981418266041E+001
  0.949373534253355E-002 -0.807942647811146E+001  0.267933058197890E+001
  0.949373534253355E-002 -0.808548564788075E+001  0.269441370465653E+001
  0.949373534253355E-002 -0.808566923018666E+001  0.269500763988403E+001
  0.949373534253355E-002 -0.808651370879384E+001  0.269791860855629E+001
  0.949373534253355E-002 -0.808878965254994E+001  0.273031093019120E+001
  0.949373534253355E-002 -0.808895368453236E+001  0.271028168973697E+001
  0.949373534253355E-002 -0.798302378041605E+001  0.272368074098132E+001
  0.949373534253355E-002 -0.798302521092753E+001  0.272356021332609E+001
  0.949373534253355E-002 -0.798308386189799E+001  0.272221823158954E+001
