  0.215526857003838E+000  0.670037416404814E+000  0.478358042736818E+001
  0.215526857003838E+000  0.421437755007181E+001  0.664676605255908E+001
  0.215526857003838E+000  0.818813947624296E+000  0.485946864855940E+001
  0.215526857003838E+000  0.379298606295022E+001  0.179672461723118E+001
  0.215526857003838E+000  0.131195464510354E+001  0.511822351258902E+001
  0.215526857003838E+000 -0.336342427248777E+001  0.216875536076409E+001
  0.215526857003838E+000  0.246719136614236E+001  0.183751344679148E+001
  0.215526857003838E+000 -0.141594120974363E+001  0.204534884436830E+001
  0.215526857003838E+000 -0.383154627795042E+001  0.321343582653413E+001
  0.215526857003838E+000 -0.165823885912718E+001  0.205886417547335E+001
  0.215526857003838E+000 -0.176388594622435E+001  0.206485973762636E+001
  0.215526857003838E+000 -0.247131988520445E+001  0.210705202760696E+001
  0.215526857003838E+000 -0.369907090182127E+001  0.323829142968215E+001
  0.215526857003838E+000 -0.353379890436949E+001  0.218236776458431E+001
  0.215526857003838E+000 -0.367135784144224E+001  0.324346395361678E+001
  0.215526857003838E+000 -0.391025588030638E+001  0.319853961825730E+001
  0.215526857003838E+000 -0.395070192332090E+001  0.319083751841674E+001
  0.215526857003838E+000 -0.396062490458311E+001  0.318894264034690E+001
  0.215526857003838E+000 -0.403735682482542E+001  0.317420810578310E+001
  0.215526857003838E+000 -0.406475207323851E+001  0.316891039280470E+001
  0.215526857003838E+000 -0.417344090456785E+001  0.224270029902321E+001
  0.215526857003838E+000 -0.424000904078306E+001  0.313443781324101E+001
  0.215526857003838E+000 -0.424613997454466E+001  0.313321163982319E+001
  0.215526857003838E+000 -0.426680347437681E+001  0.312906645029003E+001
  0.215526857003838E+000 -0.427195212359251E+001  0.312802891846788E+001
  0.215526857003838E+000 -0.432308599467100E+001  0.225980670616935E+001
  0.215526857003838E+000 -0.432773181910337E+001  0.226036050647679E+001
  0.215526857003838E+000 -0.434437391276182E+001  0.311332656687226E+001
  0.215526857003838E+000 -0.440669104571165E+001  0.310046264040407E+001
  0.215526857003838E+000 -0.442975708956541E+001  0.309564497771446E+001
  0.215526857003838E+000 -0.444254347796263E+001  0.227461298472528E+001
  0.215526857003838E+000 -0.444577261919798E+001  0.309228071862304E+001
  0.215526857003838E+000 -0.444721672053160E+001  0.309197807953774E+001
  0.215526857003838E+000 -0.445124217982115E+001  0.227573504219177E+001
  0.215526857003838E+000 -0.445954629893125E+001  0.227681467645282E+001
  0.215526857003838E+000 -0.448979351038755E+001  0.228079308069721E+001
  0.215526857003838E+000 -0.449981686587156E+001  0.308081154196031E+001
  0.215526857003838E+000 -0.452715894694151E+001  0.307493288508564E+001
  0.215526857003838E+000 -0.453779956812681E+001  0.228728128773680E+001
  0.215526857003838E+000 -0.453838488573851E+001  0.307250347745876E+001
  0.215526857003838E+000 -0.456617853159727E+001  0.306644892930974E+001
  0.215526857003838E+000 -0.462214443201841E+001  0.305407043441491E+001
  0.215526857003838E+000 -0.462561318392576E+001  0.305329384934427E+001
  0.215526857003838E+000 -0.465224835390867E+001  0.230368953674827E+001
  0.215526857003838E+000 -0.469200250620665E+001  0.303822668006637E+001
  0.215526857003838E+000 -0.469720456118406E+001  0.231053966813098E+001
  0.215526857003838E+000 -0.469985458369078E+001  0.303641714444743E+001
  0.215526857003838E+000 -0.470238635058226E+001  0.231134510858014E+001
  0.215526857003838E+000 -0.473479101176084E+001  0.231646238449847E+001
  0.215526857003838E+000 -0.473589965815367E+001  0.231663852238447E+001
  0.215526857003838E+000 -0.477334043497862E+001  0.232273360561843E+001
  0.215526857003838E+000 -0.477589866633238E+001  0.301854090689340E+001
  0.215526857003838E+000 -0.477621314043821E+001  0.301846634526748E+001
  0.215526857003838E+000 -0.483052393908323E+001  0.300527343962848E+001
  0.215526857003838E+000 -0.483195111269773E+001  0.300492066509449E+001
  0.215526857003838E+000 -0.484041258807005E+001  0.233416841196449E+001
  0.215526857003838E+000 -0.485534212107481E+001  0.299911296001091E+001
  0.215526857003838E+000 -0.485593244547666E+001  0.233691886560542E+001
  0.215526857003838E+000 -0.486639115328611E+001  0.233879390246260E+001
  0.215526857003838E+000 -0.487228724474729E+001  0.233985786069704E+001
  0.215526857003838E+000 -0.487738916392149E+001  0.299356481455630E+001
  0.215526857003838E+000 -0.491321227068724E+001  0.234742825818705E+001
  0.215526857003838E+000 -0.493589922900022E+001  0.235176081339398E+001
  0.215526857003838E+000 -0.495157191271604E+001  0.297432862067966E+001
  0.215526857003838E+000 -0.497129151339353E+001  0.235873228686599E+001
  0.215526857003838E+000 -0.498065802569212E+001  0.296651905020577E+001
  0.215526857003838E+000 -0.500033995623411E+001  0.236465744620837E+001
  0.215526857003838E+000 -0.502705881113829E+001  0.295370461312316E+001
  0.215526857003838E+000 -0.502944943423094E+001  0.237079831208327E+001
  0.215526857003838E+000 -0.504114434237303E+001  0.237332461210314E+001
  0.215526857003838E+000 -0.505162140841307E+001  0.294672722550059E+001
  0.215526857003838E+000 -0.506386229510130E+001  0.294319561160232E+001
  0.215526857003838E+000 -0.507546040530027E+001  0.293981450108562E+001
  0.215526857003838E+000 -0.508237096781553E+001  0.293778399457415E+001
  0.215526857003838E+000 -0.509186217303099E+001  0.238471335606772E+001
  0.215526857003838E+000 -0.509597727770628E+001  0.238566853529196E+001
  0.215526857003838E+000 -0.511021301264585E+001  0.238902073972222E+001
  0.215526857003838E+000 -0.511059066767515E+001  0.292935302600443E+001
  0.215526857003838E+000 -0.511495992655577E+001  0.292802659345546E+001
  0.215526857003838E+000 -0.513672372813047E+001  0.292133699618221E+001
  0.215526857003838E+000 -0.515779301638426E+001  0.291471505101199E+001
  0.215526857003838E+000 -0.516272398943724E+001  0.291314294314989E+001
  0.215526857003838E+000 -0.516505095476927E+001  0.240256132897506E+001
  0.215526857003838E+000 -0.518309161181272E+001  0.240726080688420E+001
  0.215526857003838E+000 -0.519404909128965E+001  0.241017809112754E+001
  0.215526857003838E+000 -0.523352906222166E+001  0.288954767180090E+001
  0.215526857003838E+000 -0.524979183192076E+001  0.242585552823177E+001
  0.215526857003838E+000 -0.525055000300230E+001  0.242608072294742E+001
  0.215526857003838E+000 -0.526019904131712E+001  0.288008650747822E+001
  0.215526857003838E+000 -0.527556941027464E+001  0.287446699930321E+001
  0.215526857003838E+000 -0.528524133677305E+001  0.287086349328473E+001
  0.215526857003838E+000 -0.528831431383909E+001  0.243763444318645E+001
  0.215526857003838E+000 -0.529505273814024E+001  0.243978683098461E+001
  0.215526857003838E+000 -0.530839964861692E+001  0.244413664005206E+001
  0.215526857003838E+000 -0.532089278216185E+001  0.244832312414216E+001
  0.215526857003838E+000 -0.534738537783445E+001  0.245759240729769E+001
  0.215526857003838E+000 -0.536365029330076E+001  0.283931296664863E+001
  0.215526857003838E+000 -0.537177369112791E+001  0.246666051026360E+001
  0.215526857003838E+000 -0.537250134463133E+001  0.283543772379467E+001
  0.215526857003838E+000 -0.537346884722532E+001  0.246731084730570E+001
  0.215526857003838E+000 -0.537562701220335E+001  0.283405169546486E+001
  0.215526857003838E+000 -0.538246247286619E+001  0.283098360856587E+001
  0.215526857003838E+000 -0.541202351565184E+001  0.248299507942620E+001
  0.215526857003838E+000 -0.541281792635740E+001  0.248333910919205E+001
  0.215526857003838E+000 -0.458536400416621E+001  0.255312275795051E+001
  0.215526857003838E+000 -0.458822931864985E+001  0.255548017239968E+001
  0.215526857003838E+000 -0.458968557933100E+001  0.255670804412018E+001
  0.215526857003838E+000 -0.459091200450190E+001  0.255775364801653E+001
  0.215526857003838E+000 -0.459123959162959E+001  0.255803637307806E+001
  0.215526857003838E+000 -0.459233917811640E+001  0.255898711066683E+001
  0.215526857003838E+000 -0.459582771876582E+001  0.256209093811019E+001
  0.215526857003838E+000 -0.460002865412959E+001  0.256599859701948E+001
  0.215526857003838E+000 -0.460462488749751E+001  0.257051898146082E+001
  0.215526857003838E+000 -0.460723938563594E+001  0.257322808608393E+001
  0.215526857003838E+000 -0.461228766062983E+001  0.257878141325002E+001
  0.215526857003838E+000 -0.462463440516719E+001  0.259503971471325E+001
  0.215526857003838E+000 -0.462533106425532E+001  0.259612374998152E+001
  0.215526857003838E+000 -0.462773003199824E+001  0.260006418137174E+001
  0.215526857003838E+000 -0.462997164347895E+001  0.260409851783866E+001
  0.215526857003838E+000 -0.463516630748042E+001  0.261554460714637E+001
  0.215526857003838E+000 -0.463589968302973E+001  0.261756024026390E+001
  0.215526857003838E+000 -0.463658251384028E+001  0.261957707071850E+001
  0.215526857003838E+000 -0.463721861460932E+001  0.266880640720654E+001
  0.215526857003838E+000 -0.463858761409053E+001  0.266360608138634E+001
  0.215526857003838E+000 -0.463878454783686E+001  0.262759318157530E+001
  0.215526857003838E+000 -0.463922609904536E+001  0.266059842684281E+001
  0.215526857003838E+000 -0.463929333308467E+001  0.266023270455996E+001
  0.215526857003838E+000 -0.463931049922236E+001  0.263015524147739E+001
  0.215526857003838E+000 -0.463959517100581E+001  0.265855370211663E+001
  0.215526857003838E+000 -0.463980688670405E+001  0.263303238394309E+001
  0.215526857003838E+000 -0.464000811198481E+001  0.263443389109001E+001
  0.215526857003838E+000 -0.464019360163935E+001  0.265434129554014E+001
  0.215526857003838E+000 -0.464032091716059E+001  0.265316272217770E+001
  0.215526857003838E+000 -0.464050402262934E+001  0.263916146700163E+001
  0.215526857003838E+000 -0.426289319992065E+001  0.264256969402054E+001
