  0.165353362819542E-001 -0.562474974078303E+001  0.343201986757458E+001
  0.165353362819542E-001 -0.545878752154475E+001  0.346523685276335E+001
  0.165353362819542E-001  0.148150769787664E+001  0.511326497797736E+001
  0.165353362819542E-001 -0.544623669070368E+001  0.211539717978924E+001
  0.165353362819542E-001  0.611958423432060E+000  0.479011125053291E+001
  0.165353362819542E-001 -0.543355711382990E+001  0.347028172398888E+001
  0.165353362819542E-001 -0.540138586444025E+001  0.347670891602153E+001
  0.165353362819542E-001 -0.247195681018000E+001  0.405468576165163E+001
  0.165353362819542E-001 -0.277201803607111E+001  0.399480697537694E+001
  0.165353362819542E-001 -0.534224518221980E+001  0.348851716792636E+001
  0.165353362819542E-001 -0.529280956668025E+001  0.349837636784273E+001
  0.165353362819542E-001 -0.359067114276057E+001  0.383376623900479E+001
  0.165353362819542E-001 -0.527563532275324E+001  0.210739819447195E+001
  0.165353362819542E-001 -0.406664570254450E+001  0.374058401491650E+001
  0.165353362819542E-001 -0.414496858996516E+001  0.205844175626812E+001
  0.165353362819542E-001 -0.425739391726618E+001  0.370316826541398E+001
  0.165353362819542E-001 -0.435720690173274E+001  0.368356429415128E+001
  0.165353362819542E-001 -0.437399204653864E+001  0.206799205090132E+001
  0.165353362819542E-001 -0.456830175799494E+001  0.364200999009884E+001
  0.165353362819542E-001 -0.469816835803156E+001  0.361638500918507E+001
  0.165353362819542E-001 -0.508642633837824E+001  0.209878677794209E+001
  0.165353362819542E-001 -0.505150040072566E+001  0.354640206216416E+001
  0.165353362819542E-001 -0.570226438922053E+001  0.212794393462485E+001
  0.165353362819542E-001 -0.571265276354914E+001  0.212846899121345E+001
  0.165353362819542E-001 -0.601324923915034E+001  0.214438550278209E+001
  0.165353362819542E-001 -0.614831670207148E+001  0.215208506663243E+001
  0.165353362819542E-001 -0.621977671069270E+001  0.215633137173958E+001
  0.165353362819542E-001 -0.635174759310847E+001  0.328538248992371E+001
  0.165353362819542E-001 -0.636857994479304E+001  0.328195673497121E+001
  0.165353362819542E-001 -0.637683590335017E+001  0.216616609418159E+001
  0.165353362819542E-001 -0.641774853152399E+001  0.216885875460793E+001
  0.165353362819542E-001 -0.647362430972224E+001  0.217263513366696E+001
  0.165353362819542E-001 -0.649640830439692E+001  0.325587447765133E+001
  0.165353362819542E-001 -0.649808605593806E+001  0.217432738746600E+001
  0.165353362819542E-001 -0.654666670245295E+001  0.324558022264109E+001
  0.165353362819542E-001 -0.669415434283381E+001  0.218888885173968E+001
  0.165353362819542E-001 -0.670166071337824E+001  0.218948717238642E+001
  0.165353362819542E-001 -0.671365173739558E+001  0.321117263508582E+001
  0.165353362819542E-001 -0.679648550433283E+001  0.319395641914199E+001
  0.165353362819542E-001 -0.681448372286921E+001  0.219891633332543E+001
  0.165353362819542E-001 -0.689319547099238E+001  0.317369495873281E+001
  0.165353362819542E-001 -0.691613157672053E+001  0.316885866514568E+001
  0.165353362819542E-001 -0.693722542208796E+001  0.221029000848343E+001
  0.165353362819542E-001 -0.696469267291193E+001  0.315858197170194E+001
  0.165353362819542E-001 -0.698378618640070E+001  0.315452065829014E+001
  0.165353362819542E-001 -0.698484238070612E+001  0.221508482817013E+001
  0.165353362819542E-001 -0.700105460566645E+001  0.315084202478771E+001
  0.165353362819542E-001 -0.702901681346064E+001  0.314486423452991E+001
  0.165353362819542E-001 -0.703043826502924E+001  0.314456038778484E+001
  0.165353362819542E-001 -0.705991371554499E+001  0.222317515604599E+001
  0.165353362819542E-001 -0.707034691256647E+001  0.313598431586198E+001
  0.165353362819542E-001 -0.708481033724909E+001  0.313286277416415E+001
  0.165353362819542E-001 -0.710587771815424E+001  0.222849630310622E+001
  0.165353362819542E-001 -0.711775453967219E+001  0.222992102202598E+001
  0.165353362819542E-001 -0.713763531130915E+001  0.223235819531913E+001
  0.165353362819542E-001 -0.713924654406672E+001  0.312104491045759E+001
  0.165353362819542E-001 -0.728929146212702E+001  0.308779406093133E+001
  0.165353362819542E-001 -0.730247076434260E+001  0.308481780252902E+001
  0.165353362819542E-001 -0.731480463427668E+001  0.225750334767703E+001
  0.165353362819542E-001 -0.733282550257807E+001  0.226048947355296E+001
  0.165353362819542E-001 -0.735664184970026E+001  0.307246303626793E+001
  0.165353362819542E-001 -0.736208113116389E+001  0.226555307595464E+001
  0.165353362819542E-001 -0.737117679995661E+001  0.226718238050197E+001
  0.165353362819542E-001 -0.741475113314753E+001  0.227540889592491E+001
  0.165353362819542E-001 -0.741883309764033E+001  0.305802344447471E+001
  0.165353362819542E-001 -0.744888432902460E+001  0.228238019160791E+001
  0.165353362819542E-001 -0.745126517695551E+001  0.305037320570531E+001
  0.165353362819542E-001 -0.745132168215876E+001  0.228289747172238E+001
  0.165353362819542E-001 -0.745328386706477E+001  0.228331624969388E+001
  0.165353362819542E-001 -0.747716601771479E+001  0.304419453933942E+001
  0.165353362819542E-001 -0.748476608676081E+001  0.229027661645627E+001
  0.165353362819542E-001 -0.749750646037226E+001  0.229323374902772E+001
  0.165353362819542E-001 -0.750269158763056E+001  0.303803992397801E+001
  0.165353362819542E-001 -0.750717767161494E+001  0.229553856534204E+001
  0.165353362819542E-001 -0.752075203341608E+001  0.303364386106680E+001
  0.165353362819542E-001 -0.753787740153437E+001  0.302944593229228E+001
  0.165353362819542E-001 -0.756626614016657E+001  0.231079696512236E+001
  0.165353362819542E-001 -0.761381014269953E+001  0.301039364354690E+001
  0.165353362819542E-001 -0.762968977374201E+001  0.300630643499947E+001
  0.165353362819542E-001 -0.764996441287165E+001  0.300103623367529E+001
  0.165353362819542E-001 -0.764997514170771E+001  0.300103333731120E+001
  0.165353362819542E-001 -0.765453227442866E+001  0.299983921296252E+001
  0.165353362819542E-001 -0.769283183497553E+001  0.235183572329441E+001
  0.165353362819542E-001 -0.769555219096308E+001  0.235286364458734E+001
  0.165353362819542E-001 -0.770949872416621E+001  0.298515087485136E+001
  0.165353362819542E-001 -0.771627934855585E+001  0.298330094125009E+001
  0.165353362819542E-001 -0.773353513163691E+001  0.236787929398863E+001
  0.165353362819542E-001 -0.773640354556208E+001  0.236906690980953E+001
  0.165353362819542E-001 -0.775091346186762E+001  0.237517545051785E+001
  0.165353362819542E-001 -0.776345380229121E+001  0.297014470947904E+001
  0.165353362819542E-001 -0.777529700678950E+001  0.238585659071979E+001
  0.165353362819542E-001 -0.779949959200983E+001  0.239695162846569E+001
  0.165353362819542E-001 -0.781063493174677E+001  0.240221574013098E+001
  0.165353362819542E-001 -0.781116851252680E+001  0.295627753144105E+001
  0.165353362819542E-001 -0.781591947955256E+001  0.295486217385589E+001
  0.165353362819542E-001 -0.786260302943354E+001  0.294056110598020E+001
  0.165353362819542E-001 -0.786276968402033E+001  0.242810292295729E+001
  0.165353362819542E-001 -0.786947067660456E+001  0.293839198407231E+001
  0.165353362819542E-001 -0.786965664309626E+001  0.243166531377271E+001
  0.165353362819542E-001 -0.787727983874445E+001  0.293590277562615E+001
  0.165353362819542E-001 -0.788426073474055E+001  0.243931908075619E+001
  0.165353362819542E-001 -0.788699658793574E+001  0.244076737962490E+001
  0.165353362819542E-001 -0.788936813754206E+001  0.244202984010515E+001
  0.165353362819542E-001 -0.789062984866267E+001  0.244270095037926E+001
  0.165353362819542E-001 -0.789251502436762E+001  0.293097548620123E+001
  0.165353362819542E-001 -0.789268358630305E+001  0.244379825707023E+001
  0.165353362819542E-001 -0.789574368876582E+001  0.244543545301420E+001
  0.165353362819542E-001 -0.791181286257868E+001  0.245412396116258E+001
  0.165353362819542E-001 -0.791369231623774E+001  0.245515142884329E+001
  0.165353362819542E-001 -0.792426856440668E+001  0.246096720461598E+001
  0.165353362819542E-001 -0.793571933192377E+001  0.246734155034657E+001
  0.165353362819542E-001 -0.793709500712519E+001  0.246811018285000E+001
  0.165353362819542E-001 -0.794768818301325E+001  0.247408633328699E+001
  0.165353362819542E-001 -0.795370109957819E+001  0.247750961559006E+001
  0.165353362819542E-001 -0.795795448702937E+001  0.247994082043683E+001
  0.165353362819542E-001 -0.796222551745539E+001  0.248239583265636E+001
  0.165353362819542E-001 -0.749844264089633E+001  0.248902712213762E+001
  0.165353362819542E-001 -0.750232242643404E+001  0.249129686007900E+001
  0.165353362819542E-001 -0.751425384580660E+001  0.249833875165248E+001
  0.165353362819542E-001 -0.753072475492526E+001  0.250822389968743E+001
  0.165353362819542E-001 -0.753082918226290E+001  0.250828870475430E+001
  0.165353362819542E-001 -0.753083538114596E+001  0.250829163598824E+001
  0.165353362819542E-001 -0.754858397543002E+001  0.251918772769333E+001
  0.165353362819542E-001 -0.755356954633761E+001  0.252229910465811E+001
  0.165353362819542E-001 -0.757340740263033E+001  0.253491196543229E+001
  0.165353362819542E-001 -0.758595966398287E+001  0.254311612838815E+001
  0.165353362819542E-001 -0.758955692350436E+001  0.254550448713231E+001
  0.165353362819542E-001 -0.759102534353304E+001  0.254648254397109E+001
  0.165353362819542E-001 -0.759274887144137E+001  0.254763742376045E+001
  0.165353362819542E-001 -0.761859296857882E+001  0.256547352919561E+001
  0.165353362819542E-001 -0.762516902982760E+001  0.257019893165130E+001
  0.165353362819542E-001 -0.762934421598483E+001  0.257325080192184E+001
  0.165353362819542E-001 -0.764694665967989E+001  0.258655212983434E+001
  0.165353362819542E-001 -0.766623186170626E+001  0.260219834508778E+001
  0.165353362819542E-001 -0.767444109022189E+001  0.260930878954683E+001
  0.165353362819542E-001 -0.767595790922213E+001  0.261065781641282E+001
  0.165353362819542E-001 -0.767645906507540E+001  0.261110450849176E+001
  0.165353362819542E-001 -0.768512653410006E+001  0.261908570845340E+001
  0.165353362819542E-001 -0.768958353101779E+001  0.262337713987277E+001
  0.165353362819542E-001 -0.769602893888522E+001  0.262985691607164E+001
  0.165353362819542E-001 -0.770246910154391E+001  0.263671748845998E+001
  0.165353362819542E-001 -0.770701145231295E+001  0.264183813662958E+001
  0.165353362819542E-001 -0.770905899107028E+001  0.264424247468127E+001
  0.165353362819542E-001 -0.771029113828707E+001  0.264572028026063E+001
  0.165353362819542E-001 -0.771557449399996E+001  0.265234736136683E+001
  0.165353362819542E-001 -0.751979788404350E+001  0.266981418266041E+001
  0.165353362819542E-001 -0.752492579084281E+001  0.267933058197890E+001
  0.165353362819542E-001 -0.753098496061210E+001  0.269441370465653E+001
  0.165353362819542E-001 -0.753116854291801E+001  0.269500763988403E+001
  0.165353362819542E-001 -0.753201302152519E+001  0.269791860855629E+001
  0.165353362819542E-001 -0.753428896528129E+001  0.273031093019120E+001
  0.165353362819542E-001 -0.753445299726371E+001  0.271028168973697E+001
  0.165353362819542E-001 -0.742852309314740E+001  0.272368074098132E+001
  0.165353362819542E-001 -0.742852452365887E+001  0.272356021332609E+001
  0.165353362819542E-001 -0.742858317462933E+001  0.272221823158954E+001
