  0.614122746161410E-001 -0.428074815363426E+001  0.343201986757458E+001
  0.614122746161410E-001 -0.411478593439598E+001  0.346523685276335E+001
  0.614122746161410E-001  0.282550928502541E+001  0.511326497797736E+001
  0.614122746161410E-001 -0.410223510355492E+001  0.211539717978924E+001
  0.614122746161410E-001  0.195596001058083E+001  0.479011125053291E+001
  0.614122746161410E-001 -0.408955552668114E+001  0.347028172398888E+001
  0.614122746161410E-001 -0.405738427729149E+001  0.347670891602153E+001
  0.614122746161410E-001 -0.112795522303123E+001  0.405468576165163E+001
  0.614122746161410E-001 -0.142801644892235E+001  0.399480697537694E+001
  0.614122746161410E-001 -0.399824359507103E+001  0.348851716792636E+001
  0.614122746161410E-001 -0.394880797953148E+001  0.349837636784273E+001
  0.614122746161410E-001 -0.224666955561180E+001  0.383376623900479E+001
  0.614122746161410E-001 -0.393163373560448E+001  0.210739819447195E+001
  0.614122746161410E-001 -0.272264411539574E+001  0.374058401491650E+001
  0.614122746161410E-001 -0.280096700281639E+001  0.205844175626812E+001
  0.614122746161410E-001 -0.291339233011742E+001  0.370316826541398E+001
  0.614122746161410E-001 -0.301320531458397E+001  0.368356429415128E+001
  0.614122746161410E-001 -0.302999045938988E+001  0.206799205090132E+001
  0.614122746161410E-001 -0.322430017084617E+001  0.364200999009884E+001
  0.614122746161410E-001 -0.335416677088280E+001  0.361638500918507E+001
  0.614122746161410E-001 -0.374242475122948E+001  0.209878677794209E+001
  0.614122746161410E-001 -0.370749881357689E+001  0.354640206216416E+001
  0.614122746161410E-001 -0.435826280207176E+001  0.212794393462485E+001
  0.614122746161410E-001 -0.436865117640037E+001  0.212846899121345E+001
  0.614122746161410E-001 -0.466924765200157E+001  0.214438550278209E+001
  0.614122746161410E-001 -0.480431511492271E+001  0.215208506663243E+001
  0.614122746161410E-001 -0.487577512354393E+001  0.215633137173958E+001
  0.614122746161410E-001 -0.500774600595970E+001  0.328538248992371E+001
  0.614122746161410E-001 -0.502457835764427E+001  0.328195673497121E+001
  0.614122746161410E-001 -0.503283431620140E+001  0.216616609418159E+001
  0.614122746161410E-001 -0.507374694437523E+001  0.216885875460793E+001
  0.614122746161410E-001 -0.512962272257347E+001  0.217263513366696E+001
  0.614122746161410E-001 -0.515240671724815E+001  0.325587447765133E+001
  0.614122746161410E-001 -0.515408446878929E+001  0.217432738746600E+001
  0.614122746161410E-001 -0.520266511530418E+001  0.324558022264109E+001
  0.614122746161410E-001 -0.535015275568504E+001  0.218888885173968E+001
  0.614122746161410E-001 -0.535765912622948E+001  0.218948717238642E+001
  0.614122746161410E-001 -0.536965015024681E+001  0.321117263508582E+001
  0.614122746161410E-001 -0.545248391718407E+001  0.319395641914199E+001
  0.614122746161410E-001 -0.547048213572044E+001  0.219891633332543E+001
  0.614122746161410E-001 -0.554919388384361E+001  0.317369495873281E+001
  0.614122746161410E-001 -0.557212998957176E+001  0.316885866514568E+001
  0.614122746161410E-001 -0.559322383493919E+001  0.221029000848343E+001
  0.614122746161410E-001 -0.562069108576317E+001  0.315858197170194E+001
  0.614122746161410E-001 -0.563978459925194E+001  0.315452065829014E+001
  0.614122746161410E-001 -0.564084079355736E+001  0.221508482817013E+001
  0.614122746161410E-001 -0.565705301851768E+001  0.315084202478771E+001
  0.614122746161410E-001 -0.568501522631187E+001  0.314486423452991E+001
  0.614122746161410E-001 -0.568643667788048E+001  0.314456038778484E+001
  0.614122746161410E-001 -0.571591212839622E+001  0.222317515604599E+001
  0.614122746161410E-001 -0.572634532541771E+001  0.313598431586198E+001
  0.614122746161410E-001 -0.574080875010032E+001  0.313286277416415E+001
  0.614122746161410E-001 -0.576187613100548E+001  0.222849630310622E+001
  0.614122746161410E-001 -0.577375295252342E+001  0.222992102202598E+001
  0.614122746161410E-001 -0.579363372416038E+001  0.223235819531913E+001
  0.614122746161410E-001 -0.579524495691795E+001  0.312104491045759E+001
  0.614122746161410E-001 -0.594528987497825E+001  0.308779406093133E+001
  0.614122746161410E-001 -0.595846917719383E+001  0.308481780252902E+001
  0.614122746161410E-001 -0.597080304712791E+001  0.225750334767703E+001
  0.614122746161410E-001 -0.598882391542930E+001  0.226048947355296E+001
  0.614122746161410E-001 -0.601264026255150E+001  0.307246303626793E+001
  0.614122746161410E-001 -0.601807954401512E+001  0.226555307595464E+001
  0.614122746161410E-001 -0.602717521280784E+001  0.226718238050197E+001
  0.614122746161410E-001 -0.607074954599876E+001  0.227540889592491E+001
  0.614122746161410E-001 -0.607483151049156E+001  0.305802344447471E+001
  0.614122746161410E-001 -0.610488274187584E+001  0.228238019160791E+001
  0.614122746161410E-001 -0.610726358980675E+001  0.305037320570531E+001
  0.614122746161410E-001 -0.610732009500999E+001  0.228289747172238E+001
  0.614122746161410E-001 -0.610928227991600E+001  0.228331624969388E+001
  0.614122746161410E-001 -0.613316443056602E+001  0.304419453933942E+001
  0.614122746161410E-001 -0.614076449961204E+001  0.229027661645627E+001
  0.614122746161410E-001 -0.615350487322349E+001  0.229323374902772E+001
  0.614122746161410E-001 -0.615869000048179E+001  0.303803992397801E+001
  0.614122746161410E-001 -0.616317608446617E+001  0.229553856534204E+001
  0.614122746161410E-001 -0.617675044626732E+001  0.303364386106680E+001
  0.614122746161410E-001 -0.619387581438560E+001  0.302944593229228E+001
  0.614122746161410E-001 -0.622226455301780E+001  0.231079696512236E+001
  0.614122746161410E-001 -0.626980855555076E+001  0.301039364354690E+001
  0.614122746161410E-001 -0.628568818659324E+001  0.300630643499947E+001
  0.614122746161410E-001 -0.630596282572288E+001  0.300103623367529E+001
  0.614122746161410E-001 -0.630597355455894E+001  0.300103333731120E+001
  0.614122746161410E-001 -0.631053068727989E+001  0.299983921296252E+001
  0.614122746161410E-001 -0.634883024782676E+001  0.235183572329441E+001
  0.614122746161410E-001 -0.635155060381431E+001  0.235286364458734E+001
  0.614122746161410E-001 -0.636549713701744E+001  0.298515087485136E+001
  0.614122746161410E-001 -0.637227776140709E+001  0.298330094125009E+001
  0.614122746161410E-001 -0.638953354448814E+001  0.236787929398863E+001
  0.614122746161410E-001 -0.639240195841331E+001  0.236906690980953E+001
  0.614122746161410E-001 -0.640691187471885E+001  0.237517545051785E+001
  0.614122746161410E-001 -0.641945221514244E+001  0.297014470947904E+001
  0.614122746161410E-001 -0.643129541964073E+001  0.238585659071979E+001
  0.614122746161410E-001 -0.645549800486107E+001  0.239695162846569E+001
  0.614122746161410E-001 -0.646663334459801E+001  0.240221574013098E+001
  0.614122746161410E-001 -0.646716692537803E+001  0.295627753144105E+001
  0.614122746161410E-001 -0.647191789240379E+001  0.295486217385589E+001
  0.614122746161410E-001 -0.651860144228477E+001  0.294056110598020E+001
  0.614122746161410E-001 -0.651876809687156E+001  0.242810292295729E+001
  0.614122746161410E-001 -0.652546908945579E+001  0.293839198407231E+001
  0.614122746161410E-001 -0.652565505594749E+001  0.243166531377271E+001
  0.614122746161410E-001 -0.653327825159569E+001  0.293590277562615E+001
  0.614122746161410E-001 -0.654025914759178E+001  0.243931908075619E+001
  0.614122746161410E-001 -0.654299500078697E+001  0.244076737962490E+001
  0.614122746161410E-001 -0.654536655039329E+001  0.244202984010515E+001
  0.614122746161410E-001 -0.654662826151390E+001  0.244270095037926E+001
  0.614122746161410E-001 -0.654851343721885E+001  0.293097548620123E+001
  0.614122746161410E-001 -0.654868199915428E+001  0.244379825707023E+001
  0.614122746161410E-001 -0.655174210161705E+001  0.244543545301420E+001
  0.614122746161410E-001 -0.656781127542991E+001  0.245412396116258E+001
  0.614122746161410E-001 -0.656969072908897E+001  0.245515142884329E+001
  0.614122746161410E-001 -0.658026697725792E+001  0.246096720461598E+001
  0.614122746161410E-001 -0.659171774477501E+001  0.246734155034657E+001
  0.614122746161410E-001 -0.659309341997642E+001  0.246811018285000E+001
  0.614122746161410E-001 -0.660368659586448E+001  0.247408633328699E+001
  0.614122746161410E-001 -0.660969951242943E+001  0.247750961559006E+001
  0.614122746161410E-001 -0.661395289988060E+001  0.247994082043683E+001
  0.614122746161410E-001 -0.661822393030662E+001  0.248239583265636E+001
  0.614122746161410E-001 -0.545776602759674E+001  0.284071472071631E+001
  0.614122746161410E-001 -0.546613165870025E+001  0.283592122432060E+001
  0.614122746161410E-001 -0.548158547416046E+001  0.282647356571895E+001
  0.614122746161410E-001 -0.548204228415801E+001  0.282617869405509E+001
  0.614122746161410E-001 -0.549028441443756E+001  0.282074550039622E+001
  0.614122746161410E-001 -0.549985072150543E+001  0.281402036216482E+001
  0.614122746161410E-001 -0.550009247794464E+001  0.281384566385138E+001
  0.614122746161410E-001 -0.550639769568756E+001  0.280911115708124E+001
  0.614122746161410E-001 -0.552013823523834E+001  0.279773942940845E+001
  0.614122746161410E-001 -0.552229067817047E+001  0.279579330192279E+001
  0.614122746161410E-001 -0.552303359046295E+001  0.279510913371121E+001
  0.614122746161410E-001 -0.552769515052154E+001  0.279065569126461E+001
  0.614122746161410E-001 -0.553517100348785E+001  0.278282004527196E+001
  0.614122746161410E-001 -0.409047698974609E+001  0.275948308084515E+001
  0.614122746161410E-001 -0.409050130844116E+001  0.275943542856598E+001
