  0.696112032531271E-001 -0.416807684483118E+001  0.343201986757458E+001
  0.696112032531271E-001 -0.400211462559290E+001  0.346523685276335E+001
  0.696112032531271E-001  0.293818059382849E+001  0.511326497797736E+001
  0.696112032531271E-001 -0.398956379475183E+001  0.211539717978924E+001
  0.696112032531271E-001  0.206863131938391E+001  0.479011125053291E+001
  0.696112032531271E-001 -0.397688421787805E+001  0.347028172398888E+001
  0.696112032531271E-001 -0.394471296848840E+001  0.347670891602153E+001
  0.696112032531271E-001 -0.101528391422815E+001  0.405468576165163E+001
  0.696112032531271E-001 -0.131534514011926E+001  0.399480697537694E+001
  0.696112032531271E-001 -0.388557228626794E+001  0.348851716792636E+001
  0.696112032531271E-001 -0.383613667072839E+001  0.349837636784273E+001
  0.696112032531271E-001 -0.213399824680872E+001  0.383376623900479E+001
  0.696112032531271E-001 -0.381896242680139E+001  0.210739819447195E+001
  0.696112032531271E-001 -0.260997280659265E+001  0.374058401491650E+001
  0.696112032531271E-001 -0.268829569401331E+001  0.205844175626812E+001
  0.696112032531271E-001 -0.280072102131433E+001  0.370316826541398E+001
  0.696112032531271E-001 -0.290053400578088E+001  0.368356429415128E+001
  0.696112032531271E-001 -0.291731915058679E+001  0.206799205090132E+001
  0.696112032531271E-001 -0.311162886204309E+001  0.364200999009884E+001
  0.696112032531271E-001 -0.324149546207971E+001  0.361638500918507E+001
  0.696112032531271E-001 -0.362975344242639E+001  0.209878677794209E+001
  0.696112032531271E-001 -0.359482750477380E+001  0.354640206216416E+001
  0.696112032531271E-001 -0.424559149326868E+001  0.212794393462485E+001
  0.696112032531271E-001 -0.425597986759729E+001  0.212846899121345E+001
  0.696112032531271E-001 -0.455657634319849E+001  0.214438550278209E+001
  0.696112032531271E-001 -0.469164380611963E+001  0.215208506663243E+001
  0.696112032531271E-001 -0.476310381474084E+001  0.215633137173958E+001
  0.696112032531271E-001 -0.489507469715662E+001  0.328538248992371E+001
  0.696112032531271E-001 -0.491190704884119E+001  0.328195673497121E+001
  0.696112032531271E-001 -0.492016300739832E+001  0.216616609418159E+001
  0.696112032531271E-001 -0.496107563557214E+001  0.216885875460793E+001
  0.696112032531271E-001 -0.501695141377039E+001  0.217263513366696E+001
  0.696112032531271E-001 -0.503973540844507E+001  0.325587447765133E+001
  0.696112032531271E-001 -0.504141315998621E+001  0.217432738746600E+001
  0.696112032531271E-001 -0.508999380650110E+001  0.324558022264109E+001
  0.696112032531271E-001 -0.523748144688196E+001  0.218888885173968E+001
  0.696112032531271E-001 -0.524498781742639E+001  0.218948717238642E+001
  0.696112032531271E-001 -0.525697884144373E+001  0.321117263508582E+001
  0.696112032531271E-001 -0.533981260838098E+001  0.319395641914199E+001
  0.696112032531271E-001 -0.535781082691736E+001  0.219891633332543E+001
  0.696112032531271E-001 -0.543652257504053E+001  0.317369495873281E+001
  0.696112032531271E-001 -0.545945868076868E+001  0.316885866514568E+001
  0.696112032531271E-001 -0.548055252613611E+001  0.221029000848343E+001
  0.696112032531271E-001 -0.550801977696008E+001  0.315858197170194E+001
  0.696112032531271E-001 -0.552711329044885E+001  0.315452065829014E+001
  0.696112032531271E-001 -0.552816948475427E+001  0.221508482817013E+001
  0.696112032531271E-001 -0.554438170971460E+001  0.315084202478771E+001
  0.696112032531271E-001 -0.557234391750879E+001  0.314486423452991E+001
  0.696112032531271E-001 -0.557376536907739E+001  0.314456038778484E+001
  0.696112032531271E-001 -0.560324081959314E+001  0.222317515604599E+001
  0.696112032531271E-001 -0.561367401661462E+001  0.313598431586198E+001
  0.696112032531271E-001 -0.562813744129724E+001  0.313286277416415E+001
  0.696112032531271E-001 -0.564920482220239E+001  0.222849630310622E+001
  0.696112032531271E-001 -0.566108164372034E+001  0.222992102202598E+001
  0.696112032531271E-001 -0.568096241535730E+001  0.223235819531913E+001
  0.696112032531271E-001 -0.568257364811487E+001  0.312104491045759E+001
  0.696112032531271E-001 -0.583261856617517E+001  0.308779406093133E+001
  0.696112032531271E-001 -0.584579786839075E+001  0.308481780252902E+001
  0.696112032531271E-001 -0.585813173832483E+001  0.225750334767703E+001
  0.696112032531271E-001 -0.587615260662622E+001  0.226048947355296E+001
  0.696112032531271E-001 -0.589996895374841E+001  0.307246303626793E+001
  0.696112032531271E-001 -0.590540823521204E+001  0.226555307595464E+001
  0.696112032531271E-001 -0.591450390400476E+001  0.226718238050197E+001
  0.696112032531271E-001 -0.595807823719568E+001  0.227540889592491E+001
  0.696112032531271E-001 -0.596216020168848E+001  0.305802344447471E+001
  0.696112032531271E-001 -0.599221143307275E+001  0.228238019160791E+001
  0.696112032531271E-001 -0.599459228100366E+001  0.305037320570531E+001
  0.696112032531271E-001 -0.599464878620691E+001  0.228289747172238E+001
  0.696112032531271E-001 -0.599661097111291E+001  0.228331624969388E+001
  0.696112032531271E-001 -0.602049312176294E+001  0.304419453933942E+001
  0.696112032531271E-001 -0.602809319080896E+001  0.229027661645627E+001
  0.696112032531271E-001 -0.604083356442041E+001  0.229323374902772E+001
  0.696112032531271E-001 -0.604601869167871E+001  0.303803992397801E+001
  0.696112032531271E-001 -0.605050477566309E+001  0.229553856534204E+001
  0.696112032531271E-001 -0.606407913746423E+001  0.303364386106680E+001
  0.696112032531271E-001 -0.608120450558252E+001  0.302944593229228E+001
  0.696112032531271E-001 -0.610959324421472E+001  0.231079696512236E+001
  0.696112032531271E-001 -0.615713724674768E+001  0.301039364354690E+001
  0.696112032531271E-001 -0.617301687779016E+001  0.300630643499947E+001
  0.696112032531271E-001 -0.619329151691980E+001  0.300103623367529E+001
  0.696112032531271E-001 -0.619330224575586E+001  0.300103333731120E+001
  0.696112032531271E-001 -0.619785937847681E+001  0.299983921296252E+001
  0.696112032531271E-001 -0.623615893902368E+001  0.235183572329441E+001
  0.696112032531271E-001 -0.623887929501123E+001  0.235286364458734E+001
  0.696112032531271E-001 -0.625282582821435E+001  0.298515087485136E+001
  0.696112032531271E-001 -0.625960645260400E+001  0.298330094125009E+001
  0.696112032531271E-001 -0.627686223568506E+001  0.236787929398863E+001
  0.696112032531271E-001 -0.627973064961023E+001  0.236906690980953E+001
  0.696112032531271E-001 -0.629424056591577E+001  0.237517545051785E+001
  0.696112032531271E-001 -0.630678090633935E+001  0.297014470947904E+001
  0.696112032531271E-001 -0.631862411083765E+001  0.238585659071979E+001
  0.696112032531271E-001 -0.634282669605798E+001  0.239695162846569E+001
  0.696112032531271E-001 -0.635396203579492E+001  0.240221574013098E+001
  0.696112032531271E-001 -0.635449561657495E+001  0.295627753144105E+001
  0.696112032531271E-001 -0.635924658360071E+001  0.295486217385589E+001
  0.696112032531271E-001 -0.640593013348169E+001  0.294056110598020E+001
  0.696112032531271E-001 -0.640609678806848E+001  0.242810292295729E+001
  0.696112032531271E-001 -0.641279778065271E+001  0.293839198407231E+001
  0.696112032531271E-001 -0.641298374714441E+001  0.243166531377271E+001
  0.696112032531271E-001 -0.642060694279260E+001  0.293590277562615E+001
  0.696112032531271E-001 -0.642758783878870E+001  0.243931908075619E+001
  0.696112032531271E-001 -0.643032369198389E+001  0.244076737962490E+001
  0.696112032531271E-001 -0.643269524159021E+001  0.244202984010515E+001
  0.696112032531271E-001 -0.643395695271081E+001  0.244270095037926E+001
  0.696112032531271E-001 -0.643584212841577E+001  0.293097548620123E+001
  0.696112032531271E-001 -0.643601069035120E+001  0.244379825707023E+001
  0.696112032531271E-001 -0.643907079281396E+001  0.244543545301420E+001
  0.696112032531271E-001 -0.645513996662683E+001  0.245412396116258E+001
  0.696112032531271E-001 -0.645701942028589E+001  0.245515142884329E+001
  0.696112032531271E-001 -0.646759566845483E+001  0.246096720461598E+001
  0.696112032531271E-001 -0.647904643597192E+001  0.246734155034657E+001
  0.696112032531271E-001 -0.648042211117334E+001  0.246811018285000E+001
  0.696112032531271E-001 -0.649101528706140E+001  0.247408633328699E+001
  0.696112032531271E-001 -0.649702820362634E+001  0.247750961559006E+001
  0.696112032531271E-001 -0.650128159107751E+001  0.247994082043683E+001
  0.696112032531271E-001 -0.650555262150354E+001  0.248239583265636E+001
  0.696112032531271E-001 -0.604176974494447E+001  0.248902712213762E+001
  0.696112032531271E-001 -0.604564953048219E+001  0.249129686007900E+001
  0.696112032531271E-001 -0.605758094985475E+001  0.249833875165248E+001
  0.696112032531271E-001 -0.607405185897340E+001  0.250822389968743E+001
  0.696112032531271E-001 -0.607415628631105E+001  0.250828870475430E+001
  0.696112032531271E-001 -0.607416248519411E+001  0.250829163598824E+001
  0.696112032531271E-001 -0.609191107947817E+001  0.251918772769333E+001
  0.696112032531271E-001 -0.609689665038576E+001  0.252229910465811E+001
  0.696112032531271E-001 -0.611673450667848E+001  0.253491196543229E+001
  0.696112032531271E-001 -0.612928676803102E+001  0.254311612838815E+001
  0.696112032531271E-001 -0.613288402755251E+001  0.254550448713231E+001
  0.696112032531271E-001 -0.613435244758119E+001  0.254648254397109E+001
  0.696112032531271E-001 -0.613607597548952E+001  0.254763742376045E+001
  0.696112032531271E-001 -0.616192007262697E+001  0.256547352919561E+001
  0.696112032531271E-001 -0.616849613387575E+001  0.257019893165130E+001
  0.696112032531271E-001 -0.617267132003297E+001  0.257325080192184E+001
  0.696112032531271E-001 -0.619027376372804E+001  0.258655212983434E+001
  0.696112032531271E-001 -0.620955896575441E+001  0.260219834508778E+001
  0.696112032531271E-001 -0.621776819427004E+001  0.260930878954683E+001
  0.696112032531271E-001 -0.621928501327028E+001  0.261065781641282E+001
  0.696112032531271E-001 -0.621978616912355E+001  0.261110450849176E+001
  0.696112032531271E-001 -0.622845363814821E+001  0.261908570845340E+001
  0.696112032531271E-001 -0.623291063506593E+001  0.262337713987277E+001
  0.696112032531271E-001 -0.623935604293337E+001  0.262985691607164E+001
  0.696112032531271E-001 -0.624579620559206E+001  0.263671748845998E+001
  0.696112032531271E-001 -0.625033855636110E+001  0.264183813662958E+001
  0.696112032531271E-001 -0.625238609511842E+001  0.264424247468127E+001
  0.696112032531271E-001 -0.625361824233522E+001  0.264572028026063E+001
  0.696112032531271E-001 -0.625890159804811E+001  0.265234736136683E+001
  0.696112032531271E-001 -0.407953834533691E+001  0.265980148017028E+001
  0.696112032531271E-001 -0.408074903488159E+001  0.266157225385050E+001
  0.696112032531271E-001 -0.408078432083130E+001  0.266162499758635E+001
