  0.149993719357946E+000 -0.342014505614919E+001  0.343201986757458E+001
  0.149993719357946E+000 -0.325418283691090E+001  0.346523685276335E+001
  0.149993719357946E+000  0.368611238251048E+001  0.511326497797736E+001
  0.149993719357946E+000 -0.324163200606984E+001  0.211539717978924E+001
  0.149993719357946E+000  0.281656310806590E+001  0.479011125053291E+001
  0.149993719357946E+000 -0.322895242919606E+001  0.347028172398888E+001
  0.149993719357946E+000 -0.319678117980641E+001  0.347670891602153E+001
  0.149993719357946E+000 -0.267352125546159E+000  0.405468576165163E+001
  0.149993719357946E+000 -0.567413351437272E+000  0.399480697537694E+001
  0.149993719357946E+000 -0.313764049758595E+001  0.348851716792636E+001
  0.149993719357946E+000 -0.308820488204640E+001  0.349837636784273E+001
  0.149993719357946E+000 -0.138606645812673E+001  0.383376623900479E+001
  0.149993719357946E+000 -0.307103063811940E+001  0.210739819447195E+001
  0.149993719357946E+000 -0.186204101791066E+001  0.374058401491650E+001
  0.149993719357946E+000 -0.194036390533132E+001  0.205844175626812E+001
  0.149993719357946E+000 -0.205278923263234E+001  0.370316826541398E+001
  0.149993719357946E+000 -0.215260221709889E+001  0.368356429415128E+001
  0.149993719357946E+000 -0.216938736190480E+001  0.206799205090132E+001
  0.149993719357946E+000 -0.236369707336110E+001  0.364200999009884E+001
  0.149993719357946E+000 -0.249356367339772E+001  0.361638500918507E+001
  0.149993719357946E+000 -0.288182165374440E+001  0.209878677794209E+001
  0.149993719357946E+000 -0.284689571609181E+001  0.354640206216416E+001
  0.149993719357946E+000 -0.349765970458669E+001  0.212794393462485E+001
  0.149993719357946E+000 -0.350804807891530E+001  0.212846899121345E+001
  0.149993719357946E+000 -0.380864455451650E+001  0.214438550278209E+001
  0.149993719357946E+000 -0.394371201743764E+001  0.215208506663243E+001
  0.149993719357946E+000 -0.401517202605885E+001  0.215633137173958E+001
  0.149993719357946E+000 -0.414714290847463E+001  0.328538248992371E+001
  0.149993719357946E+000 -0.416397526015920E+001  0.328195673497121E+001
  0.149993719357946E+000 -0.417223121871633E+001  0.216616609418159E+001
  0.149993719357946E+000 -0.421314384689015E+001  0.216885875460793E+001
  0.149993719357946E+000 -0.426901962508840E+001  0.217263513366696E+001
  0.149993719357946E+000 -0.429180361976308E+001  0.325587447765133E+001
  0.149993719357946E+000 -0.429348137130422E+001  0.217432738746600E+001
  0.149993719357946E+000 -0.434206201781911E+001  0.324558022264109E+001
  0.149993719357946E+000 -0.448954965819997E+001  0.218888885173968E+001
  0.149993719357946E+000 -0.449705602874440E+001  0.218948717238642E+001
  0.149993719357946E+000 -0.450904705276174E+001  0.321117263508582E+001
  0.149993719357946E+000 -0.459188081969899E+001  0.319395641914199E+001
  0.149993719357946E+000 -0.460987903823537E+001  0.219891633332543E+001
  0.149993719357946E+000 -0.468859078635854E+001  0.317369495873281E+001
  0.149993719357946E+000 -0.471152689208669E+001  0.316885866514568E+001
  0.149993719357946E+000 -0.473262073745412E+001  0.221029000848343E+001
  0.149993719357946E+000 -0.476008798827809E+001  0.315858197170194E+001
  0.149993719357946E+000 -0.477918150176686E+001  0.315452065829014E+001
  0.149993719357946E+000 -0.478023769607228E+001  0.221508482817013E+001
  0.149993719357946E+000 -0.479644992103261E+001  0.315084202478771E+001
  0.149993719357946E+000 -0.482441212882680E+001  0.314486423452991E+001
  0.149993719357946E+000 -0.482583358039540E+001  0.314456038778484E+001
  0.149993719357946E+000 -0.485530903091115E+001  0.222317515604599E+001
  0.149993719357946E+000 -0.486574222793263E+001  0.313598431586198E+001
  0.149993719357946E+000 -0.488020565261525E+001  0.313286277416415E+001
  0.149993719357946E+000 -0.490127303352040E+001  0.222849630310622E+001
  0.149993719357946E+000 -0.491314985503835E+001  0.222992102202598E+001
  0.149993719357946E+000 -0.493303062667531E+001  0.223235819531913E+001
  0.149993719357946E+000 -0.493464185943288E+001  0.312104491045759E+001
  0.149993719357946E+000 -0.508468677749318E+001  0.308779406093133E+001
  0.149993719357946E+000 -0.509786607970876E+001  0.308481780252902E+001
  0.149993719357946E+000 -0.511019994964284E+001  0.225750334767703E+001
  0.149993719357946E+000 -0.512822081794423E+001  0.226048947355296E+001
  0.149993719357946E+000 -0.515203716506642E+001  0.307246303626793E+001
  0.149993719357946E+000 -0.515747644653004E+001  0.226555307595464E+001
  0.149993719357946E+000 -0.516657211532277E+001  0.226718238050197E+001
  0.149993719357946E+000 -0.521014644851369E+001  0.227540889592491E+001
  0.149993719357946E+000 -0.521422841300649E+001  0.305802344447471E+001
  0.149993719357946E+000 -0.524427964439076E+001  0.228238019160791E+001
  0.149993719357946E+000 -0.524666049232167E+001  0.305037320570531E+001
  0.149993719357946E+000 -0.524671699752492E+001  0.228289747172238E+001
  0.149993719357946E+000 -0.524867918243092E+001  0.228331624969388E+001
  0.149993719357946E+000 -0.527256133308095E+001  0.304419453933942E+001
  0.149993719357946E+000 -0.528016140212697E+001  0.229027661645627E+001
  0.149993719357946E+000 -0.529290177573842E+001  0.229323374902772E+001
  0.149993719357946E+000 -0.529808690299672E+001  0.303803992397801E+001
  0.149993719357946E+000 -0.530257298698109E+001  0.229553856534204E+001
  0.149993719357946E+000 -0.531614734878224E+001  0.303364386106680E+001
  0.149993719357946E+000 -0.533327271690053E+001  0.302944593229228E+001
  0.149993719357946E+000 -0.536166145553273E+001  0.231079696512236E+001
  0.149993719357946E+000 -0.540920545806569E+001  0.301039364354690E+001
  0.149993719357946E+000 -0.542508508910817E+001  0.300630643499947E+001
  0.149993719357946E+000 -0.544535972823781E+001  0.300103623367529E+001
  0.149993719357946E+000 -0.544537045707387E+001  0.300103333731120E+001
  0.149993719357946E+000 -0.544992758979482E+001  0.299983921296252E+001
  0.149993719357946E+000 -0.548822715034169E+001  0.235183572329441E+001
  0.149993719357946E+000 -0.549094750632924E+001  0.235286364458734E+001
  0.149993719357946E+000 -0.550489403953236E+001  0.298515087485136E+001
  0.149993719357946E+000 -0.551167466392201E+001  0.298330094125009E+001
  0.149993719357946E+000 -0.552893044700307E+001  0.236787929398863E+001
  0.149993719357946E+000 -0.553179886092824E+001  0.236906690980953E+001
  0.149993719357946E+000 -0.554630877723378E+001  0.237517545051785E+001
  0.149993719357946E+000 -0.555884911765736E+001  0.297014470947904E+001
  0.149993719357946E+000 -0.557069232215566E+001  0.238585659071979E+001
  0.149993719357946E+000 -0.559489490737599E+001  0.239695162846569E+001
  0.149993719357946E+000 -0.560603024711293E+001  0.240221574013098E+001
  0.149993719357946E+000 -0.560656382789296E+001  0.295627753144105E+001
  0.149993719357946E+000 -0.561131479491872E+001  0.295486217385589E+001
  0.149993719357946E+000 -0.565799834479970E+001  0.294056110598020E+001
  0.149993719357946E+000 -0.565816499938649E+001  0.242810292295729E+001
  0.149993719357946E+000 -0.566486599197072E+001  0.293839198407231E+001
  0.149993719357946E+000 -0.566505195846242E+001  0.243166531377271E+001
  0.149993719357946E+000 -0.567267515411061E+001  0.293590277562615E+001
  0.149993719357946E+000 -0.567965605010671E+001  0.243931908075619E+001
  0.149993719357946E+000 -0.568239190330190E+001  0.244076737962490E+001
  0.149993719357946E+000 -0.568476345290822E+001  0.244202984010515E+001
  0.149993719357946E+000 -0.568602516402882E+001  0.244270095037926E+001
  0.149993719357946E+000 -0.568791033973378E+001  0.293097548620123E+001
  0.149993719357946E+000 -0.568807890166921E+001  0.244379825707023E+001
  0.149993719357946E+000 -0.569113900413197E+001  0.244543545301420E+001
  0.149993719357946E+000 -0.570720817794484E+001  0.245412396116258E+001
  0.149993719357946E+000 -0.570908763160390E+001  0.245515142884329E+001
  0.149993719357946E+000 -0.571966387977284E+001  0.246096720461598E+001
  0.149993719357946E+000 -0.573111464728993E+001  0.246734155034657E+001
  0.149993719357946E+000 -0.573249032249135E+001  0.246811018285000E+001
  0.149993719357946E+000 -0.574308349837941E+001  0.247408633328699E+001
  0.149993719357946E+000 -0.574909641494435E+001  0.247750961559006E+001
  0.149993719357946E+000 -0.575334980239552E+001  0.247994082043683E+001
  0.149993719357946E+000 -0.575762083282155E+001  0.248239583265636E+001
  0.149993719357946E+000 -0.529383795626248E+001  0.248902712213762E+001
  0.149993719357946E+000 -0.529771774180020E+001  0.249129686007900E+001
  0.149993719357946E+000 -0.530964916117276E+001  0.249833875165248E+001
  0.149993719357946E+000 -0.532612007029141E+001  0.250822389968743E+001
  0.149993719357946E+000 -0.532622449762906E+001  0.250828870475430E+001
  0.149993719357946E+000 -0.532623069651212E+001  0.250829163598824E+001
  0.149993719357946E+000 -0.534397929079617E+001  0.251918772769333E+001
  0.149993719357946E+000 -0.534896486170377E+001  0.252229910465811E+001
  0.149993719357946E+000 -0.536880271799649E+001  0.253491196543229E+001
  0.149993719357946E+000 -0.538135497934903E+001  0.254311612838815E+001
  0.149993719357946E+000 -0.538495223887052E+001  0.254550448713231E+001
  0.149993719357946E+000 -0.538642065889920E+001  0.254648254397109E+001
  0.149993719357946E+000 -0.538814418680753E+001  0.254763742376045E+001
  0.149993719357946E+000 -0.541398828394498E+001  0.256547352919561E+001
  0.149993719357946E+000 -0.542056434519376E+001  0.257019893165130E+001
  0.149993719357946E+000 -0.542473953135098E+001  0.257325080192184E+001
  0.149993719357946E+000 -0.544234197504605E+001  0.258655212983434E+001
  0.149993719357946E+000 -0.546162717707242E+001  0.260219834508778E+001
  0.149993719357946E+000 -0.546983640558804E+001  0.260930878954683E+001
  0.149993719357946E+000 -0.547135322458829E+001  0.261065781641282E+001
  0.149993719357946E+000 -0.547185438044156E+001  0.261110450849176E+001
  0.149993719357946E+000 -0.548052184946622E+001  0.261908570845340E+001
  0.149993719357946E+000 -0.548497884638394E+001  0.262337713987277E+001
  0.149993719357946E+000 -0.549142425425137E+001  0.262985691607164E+001
  0.149993719357946E+000 -0.549786441691007E+001  0.263671748845998E+001
  0.149993719357946E+000 -0.550240676767911E+001  0.264183813662958E+001
  0.149993719357946E+000 -0.550445430643643E+001  0.264424247468127E+001
  0.149993719357946E+000 -0.550568645365323E+001  0.264572028026063E+001
  0.149993719357946E+000 -0.551096980936612E+001  0.265234736136683E+001
  0.149993719357946E+000 -0.531519319940965E+001  0.266981418266041E+001
  0.149993719357946E+000 -0.532032110620897E+001  0.267933058197890E+001
  0.149993719357946E+000 -0.532638027597826E+001  0.269441370465653E+001
  0.149993719357946E+000 -0.532656385828417E+001  0.269500763988403E+001
  0.149993719357946E+000 -0.532740833689134E+001  0.269791860855629E+001
  0.149993719357946E+000 -0.532968428064745E+001  0.273031093019120E+001
  0.149993719357946E+000 -0.532984831262987E+001  0.271028168973697E+001
  0.149993719357946E+000 -0.522391840851356E+001  0.272368074098132E+001
  0.149993719357946E+000 -0.522391983902503E+001  0.272356021332609E+001
  0.149993719357946E+000 -0.522397848999549E+001  0.272221823158954E+001
  0.149993719357946E+000 -0.410117387771606E+001  0.271791304452754E+001
