  0.309341292933406E-001 -0.497389533419421E+001  0.343201986757458E+001
  0.309341292933406E-001 -0.480793311495593E+001  0.346523685276335E+001
  0.309341292933406E-001  0.213236210446546E+001  0.511326497797736E+001
  0.309341292933406E-001 -0.479538228411486E+001  0.211539717978924E+001
  0.309341292933406E-001  0.126281283002088E+001  0.479011125053291E+001
  0.309341292933406E-001 -0.478270270724108E+001  0.347028172398888E+001
  0.309341292933406E-001 -0.475053145785143E+001  0.347670891602153E+001
  0.309341292933406E-001 -0.182110240359118E+001  0.405468576165163E+001
  0.309341292933406E-001 -0.212116362948229E+001  0.399480697537694E+001
  0.309341292933406E-001 -0.469139077563097E+001  0.348851716792636E+001
  0.309341292933406E-001 -0.464195516009142E+001  0.349837636784273E+001
  0.309341292933406E-001 -0.293981673617175E+001  0.383376623900479E+001
  0.309341292933406E-001 -0.462478091616442E+001  0.210739819447195E+001
  0.309341292933406E-001 -0.341579129595568E+001  0.374058401491650E+001
  0.309341292933406E-001 -0.349411418337634E+001  0.205844175626812E+001
  0.309341292933406E-001 -0.360653951067736E+001  0.370316826541398E+001
  0.309341292933406E-001 -0.370635249514391E+001  0.368356429415128E+001
  0.309341292933406E-001 -0.372313763994982E+001  0.206799205090132E+001
  0.309341292933406E-001 -0.391744735140612E+001  0.364200999009884E+001
  0.309341292933406E-001 -0.404731395144274E+001  0.361638500918507E+001
  0.309341292933406E-001 -0.443557193178942E+001  0.209878677794209E+001
  0.309341292933406E-001 -0.440064599413683E+001  0.354640206216416E+001
  0.309341292933406E-001 -0.505140998263171E+001  0.212794393462485E+001
  0.309341292933406E-001 -0.506179835696032E+001  0.212846899121345E+001
  0.309341292933406E-001 -0.536239483256152E+001  0.214438550278209E+001
  0.309341292933406E-001 -0.549746229548266E+001  0.215208506663243E+001
  0.309341292933406E-001 -0.556892230410387E+001  0.215633137173958E+001
  0.309341292933406E-001 -0.570089318651965E+001  0.328538248992371E+001
  0.309341292933406E-001 -0.571772553820422E+001  0.328195673497121E+001
  0.309341292933406E-001 -0.572598149676134E+001  0.216616609418159E+001
  0.309341292933406E-001 -0.576689412493517E+001  0.216885875460793E+001
  0.309341292933406E-001 -0.582276990313342E+001  0.217263513366696E+001
  0.309341292933406E-001 -0.584555389780810E+001  0.325587447765133E+001
  0.309341292933406E-001 -0.584723164934924E+001  0.217432738746600E+001
  0.309341292933406E-001 -0.589581229586413E+001  0.324558022264109E+001
  0.309341292933406E-001 -0.604329993624499E+001  0.218888885173968E+001
  0.309341292933406E-001 -0.605080630678942E+001  0.218948717238642E+001
  0.309341292933406E-001 -0.606279733080676E+001  0.321117263508582E+001
  0.309341292933406E-001 -0.614563109774401E+001  0.319395641914199E+001
  0.309341292933406E-001 -0.616362931628039E+001  0.219891633332543E+001
  0.309341292933406E-001 -0.624234106440356E+001  0.317369495873281E+001
  0.309341292933406E-001 -0.626527717013171E+001  0.316885866514568E+001
  0.309341292933406E-001 -0.628637101549914E+001  0.221029000848343E+001
  0.309341292933406E-001 -0.631383826632311E+001  0.315858197170194E+001
  0.309341292933406E-001 -0.633293177981188E+001  0.315452065829014E+001
  0.309341292933406E-001 -0.633398797411730E+001  0.221508482817013E+001
  0.309341292933406E-001 -0.635020019907763E+001  0.315084202478771E+001
  0.309341292933406E-001 -0.637816240687182E+001  0.314486423452991E+001
  0.309341292933406E-001 -0.637958385844042E+001  0.314456038778484E+001
  0.309341292933406E-001 -0.640905930895617E+001  0.222317515604599E+001
  0.309341292933406E-001 -0.641949250597765E+001  0.313598431586198E+001
  0.309341292933406E-001 -0.643395593066027E+001  0.313286277416415E+001
  0.309341292933406E-001 -0.645502331156542E+001  0.222849630310622E+001
  0.309341292933406E-001 -0.646690013308337E+001  0.222992102202598E+001
  0.309341292933406E-001 -0.648678090472033E+001  0.223235819531913E+001
  0.309341292933406E-001 -0.648839213747790E+001  0.312104491045759E+001
  0.309341292933406E-001 -0.663843705553820E+001  0.308779406093133E+001
  0.309341292933406E-001 -0.665161635775378E+001  0.308481780252902E+001
  0.309341292933406E-001 -0.666395022768786E+001  0.225750334767703E+001
  0.309341292933406E-001 -0.668197109598925E+001  0.226048947355296E+001
  0.309341292933406E-001 -0.670578744311144E+001  0.307246303626793E+001
  0.309341292933406E-001 -0.671122672457506E+001  0.226555307595464E+001
  0.309341292933406E-001 -0.672032239336779E+001  0.226718238050197E+001
  0.309341292933406E-001 -0.676389672655871E+001  0.227540889592491E+001
  0.309341292933406E-001 -0.676797869105151E+001  0.305802344447471E+001
  0.309341292933406E-001 -0.679802992243578E+001  0.228238019160791E+001
  0.309341292933406E-001 -0.680041077036669E+001  0.305037320570531E+001
  0.309341292933406E-001 -0.680046727556994E+001  0.228289747172238E+001
  0.309341292933406E-001 -0.680242946047594E+001  0.228331624969388E+001
  0.309341292933406E-001 -0.682631161112597E+001  0.304419453933942E+001
  0.309341292933406E-001 -0.683391168017199E+001  0.229027661645627E+001
  0.309341292933406E-001 -0.684665205378344E+001  0.229323374902772E+001
  0.309341292933406E-001 -0.685183718104174E+001  0.303803992397801E+001
  0.309341292933406E-001 -0.685632326502611E+001  0.229553856534204E+001
  0.309341292933406E-001 -0.686989762682726E+001  0.303364386106680E+001
  0.309341292933406E-001 -0.688702299494555E+001  0.302944593229228E+001
  0.309341292933406E-001 -0.691541173357775E+001  0.231079696512236E+001
  0.309341292933406E-001 -0.696295573611071E+001  0.301039364354690E+001
  0.309341292933406E-001 -0.697883536715319E+001  0.300630643499947E+001
  0.309341292933406E-001 -0.699911000628283E+001  0.300103623367529E+001
  0.309341292933406E-001 -0.699912073511889E+001  0.300103333731120E+001
  0.309341292933406E-001 -0.700367786783984E+001  0.299983921296252E+001
  0.309341292933406E-001 -0.704197742838671E+001  0.235183572329441E+001
  0.309341292933406E-001 -0.704469778437426E+001  0.235286364458734E+001
  0.309341292933406E-001 -0.705864431757738E+001  0.298515087485136E+001
  0.309341292933406E-001 -0.706542494196703E+001  0.298330094125009E+001
  0.309341292933406E-001 -0.708268072504809E+001  0.236787929398863E+001
  0.309341292933406E-001 -0.708554913897326E+001  0.236906690980953E+001
  0.309341292933406E-001 -0.710005905527880E+001  0.237517545051785E+001
  0.309341292933406E-001 -0.711259939570238E+001  0.297014470947904E+001
  0.309341292933406E-001 -0.712444260020068E+001  0.238585659071979E+001
  0.309341292933406E-001 -0.714864518542101E+001  0.239695162846569E+001
  0.309341292933406E-001 -0.715978052515795E+001  0.240221574013098E+001
  0.309341292933406E-001 -0.716031410593798E+001  0.295627753144105E+001
  0.309341292933406E-001 -0.716506507296374E+001  0.295486217385589E+001
  0.309341292933406E-001 -0.721174862284472E+001  0.294056110598020E+001
  0.309341292933406E-001 -0.721191527743151E+001  0.242810292295729E+001
  0.309341292933406E-001 -0.721861627001574E+001  0.293839198407231E+001
  0.309341292933406E-001 -0.721880223650744E+001  0.243166531377271E+001
  0.309341292933406E-001 -0.722642543215563E+001  0.293590277562615E+001
  0.309341292933406E-001 -0.723340632815172E+001  0.243931908075619E+001
  0.309341292933406E-001 -0.723614218134692E+001  0.244076737962490E+001
  0.309341292933406E-001 -0.723851373095324E+001  0.244202984010515E+001
  0.309341292933406E-001 -0.723977544207384E+001  0.244270095037926E+001
  0.309341292933406E-001 -0.724166061777880E+001  0.293097548620123E+001
  0.309341292933406E-001 -0.724182917971422E+001  0.244379825707023E+001
  0.309341292933406E-001 -0.724488928217699E+001  0.244543545301420E+001
  0.309341292933406E-001 -0.726095845598986E+001  0.245412396116258E+001
  0.309341292933406E-001 -0.726283790964892E+001  0.245515142884329E+001
  0.309341292933406E-001 -0.727341415781786E+001  0.246096720461598E+001
  0.309341292933406E-001 -0.728486492533495E+001  0.246734155034657E+001
  0.309341292933406E-001 -0.728624060053637E+001  0.246811018285000E+001
  0.309341292933406E-001 -0.729683377642443E+001  0.247408633328699E+001
  0.309341292933406E-001 -0.730284669298937E+001  0.247750961559006E+001
  0.309341292933406E-001 -0.730710008044054E+001  0.247994082043683E+001
  0.309341292933406E-001 -0.731137111086657E+001  0.248239583265636E+001
  0.309341292933406E-001 -0.615091320815668E+001  0.284071472071631E+001
  0.309341292933406E-001 -0.615927883926020E+001  0.283592122432060E+001
  0.309341292933406E-001 -0.617473265472040E+001  0.282647356571895E+001
  0.309341292933406E-001 -0.617518946471796E+001  0.282617869405509E+001
  0.309341292933406E-001 -0.618343159499750E+001  0.282074550039622E+001
  0.309341292933406E-001 -0.619299790206537E+001  0.281402036216482E+001
  0.309341292933406E-001 -0.619323965850458E+001  0.281384566385138E+001
  0.309341292933406E-001 -0.619954487624750E+001  0.280911115708124E+001
  0.309341292933406E-001 -0.621328541579828E+001  0.279773942940845E+001
  0.309341292933406E-001 -0.621543785873041E+001  0.279579330192279E+001
  0.309341292933406E-001 -0.621618077102289E+001  0.279510913371121E+001
  0.309341292933406E-001 -0.622084233108149E+001  0.279065569126461E+001
  0.309341292933406E-001 -0.622831818404779E+001  0.278282004527196E+001
  0.309341292933406E-001 -0.409675979614258E+001  0.274547625216376E+001
  0.309341292933406E-001 -0.409749794006348E+001  0.274324871630381E+001
