  0.989013025378286E-001 -0.108527515309484E+000  0.478358042736818E+001
  0.989013025378286E-001  0.343581261835751E+001  0.664676605255908E+001
  0.989013025378286E-001  0.402490159099989E-001  0.485946864855940E+001
  0.989013025378286E-001  0.301442113123593E+001  0.179672461723118E+001
  0.989013025378286E-001  0.533389713389247E+000  0.511822351258902E+001
  0.989013025378286E-001 -0.414198920420207E+001  0.216875536076409E+001
  0.989013025378286E-001  0.168862643442807E+001  0.183751344679148E+001
  0.989013025378286E-001 -0.219450614145793E+001  0.204534884436830E+001
  0.989013025378286E-001 -0.461011120966472E+001  0.321343582653413E+001
  0.989013025378286E-001 -0.243680379084147E+001  0.205886417547335E+001
  0.989013025378286E-001 -0.254245087793864E+001  0.206485973762636E+001
  0.989013025378286E-001 -0.324988481691875E+001  0.210705202760696E+001
  0.989013025378286E-001 -0.447763583353557E+001  0.323829142968215E+001
  0.989013025378286E-001 -0.431236383608378E+001  0.218236776458431E+001
  0.989013025378286E-001 -0.444992277315654E+001  0.324346395361678E+001
  0.989013025378286E-001 -0.468882081202067E+001  0.319853961825730E+001
  0.989013025378286E-001 -0.472926685503520E+001  0.319083751841674E+001
  0.989013025378286E-001 -0.473918983629741E+001  0.318894264034690E+001
  0.989013025378286E-001 -0.481592175653972E+001  0.317420810578310E+001
  0.989013025378286E-001 -0.484331700495280E+001  0.316891039280470E+001
  0.989013025378286E-001 -0.495200583628215E+001  0.224270029902321E+001
  0.989013025378286E-001 -0.501857397249736E+001  0.313443781324101E+001
  0.989013025378286E-001 -0.502470490625896E+001  0.313321163982319E+001
  0.989013025378286E-001 -0.504536840609111E+001  0.312906645029003E+001
  0.989013025378286E-001 -0.505051705530681E+001  0.312802891846788E+001
  0.989013025378286E-001 -0.510165092638530E+001  0.225980670616935E+001
  0.989013025378286E-001 -0.510629675081767E+001  0.226036050647679E+001
  0.989013025378286E-001 -0.512293884447612E+001  0.311332656687226E+001
  0.989013025378286E-001 -0.518525597742595E+001  0.310046264040407E+001
  0.989013025378286E-001 -0.520832202127971E+001  0.309564497771446E+001
  0.989013025378286E-001 -0.522110840967692E+001  0.227461298472528E+001
  0.989013025378286E-001 -0.522433755091228E+001  0.309228071862304E+001
  0.989013025378286E-001 -0.522578165224589E+001  0.309197807953774E+001
  0.989013025378286E-001 -0.522980711153544E+001  0.227573504219177E+001
  0.989013025378286E-001 -0.523811123064555E+001  0.227681467645282E+001
  0.989013025378286E-001 -0.526835844210185E+001  0.228079308069721E+001
  0.989013025378286E-001 -0.527838179758586E+001  0.308081154196031E+001
  0.989013025378286E-001 -0.530572387865581E+001  0.307493288508564E+001
  0.989013025378286E-001 -0.531636449984111E+001  0.228728128773680E+001
  0.989013025378286E-001 -0.531694981745280E+001  0.307250347745876E+001
  0.989013025378286E-001 -0.534474346331157E+001  0.306644892930974E+001
  0.989013025378286E-001 -0.540070936373271E+001  0.305407043441491E+001
  0.989013025378286E-001 -0.540417811564006E+001  0.305329384934427E+001
  0.989013025378286E-001 -0.543081328562297E+001  0.230368953674827E+001
  0.989013025378286E-001 -0.547056743792094E+001  0.303822668006637E+001
  0.989013025378286E-001 -0.547576949289836E+001  0.231053966813098E+001
  0.989013025378286E-001 -0.547841951540507E+001  0.303641714444743E+001
  0.989013025378286E-001 -0.548095128229655E+001  0.231134510858014E+001
  0.989013025378286E-001 -0.551335594347514E+001  0.231646238449847E+001
  0.989013025378286E-001 -0.551446458986796E+001  0.231663852238447E+001
  0.989013025378286E-001 -0.555190536669292E+001  0.232273360561843E+001
  0.989013025378286E-001 -0.555446359804668E+001  0.301854090689340E+001
  0.989013025378286E-001 -0.555477807215251E+001  0.301846634526748E+001
  0.989013025378286E-001 -0.560908887079753E+001  0.300527343962848E+001
  0.989013025378286E-001 -0.561051604441203E+001  0.300492066509449E+001
  0.989013025378286E-001 -0.561897751978435E+001  0.233416841196449E+001
  0.989013025378286E-001 -0.563390705278911E+001  0.299911296001091E+001
  0.989013025378286E-001 -0.563449737719096E+001  0.233691886560542E+001
  0.989013025378286E-001 -0.564495608500041E+001  0.233879390246260E+001
  0.989013025378286E-001 -0.565085217646159E+001  0.233985786069704E+001
  0.989013025378286E-001 -0.565595409563579E+001  0.299356481455630E+001
  0.989013025378286E-001 -0.569177720240153E+001  0.234742825818705E+001
  0.989013025378286E-001 -0.571446416071452E+001  0.235176081339398E+001
  0.989013025378286E-001 -0.573013684443034E+001  0.297432862067966E+001
  0.989013025378286E-001 -0.574985644510783E+001  0.235873228686599E+001
  0.989013025378286E-001 -0.575922295740642E+001  0.296651905020577E+001
  0.989013025378286E-001 -0.577890488794841E+001  0.236465744620837E+001
  0.989013025378286E-001 -0.580562374285258E+001  0.295370461312316E+001
  0.989013025378286E-001 -0.580801436594524E+001  0.237079831208327E+001
  0.989013025378286E-001 -0.581970927408732E+001  0.237332461210314E+001
  0.989013025378286E-001 -0.583018634012736E+001  0.294672722550059E+001
  0.989013025378286E-001 -0.584242722681560E+001  0.294319561160232E+001
  0.989013025378286E-001 -0.585402533701457E+001  0.293981450108562E+001
  0.989013025378286E-001 -0.586093589952983E+001  0.293778399457415E+001
  0.989013025378286E-001 -0.587042710474528E+001  0.238471335606772E+001
  0.989013025378286E-001 -0.587454220942058E+001  0.238566853529196E+001
  0.989013025378286E-001 -0.588877794436015E+001  0.238902073972222E+001
  0.989013025378286E-001 -0.588915559938945E+001  0.292935302600443E+001
  0.989013025378286E-001 -0.589352485827006E+001  0.292802659345546E+001
  0.989013025378286E-001 -0.591528865984477E+001  0.292133699618221E+001
  0.989013025378286E-001 -0.593635794809856E+001  0.291471505101199E+001
  0.989013025378286E-001 -0.594128892115153E+001  0.291314294314989E+001
  0.989013025378286E-001 -0.594361588648357E+001  0.240256132897506E+001
  0.989013025378286E-001 -0.596165654352702E+001  0.240726080688420E+001
  0.989013025378286E-001 -0.597261402300395E+001  0.241017809112754E+001
  0.989013025378286E-001 -0.601209399393596E+001  0.288954767180090E+001
  0.989013025378286E-001 -0.602835676363505E+001  0.242585552823177E+001
  0.989013025378286E-001 -0.602911493471660E+001  0.242608072294742E+001
  0.989013025378286E-001 -0.603876397303142E+001  0.288008650747822E+001
  0.989013025378286E-001 -0.605413434198894E+001  0.287446699930321E+001
  0.989013025378286E-001 -0.606380626848735E+001  0.287086349328473E+001
  0.989013025378286E-001 -0.606687924555339E+001  0.243763444318645E+001
  0.989013025378286E-001 -0.607361766985454E+001  0.243978683098461E+001
  0.989013025378286E-001 -0.608696458033122E+001  0.244413664005206E+001
  0.989013025378286E-001 -0.609945771387614E+001  0.244832312414216E+001
  0.989013025378286E-001 -0.612595030954875E+001  0.245759240729769E+001
  0.989013025378286E-001 -0.614221522501506E+001  0.283931296664863E+001
  0.989013025378286E-001 -0.615033862284221E+001  0.246666051026360E+001
  0.989013025378286E-001 -0.615106627634563E+001  0.283543772379467E+001
  0.989013025378286E-001 -0.615203377893962E+001  0.246731084730570E+001
  0.989013025378286E-001 -0.615419194391765E+001  0.283405169546486E+001
  0.989013025378286E-001 -0.616102740458049E+001  0.283098360856587E+001
  0.989013025378286E-001 -0.619058844736613E+001  0.248299507942620E+001
  0.989013025378286E-001 -0.619138285807170E+001  0.248333910919205E+001
  0.989013025378286E-001 -0.536392893588051E+001  0.255312275795051E+001
  0.989013025378286E-001 -0.536679425036415E+001  0.255548017239968E+001
  0.989013025378286E-001 -0.536825051104530E+001  0.255670804412018E+001
  0.989013025378286E-001 -0.536947693621620E+001  0.255775364801653E+001
  0.989013025378286E-001 -0.536980452334388E+001  0.255803637307806E+001
  0.989013025378286E-001 -0.537090410983070E+001  0.255898711066683E+001
  0.989013025378286E-001 -0.537439265048011E+001  0.256209093811019E+001
  0.989013025378286E-001 -0.537859358584388E+001  0.256599859701948E+001
  0.989013025378286E-001 -0.538318981921180E+001  0.257051898146082E+001
  0.989013025378286E-001 -0.538580431735023E+001  0.257322808608393E+001
  0.989013025378286E-001 -0.539085259234413E+001  0.257878141325002E+001
  0.989013025378286E-001 -0.540319933688148E+001  0.259503971471325E+001
  0.989013025378286E-001 -0.540389599596962E+001  0.259612374998152E+001
  0.989013025378286E-001 -0.540629496371254E+001  0.260006418137174E+001
  0.989013025378286E-001 -0.540853657519325E+001  0.260409851783866E+001
  0.989013025378286E-001 -0.541373123919471E+001  0.261554460714637E+001
  0.989013025378286E-001 -0.541446461474403E+001  0.261756024026390E+001
  0.989013025378286E-001 -0.541514744555458E+001  0.261957707071850E+001
  0.989013025378286E-001 -0.541578354632362E+001  0.266880640720654E+001
  0.989013025378286E-001 -0.541715254580482E+001  0.266360608138634E+001
  0.989013025378286E-001 -0.541734947955116E+001  0.262759318157530E+001
  0.989013025378286E-001 -0.541779103075966E+001  0.266059842684281E+001
  0.989013025378286E-001 -0.541785826479896E+001  0.266023270455996E+001
  0.989013025378286E-001 -0.541787543093666E+001  0.263015524147739E+001
  0.989013025378286E-001 -0.541816010272010E+001  0.265855370211663E+001
  0.989013025378286E-001 -0.541837181841835E+001  0.263303238394309E+001
  0.989013025378286E-001 -0.541857304369911E+001  0.263443389109001E+001
  0.989013025378286E-001 -0.541875853335365E+001  0.265434129554014E+001
  0.989013025378286E-001 -0.541888584887489E+001  0.265316272217770E+001
  0.989013025378286E-001 -0.541906895434364E+001  0.263916146700163E+001
