  0.679141762060616E-002 -0.651454885721021E+001  0.343201986757458E+001
  0.679141762060616E-002 -0.634858663797193E+001  0.346523685276335E+001
  0.679141762060616E-002  0.591708581449462E+000  0.511326497797736E+001
  0.679141762060616E-002 -0.633603580713086E+001  0.211539717978924E+001
  0.679141762060616E-002 -0.277840692995119E+000  0.479011125053291E+001
  0.679141762060616E-002 -0.632335623025708E+001  0.347028172398888E+001
  0.679141762060616E-002 -0.629118498086743E+001  0.347670891602153E+001
  0.679141762060616E-002 -0.336175592660718E+001  0.405468576165163E+001
  0.679141762060616E-002 -0.366181715249829E+001  0.399480697537694E+001
  0.679141762060616E-002 -0.623204429864697E+001  0.348851716792636E+001
  0.679141762060616E-002 -0.618260868310742E+001  0.349837636784273E+001
  0.679141762060616E-002 -0.448047025918775E+001  0.383376623900479E+001
  0.679141762060616E-002 -0.616543443918042E+001  0.210739819447195E+001
  0.679141762060616E-002 -0.495644481897168E+001  0.374058401491650E+001
  0.679141762060616E-002 -0.503476770639234E+001  0.205844175626812E+001
  0.679141762060616E-002 -0.514719303369336E+001  0.370316826541398E+001
  0.679141762060616E-002 -0.524700601815991E+001  0.368356429415128E+001
  0.679141762060616E-002 -0.526379116296582E+001  0.206799205090132E+001
  0.679141762060616E-002 -0.545810087442212E+001  0.364200999009884E+001
  0.679141762060616E-002 -0.558796747445874E+001  0.361638500918507E+001
  0.679141762060616E-002 -0.597622545480542E+001  0.209878677794209E+001
  0.679141762060616E-002 -0.594129951715283E+001  0.354640206216416E+001
  0.679141762060616E-002 -0.659206350564771E+001  0.212794393462485E+001
  0.679141762060616E-002 -0.660245187997632E+001  0.212846899121345E+001
  0.679141762060616E-002 -0.690304835557752E+001  0.214438550278209E+001
  0.679141762060616E-002 -0.703811581849866E+001  0.215208506663243E+001
  0.679141762060616E-002 -0.710957582711987E+001  0.215633137173958E+001
  0.679141762060616E-002 -0.724154670953565E+001  0.328538248992371E+001
  0.679141762060616E-002 -0.725837906122022E+001  0.328195673497121E+001
  0.679141762060616E-002 -0.726663501977735E+001  0.216616609418159E+001
  0.679141762060616E-002 -0.730754764795117E+001  0.216885875460793E+001
  0.679141762060616E-002 -0.736342342614942E+001  0.217263513366696E+001
  0.679141762060616E-002 -0.738620742082410E+001  0.325587447765133E+001
  0.679141762060616E-002 -0.738788517236524E+001  0.217432738746600E+001
  0.679141762060616E-002 -0.743646581888013E+001  0.324558022264109E+001
  0.679141762060616E-002 -0.758395345926099E+001  0.218888885173968E+001
  0.679141762060616E-002 -0.759145982980542E+001  0.218948717238642E+001
  0.679141762060616E-002 -0.760345085382276E+001  0.321117263508582E+001
  0.679141762060616E-002 -0.768628462076001E+001  0.319395641914199E+001
  0.679141762060616E-002 -0.770428283929639E+001  0.219891633332543E+001
  0.679141762060616E-002 -0.778299458741956E+001  0.317369495873281E+001
  0.679141762060616E-002 -0.780593069314771E+001  0.316885866514568E+001
  0.679141762060616E-002 -0.782702453851514E+001  0.221029000848343E+001
  0.679141762060616E-002 -0.785449178933911E+001  0.315858197170194E+001
  0.679141762060616E-002 -0.787358530282788E+001  0.315452065829014E+001
  0.679141762060616E-002 -0.787464149713330E+001  0.221508482817013E+001
  0.679141762060616E-002 -0.789085372209363E+001  0.315084202478771E+001
  0.679141762060616E-002 -0.791881592988782E+001  0.314486423452991E+001
  0.679141762060616E-002 -0.792023738145642E+001  0.314456038778484E+001
  0.679141762060616E-002 -0.794971283197217E+001  0.222317515604599E+001
  0.679141762060616E-002 -0.796014602899365E+001  0.313598431586198E+001
  0.679141762060616E-002 -0.797460945367627E+001  0.313286277416415E+001
  0.679141762060616E-002 -0.799567683458142E+001  0.222849630310622E+001
  0.679141762060616E-002 -0.800755365609937E+001  0.222992102202598E+001
  0.679141762060616E-002 -0.802743442773633E+001  0.223235819531913E+001
  0.679141762060616E-002 -0.802904566049390E+001  0.312104491045759E+001
  0.679141762060616E-002 -0.817909057855420E+001  0.308779406093133E+001
  0.679141762060616E-002 -0.819226988076978E+001  0.308481780252902E+001
  0.679141762060616E-002 -0.820460375070386E+001  0.225750334767703E+001
  0.679141762060616E-002 -0.822262461900525E+001  0.226048947355296E+001
  0.679141762060616E-002 -0.824644096612744E+001  0.307246303626793E+001
  0.679141762060616E-002 -0.825188024759107E+001  0.226555307595464E+001
  0.679141762060616E-002 -0.826097591638379E+001  0.226718238050197E+001
  0.679141762060616E-002 -0.830455024957471E+001  0.227540889592491E+001
  0.679141762060616E-002 -0.830863221406751E+001  0.305802344447471E+001
  0.679141762060616E-002 -0.833868344545178E+001  0.228238019160791E+001
  0.679141762060616E-002 -0.834106429338269E+001  0.305037320570531E+001
  0.679141762060616E-002 -0.834112079858594E+001  0.228289747172238E+001
  0.679141762060616E-002 -0.834308298349194E+001  0.228331624969388E+001
  0.679141762060616E-002 -0.836696513414197E+001  0.304419453933942E+001
  0.679141762060616E-002 -0.837456520318799E+001  0.229027661645627E+001
  0.679141762060616E-002 -0.838730557679944E+001  0.229323374902772E+001
  0.679141762060616E-002 -0.839249070405774E+001  0.303803992397801E+001
  0.679141762060616E-002 -0.839697678804212E+001  0.229553856534204E+001
  0.679141762060616E-002 -0.841055114984326E+001  0.303364386106680E+001
  0.679141762060616E-002 -0.842767651796155E+001  0.302944593229228E+001
  0.679141762060616E-002 -0.845606525659375E+001  0.231079696512236E+001
  0.679141762060616E-002 -0.850360925912671E+001  0.301039364354690E+001
  0.679141762060616E-002 -0.851948889016919E+001  0.300630643499947E+001
  0.679141762060616E-002 -0.853976352929883E+001  0.300103623367529E+001
  0.679141762060616E-002 -0.853977425813489E+001  0.300103333731120E+001
  0.679141762060616E-002 -0.854433139085584E+001  0.299983921296252E+001
  0.679141762060616E-002 -0.858263095140271E+001  0.235183572329441E+001
  0.679141762060616E-002 -0.858535130739026E+001  0.235286364458734E+001
  0.679141762060616E-002 -0.859929784059339E+001  0.298515087485136E+001
  0.679141762060616E-002 -0.860607846498303E+001  0.298330094125009E+001
  0.679141762060616E-002 -0.862333424806409E+001  0.236787929398863E+001
  0.679141762060616E-002 -0.862620266198926E+001  0.236906690980953E+001
  0.679141762060616E-002 -0.864071257829480E+001  0.237517545051785E+001
  0.679141762060616E-002 -0.865325291871839E+001  0.297014470947904E+001
  0.679141762060616E-002 -0.866509612321668E+001  0.238585659071979E+001
  0.679141762060616E-002 -0.868929870843701E+001  0.239695162846569E+001
  0.679141762060616E-002 -0.870043404817395E+001  0.240221574013098E+001
  0.679141762060616E-002 -0.870096762895398E+001  0.295627753144105E+001
  0.679141762060616E-002 -0.870571859597974E+001  0.295486217385589E+001
  0.679141762060616E-002 -0.875240214586072E+001  0.294056110598020E+001
  0.679141762060616E-002 -0.875256880044751E+001  0.242810292295729E+001
  0.679141762060616E-002 -0.875926979303174E+001  0.293839198407231E+001
  0.679141762060616E-002 -0.875945575952344E+001  0.243166531377271E+001
  0.679141762060616E-002 -0.876707895517163E+001  0.293590277562615E+001
  0.679141762060616E-002 -0.877405985116773E+001  0.243931908075619E+001
  0.679141762060616E-002 -0.877679570436292E+001  0.244076737962490E+001
  0.679141762060616E-002 -0.877916725396924E+001  0.244202984010515E+001
  0.679141762060616E-002 -0.878042896508985E+001  0.244270095037926E+001
  0.679141762060616E-002 -0.878231414079480E+001  0.293097548620123E+001
  0.679141762060616E-002 -0.878248270273023E+001  0.244379825707023E+001
  0.679141762060616E-002 -0.878554280519299E+001  0.244543545301420E+001
  0.679141762060616E-002 -0.880161197900586E+001  0.245412396116258E+001
  0.679141762060616E-002 -0.880349143266492E+001  0.245515142884329E+001
  0.679141762060616E-002 -0.881406768083386E+001  0.246096720461598E+001
  0.679141762060616E-002 -0.882551844835095E+001  0.246734155034657E+001
  0.679141762060616E-002 -0.882689412355237E+001  0.246811018285000E+001
  0.679141762060616E-002 -0.883748729944043E+001  0.247408633328699E+001
  0.679141762060616E-002 -0.884350021600537E+001  0.247750961559006E+001
  0.679141762060616E-002 -0.884775360345654E+001  0.247994082043683E+001
  0.679141762060616E-002 -0.885202463388257E+001  0.248239583265636E+001
  0.679141762060616E-002 -0.838824175732350E+001  0.248902712213762E+001
  0.679141762060616E-002 -0.839212154286122E+001  0.249129686007900E+001
  0.679141762060616E-002 -0.840405296223378E+001  0.249833875165248E+001
  0.679141762060616E-002 -0.842052387135243E+001  0.250822389968743E+001
  0.679141762060616E-002 -0.842062829869008E+001  0.250828870475430E+001
  0.679141762060616E-002 -0.842063449757314E+001  0.250829163598824E+001
  0.679141762060616E-002 -0.843838309185720E+001  0.251918772769333E+001
  0.679141762060616E-002 -0.844336866276479E+001  0.252229910465811E+001
  0.679141762060616E-002 -0.846320651905751E+001  0.253491196543229E+001
  0.679141762060616E-002 -0.847575878041005E+001  0.254311612838815E+001
  0.679141762060616E-002 -0.847935603993154E+001  0.254550448713231E+001
  0.679141762060616E-002 -0.848082445996022E+001  0.254648254397109E+001
  0.679141762060616E-002 -0.848254798786855E+001  0.254763742376045E+001
  0.679141762060616E-002 -0.850839208500600E+001  0.256547352919561E+001
  0.679141762060616E-002 -0.851496814625478E+001  0.257019893165130E+001
  0.679141762060616E-002 -0.851914333241201E+001  0.257325080192184E+001
  0.679141762060616E-002 -0.853674577610707E+001  0.258655212983434E+001
  0.679141762060616E-002 -0.855603097813344E+001  0.260219834508778E+001
  0.679141762060616E-002 -0.856424020664907E+001  0.260930878954683E+001
  0.679141762060616E-002 -0.856575702564931E+001  0.261065781641282E+001
  0.679141762060616E-002 -0.856625818150258E+001  0.261110450849176E+001
  0.679141762060616E-002 -0.857492565052724E+001  0.261908570845340E+001
  0.679141762060616E-002 -0.857938264744496E+001  0.262337713987277E+001
  0.679141762060616E-002 -0.858582805531240E+001  0.262985691607164E+001
  0.679141762060616E-002 -0.859226821797109E+001  0.263671748845998E+001
  0.679141762060616E-002 -0.859681056874013E+001  0.264183813662958E+001
  0.679141762060616E-002 -0.859885810749745E+001  0.264424247468127E+001
  0.679141762060616E-002 -0.860009025471425E+001  0.264572028026063E+001
  0.679141762060616E-002 -0.860537361042714E+001  0.265234736136683E+001
  0.679141762060616E-002 -0.840959700047068E+001  0.266981418266041E+001
  0.679141762060616E-002 -0.841472490726999E+001  0.267933058197890E+001
  0.679141762060616E-002 -0.842078407703928E+001  0.269441370465653E+001
  0.679141762060616E-002 -0.842096765934519E+001  0.269500763988403E+001
  0.679141762060616E-002 -0.842181213795237E+001  0.269791860855629E+001
  0.679141762060616E-002 -0.842408808170847E+001  0.273031093019120E+001
  0.679141762060616E-002 -0.842425211369089E+001  0.271028168973697E+001
  0.679141762060616E-002 -0.831832220957458E+001  0.272368074098132E+001
  0.679141762060616E-002 -0.831832364008605E+001  0.272356021332609E+001
  0.679141762060616E-002 -0.831838229105651E+001  0.272221823158954E+001
  0.679141762060616E-002 -0.627192162155721E+001  0.271918556179547E+001
