  0.671361359878121E-001  0.191805755155813E+001  0.470682036648248E+001
  0.671361359878121E-001  0.199065696256887E+001  0.761499109784431E+001
  0.671361359878121E-001  0.279335223692190E+001  0.625428422932559E+001
  0.671361359878121E-001  0.288236342924367E+001  0.658350036714986E+001
  0.671361359878121E-001  0.345783683555423E+000  0.172825278169928E+001
  0.671361359878121E-001  0.259754153983890E+000  0.415679543121560E+001
  0.671361359878121E-001  0.151174518363773E+000  0.413650180276302E+001
  0.671361359878121E-001 -0.508873799155444E+001  0.324672703094255E+001
  0.671361359878121E-001 -0.507776978324145E+001  0.212947483338351E+001
  0.671361359878121E-001 -0.767538574440182E+000  0.397690030828181E+001
  0.671361359878121E-001 -0.900450256569089E+000  0.395494462273528E+001
  0.671361359878121E-001 -0.128816559622973E+001  0.389172791944241E+001
  0.671361359878121E-001 -0.130733826468676E+001  0.388862369900723E+001
  0.671361359878121E-001 -0.170654537986010E+001  0.185129228612524E+001
  0.671361359878121E-001 -0.177569630454272E+001  0.185579017414260E+001
  0.671361359878121E-001 -0.192494156668872E+001  0.186559943703636E+001
  0.671361359878121E-001 -0.226471951316089E+001  0.373436563401699E+001
  0.671361359878121E-001 -0.244038369963855E+001  0.370591795452088E+001
  0.671361359878121E-001 -0.504296019385547E+001  0.325546120735162E+001
  0.671361359878121E-001 -0.279590633223742E+001  0.364791382018087E+001
  0.671361359878121E-001 -0.299579813788623E+001  0.361497983140612E+001
  0.671361359878121E-001 -0.331398871253222E+001  0.196522082374102E+001
  0.671361359878121E-001 -0.344970419715136E+001  0.197597759484947E+001
  0.671361359878121E-001 -0.349013951132983E+001  0.353227455293720E+001
  0.671361359878121E-001 -0.352345898459643E+001  0.198192004778484E+001
  0.671361359878121E-001 -0.499304321120471E+001  0.326493185275584E+001
  0.671361359878121E-001 -0.359753706763476E+001  0.351403431430041E+001
  0.671361359878121E-001 -0.359984305213183E+001  0.351364083189695E+001
  0.671361359878121E-001 -0.384124734709948E+001  0.200837042399828E+001
  0.671361359878121E-001 -0.393188765357226E+001  0.345653618137540E+001
  0.671361359878121E-001 -0.408720138381213E+001  0.342942924213867E+001
  0.671361359878121E-001 -0.410709789107531E+001  0.342593757463503E+001
  0.671361359878121E-001 -0.414855292151660E+001  0.341864647208890E+001
  0.671361359878121E-001 -0.416838481734485E+001  0.341515156061154E+001
  0.671361359878121E-001 -0.495223095725268E+001  0.211540485824564E+001
  0.671361359878121E-001 -0.432379629920215E+001  0.205162188744438E+001
  0.671361359878121E-001 -0.445549013922900E+001  0.336400319606172E+001
  0.671361359878121E-001 -0.448841741393298E+001  0.335806789052526E+001
  0.671361359878121E-001 -0.456658509085864E+001  0.207510398904057E+001
  0.671361359878121E-001 -0.473222019980639E+001  0.331361202623005E+001
  0.671361359878121E-001 -0.474377944777697E+001  0.331148075200074E+001
  0.671361359878121E-001 -0.493331530402392E+001  0.211332927987741E+001
  0.671361359878121E-001 -0.524989011595935E+001  0.321558025992079E+001
  0.671361359878121E-001 -0.526434448073596E+001  0.321275424828069E+001
  0.671361359878121E-001 -0.527855351279467E+001  0.215314490194621E+001
  0.671361359878121E-001 -0.532727172682971E+001  0.215912912405217E+001
  0.671361359878121E-001 -0.533747914145678E+001  0.319835980725885E+001
  0.671361359878121E-001 -0.541105058501452E+001  0.318371696340127E+001
  0.671361359878121E-001 -0.544485571692675E+001  0.217400522876714E+001
  0.671361359878121E-001 -0.560042360137195E+001  0.314515800651587E+001
  0.671361359878121E-001 -0.563522293875903E+001  0.313791721196095E+001
  0.671361359878121E-001 -0.564610150168628E+001  0.313564301707889E+001
  0.671361359878121E-001 -0.566355660269946E+001  0.313198316065166E+001
  0.671361359878121E-001 -0.566642072509021E+001  0.313138070184466E+001
  0.671361359878121E-001 -0.569663622687549E+001  0.312500734343982E+001
  0.671361359878121E-001 -0.569867804358691E+001  0.312457532348399E+001
  0.671361359878121E-001 -0.570641901801318E+001  0.312293501610249E+001
  0.671361359878121E-001 -0.572184183905810E+001  0.311965722740379E+001
  0.671361359878121E-001 -0.573423722098559E+001  0.311701448491285E+001
  0.671361359878121E-001 -0.576101258109301E+001  0.221758307052711E+001
  0.671361359878121E-001 -0.577784540961474E+001  0.222007570993363E+001
  0.671361359878121E-001 -0.582575156996936E+001  0.222727689069923E+001
  0.671361359878121E-001 -0.583478739569873E+001  0.309527570662001E+001
  0.671361359878121E-001 -0.583718159507007E+001  0.222901949113581E+001
  0.671361359878121E-001 -0.588156583617419E+001  0.308496368359721E+001
  0.671361359878121E-001 -0.592519119094104E+001  0.307522087375971E+001
  0.671361359878121E-001 -0.592773416350573E+001  0.307464967015665E+001
  0.671361359878121E-001 -0.593712618659228E+001  0.307253362823929E+001
  0.671361359878121E-001 -0.598845818351001E+001  0.306085767167763E+001
  0.671361359878121E-001 -0.601338937590808E+001  0.305511617559755E+001
  0.671361359878121E-001 -0.604096272299975E+001  0.226189851307165E+001
  0.671361359878121E-001 -0.604920866797656E+001  0.226330936200660E+001
  0.671361359878121E-001 -0.606149628470630E+001  0.304389514618359E+001
  0.671361359878121E-001 -0.606866958449572E+001  0.226666425753776E+001
  0.671361359878121E-001 -0.606960347007007E+001  0.226682745848755E+001
  0.671361359878121E-001 -0.608876231024951E+001  0.227017156638760E+001
  0.671361359878121E-001 -0.609897210906237E+001  0.303501708195409E+001
  0.671361359878121E-001 -0.610464289496631E+001  0.303366293545835E+001
  0.671361359878121E-001 -0.613717224906176E+001  0.302583303335520E+001
  0.671361359878121E-001 -0.615351012061328E+001  0.302186115547717E+001
  0.671361359878121E-001 -0.615878560851306E+001  0.228274025405254E+001
  0.671361359878121E-001 -0.622319677184314E+001  0.229482526113919E+001
  0.671361359878121E-001 -0.623813822577685E+001  0.300082713032748E+001
  0.671361359878121E-001 -0.624363591979236E+001  0.299943235436280E+001
  0.671361359878121E-001 -0.625141098807544E+001  0.230029368875518E+001
  0.671361359878121E-001 -0.625894024680346E+001  0.299552955736083E+001
  0.671361359878121E-001 -0.627204540084094E+001  0.230436472836105E+001
  0.671361359878121E-001 -0.627659156630725E+001  0.299098984773457E+001
  0.671361359878121E-001 -0.628975870917529E+001  0.230790984380126E+001
  0.671361359878121E-001 -0.629522111724109E+001  0.230901304966482E+001
  0.671361359878121E-001 -0.631349113295764E+001  0.298136483924924E+001
  0.671361359878121E-001 -0.631689598868579E+001  0.231343580597473E+001
  0.671361359878121E-001 -0.635148241828174E+001  0.297125023336182E+001
  0.671361359878121E-001 -0.636195590804309E+001  0.296842288600691E+001
  0.671361359878121E-001 -0.638294890235156E+001  0.296270039472526E+001
  0.671361359878121E-001 -0.640197971175403E+001  0.295744838927334E+001
  0.671361359878121E-001 -0.643479516814441E+001  0.294823924452835E+001
  0.671361359878121E-001 -0.645012119124621E+001  0.234246136473967E+001
  0.671361359878121E-001 -0.645018771002978E+001  0.294384792692230E+001
  0.671361359878121E-001 -0.647432592223376E+001  0.234812324025971E+001
  0.671361359878121E-001 -0.648435023139209E+001  0.235050935091935E+001
  0.671361359878121E-001 -0.649880411933154E+001  0.292965009606556E+001
  0.671361359878121E-001 -0.654227307151050E+001  0.236479260126130E+001
  0.671361359878121E-001 -0.654486086676806E+001  0.291569066320870E+001
  0.671361359878121E-001 -0.654506781409472E+001  0.291562669831963E+001
  0.671361359878121E-001 -0.655206563780993E+001  0.236729864910451E+001
  0.671361359878121E-001 -0.656378414939135E+001  0.237033514027256E+001
  0.671361359878121E-001 -0.656463435004443E+001  0.290952589507305E+001
  0.671361359878121E-001 -0.657964518378467E+001  0.237451139490636E+001
  0.671361359878121E-001 -0.658586790869922E+001  0.237617221108490E+001
  0.671361359878121E-001 -0.662237432311267E+001  0.238618089902466E+001
  0.671361359878121E-001 -0.662310149977893E+001  0.238638614148115E+001
  0.671361359878121E-001 -0.662521651099414E+001  0.288990205643523E+001
  0.671361359878121E-001 -0.663025930236071E+001  0.238840600821412E+001
  0.671361359878121E-001 -0.663566639731616E+001  0.238994570468984E+001
  0.671361359878121E-001 -0.664201834510058E+001  0.239176977148380E+001
  0.671361359878121E-001 -0.665975501845569E+001  0.287814178467279E+001
  0.671361359878121E-001 -0.666075184653491E+001  0.287779640505676E+001
  0.671361359878121E-001 -0.668129875968188E+001  0.287056274687635E+001
  0.671361359878121E-001 -0.673525812934131E+001  0.242064534983882E+001
  0.671361359878121E-001 -0.673924305747241E+001  0.284907720516478E+001
  0.671361359878121E-001 -0.674077465842456E+001  0.242249747381207E+001
  0.671361359878121E-001 -0.674766590903491E+001  0.242483882874704E+001
  0.671361359878121E-001 -0.674978115866870E+001  0.284497145346375E+001
  0.671361359878121E-001 -0.675525095771045E+001  0.242745030024521E+001
  0.671361359878121E-001 -0.676305535147876E+001  0.283969929234373E+001
  0.671361359878121E-001 -0.676686051200122E+001  0.243152316217656E+001
  0.671361359878121E-001 -0.676984646628589E+001  0.283695637478465E+001
  0.671361359878121E-001 -0.676986363242358E+001  0.283695031810559E+001
  0.671361359878121E-001 -0.677505352805346E+001  0.283483196705078E+001
  0.671361359878121E-001 -0.677881100486010E+001  0.283328701406747E+001
  0.671361359878121E-001 -0.679059222052783E+001  0.282837246286648E+001
  0.671361359878121E-001 -0.679445221732348E+001  0.282673899086777E+001
  0.671361359878121E-001 -0.679638579200000E+001  0.244232684347573E+001
  0.671361359878121E-001 -0.680678704093188E+001  0.244630221355093E+001
  0.671361359878121E-001 -0.680803349326342E+001  0.282089206978752E+001
  0.671361359878121E-001 -0.681220486472339E+001  0.244841002334653E+001
  0.671361359878121E-001 -0.682352831671924E+001  0.245290888553405E+001
  0.671361359878121E-001 -0.682737877677173E+001  0.281227609210945E+001
  0.671361359878121E-001 -0.683169224570483E+001  0.281030453198359E+001
  0.671361359878121E-001 -0.684494068930835E+001  0.246177872103591E+001
  0.671361359878121E-001 -0.684613039801806E+001  0.246228665394238E+001
  0.671361359878121E-001 -0.684905007193774E+001  0.280216756369710E+001
  0.671361359878121E-001 -0.685607579062671E+001  0.279877273698541E+001
  0.671361359878121E-001 -0.685721400092334E+001  0.279821723911226E+001
  0.671361359878121E-001 -0.686009362052173E+001  0.246838080176351E+001
  0.671361359878121E-001 -0.686015370200366E+001  0.279677417576424E+001
  0.671361359878121E-001 -0.686369755576342E+001  0.246999363144290E+001
  0.671361359878121E-001 -0.687786963294238E+001  0.247652182259726E+001
  0.671361359878121E-001 -0.688166382621020E+001  0.278584667374448E+001
  0.671361359878121E-001 -0.688842013190478E+001  0.248158495946461E+001
  0.671361359878121E-001 -0.689158156226367E+001  0.278056594755160E+001
  0.671361359878121E-001 -0.690019085715503E+001  0.248746450729074E+001
  0.671361359878121E-001 -0.690487625907153E+001  0.248987938286701E+001
  0.671361359878121E-001 -0.690562298606128E+001  0.277278344415128E+001
  0.671361359878121E-001 -0.691105845282763E+001  0.249313753852884E+001
  0.671361359878121E-001 -0.691276076148242E+001  0.249404830396847E+001
  0.671361359878121E-001 -0.691285660575122E+001  0.249410091090334E+001
  0.671361359878121E-001 -0.692268231223315E+001  0.276276702219172E+001
  0.671361359878121E-001 -0.692534783194751E+001  0.276113727205375E+001
  0.671361359878121E-001 -0.692708304236621E+001  0.250199709137831E+001
  0.671361359878121E-001 -0.693099358390063E+001  0.250426217119230E+001
  0.671361359878121E-001 -0.693492653678149E+001  0.275512076547856E+001
  0.671361359878121E-001 -0.693639853308886E+001  0.275417151019426E+001
  0.671361359878121E-001 -0.694273903678149E+001  0.275000651280861E+001
  0.671361359878121E-001 -0.694490101645678E+001  0.274855534635862E+001
  0.671361359878121E-001 -0.695197108100146E+001  0.251724186521351E+001
  0.671361359878121E-001 -0.695544197867602E+001  0.274122512755709E+001
  0.671361359878121E-001 -0.695546534369677E+001  0.274120950884027E+001
  0.671361359878121E-001 -0.696151402304858E+001  0.252370915345788E+001
  0.671361359878121E-001 -0.696310427497119E+001  0.252482787173524E+001
  0.671361359878121E-001 -0.696505501578540E+001  0.273412146213295E+001
  0.671361359878121E-001 -0.696592572043628E+001  0.273345623475617E+001
  0.671361359878121E-001 -0.696902706931323E+001  0.252911073236577E+001
  0.671361359878121E-001 -0.696976712058276E+001  0.273046824524464E+001
  0.671361359878121E-001 -0.697819283316821E+001  0.272360125128729E+001
  0.671361359878121E-001 -0.698148300955981E+001  0.272078798051301E+001
  0.671361359878121E-001 -0.698303416083545E+001  0.271943235636745E+001
  0.671361359878121E-001 -0.698350575278491E+001  0.271901607896799E+001
  0.671361359878121E-001 -0.698619368384570E+001  0.271660933841103E+001
  0.671361359878121E-001 -0.698845436881274E+001  0.254475937958168E+001
  0.671361359878121E-001 -0.698940279792041E+001  0.254560266897961E+001
  0.671361359878121E-001 -0.699173929999560E+001  0.271143156358976E+001
  0.671361359878121E-001 -0.699679854224414E+001  0.255250616956011E+001
  0.671361359878121E-001 -0.699739411185473E+001  0.270580687727338E+001
  0.671361359878121E-001 -0.699796059439868E+001  0.255365167387597E+001
  0.671361359878121E-001 -0.699988415549487E+001  0.270320172259002E+001
  0.671361359878121E-001 -0.700596669028491E+001  0.256208931057390E+001
  0.671361359878121E-001 -0.700808670829028E+001  0.269391017533566E+001
  0.671361359878121E-001 -0.700908139060229E+001  0.269269495430080E+001
  0.671361359878121E-001 -0.701015904257983E+001  0.269135302367413E+001
  0.671361359878121E-001 -0.701074269126147E+001  0.256769536217705E+001
  0.671361359878121E-001 -0.701088860343188E+001  0.256787512296632E+001
  0.671361359878121E-001 -0.701171830008716E+001  0.256890860493433E+001
  0.671361359878121E-001 -0.701414444754809E+001  0.268612283085399E+001
  0.671361359878121E-001 -0.701460697959155E+001  0.257265296881985E+001
  0.671361359878121E-001 -0.701499560187549E+001  0.257317739526175E+001
  0.671361359878121E-001 -0.701595976660937E+001  0.257449848617195E+001
  0.671361359878121E-001 -0.701834442923755E+001  0.268005431415902E+001
  0.671361359878121E-001 -0.701841357062549E+001  0.257802398960814E+001
  0.671361359878121E-001 -0.701853659461230E+001  0.267976168857982E+001
  0.671361359878121E-001 -0.701934197257251E+001  0.267850864213464E+001
  0.671361359878121E-001 -0.702201035330981E+001  0.258369733124826E+001
  0.671361359878121E-001 -0.702203181098193E+001  0.267408150130714E+001
  0.671361359878121E-001 -0.702258065055102E+001  0.258466578722074E+001
  0.671361359878121E-001 -0.702433159659594E+001  0.258778083364342E+001
  0.671361359878121E-001 -0.702479508231372E+001  0.258864903237474E+001
  0.671361359878121E-001 -0.702626850913257E+001  0.259154448507053E+001
  0.671361359878121E-001 -0.702705195258349E+001  0.266441520972500E+001
  0.671361359878121E-001 -0.702745487998217E+001  0.259405312733329E+001
  0.671361359878121E-001 -0.702839329550952E+001  0.266136199372671E+001
  0.671361359878121E-001 -0.702962401221484E+001  0.265828766582013E+001
  0.671361359878121E-001 -0.703058436225146E+001  0.265565206284164E+001
  0.671361359878121E-001 -0.703062203238696E+001  0.260189779205367E+001
  0.671361359878121E-001 -0.703066065619677E+001  0.260200446113509E+001
  0.671361359878121E-001 -0.703139069388598E+001  0.260418226678472E+001
  0.671361359878121E-001 -0.703306439231128E+001  0.261012153221435E+001
  0.671361359878121E-001 -0.703380444358081E+001  0.264381884864070E+001
  0.671361359878121E-001 -0.703381588767260E+001  0.261354670029341E+001
  0.671361359878121E-001 -0.703387072394580E+001  0.261382272762261E+001
  0.671361359878121E-001 -0.703402903388232E+001  0.264262644967117E+001
  0.671361359878121E-001 -0.703435757468432E+001  0.264067598783736E+001
  0.671361359878121E-001 -0.703443339179248E+001  0.261709283688469E+001
  0.671361359878121E-001 -0.703448441336841E+001  0.263983475195320E+001
  0.671361359878121E-001 -0.703490975211352E+001  0.263637558609005E+001
  0.671361359878121E-001 -0.703506853888720E+001  0.263459642622969E+001
  0.671361359878121E-001 -0.703510096381396E+001  0.262308423822229E+001
  0.671361359878121E-001 -0.703516819785327E+001  0.262411410262533E+001
  0.671361359878121E-001 -0.658093507076481E+001  0.262770012423919E+001
