  0.227891592427338E-001 -0.526157740664599E+001  0.343201986757458E+001
  0.227891592427338E-001 -0.509561518740771E+001  0.346523685276335E+001
  0.227891592427338E-001  0.184468003201368E+001  0.511326497797736E+001
  0.227891592427338E-001 -0.508306435656664E+001  0.211539717978924E+001
  0.227891592427338E-001  0.975130757569101E+000  0.479011125053291E+001
  0.227891592427338E-001 -0.507038477969286E+001  0.347028172398888E+001
  0.227891592427338E-001 -0.503821353030321E+001  0.347670891602153E+001
  0.227891592427338E-001 -0.210878447604296E+001  0.405468576165163E+001
  0.227891592427338E-001 -0.240884570193407E+001  0.399480697537694E+001
  0.227891592427338E-001 -0.497907284808275E+001  0.348851716792636E+001
  0.227891592427338E-001 -0.492963723254320E+001  0.349837636784273E+001
  0.227891592427338E-001 -0.322749880862353E+001  0.383376623900479E+001
  0.227891592427338E-001 -0.491246298861620E+001  0.210739819447195E+001
  0.227891592427338E-001 -0.370347336840746E+001  0.374058401491650E+001
  0.227891592427338E-001 -0.378179625582812E+001  0.205844175626812E+001
  0.227891592427338E-001 -0.389422158312914E+001  0.370316826541398E+001
  0.227891592427338E-001 -0.399403456759569E+001  0.368356429415128E+001
  0.227891592427338E-001 -0.401081971240160E+001  0.206799205090132E+001
  0.227891592427338E-001 -0.420512942385790E+001  0.364200999009884E+001
  0.227891592427338E-001 -0.433499602389452E+001  0.361638500918507E+001
  0.227891592427338E-001 -0.472325400424120E+001  0.209878677794209E+001
  0.227891592427338E-001 -0.468832806658861E+001  0.354640206216416E+001
  0.227891592427338E-001 -0.533909205508349E+001  0.212794393462485E+001
  0.227891592427338E-001 -0.534948042941210E+001  0.212846899121345E+001
  0.227891592427338E-001 -0.565007690501330E+001  0.214438550278209E+001
  0.227891592427338E-001 -0.578514436793444E+001  0.215208506663243E+001
  0.227891592427338E-001 -0.585660437655566E+001  0.215633137173958E+001
  0.227891592427338E-001 -0.598857525897143E+001  0.328538248992371E+001
  0.227891592427338E-001 -0.600540761065600E+001  0.328195673497121E+001
  0.227891592427338E-001 -0.601366356921313E+001  0.216616609418159E+001
  0.227891592427338E-001 -0.605457619738695E+001  0.216885875460793E+001
  0.227891592427338E-001 -0.611045197558520E+001  0.217263513366696E+001
  0.227891592427338E-001 -0.613323597025988E+001  0.325587447765133E+001
  0.227891592427338E-001 -0.613491372180102E+001  0.217432738746600E+001
  0.227891592427338E-001 -0.618349436831591E+001  0.324558022264109E+001
  0.227891592427338E-001 -0.633098200869677E+001  0.218888885173968E+001
  0.227891592427338E-001 -0.633848837924120E+001  0.218948717238642E+001
  0.227891592427338E-001 -0.635047940325854E+001  0.321117263508582E+001
  0.227891592427338E-001 -0.643331317019579E+001  0.319395641914199E+001
  0.227891592427338E-001 -0.645131138873217E+001  0.219891633332543E+001
  0.227891592427338E-001 -0.653002313685534E+001  0.317369495873281E+001
  0.227891592427338E-001 -0.655295924258349E+001  0.316885866514568E+001
  0.227891592427338E-001 -0.657405308795092E+001  0.221029000848343E+001
  0.227891592427338E-001 -0.660152033877489E+001  0.315858197170194E+001
  0.227891592427338E-001 -0.662061385226366E+001  0.315452065829014E+001
  0.227891592427338E-001 -0.662167004656908E+001  0.221508482817013E+001
  0.227891592427338E-001 -0.663788227152941E+001  0.315084202478771E+001
  0.227891592427338E-001 -0.666584447932360E+001  0.314486423452991E+001
  0.227891592427338E-001 -0.666726593089220E+001  0.314456038778484E+001
  0.227891592427338E-001 -0.669674138140795E+001  0.222317515604599E+001
  0.227891592427338E-001 -0.670717457842943E+001  0.313598431586198E+001
  0.227891592427338E-001 -0.672163800311205E+001  0.313286277416415E+001
  0.227891592427338E-001 -0.674270538401720E+001  0.222849630310622E+001
  0.227891592427338E-001 -0.675458220553515E+001  0.222992102202598E+001
  0.227891592427338E-001 -0.677446297717211E+001  0.223235819531913E+001
  0.227891592427338E-001 -0.677607420992968E+001  0.312104491045759E+001
  0.227891592427338E-001 -0.692611912798998E+001  0.308779406093133E+001
  0.227891592427338E-001 -0.693929843020556E+001  0.308481780252902E+001
  0.227891592427338E-001 -0.695163230013964E+001  0.225750334767703E+001
  0.227891592427338E-001 -0.696965316844103E+001  0.226048947355296E+001
  0.227891592427338E-001 -0.699346951556322E+001  0.307246303626793E+001
  0.227891592427338E-001 -0.699890879702685E+001  0.226555307595464E+001
  0.227891592427338E-001 -0.700800446581957E+001  0.226718238050197E+001
  0.227891592427338E-001 -0.705157879901049E+001  0.227540889592491E+001
  0.227891592427338E-001 -0.705566076350329E+001  0.305802344447471E+001
  0.227891592427338E-001 -0.708571199488756E+001  0.228238019160791E+001
  0.227891592427338E-001 -0.708809284281847E+001  0.305037320570531E+001
  0.227891592427338E-001 -0.708814934802172E+001  0.228289747172238E+001
  0.227891592427338E-001 -0.709011153292772E+001  0.228331624969388E+001
  0.227891592427338E-001 -0.711399368357775E+001  0.304419453933942E+001
  0.227891592427338E-001 -0.712159375262377E+001  0.229027661645627E+001
  0.227891592427338E-001 -0.713433412623522E+001  0.229323374902772E+001
  0.227891592427338E-001 -0.713951925349352E+001  0.303803992397801E+001
  0.227891592427338E-001 -0.714400533747790E+001  0.229553856534204E+001
  0.227891592427338E-001 -0.715757969927904E+001  0.303364386106680E+001
  0.227891592427338E-001 -0.717470506739733E+001  0.302944593229228E+001
  0.227891592427338E-001 -0.720309380602953E+001  0.231079696512236E+001
  0.227891592427338E-001 -0.725063780856249E+001  0.301039364354690E+001
  0.227891592427338E-001 -0.726651743960497E+001  0.300630643499947E+001
  0.227891592427338E-001 -0.728679207873461E+001  0.300103623367529E+001
  0.227891592427338E-001 -0.728680280757067E+001  0.300103333731120E+001
  0.227891592427338E-001 -0.729135994029162E+001  0.299983921296252E+001
  0.227891592427338E-001 -0.732965950083849E+001  0.235183572329441E+001
  0.227891592427338E-001 -0.733237985682604E+001  0.235286364458734E+001
  0.227891592427338E-001 -0.734632639002916E+001  0.298515087485136E+001
  0.227891592427338E-001 -0.735310701441881E+001  0.298330094125009E+001
  0.227891592427338E-001 -0.737036279749987E+001  0.236787929398863E+001
  0.227891592427338E-001 -0.737323121142504E+001  0.236906690980953E+001
  0.227891592427338E-001 -0.738774112773058E+001  0.237517545051785E+001
  0.227891592427338E-001 -0.740028146815416E+001  0.297014470947904E+001
  0.227891592427338E-001 -0.741212467265246E+001  0.238585659071979E+001
  0.227891592427338E-001 -0.743632725787279E+001  0.239695162846569E+001
  0.227891592427338E-001 -0.744746259760973E+001  0.240221574013098E+001
  0.227891592427338E-001 -0.744799617838976E+001  0.295627753144105E+001
  0.227891592427338E-001 -0.745274714541552E+001  0.295486217385589E+001
  0.227891592427338E-001 -0.749943069529650E+001  0.294056110598020E+001
  0.227891592427338E-001 -0.749959734988329E+001  0.242810292295729E+001
  0.227891592427338E-001 -0.750629834246752E+001  0.293839198407231E+001
  0.227891592427338E-001 -0.750648430895922E+001  0.243166531377271E+001
  0.227891592427338E-001 -0.751410750460741E+001  0.293590277562615E+001
  0.227891592427338E-001 -0.752108840060351E+001  0.243931908075619E+001
  0.227891592427338E-001 -0.752382425379870E+001  0.244076737962490E+001
  0.227891592427338E-001 -0.752619580340502E+001  0.244202984010515E+001
  0.227891592427338E-001 -0.752745751452562E+001  0.244270095037926E+001
  0.227891592427338E-001 -0.752934269023058E+001  0.293097548620123E+001
  0.227891592427338E-001 -0.752951125216601E+001  0.244379825707023E+001
  0.227891592427338E-001 -0.753257135462877E+001  0.244543545301420E+001
  0.227891592427338E-001 -0.754864052844164E+001  0.245412396116258E+001
  0.227891592427338E-001 -0.755051998210070E+001  0.245515142884329E+001
  0.227891592427338E-001 -0.756109623026964E+001  0.246096720461598E+001
  0.227891592427338E-001 -0.757254699778673E+001  0.246734155034657E+001
  0.227891592427338E-001 -0.757392267298815E+001  0.246811018285000E+001
  0.227891592427338E-001 -0.758451584887621E+001  0.247408633328699E+001
  0.227891592427338E-001 -0.759052876544115E+001  0.247750961559006E+001
  0.227891592427338E-001 -0.759478215289232E+001  0.247994082043683E+001
  0.227891592427338E-001 -0.759905318331835E+001  0.248239583265636E+001
  0.227891592427338E-001 -0.643859528060846E+001  0.284071472071631E+001
  0.227891592427338E-001 -0.644696091171198E+001  0.283592122432060E+001
  0.227891592427338E-001 -0.646241472717218E+001  0.282647356571895E+001
  0.227891592427338E-001 -0.646287153716974E+001  0.282617869405509E+001
  0.227891592427338E-001 -0.647111366744928E+001  0.282074550039622E+001
  0.227891592427338E-001 -0.648067997451715E+001  0.281402036216482E+001
  0.227891592427338E-001 -0.648092173095636E+001  0.281384566385138E+001
  0.227891592427338E-001 -0.648722694869928E+001  0.280911115708124E+001
  0.227891592427338E-001 -0.650096748825006E+001  0.279773942940845E+001
  0.227891592427338E-001 -0.650311993118219E+001  0.279579330192279E+001
  0.227891592427338E-001 -0.650386284347467E+001  0.279510913371121E+001
  0.227891592427338E-001 -0.650852440353327E+001  0.279065569126461E+001
  0.227891592427338E-001 -0.651600025649957E+001  0.278282004527196E+001
  0.227891592427338E-001 -0.408927488327026E+001  0.276160479212212E+001
  0.227891592427338E-001 -0.408928108215332E+001  0.276159921045499E+001
