  0.104848056973815E+000 -0.372678742318218E+001  0.343201986757458E+001
  0.104848056973815E+000 -0.356082520394390E+001  0.346523685276335E+001
  0.104848056973815E+000  0.337947001547748E+001  0.511326497797736E+001
  0.104848056973815E+000 -0.354827437310284E+001  0.211539717978924E+001
  0.104848056973815E+000  0.250992074103290E+001  0.479011125053291E+001
  0.104848056973815E+000 -0.353559479622906E+001  0.347028172398888E+001
  0.104848056973815E+000 -0.350342354683941E+001  0.347670891602153E+001
  0.104848056973815E+000 -0.573994492579156E+000  0.405468576165163E+001
  0.104848056973815E+000 -0.874055718470270E+000  0.399480697537694E+001
  0.104848056973815E+000 -0.344428286461895E+001  0.348851716792636E+001
  0.104848056973815E+000 -0.339484724907940E+001  0.349837636784273E+001
  0.104848056973815E+000 -0.169270882515972E+001  0.383376623900479E+001
  0.104848056973815E+000 -0.337767300515240E+001  0.210739819447195E+001
  0.104848056973815E+000 -0.216868338494366E+001  0.374058401491650E+001
  0.104848056973815E+000 -0.224700627236431E+001  0.205844175626812E+001
  0.104848056973815E+000 -0.235943159966534E+001  0.370316826541398E+001
  0.104848056973815E+000 -0.245924458413189E+001  0.368356429415128E+001
  0.104848056973815E+000 -0.247602972893780E+001  0.206799205090132E+001
  0.104848056973815E+000 -0.267033944039410E+001  0.364200999009884E+001
  0.104848056973815E+000 -0.280020604043072E+001  0.361638500918507E+001
  0.104848056973815E+000 -0.318846402077740E+001  0.209878677794209E+001
  0.104848056973815E+000 -0.315353808312481E+001  0.354640206216416E+001
  0.104848056973815E+000 -0.380430207161968E+001  0.212794393462485E+001
  0.104848056973815E+000 -0.381469044594830E+001  0.212846899121345E+001
  0.104848056973815E+000 -0.411528692154949E+001  0.214438550278209E+001
  0.104848056973815E+000 -0.425035438447064E+001  0.215208506663243E+001
  0.104848056973815E+000 -0.432181439309185E+001  0.215633137173958E+001
  0.104848056973815E+000 -0.445378527550762E+001  0.328538248992371E+001
  0.104848056973815E+000 -0.447061762719219E+001  0.328195673497121E+001
  0.104848056973815E+000 -0.447887358574932E+001  0.216616609418159E+001
  0.104848056973815E+000 -0.451978621392315E+001  0.216885875460793E+001
  0.104848056973815E+000 -0.457566199212139E+001  0.217263513366696E+001
  0.104848056973815E+000 -0.459844598679608E+001  0.325587447765133E+001
  0.104848056973815E+000 -0.460012373833721E+001  0.217432738746600E+001
  0.104848056973815E+000 -0.464870438485211E+001  0.324558022264109E+001
  0.104848056973815E+000 -0.479619202523297E+001  0.218888885173968E+001
  0.104848056973815E+000 -0.480369839577740E+001  0.218948717238642E+001
  0.104848056973815E+000 -0.481568941979473E+001  0.321117263508582E+001
  0.104848056973815E+000 -0.489852318673199E+001  0.319395641914199E+001
  0.104848056973815E+000 -0.491652140526837E+001  0.219891633332543E+001
  0.104848056973815E+000 -0.499523315339153E+001  0.317369495873281E+001
  0.104848056973815E+000 -0.501816925911968E+001  0.316885866514568E+001
  0.104848056973815E+000 -0.503926310448712E+001  0.221029000848343E+001
  0.104848056973815E+000 -0.506673035531109E+001  0.315858197170194E+001
  0.104848056973815E+000 -0.508582386879986E+001  0.315452065829014E+001
  0.104848056973815E+000 -0.508688006310528E+001  0.221508482817013E+001
  0.104848056973815E+000 -0.510309228806561E+001  0.315084202478771E+001
  0.104848056973815E+000 -0.513105449585980E+001  0.314486423452991E+001
  0.104848056973815E+000 -0.513247594742840E+001  0.314456038778484E+001
  0.104848056973815E+000 -0.516195139794415E+001  0.222317515604599E+001
  0.104848056973815E+000 -0.517238459496563E+001  0.313598431586198E+001
  0.104848056973815E+000 -0.518684801964825E+001  0.313286277416415E+001
  0.104848056973815E+000 -0.520791540055340E+001  0.222849630310622E+001
  0.104848056973815E+000 -0.521979222207134E+001  0.222992102202598E+001
  0.104848056973815E+000 -0.523967299370831E+001  0.223235819531913E+001
  0.104848056973815E+000 -0.524128422646588E+001  0.312104491045759E+001
  0.104848056973815E+000 -0.539132914452618E+001  0.308779406093133E+001
  0.104848056973815E+000 -0.540450844674175E+001  0.308481780252902E+001
  0.104848056973815E+000 -0.541684231667584E+001  0.225750334767703E+001
  0.104848056973815E+000 -0.543486318497723E+001  0.226048947355296E+001
  0.104848056973815E+000 -0.545867953209942E+001  0.307246303626793E+001
  0.104848056973815E+000 -0.546411881356304E+001  0.226555307595464E+001
  0.104848056973815E+000 -0.547321448235577E+001  0.226718238050197E+001
  0.104848056973815E+000 -0.551678881554669E+001  0.227540889592491E+001
  0.104848056973815E+000 -0.552087078003948E+001  0.305802344447471E+001
  0.104848056973815E+000 -0.555092201142376E+001  0.228238019160791E+001
  0.104848056973815E+000 -0.555330285935467E+001  0.305037320570531E+001
  0.104848056973815E+000 -0.555335936455792E+001  0.228289747172238E+001
  0.104848056973815E+000 -0.555532154946392E+001  0.228331624969388E+001
  0.104848056973815E+000 -0.557920370011395E+001  0.304419453933942E+001
  0.104848056973815E+000 -0.558680376915997E+001  0.229027661645627E+001
  0.104848056973815E+000 -0.559954414277142E+001  0.229323374902772E+001
  0.104848056973815E+000 -0.560472927002972E+001  0.303803992397801E+001
  0.104848056973815E+000 -0.560921535401409E+001  0.229553856534204E+001
  0.104848056973815E+000 -0.562278971581524E+001  0.303364386106680E+001
  0.104848056973815E+000 -0.563991508393353E+001  0.302944593229228E+001
  0.104848056973815E+000 -0.566830382256573E+001  0.231079696512236E+001
  0.104848056973815E+000 -0.571584782509869E+001  0.301039364354690E+001
  0.104848056973815E+000 -0.573172745614117E+001  0.300630643499947E+001
  0.104848056973815E+000 -0.575200209527081E+001  0.300103623367529E+001
  0.104848056973815E+000 -0.575201282410687E+001  0.300103333731120E+001
  0.104848056973815E+000 -0.575656995682781E+001  0.299983921296252E+001
  0.104848056973815E+000 -0.579486951737469E+001  0.235183572329441E+001
  0.104848056973815E+000 -0.579758987336224E+001  0.235286364458734E+001
  0.104848056973815E+000 -0.581153640656536E+001  0.298515087485136E+001
  0.104848056973815E+000 -0.581831703095501E+001  0.298330094125009E+001
  0.104848056973815E+000 -0.583557281403607E+001  0.236787929398863E+001
  0.104848056973815E+000 -0.583844122796124E+001  0.236906690980953E+001
  0.104848056973815E+000 -0.585295114426678E+001  0.237517545051785E+001
  0.104848056973815E+000 -0.586549148469036E+001  0.297014470947904E+001
  0.104848056973815E+000 -0.587733468918865E+001  0.238585659071979E+001
  0.104848056973815E+000 -0.590153727440899E+001  0.239695162846569E+001
  0.104848056973815E+000 -0.591267261414593E+001  0.240221574013098E+001
  0.104848056973815E+000 -0.591320619492596E+001  0.295627753144105E+001
  0.104848056973815E+000 -0.591795716195172E+001  0.295486217385589E+001
  0.104848056973815E+000 -0.596464071183270E+001  0.294056110598020E+001
  0.104848056973815E+000 -0.596480736641949E+001  0.242810292295729E+001
  0.104848056973815E+000 -0.597150835900372E+001  0.293839198407231E+001
  0.104848056973815E+000 -0.597169432549542E+001  0.243166531377271E+001
  0.104848056973815E+000 -0.597931752114361E+001  0.293590277562615E+001
  0.104848056973815E+000 -0.598629841713970E+001  0.243931908075619E+001
  0.104848056973815E+000 -0.598903427033489E+001  0.244076737962490E+001
  0.104848056973815E+000 -0.599140581994122E+001  0.244202984010515E+001
  0.104848056973815E+000 -0.599266753106182E+001  0.244270095037926E+001
  0.104848056973815E+000 -0.599455270676678E+001  0.293097548620123E+001
  0.104848056973815E+000 -0.599472126870220E+001  0.244379825707023E+001
  0.104848056973815E+000 -0.599778137116497E+001  0.244543545301420E+001
  0.104848056973815E+000 -0.601385054497784E+001  0.245412396116258E+001
  0.104848056973815E+000 -0.601572999863690E+001  0.245515142884329E+001
  0.104848056973815E+000 -0.602630624680584E+001  0.246096720461598E+001
  0.104848056973815E+000 -0.603775701432293E+001  0.246734155034657E+001
  0.104848056973815E+000 -0.603913268952435E+001  0.246811018285000E+001
  0.104848056973815E+000 -0.604972586541241E+001  0.247408633328699E+001
  0.104848056973815E+000 -0.605573878197735E+001  0.247750961559006E+001
  0.104848056973815E+000 -0.605999216942852E+001  0.247994082043683E+001
  0.104848056973815E+000 -0.606426319985455E+001  0.248239583265636E+001
  0.104848056973815E+000 -0.389383840560913E+001  0.288855652095090E+001
  0.104848056973815E+000 -0.389407587051392E+001  0.288846079133846E+001
  0.104848056973815E+000 -0.390296363830566E+001  0.288485355495470E+001
  0.104848056973815E+000 -0.390545201301575E+001  0.288382772833938E+001
  0.104848056973815E+000 -0.392766809463501E+001  0.287439969746018E+001
  0.104848056973815E+000 -0.393585848808289E+001  0.287077428703916E+001
  0.104848056973815E+000 -0.393997836112976E+001  0.286891910495723E+001
  0.104848056973815E+000 -0.395446729660034E+001  0.286220036147726E+001
