  0.592606210197315E-002 -0.664925405729741E+001  0.343201986757458E+001
  0.592606210197315E-002 -0.648329183805913E+001  0.346523685276335E+001
  0.592606210197315E-002  0.457003381362253E+000  0.511326497797736E+001
  0.592606210197315E-002 -0.647074100721807E+001  0.211539717978924E+001
  0.592606210197315E-002 -0.412545893082327E+000  0.479011125053291E+001
  0.592606210197315E-002 -0.645806143034429E+001  0.347028172398888E+001
  0.592606210197315E-002 -0.642589018095464E+001  0.347670891602153E+001
  0.592606210197315E-002 -0.349646112669439E+001  0.405468576165163E+001
  0.592606210197315E-002 -0.379652235258550E+001  0.399480697537694E+001
  0.592606210197315E-002 -0.636674949873418E+001  0.348851716792636E+001
  0.592606210197315E-002 -0.631731388319463E+001  0.349837636784273E+001
  0.592606210197315E-002 -0.461517545927495E+001  0.383376623900479E+001
  0.592606210197315E-002 -0.630013963926763E+001  0.210739819447195E+001
  0.592606210197315E-002 -0.509115001905889E+001  0.374058401491650E+001
  0.592606210197315E-002 -0.516947290647954E+001  0.205844175626812E+001
  0.592606210197315E-002 -0.528189823378057E+001  0.370316826541398E+001
  0.592606210197315E-002 -0.538171121824712E+001  0.368356429415128E+001
  0.592606210197315E-002 -0.539849636305303E+001  0.206799205090132E+001
  0.592606210197315E-002 -0.559280607450933E+001  0.364200999009884E+001
  0.592606210197315E-002 -0.572267267454595E+001  0.361638500918507E+001
  0.592606210197315E-002 -0.611093065489263E+001  0.209878677794209E+001
  0.592606210197315E-002 -0.607600471724004E+001  0.354640206216416E+001
  0.592606210197315E-002 -0.672676870573491E+001  0.212794393462485E+001
  0.592606210197315E-002 -0.673715708006353E+001  0.212846899121345E+001
  0.592606210197315E-002 -0.703775355566472E+001  0.214438550278209E+001
  0.592606210197315E-002 -0.717282101858587E+001  0.215208506663243E+001
  0.592606210197315E-002 -0.724428102720708E+001  0.215633137173958E+001
  0.592606210197315E-002 -0.737625190962285E+001  0.328538248992371E+001
  0.592606210197315E-002 -0.739308426130742E+001  0.328195673497121E+001
  0.592606210197315E-002 -0.740134021986455E+001  0.216616609418159E+001
  0.592606210197315E-002 -0.744225284803838E+001  0.216885875460793E+001
  0.592606210197315E-002 -0.749812862623662E+001  0.217263513366696E+001
  0.592606210197315E-002 -0.752091262091131E+001  0.325587447765133E+001
  0.592606210197315E-002 -0.752259037245244E+001  0.217432738746600E+001
  0.592606210197315E-002 -0.757117101896734E+001  0.324558022264109E+001
  0.592606210197315E-002 -0.771865865934820E+001  0.218888885173968E+001
  0.592606210197315E-002 -0.772616502989263E+001  0.218948717238642E+001
  0.592606210197315E-002 -0.773815605390996E+001  0.321117263508582E+001
  0.592606210197315E-002 -0.782098982084722E+001  0.319395641914199E+001
  0.592606210197315E-002 -0.783898803938360E+001  0.219891633332543E+001
  0.592606210197315E-002 -0.791769978750677E+001  0.317369495873281E+001
  0.592606210197315E-002 -0.794063589323491E+001  0.316885866514568E+001
  0.592606210197315E-002 -0.796172973860235E+001  0.221029000848343E+001
  0.592606210197315E-002 -0.798919698942632E+001  0.315858197170194E+001
  0.592606210197315E-002 -0.800829050291509E+001  0.315452065829014E+001
  0.592606210197315E-002 -0.800934669722051E+001  0.221508482817013E+001
  0.592606210197315E-002 -0.802555892218084E+001  0.315084202478771E+001
  0.592606210197315E-002 -0.805352112997503E+001  0.314486423452991E+001
  0.592606210197315E-002 -0.805494258154363E+001  0.314456038778484E+001
  0.592606210197315E-002 -0.808441803205938E+001  0.222317515604599E+001
  0.592606210197315E-002 -0.809485122908086E+001  0.313598431586198E+001
  0.592606210197315E-002 -0.810931465376348E+001  0.313286277416415E+001
  0.592606210197315E-002 -0.813038203466863E+001  0.222849630310622E+001
  0.592606210197315E-002 -0.814225885618658E+001  0.222992102202598E+001
  0.592606210197315E-002 -0.816213962782354E+001  0.223235819531913E+001
  0.592606210197315E-002 -0.816375086058111E+001  0.312104491045759E+001
  0.592606210197315E-002 -0.831379577864141E+001  0.308779406093133E+001
  0.592606210197315E-002 -0.832697508085699E+001  0.308481780252902E+001
  0.592606210197315E-002 -0.833930895079107E+001  0.225750334767703E+001
  0.592606210197315E-002 -0.835732981909246E+001  0.226048947355296E+001
  0.592606210197315E-002 -0.838114616621465E+001  0.307246303626793E+001
  0.592606210197315E-002 -0.838658544767828E+001  0.226555307595464E+001
  0.592606210197315E-002 -0.839568111647100E+001  0.226718238050197E+001
  0.592606210197315E-002 -0.843925544966192E+001  0.227540889592491E+001
  0.592606210197315E-002 -0.844333741415472E+001  0.305802344447471E+001
  0.592606210197315E-002 -0.847338864553899E+001  0.228238019160791E+001
  0.592606210197315E-002 -0.847576949346990E+001  0.305037320570531E+001
  0.592606210197315E-002 -0.847582599867315E+001  0.228289747172238E+001
  0.592606210197315E-002 -0.847778818357915E+001  0.228331624969388E+001
  0.592606210197315E-002 -0.850167033422918E+001  0.304419453933942E+001
  0.592606210197315E-002 -0.850927040327520E+001  0.229027661645627E+001
  0.592606210197315E-002 -0.852201077688665E+001  0.229323374902772E+001
  0.592606210197315E-002 -0.852719590414495E+001  0.303803992397801E+001
  0.592606210197315E-002 -0.853168198812932E+001  0.229553856534204E+001
  0.592606210197315E-002 -0.854525634993047E+001  0.303364386106680E+001
  0.592606210197315E-002 -0.856238171804876E+001  0.302944593229228E+001
  0.592606210197315E-002 -0.859077045668096E+001  0.231079696512236E+001
  0.592606210197315E-002 -0.863831445921392E+001  0.301039364354690E+001
  0.592606210197315E-002 -0.865419409025640E+001  0.300630643499947E+001
  0.592606210197315E-002 -0.867446872938604E+001  0.300103623367529E+001
  0.592606210197315E-002 -0.867447945822210E+001  0.300103333731120E+001
  0.592606210197315E-002 -0.867903659094305E+001  0.299983921296252E+001
  0.592606210197315E-002 -0.871733615148992E+001  0.235183572329441E+001
  0.592606210197315E-002 -0.872005650747747E+001  0.235286364458734E+001
  0.592606210197315E-002 -0.873400304068059E+001  0.298515087485136E+001
  0.592606210197315E-002 -0.874078366507024E+001  0.298330094125009E+001
  0.592606210197315E-002 -0.875803944815130E+001  0.236787929398863E+001
  0.592606210197315E-002 -0.876090786207647E+001  0.236906690980953E+001
  0.592606210197315E-002 -0.877541777838201E+001  0.237517545051785E+001
  0.592606210197315E-002 -0.878795811880559E+001  0.297014470947904E+001
  0.592606210197315E-002 -0.879980132330389E+001  0.238585659071979E+001
  0.592606210197315E-002 -0.882400390852422E+001  0.239695162846569E+001
  0.592606210197315E-002 -0.883513924826116E+001  0.240221574013098E+001
  0.592606210197315E-002 -0.883567282904119E+001  0.295627753144105E+001
  0.592606210197315E-002 -0.884042379606695E+001  0.295486217385589E+001
  0.592606210197315E-002 -0.888710734594793E+001  0.294056110598020E+001
  0.592606210197315E-002 -0.888727400053472E+001  0.242810292295729E+001
  0.592606210197315E-002 -0.889397499311895E+001  0.293839198407231E+001
  0.592606210197315E-002 -0.889416095961065E+001  0.243166531377271E+001
  0.592606210197315E-002 -0.890178415525884E+001  0.293590277562615E+001
  0.592606210197315E-002 -0.890876505125494E+001  0.243931908075619E+001
  0.592606210197315E-002 -0.891150090445013E+001  0.244076737962490E+001
  0.592606210197315E-002 -0.891387245405645E+001  0.244202984010515E+001
  0.592606210197315E-002 -0.891513416517705E+001  0.244270095037926E+001
  0.592606210197315E-002 -0.891701934088201E+001  0.293097548620123E+001
  0.592606210197315E-002 -0.891718790281744E+001  0.244379825707023E+001
  0.592606210197315E-002 -0.892024800528020E+001  0.244543545301420E+001
  0.592606210197315E-002 -0.893631717909307E+001  0.245412396116258E+001
  0.592606210197315E-002 -0.893819663275213E+001  0.245515142884329E+001
  0.592606210197315E-002 -0.894877288092107E+001  0.246096720461598E+001
  0.592606210197315E-002 -0.896022364843816E+001  0.246734155034657E+001
  0.592606210197315E-002 -0.896159932363958E+001  0.246811018285000E+001
  0.592606210197315E-002 -0.897219249952764E+001  0.247408633328699E+001
  0.592606210197315E-002 -0.897820541609258E+001  0.247750961559006E+001
  0.592606210197315E-002 -0.898245880354375E+001  0.247994082043683E+001
  0.592606210197315E-002 -0.898672983396978E+001  0.248239583265636E+001
  0.592606210197315E-002 -0.852294695741071E+001  0.248902712213762E+001
  0.592606210197315E-002 -0.852682674294843E+001  0.249129686007900E+001
  0.592606210197315E-002 -0.853875816232099E+001  0.249833875165248E+001
  0.592606210197315E-002 -0.855522907143964E+001  0.250822389968743E+001
  0.592606210197315E-002 -0.855533349877729E+001  0.250828870475430E+001
  0.592606210197315E-002 -0.855533969766035E+001  0.250829163598824E+001
  0.592606210197315E-002 -0.857308829194440E+001  0.251918772769333E+001
  0.592606210197315E-002 -0.857807386285200E+001  0.252229910465811E+001
  0.592606210197315E-002 -0.859791171914472E+001  0.253491196543229E+001
  0.592606210197315E-002 -0.861046398049726E+001  0.254311612838815E+001
  0.592606210197315E-002 -0.861406124001875E+001  0.254550448713231E+001
  0.592606210197315E-002 -0.861552966004743E+001  0.254648254397109E+001
  0.592606210197315E-002 -0.861725318795576E+001  0.254763742376045E+001
  0.592606210197315E-002 -0.864309728509321E+001  0.256547352919561E+001
  0.592606210197315E-002 -0.864967334634199E+001  0.257019893165130E+001
  0.592606210197315E-002 -0.865384853249921E+001  0.257325080192184E+001
  0.592606210197315E-002 -0.867145097619428E+001  0.258655212983434E+001
  0.592606210197315E-002 -0.869073617822065E+001  0.260219834508778E+001
  0.592606210197315E-002 -0.869894540673628E+001  0.260930878954683E+001
  0.592606210197315E-002 -0.870046222573652E+001  0.261065781641282E+001
  0.592606210197315E-002 -0.870096338158979E+001  0.261110450849176E+001
  0.592606210197315E-002 -0.870963085061445E+001  0.261908570845340E+001
  0.592606210197315E-002 -0.871408784753217E+001  0.262337713987277E+001
  0.592606210197315E-002 -0.872053325539961E+001  0.262985691607164E+001
  0.592606210197315E-002 -0.872697341805830E+001  0.263671748845998E+001
  0.592606210197315E-002 -0.873151576882734E+001  0.264183813662958E+001
  0.592606210197315E-002 -0.873356330758466E+001  0.264424247468127E+001
  0.592606210197315E-002 -0.873479545480146E+001  0.264572028026063E+001
  0.592606210197315E-002 -0.874007881051435E+001  0.265234736136683E+001
  0.592606210197315E-002 -0.854430220055788E+001  0.266981418266041E+001
  0.592606210197315E-002 -0.854943010735720E+001  0.267933058197890E+001
  0.592606210197315E-002 -0.855548927712649E+001  0.269441370465653E+001
  0.592606210197315E-002 -0.855567285943239E+001  0.269500763988403E+001
  0.592606210197315E-002 -0.855651733803957E+001  0.269791860855629E+001
  0.592606210197315E-002 -0.855879328179568E+001  0.273031093019120E+001
  0.592606210197315E-002 -0.855895731377810E+001  0.271028168973697E+001
  0.592606210197315E-002 -0.845302740966179E+001  0.272368074098132E+001
  0.592606210197315E-002 -0.845302884017326E+001  0.272356021332609E+001
  0.592606210197315E-002 -0.845308749114372E+001  0.272221823158954E+001
