  0.493962915590267E-001 -0.448838751841251E+001  0.343201986757458E+001
  0.493962915590267E-001 -0.432242529917422E+001  0.346523685276335E+001
  0.493962915590267E-001  0.261786992024716E+001  0.511326497797736E+001
  0.493962915590267E-001 -0.430987446833316E+001  0.211539717978924E+001
  0.493962915590267E-001  0.174832064580258E+001  0.479011125053291E+001
  0.493962915590267E-001 -0.429719489145938E+001  0.347028172398888E+001
  0.493962915590267E-001 -0.426502364206973E+001  0.347670891602153E+001
  0.493962915590267E-001 -0.133559458780948E+001  0.405468576165163E+001
  0.493962915590267E-001 -0.163565581370059E+001  0.399480697537694E+001
  0.493962915590267E-001 -0.420588295984927E+001  0.348851716792636E+001
  0.493962915590267E-001 -0.415644734430972E+001  0.349837636784273E+001
  0.493962915590267E-001 -0.245430892039004E+001  0.383376623900479E+001
  0.493962915590267E-001 -0.413927310038272E+001  0.210739819447195E+001
  0.493962915590267E-001 -0.293028348017398E+001  0.374058401491650E+001
  0.493962915590267E-001 -0.300860636759463E+001  0.205844175626812E+001
  0.493962915590267E-001 -0.312103169489566E+001  0.370316826541398E+001
  0.493962915590267E-001 -0.322084467936221E+001  0.368356429415128E+001
  0.493962915590267E-001 -0.323762982416812E+001  0.206799205090132E+001
  0.493962915590267E-001 -0.343193953562442E+001  0.364200999009884E+001
  0.493962915590267E-001 -0.356180613566104E+001  0.361638500918507E+001
  0.493962915590267E-001 -0.395006411600772E+001  0.209878677794209E+001
  0.493962915590267E-001 -0.391513817835513E+001  0.354640206216416E+001
  0.493962915590267E-001 -0.456590216685001E+001  0.212794393462485E+001
  0.493962915590267E-001 -0.457629054117862E+001  0.212846899121345E+001
  0.493962915590267E-001 -0.487688701677981E+001  0.214438550278209E+001
  0.493962915590267E-001 -0.501195447970096E+001  0.215208506663243E+001
  0.493962915590267E-001 -0.508341448832217E+001  0.215633137173958E+001
  0.493962915590267E-001 -0.521538537073794E+001  0.328538248992371E+001
  0.493962915590267E-001 -0.523221772242252E+001  0.328195673497121E+001
  0.493962915590267E-001 -0.524047368097964E+001  0.216616609418159E+001
  0.493962915590267E-001 -0.528138630915347E+001  0.216885875460793E+001
  0.493962915590267E-001 -0.533726208735171E+001  0.217263513366696E+001
  0.493962915590267E-001 -0.536004608202640E+001  0.325587447765133E+001
  0.493962915590267E-001 -0.536172383356753E+001  0.217432738746600E+001
  0.493962915590267E-001 -0.541030448008243E+001  0.324558022264109E+001
  0.493962915590267E-001 -0.555779212046329E+001  0.218888885173968E+001
  0.493962915590267E-001 -0.556529849100772E+001  0.218948717238642E+001
  0.493962915590267E-001 -0.557728951502505E+001  0.321117263508582E+001
  0.493962915590267E-001 -0.566012328196231E+001  0.319395641914199E+001
  0.493962915590267E-001 -0.567812150049869E+001  0.219891633332543E+001
  0.493962915590267E-001 -0.575683324862186E+001  0.317369495873281E+001
  0.493962915590267E-001 -0.577976935435001E+001  0.316885866514568E+001
  0.493962915590267E-001 -0.580086319971744E+001  0.221029000848343E+001
  0.493962915590267E-001 -0.582833045054141E+001  0.315858197170194E+001
  0.493962915590267E-001 -0.584742396403018E+001  0.315452065829014E+001
  0.493962915590267E-001 -0.584848015833560E+001  0.221508482817013E+001
  0.493962915590267E-001 -0.586469238329593E+001  0.315084202478771E+001
  0.493962915590267E-001 -0.589265459109012E+001  0.314486423452991E+001
  0.493962915590267E-001 -0.589407604265872E+001  0.314456038778484E+001
  0.493962915590267E-001 -0.592355149317447E+001  0.222317515604599E+001
  0.493962915590267E-001 -0.593398469019595E+001  0.313598431586198E+001
  0.493962915590267E-001 -0.594844811487857E+001  0.313286277416415E+001
  0.493962915590267E-001 -0.596951549578372E+001  0.222849630310622E+001
  0.493962915590267E-001 -0.598139231730167E+001  0.222992102202598E+001
  0.493962915590267E-001 -0.600127308893863E+001  0.223235819531913E+001
  0.493962915590267E-001 -0.600288432169620E+001  0.312104491045759E+001
  0.493962915590267E-001 -0.615292923975650E+001  0.308779406093133E+001
  0.493962915590267E-001 -0.616610854197208E+001  0.308481780252902E+001
  0.493962915590267E-001 -0.617844241190616E+001  0.225750334767703E+001
  0.493962915590267E-001 -0.619646328020755E+001  0.226048947355296E+001
  0.493962915590267E-001 -0.622027962732974E+001  0.307246303626793E+001
  0.493962915590267E-001 -0.622571890879336E+001  0.226555307595464E+001
  0.493962915590267E-001 -0.623481457758609E+001  0.226718238050197E+001
  0.493962915590267E-001 -0.627838891077701E+001  0.227540889592491E+001
  0.493962915590267E-001 -0.628247087526981E+001  0.305802344447471E+001
  0.493962915590267E-001 -0.631252210665408E+001  0.228238019160791E+001
  0.493962915590267E-001 -0.631490295458499E+001  0.305037320570531E+001
  0.493962915590267E-001 -0.631495945978824E+001  0.228289747172238E+001
  0.493962915590267E-001 -0.631692164469424E+001  0.228331624969388E+001
  0.493962915590267E-001 -0.634080379534427E+001  0.304419453933942E+001
  0.493962915590267E-001 -0.634840386439029E+001  0.229027661645627E+001
  0.493962915590267E-001 -0.636114423800174E+001  0.229323374902772E+001
  0.493962915590267E-001 -0.636632936526004E+001  0.303803992397801E+001
  0.493962915590267E-001 -0.637081544924441E+001  0.229553856534204E+001
  0.493962915590267E-001 -0.638438981104556E+001  0.303364386106680E+001
  0.493962915590267E-001 -0.640151517916385E+001  0.302944593229228E+001
  0.493962915590267E-001 -0.642990391779605E+001  0.231079696512236E+001
  0.493962915590267E-001 -0.647744792032901E+001  0.301039364354690E+001
  0.493962915590267E-001 -0.649332755137149E+001  0.300630643499947E+001
  0.493962915590267E-001 -0.651360219050113E+001  0.300103623367529E+001
  0.493962915590267E-001 -0.651361291933719E+001  0.300103333731120E+001
  0.493962915590267E-001 -0.651817005205814E+001  0.299983921296252E+001
  0.493962915590267E-001 -0.655646961260501E+001  0.235183572329441E+001
  0.493962915590267E-001 -0.655918996859256E+001  0.235286364458734E+001
  0.493962915590267E-001 -0.657313650179568E+001  0.298515087485136E+001
  0.493962915590267E-001 -0.657991712618533E+001  0.298330094125009E+001
  0.493962915590267E-001 -0.659717290926639E+001  0.236787929398863E+001
  0.493962915590267E-001 -0.660004132319156E+001  0.236906690980953E+001
  0.493962915590267E-001 -0.661455123949710E+001  0.237517545051785E+001
  0.493962915590267E-001 -0.662709157992068E+001  0.297014470947904E+001
  0.493962915590267E-001 -0.663893478441897E+001  0.238585659071979E+001
  0.493962915590267E-001 -0.666313736963931E+001  0.239695162846569E+001
  0.493962915590267E-001 -0.667427270937625E+001  0.240221574013098E+001
  0.493962915590267E-001 -0.667480629015628E+001  0.295627753144105E+001
  0.493962915590267E-001 -0.667955725718204E+001  0.295486217385589E+001
  0.493962915590267E-001 -0.672624080706302E+001  0.294056110598020E+001
  0.493962915590267E-001 -0.672640746164981E+001  0.242810292295729E+001
  0.493962915590267E-001 -0.673310845423404E+001  0.293839198407231E+001
  0.493962915590267E-001 -0.673329442072574E+001  0.243166531377271E+001
  0.493962915590267E-001 -0.674091761637393E+001  0.293590277562615E+001
  0.493962915590267E-001 -0.674789851237002E+001  0.243931908075619E+001
  0.493962915590267E-001 -0.675063436556522E+001  0.244076737962490E+001
  0.493962915590267E-001 -0.675300591517154E+001  0.244202984010515E+001
  0.493962915590267E-001 -0.675426762629214E+001  0.244270095037926E+001
  0.493962915590267E-001 -0.675615280199710E+001  0.293097548620123E+001
  0.493962915590267E-001 -0.675632136393252E+001  0.244379825707023E+001
  0.493962915590267E-001 -0.675938146639529E+001  0.244543545301420E+001
  0.493962915590267E-001 -0.677545064020816E+001  0.245412396116258E+001
  0.493962915590267E-001 -0.677733009386722E+001  0.245515142884329E+001
  0.493962915590267E-001 -0.678790634203616E+001  0.246096720461598E+001
  0.493962915590267E-001 -0.679935710955325E+001  0.246734155034657E+001
  0.493962915590267E-001 -0.680073278475467E+001  0.246811018285000E+001
  0.493962915590267E-001 -0.681132596064273E+001  0.247408633328699E+001
  0.493962915590267E-001 -0.681733887720767E+001  0.247750961559006E+001
  0.493962915590267E-001 -0.682159226465884E+001  0.247994082043683E+001
  0.493962915590267E-001 -0.682586329508487E+001  0.248239583265636E+001
  0.493962915590267E-001 -0.566540539237498E+001  0.284071472071631E+001
  0.493962915590267E-001 -0.567377102347850E+001  0.283592122432060E+001
  0.493962915590267E-001 -0.568922483893870E+001  0.282647356571895E+001
  0.493962915590267E-001 -0.568968164893626E+001  0.282617869405509E+001
  0.493962915590267E-001 -0.569792377921580E+001  0.282074550039622E+001
  0.493962915590267E-001 -0.570749008628367E+001  0.281402036216482E+001
  0.493962915590267E-001 -0.570773184272288E+001  0.281384566385138E+001
  0.493962915590267E-001 -0.571403706046580E+001  0.280911115708124E+001
  0.493962915590267E-001 -0.572777760001658E+001  0.279773942940845E+001
  0.493962915590267E-001 -0.572993004294871E+001  0.279579330192279E+001
  0.493962915590267E-001 -0.573067295524119E+001  0.279510913371121E+001
  0.493962915590267E-001 -0.573533451529978E+001  0.279065569126461E+001
  0.493962915590267E-001 -0.574281036826609E+001  0.278282004527196E+001
