  0.645433177390990E-001 -0.509941129324851E+000  0.478358042736818E+001
  0.645433177390990E-001  0.303439900434214E+001  0.664676605255908E+001
  0.645433177390990E-001 -0.361164598105369E+000  0.485946864855940E+001
  0.645433177390990E-001  0.261300751722056E+001  0.179672461723118E+001
  0.645433177390990E-001  0.131976099373879E+000  0.511822351258902E+001
  0.645433177390990E-001 -0.454340281821744E+001  0.216875536076409E+001
  0.645433177390990E-001  0.128721282041270E+001  0.183751344679148E+001
  0.645433177390990E-001 -0.259591975547330E+001  0.204534884436830E+001
  0.645433177390990E-001 -0.501152482368008E+001  0.321343582653413E+001
  0.645433177390990E-001 -0.283821740485684E+001  0.205886417547335E+001
  0.645433177390990E-001 -0.294386449195401E+001  0.206485973762636E+001
  0.645433177390990E-001 -0.365129843093411E+001  0.210705202760696E+001
  0.645433177390990E-001 -0.487904944755093E+001  0.323829142968215E+001
  0.645433177390990E-001 -0.471377745009915E+001  0.218236776458431E+001
  0.645433177390990E-001 -0.485133638717191E+001  0.324346395361678E+001
  0.645433177390990E-001 -0.509023442603604E+001  0.319853961825730E+001
  0.645433177390990E-001 -0.513068046905057E+001  0.319083751841674E+001
  0.645433177390990E-001 -0.514060345031278E+001  0.318894264034690E+001
  0.645433177390990E-001 -0.521733537055508E+001  0.317420810578310E+001
  0.645433177390990E-001 -0.524473061896817E+001  0.316891039280470E+001
  0.645433177390990E-001 -0.535341945029752E+001  0.224270029902321E+001
  0.645433177390990E-001 -0.541998758651273E+001  0.313443781324101E+001
  0.645433177390990E-001 -0.542611852027432E+001  0.313321163982319E+001
  0.645433177390990E-001 -0.544678202010648E+001  0.312906645029003E+001
  0.645433177390990E-001 -0.545193066932217E+001  0.312802891846788E+001
  0.645433177390990E-001 -0.550306454040067E+001  0.225980670616935E+001
  0.645433177390990E-001 -0.550771036483304E+001  0.226036050647679E+001
  0.645433177390990E-001 -0.552435245849149E+001  0.311332656687226E+001
  0.645433177390990E-001 -0.558666959144132E+001  0.310046264040407E+001
  0.645433177390990E-001 -0.560973563529507E+001  0.309564497771446E+001
  0.645433177390990E-001 -0.562252202369229E+001  0.227461298472528E+001
  0.645433177390990E-001 -0.562575116492764E+001  0.309228071862304E+001
  0.645433177390990E-001 -0.562719526626126E+001  0.309197807953774E+001
  0.645433177390990E-001 -0.563122072555081E+001  0.227573504219177E+001
  0.645433177390990E-001 -0.563952484466092E+001  0.227681467645282E+001
  0.645433177390990E-001 -0.566977205611722E+001  0.228079308069721E+001
  0.645433177390990E-001 -0.567979541160123E+001  0.308081154196031E+001
  0.645433177390990E-001 -0.570713749267117E+001  0.307493288508564E+001
  0.645433177390990E-001 -0.571777811385648E+001  0.228728128773680E+001
  0.645433177390990E-001 -0.571836343146817E+001  0.307250347745876E+001
  0.645433177390990E-001 -0.574615707732694E+001  0.306644892930974E+001
  0.645433177390990E-001 -0.580212297774808E+001  0.305407043441491E+001
  0.645433177390990E-001 -0.580559172965543E+001  0.305329384934427E+001
  0.645433177390990E-001 -0.583222689963834E+001  0.230368953674827E+001
  0.645433177390990E-001 -0.587198105193631E+001  0.303822668006637E+001
  0.645433177390990E-001 -0.587718310691373E+001  0.231053966813098E+001
  0.645433177390990E-001 -0.587983312942044E+001  0.303641714444743E+001
  0.645433177390990E-001 -0.588236489631192E+001  0.231134510858014E+001
  0.645433177390990E-001 -0.591476955749051E+001  0.231646238449847E+001
  0.645433177390990E-001 -0.591587820388333E+001  0.231663852238447E+001
  0.645433177390990E-001 -0.595331898070828E+001  0.232273360561843E+001
  0.645433177390990E-001 -0.595587721206204E+001  0.301854090689340E+001
  0.645433177390990E-001 -0.595619168616788E+001  0.301846634526748E+001
  0.645433177390990E-001 -0.601050248481290E+001  0.300527343962848E+001
  0.645433177390990E-001 -0.601192965842740E+001  0.300492066509449E+001
  0.645433177390990E-001 -0.602039113379971E+001  0.233416841196449E+001
  0.645433177390990E-001 -0.603532066680447E+001  0.299911296001091E+001
  0.645433177390990E-001 -0.603591099120633E+001  0.233691886560542E+001
  0.645433177390990E-001 -0.604636969901578E+001  0.233879390246260E+001
  0.645433177390990E-001 -0.605226579047696E+001  0.233985786069704E+001
  0.645433177390990E-001 -0.605736770965115E+001  0.299356481455630E+001
  0.645433177390990E-001 -0.609319081641690E+001  0.234742825818705E+001
  0.645433177390990E-001 -0.611587777472989E+001  0.235176081339398E+001
  0.645433177390990E-001 -0.613155045844571E+001  0.297432862067966E+001
  0.645433177390990E-001 -0.615127005912320E+001  0.235873228686599E+001
  0.645433177390990E-001 -0.616063657142178E+001  0.296651905020577E+001
  0.645433177390990E-001 -0.618031850196378E+001  0.236465744620837E+001
  0.645433177390990E-001 -0.620703735686795E+001  0.295370461312316E+001
  0.645433177390990E-001 -0.620942797996060E+001  0.237079831208327E+001
  0.645433177390990E-001 -0.622112288810269E+001  0.237332461210314E+001
  0.645433177390990E-001 -0.623159995414273E+001  0.294672722550059E+001
  0.645433177390990E-001 -0.624384084083096E+001  0.294319561160232E+001
  0.645433177390990E-001 -0.625543895102994E+001  0.293981450108562E+001
  0.645433177390990E-001 -0.626234951354520E+001  0.293778399457415E+001
  0.645433177390990E-001 -0.627184071876065E+001  0.238471335606772E+001
  0.645433177390990E-001 -0.627595582343594E+001  0.238566853529196E+001
  0.645433177390990E-001 -0.629019155837552E+001  0.238902073972222E+001
  0.645433177390990E-001 -0.629056921340482E+001  0.292935302600443E+001
  0.645433177390990E-001 -0.629493847228543E+001  0.292802659345546E+001
  0.645433177390990E-001 -0.631670227386014E+001  0.292133699618221E+001
  0.645433177390990E-001 -0.633777156211392E+001  0.291471505101199E+001
  0.645433177390990E-001 -0.634270253516690E+001  0.291314294314989E+001
  0.645433177390990E-001 -0.634502950049893E+001  0.240256132897506E+001
  0.645433177390990E-001 -0.636307015754239E+001  0.240726080688420E+001
  0.645433177390990E-001 -0.637402763701932E+001  0.241017809112754E+001
  0.645433177390990E-001 -0.641350760795132E+001  0.288954767180090E+001
  0.645433177390990E-001 -0.642977037765042E+001  0.242585552823177E+001
  0.645433177390990E-001 -0.643052854873196E+001  0.242608072294742E+001
  0.645433177390990E-001 -0.644017758704678E+001  0.288008650747822E+001
  0.645433177390990E-001 -0.645554795600430E+001  0.287446699930321E+001
  0.645433177390990E-001 -0.646521988250272E+001  0.287086349328473E+001
  0.645433177390990E-001 -0.646829285956876E+001  0.243763444318645E+001
  0.645433177390990E-001 -0.647503128386990E+001  0.243978683098461E+001
  0.645433177390990E-001 -0.648837819434659E+001  0.244413664005206E+001
  0.645433177390990E-001 -0.650087132789151E+001  0.244832312414216E+001
  0.645433177390990E-001 -0.652736392356412E+001  0.245759240729769E+001
  0.645433177390990E-001 -0.654362883903043E+001  0.283931296664863E+001
  0.645433177390990E-001 -0.655175223685757E+001  0.246666051026360E+001
  0.645433177390990E-001 -0.655247989036099E+001  0.283543772379467E+001
  0.645433177390990E-001 -0.655344739295499E+001  0.246731084730570E+001
  0.645433177390990E-001 -0.655560555793301E+001  0.283405169546486E+001
  0.645433177390990E-001 -0.656244101859586E+001  0.283098360856587E+001
  0.645433177390990E-001 -0.659200206138150E+001  0.248299507942620E+001
  0.645433177390990E-001 -0.659279647208707E+001  0.248333910919205E+001
  0.645433177390990E-001 -0.584584050571572E+001  0.281623743757393E+001
  0.645433177390990E-001 -0.585262208377969E+001  0.281288409861952E+001
  0.645433177390990E-001 -0.585616498386513E+001  0.281110547372531E+001
  0.645433177390990E-001 -0.587401872074258E+001  0.280184943233737E+001
  0.645433177390990E-001 -0.588038449680459E+001  0.279841798720288E+001
  0.645433177390990E-001 -0.588087802326333E+001  0.279814923646585E+001
  0.645433177390990E-001 -0.588288789188515E+001  0.279704842677492E+001
  0.645433177390990E-001 -0.589184098636758E+001  0.279204821551381E+001
  0.645433177390990E-001 -0.590828090107095E+001  0.278240915749433E+001
  0.645433177390990E-001 -0.591511350071084E+001  0.277820441628009E+001
  0.645433177390990E-001 -0.592273908054482E+001  0.277335397837600E+001
  0.645433177390990E-001 -0.593457656299721E+001  0.276545009792394E+001
  0.645433177390990E-001 -0.593778710758340E+001  0.276321808005461E+001
  0.645433177390990E-001 -0.593980031406533E+001  0.276179640474034E+001
  0.645433177390990E-001 -0.594384675418984E+001  0.275888973288078E+001
  0.645433177390990E-001 -0.594455104267251E+001  0.275837567648157E+001
  0.645433177390990E-001 -0.594776015674721E+001  0.275600690377848E+001
  0.645433177390990E-001 -0.594859319126260E+001  0.275538348337469E+001
  0.645433177390990E-001 -0.594943433200967E+001  0.275475022724328E+001
  0.645433177390990E-001 -0.595034509098183E+001  0.275406113796646E+001
  0.645433177390990E-001 -0.596026091968667E+001  0.274626480504838E+001
  0.645433177390990E-001 -0.596047072803628E+001  0.274609355199127E+001
  0.645433177390990E-001 -0.596150641834389E+001  0.274524355010433E+001
  0.645433177390990E-001 -0.597378020679604E+001  0.273457946662120E+001
  0.645433177390990E-001 -0.598383670246255E+001  0.272481685897435E+001
