  0.323913246477615E-001 -0.495280476787369E+001  0.343201986757458E+001
  0.323913246477615E-001 -0.478684254863540E+001  0.346523685276335E+001
  0.323913246477615E-001  0.215345267078598E+001  0.511326497797736E+001
  0.323913246477615E-001 -0.477429171779434E+001  0.211539717978924E+001
  0.323913246477615E-001  0.128390339634140E+001  0.479011125053291E+001
  0.323913246477615E-001 -0.476161214092056E+001  0.347028172398888E+001
  0.323913246477615E-001 -0.472944089153091E+001  0.347670891602153E+001
  0.323913246477615E-001 -0.180001183727066E+001  0.405468576165163E+001
  0.323913246477615E-001 -0.210007306316177E+001  0.399480697537694E+001
  0.323913246477615E-001 -0.467030020931045E+001  0.348851716792636E+001
  0.323913246477615E-001 -0.462086459377090E+001  0.349837636784273E+001
  0.323913246477615E-001 -0.291872616985123E+001  0.383376623900479E+001
  0.323913246477615E-001 -0.460369034984390E+001  0.210739819447195E+001
  0.323913246477615E-001 -0.339470072963516E+001  0.374058401491650E+001
  0.323913246477615E-001 -0.347302361705582E+001  0.205844175626812E+001
  0.323913246477615E-001 -0.358544894435684E+001  0.370316826541398E+001
  0.323913246477615E-001 -0.368526192882339E+001  0.368356429415128E+001
  0.323913246477615E-001 -0.370204707362930E+001  0.206799205090132E+001
  0.323913246477615E-001 -0.389635678508560E+001  0.364200999009884E+001
  0.323913246477615E-001 -0.402622338512222E+001  0.361638500918507E+001
  0.323913246477615E-001 -0.441448136546890E+001  0.209878677794209E+001
  0.323913246477615E-001 -0.437955542781631E+001  0.354640206216416E+001
  0.323913246477615E-001 -0.503031941631119E+001  0.212794393462485E+001
  0.323913246477615E-001 -0.504070779063980E+001  0.212846899121345E+001
  0.323913246477615E-001 -0.534130426624099E+001  0.214438550278209E+001
  0.323913246477615E-001 -0.547637172916214E+001  0.215208506663243E+001
  0.323913246477615E-001 -0.554783173778335E+001  0.215633137173958E+001
  0.323913246477615E-001 -0.567980262019912E+001  0.328538248992371E+001
  0.323913246477615E-001 -0.569663497188369E+001  0.328195673497121E+001
  0.323913246477615E-001 -0.570489093044082E+001  0.216616609418159E+001
  0.323913246477615E-001 -0.574580355861465E+001  0.216885875460793E+001
  0.323913246477615E-001 -0.580167933681289E+001  0.217263513366696E+001
  0.323913246477615E-001 -0.582446333148758E+001  0.325587447765133E+001
  0.323913246477615E-001 -0.582614108302871E+001  0.217432738746600E+001
  0.323913246477615E-001 -0.587472172954361E+001  0.324558022264109E+001
  0.323913246477615E-001 -0.602220936992447E+001  0.218888885173968E+001
  0.323913246477615E-001 -0.602971574046890E+001  0.218948717238642E+001
  0.323913246477615E-001 -0.604170676448623E+001  0.321117263508582E+001
  0.323913246477615E-001 -0.612454053142349E+001  0.319395641914199E+001
  0.323913246477615E-001 -0.614253874995987E+001  0.219891633332543E+001
  0.323913246477615E-001 -0.622125049808304E+001  0.317369495873281E+001
  0.323913246477615E-001 -0.624418660381119E+001  0.316885866514568E+001
  0.323913246477615E-001 -0.626528044917862E+001  0.221029000848343E+001
  0.323913246477615E-001 -0.629274770000259E+001  0.315858197170194E+001
  0.323913246477615E-001 -0.631184121349136E+001  0.315452065829014E+001
  0.323913246477615E-001 -0.631289740779678E+001  0.221508482817013E+001
  0.323913246477615E-001 -0.632910963275711E+001  0.315084202478771E+001
  0.323913246477615E-001 -0.635707184055130E+001  0.314486423452991E+001
  0.323913246477615E-001 -0.635849329211990E+001  0.314456038778484E+001
  0.323913246477615E-001 -0.638796874263565E+001  0.222317515604599E+001
  0.323913246477615E-001 -0.639840193965713E+001  0.313598431586198E+001
  0.323913246477615E-001 -0.641286536433975E+001  0.313286277416415E+001
  0.323913246477615E-001 -0.643393274524490E+001  0.222849630310622E+001
  0.323913246477615E-001 -0.644580956676285E+001  0.222992102202598E+001
  0.323913246477615E-001 -0.646569033839981E+001  0.223235819531913E+001
  0.323913246477615E-001 -0.646730157115738E+001  0.312104491045759E+001
  0.323913246477615E-001 -0.661734648921768E+001  0.308779406093133E+001
  0.323913246477615E-001 -0.663052579143326E+001  0.308481780252902E+001
  0.323913246477615E-001 -0.664285966136734E+001  0.225750334767703E+001
  0.323913246477615E-001 -0.666088052966873E+001  0.226048947355296E+001
  0.323913246477615E-001 -0.668469687679092E+001  0.307246303626793E+001
  0.323913246477615E-001 -0.669013615825454E+001  0.226555307595464E+001
  0.323913246477615E-001 -0.669923182704727E+001  0.226718238050197E+001
  0.323913246477615E-001 -0.674280616023819E+001  0.227540889592491E+001
  0.323913246477615E-001 -0.674688812473098E+001  0.305802344447471E+001
  0.323913246477615E-001 -0.677693935611526E+001  0.228238019160791E+001
  0.323913246477615E-001 -0.677932020404617E+001  0.305037320570531E+001
  0.323913246477615E-001 -0.677937670924942E+001  0.228289747172238E+001
  0.323913246477615E-001 -0.678133889415542E+001  0.228331624969388E+001
  0.323913246477615E-001 -0.680522104480545E+001  0.304419453933942E+001
  0.323913246477615E-001 -0.681282111385147E+001  0.229027661645627E+001
  0.323913246477615E-001 -0.682556148746292E+001  0.229323374902772E+001
  0.323913246477615E-001 -0.683074661472122E+001  0.303803992397801E+001
  0.323913246477615E-001 -0.683523269870559E+001  0.229553856534204E+001
  0.323913246477615E-001 -0.684880706050674E+001  0.303364386106680E+001
  0.323913246477615E-001 -0.686593242862503E+001  0.302944593229228E+001
  0.323913246477615E-001 -0.689432116725723E+001  0.231079696512236E+001
  0.323913246477615E-001 -0.694186516979019E+001  0.301039364354690E+001
  0.323913246477615E-001 -0.695774480083267E+001  0.300630643499947E+001
  0.323913246477615E-001 -0.697801943996231E+001  0.300103623367529E+001
  0.323913246477615E-001 -0.697803016879837E+001  0.300103333731120E+001
  0.323913246477615E-001 -0.698258730151931E+001  0.299983921296252E+001
  0.323913246477615E-001 -0.702088686206619E+001  0.235183572329441E+001
  0.323913246477615E-001 -0.702360721805374E+001  0.235286364458734E+001
  0.323913246477615E-001 -0.703755375125686E+001  0.298515087485136E+001
  0.323913246477615E-001 -0.704433437564651E+001  0.298330094125009E+001
  0.323913246477615E-001 -0.706159015872757E+001  0.236787929398863E+001
  0.323913246477615E-001 -0.706445857265274E+001  0.236906690980953E+001
  0.323913246477615E-001 -0.707896848895828E+001  0.237517545051785E+001
  0.323913246477615E-001 -0.709150882938186E+001  0.297014470947904E+001
  0.323913246477615E-001 -0.710335203388015E+001  0.238585659071979E+001
  0.323913246477615E-001 -0.712755461910049E+001  0.239695162846569E+001
  0.323913246477615E-001 -0.713868995883743E+001  0.240221574013098E+001
  0.323913246477615E-001 -0.713922353961746E+001  0.295627753144105E+001
  0.323913246477615E-001 -0.714397450664322E+001  0.295486217385589E+001
  0.323913246477615E-001 -0.719065805652420E+001  0.294056110598020E+001
  0.323913246477615E-001 -0.719082471111099E+001  0.242810292295729E+001
  0.323913246477615E-001 -0.719752570369522E+001  0.293839198407231E+001
  0.323913246477615E-001 -0.719771167018692E+001  0.243166531377271E+001
  0.323913246477615E-001 -0.720533486583511E+001  0.293590277562615E+001
  0.323913246477615E-001 -0.721231576183120E+001  0.243931908075619E+001
  0.323913246477615E-001 -0.721505161502640E+001  0.244076737962490E+001
  0.323913246477615E-001 -0.721742316463272E+001  0.244202984010515E+001
  0.323913246477615E-001 -0.721868487575332E+001  0.244270095037926E+001
  0.323913246477615E-001 -0.722057005145828E+001  0.293097548620123E+001
  0.323913246477615E-001 -0.722073861339370E+001  0.244379825707023E+001
  0.323913246477615E-001 -0.722379871585647E+001  0.244543545301420E+001
  0.323913246477615E-001 -0.723986788966934E+001  0.245412396116258E+001
  0.323913246477615E-001 -0.724174734332840E+001  0.245515142884329E+001
  0.323913246477615E-001 -0.725232359149734E+001  0.246096720461598E+001
  0.323913246477615E-001 -0.726377435901443E+001  0.246734155034657E+001
  0.323913246477615E-001 -0.726515003421585E+001  0.246811018285000E+001
  0.323913246477615E-001 -0.727574321010391E+001  0.247408633328699E+001
  0.323913246477615E-001 -0.728175612666885E+001  0.247750961559006E+001
  0.323913246477615E-001 -0.728600951412002E+001  0.247994082043683E+001
  0.323913246477615E-001 -0.729028054454605E+001  0.248239583265636E+001
  0.323913246477615E-001 -0.682649766798698E+001  0.248902712213762E+001
  0.323913246477615E-001 -0.683037745352470E+001  0.249129686007900E+001
  0.323913246477615E-001 -0.684230887289726E+001  0.249833875165248E+001
  0.323913246477615E-001 -0.685877978201591E+001  0.250822389968743E+001
  0.323913246477615E-001 -0.685888420935356E+001  0.250828870475430E+001
  0.323913246477615E-001 -0.685889040823662E+001  0.250829163598824E+001
  0.323913246477615E-001 -0.687663900252067E+001  0.251918772769333E+001
  0.323913246477615E-001 -0.688162457342827E+001  0.252229910465811E+001
  0.323913246477615E-001 -0.690146242972099E+001  0.253491196543229E+001
  0.323913246477615E-001 -0.691401469107353E+001  0.254311612838815E+001
  0.323913246477615E-001 -0.691761195059502E+001  0.254550448713231E+001
  0.323913246477615E-001 -0.691908037062370E+001  0.254648254397109E+001
  0.323913246477615E-001 -0.692080389853203E+001  0.254763742376045E+001
  0.323913246477615E-001 -0.694664799566948E+001  0.256547352919561E+001
  0.323913246477615E-001 -0.695322405691826E+001  0.257019893165130E+001
  0.323913246477615E-001 -0.695739924307548E+001  0.257325080192184E+001
  0.323913246477615E-001 -0.697500168677055E+001  0.258655212983434E+001
  0.323913246477615E-001 -0.699428688879692E+001  0.260219834508778E+001
  0.323913246477615E-001 -0.700249611731254E+001  0.260930878954683E+001
  0.323913246477615E-001 -0.700401293631279E+001  0.261065781641282E+001
  0.323913246477615E-001 -0.700451409216606E+001  0.261110450849176E+001
  0.323913246477615E-001 -0.701318156119072E+001  0.261908570845340E+001
  0.323913246477615E-001 -0.701763855810844E+001  0.262337713987277E+001
  0.323913246477615E-001 -0.702408396597587E+001  0.262985691607164E+001
  0.323913246477615E-001 -0.703052412863457E+001  0.263671748845998E+001
  0.323913246477615E-001 -0.703506647940361E+001  0.264183813662958E+001
  0.323913246477615E-001 -0.703711401816093E+001  0.264424247468127E+001
  0.323913246477615E-001 -0.703834616537773E+001  0.264572028026063E+001
  0.323913246477615E-001 -0.704362952109062E+001  0.265234736136683E+001
  0.323913246477615E-001 -0.684785291113415E+001  0.266981418266041E+001
  0.323913246477615E-001 -0.685298081793347E+001  0.267933058197890E+001
  0.323913246477615E-001 -0.685903998770276E+001  0.269441370465653E+001
  0.323913246477615E-001 -0.685922357000867E+001  0.269500763988403E+001
  0.323913246477615E-001 -0.686006804861584E+001  0.269791860855629E+001
  0.323913246477615E-001 -0.686234399237195E+001  0.273031093019120E+001
  0.323913246477615E-001 -0.686250802435437E+001  0.271028168973697E+001
  0.323913246477615E-001 -0.675657812023806E+001  0.272368074098132E+001
  0.323913246477615E-001 -0.675657955074953E+001  0.272356021332609E+001
  0.323913246477615E-001 -0.675663820171999E+001  0.272221823158954E+001
