  0.157746109934289E+000 -0.336995531162533E+001  0.343201986757458E+001
  0.157746109934289E+000 -0.320399309238705E+001  0.346523685276335E+001
  0.157746109934289E+000  0.373630212703434E+001  0.511326497797736E+001
  0.157746109934289E+000 -0.319144226154599E+001  0.211539717978924E+001
  0.157746109934289E+000  0.286675285258976E+001  0.479011125053291E+001
  0.157746109934289E+000 -0.317876268467221E+001  0.347028172398888E+001
  0.157746109934289E+000 -0.314659143528256E+001  0.347670891602153E+001
  0.157746109934289E+000 -0.217162381022304E+000  0.405468576165163E+001
  0.157746109934289E+000 -0.517223606913418E+000  0.399480697537694E+001
  0.157746109934289E+000 -0.308745075306210E+001  0.348851716792636E+001
  0.157746109934289E+000 -0.303801513752255E+001  0.349837636784273E+001
  0.157746109934289E+000 -0.133587671360287E+001  0.383376623900479E+001
  0.157746109934289E+000 -0.302084089359555E+001  0.210739819447195E+001
  0.157746109934289E+000 -0.181185127338681E+001  0.374058401491650E+001
  0.157746109934289E+000 -0.189017416080746E+001  0.205844175626812E+001
  0.157746109934289E+000 -0.200259948810849E+001  0.370316826541398E+001
  0.157746109934289E+000 -0.210241247257504E+001  0.368356429415128E+001
  0.157746109934289E+000 -0.211919761738095E+001  0.206799205090132E+001
  0.157746109934289E+000 -0.231350732883725E+001  0.364200999009884E+001
  0.157746109934289E+000 -0.244337392887387E+001  0.361638500918507E+001
  0.157746109934289E+000 -0.283163190922055E+001  0.209878677794209E+001
  0.157746109934289E+000 -0.279670597156796E+001  0.354640206216416E+001
  0.157746109934289E+000 -0.344746996006283E+001  0.212794393462485E+001
  0.157746109934289E+000 -0.345785833439144E+001  0.212846899121345E+001
  0.157746109934289E+000 -0.375845480999264E+001  0.214438550278209E+001
  0.157746109934289E+000 -0.389352227291378E+001  0.215208506663243E+001
  0.157746109934289E+000 -0.396498228153500E+001  0.215633137173958E+001
  0.157746109934289E+000 -0.409695316395077E+001  0.328538248992371E+001
  0.157746109934289E+000 -0.411378551563534E+001  0.328195673497121E+001
  0.157746109934289E+000 -0.412204147419247E+001  0.216616609418159E+001
  0.157746109934289E+000 -0.416295410236630E+001  0.216885875460793E+001
  0.157746109934289E+000 -0.421882988056454E+001  0.217263513366696E+001
  0.157746109934289E+000 -0.424161387523922E+001  0.325587447765133E+001
  0.157746109934289E+000 -0.424329162678036E+001  0.217432738746600E+001
  0.157746109934289E+000 -0.429187227329525E+001  0.324558022264109E+001
  0.157746109934289E+000 -0.443935991367611E+001  0.218888885173968E+001
  0.157746109934289E+000 -0.444686628422055E+001  0.218948717238642E+001
  0.157746109934289E+000 -0.445885730823788E+001  0.321117263508582E+001
  0.157746109934289E+000 -0.454169107517514E+001  0.319395641914199E+001
  0.157746109934289E+000 -0.455968929371151E+001  0.219891633332543E+001
  0.157746109934289E+000 -0.463840104183468E+001  0.317369495873281E+001
  0.157746109934289E+000 -0.466133714756283E+001  0.316885866514568E+001
  0.157746109934289E+000 -0.468243099293026E+001  0.221029000848343E+001
  0.157746109934289E+000 -0.470989824375424E+001  0.315858197170194E+001
  0.157746109934289E+000 -0.472899175724301E+001  0.315452065829014E+001
  0.157746109934289E+000 -0.473004795154843E+001  0.221508482817013E+001
  0.157746109934289E+000 -0.474626017650875E+001  0.315084202478771E+001
  0.157746109934289E+000 -0.477422238430294E+001  0.314486423452991E+001
  0.157746109934289E+000 -0.477564383587155E+001  0.314456038778484E+001
  0.157746109934289E+000 -0.480511928638729E+001  0.222317515604599E+001
  0.157746109934289E+000 -0.481555248340878E+001  0.313598431586198E+001
  0.157746109934289E+000 -0.483001590809140E+001  0.313286277416415E+001
  0.157746109934289E+000 -0.485108328899655E+001  0.222849630310622E+001
  0.157746109934289E+000 -0.486296011051449E+001  0.222992102202598E+001
  0.157746109934289E+000 -0.488284088215145E+001  0.223235819531913E+001
  0.157746109934289E+000 -0.488445211490902E+001  0.312104491045759E+001
  0.157746109934289E+000 -0.503449703296933E+001  0.308779406093133E+001
  0.157746109934289E+000 -0.504767633518490E+001  0.308481780252902E+001
  0.157746109934289E+000 -0.506001020511898E+001  0.225750334767703E+001
  0.157746109934289E+000 -0.507803107342037E+001  0.226048947355296E+001
  0.157746109934289E+000 -0.510184742054257E+001  0.307246303626793E+001
  0.157746109934289E+000 -0.510728670200619E+001  0.226555307595464E+001
  0.157746109934289E+000 -0.511638237079891E+001  0.226718238050197E+001
  0.157746109934289E+000 -0.515995670398983E+001  0.227540889592491E+001
  0.157746109934289E+000 -0.516403866848263E+001  0.305802344447471E+001
  0.157746109934289E+000 -0.519408989986691E+001  0.228238019160791E+001
  0.157746109934289E+000 -0.519647074779782E+001  0.305037320570531E+001
  0.157746109934289E+000 -0.519652725300106E+001  0.228289747172238E+001
  0.157746109934289E+000 -0.519848943790707E+001  0.228331624969388E+001
  0.157746109934289E+000 -0.522237158855709E+001  0.304419453933942E+001
  0.157746109934289E+000 -0.522997165760311E+001  0.229027661645627E+001
  0.157746109934289E+000 -0.524271203121456E+001  0.229323374902772E+001
  0.157746109934289E+000 -0.524789715847287E+001  0.303803992397801E+001
  0.157746109934289E+000 -0.525238324245724E+001  0.229553856534204E+001
  0.157746109934289E+000 -0.526595760425839E+001  0.303364386106680E+001
  0.157746109934289E+000 -0.528308297237667E+001  0.302944593229228E+001
  0.157746109934289E+000 -0.531147171100888E+001  0.231079696512236E+001
  0.157746109934289E+000 -0.535901571354183E+001  0.301039364354690E+001
  0.157746109934289E+000 -0.537489534458432E+001  0.300630643499947E+001
  0.157746109934289E+000 -0.539516998371395E+001  0.300103623367529E+001
  0.157746109934289E+000 -0.539518071255001E+001  0.300103333731120E+001
  0.157746109934289E+000 -0.539973784527096E+001  0.299983921296252E+001
  0.157746109934289E+000 -0.543803740581784E+001  0.235183572329441E+001
  0.157746109934289E+000 -0.544075776180538E+001  0.235286364458734E+001
  0.157746109934289E+000 -0.545470429500851E+001  0.298515087485136E+001
  0.157746109934289E+000 -0.546148491939816E+001  0.298330094125009E+001
  0.157746109934289E+000 -0.547874070247921E+001  0.236787929398863E+001
  0.157746109934289E+000 -0.548160911640438E+001  0.236906690980953E+001
  0.157746109934289E+000 -0.549611903270993E+001  0.237517545051785E+001
  0.157746109934289E+000 -0.550865937313351E+001  0.297014470947904E+001
  0.157746109934289E+000 -0.552050257763180E+001  0.238585659071979E+001
  0.157746109934289E+000 -0.554470516285214E+001  0.239695162846569E+001
  0.157746109934289E+000 -0.555584050258908E+001  0.240221574013098E+001
  0.157746109934289E+000 -0.555637408336911E+001  0.295627753144105E+001
  0.157746109934289E+000 -0.556112505039486E+001  0.295486217385589E+001
  0.157746109934289E+000 -0.560780860027584E+001  0.294056110598020E+001
  0.157746109934289E+000 -0.560797525486264E+001  0.242810292295729E+001
  0.157746109934289E+000 -0.561467624744686E+001  0.293839198407231E+001
  0.157746109934289E+000 -0.561486221393856E+001  0.243166531377271E+001
  0.157746109934289E+000 -0.562248540958676E+001  0.293590277562615E+001
  0.157746109934289E+000 -0.562946630558285E+001  0.243931908075619E+001
  0.157746109934289E+000 -0.563220215877804E+001  0.244076737962490E+001
  0.157746109934289E+000 -0.563457370838436E+001  0.244202984010515E+001
  0.157746109934289E+000 -0.563583541950497E+001  0.244270095037926E+001
  0.157746109934289E+000 -0.563772059520993E+001  0.293097548620123E+001
  0.157746109934289E+000 -0.563788915714535E+001  0.244379825707023E+001
  0.157746109934289E+000 -0.564094925960812E+001  0.244543545301420E+001
  0.157746109934289E+000 -0.565701843342099E+001  0.245412396116258E+001
  0.157746109934289E+000 -0.565889788708004E+001  0.245515142884329E+001
  0.157746109934289E+000 -0.566947413524899E+001  0.246096720461598E+001
  0.157746109934289E+000 -0.568092490276608E+001  0.246734155034657E+001
  0.157746109934289E+000 -0.568230057796749E+001  0.246811018285000E+001
  0.157746109934289E+000 -0.569289375385556E+001  0.247408633328699E+001
  0.157746109934289E+000 -0.569890667042050E+001  0.247750961559006E+001
  0.157746109934289E+000 -0.570316005787167E+001  0.247994082043683E+001
  0.157746109934289E+000 -0.570743108829769E+001  0.248239583265636E+001
  0.157746109934289E+000 -0.524364821173863E+001  0.248902712213762E+001
  0.157746109934289E+000 -0.524752799727635E+001  0.249129686007900E+001
  0.157746109934289E+000 -0.525945941664891E+001  0.249833875165248E+001
  0.157746109934289E+000 -0.527593032576756E+001  0.250822389968743E+001
  0.157746109934289E+000 -0.527603475310521E+001  0.250828870475430E+001
  0.157746109934289E+000 -0.527604095198826E+001  0.250829163598824E+001
  0.157746109934289E+000 -0.529378954627232E+001  0.251918772769333E+001
  0.157746109934289E+000 -0.529877511717991E+001  0.252229910465811E+001
  0.157746109934289E+000 -0.531861297347264E+001  0.253491196543229E+001
  0.157746109934289E+000 -0.533116523482518E+001  0.254311612838815E+001
  0.157746109934289E+000 -0.533476249434666E+001  0.254550448713231E+001
  0.157746109934289E+000 -0.533623091437535E+001  0.254648254397109E+001
  0.157746109934289E+000 -0.533795444228367E+001  0.254763742376045E+001
  0.157746109934289E+000 -0.536379853942112E+001  0.256547352919561E+001
  0.157746109934289E+000 -0.537037460066990E+001  0.257019893165130E+001
  0.157746109934289E+000 -0.537454978682713E+001  0.257325080192184E+001
  0.157746109934289E+000 -0.539215223052220E+001  0.258655212983434E+001
  0.157746109934289E+000 -0.541143743254857E+001  0.260219834508778E+001
  0.157746109934289E+000 -0.541964666106419E+001  0.260930878954683E+001
  0.157746109934289E+000 -0.542116348006443E+001  0.261065781641282E+001
  0.157746109934289E+000 -0.542166463591771E+001  0.261110450849176E+001
  0.157746109934289E+000 -0.543033210494236E+001  0.261908570845340E+001
  0.157746109934289E+000 -0.543478910186009E+001  0.262337713987277E+001
  0.157746109934289E+000 -0.544123450972752E+001  0.262985691607164E+001
  0.157746109934289E+000 -0.544767467238621E+001  0.263671748845998E+001
  0.157746109934289E+000 -0.545221702315525E+001  0.264183813662958E+001
  0.157746109934289E+000 -0.545426456191258E+001  0.264424247468127E+001
  0.157746109934289E+000 -0.545549670912938E+001  0.264572028026063E+001
  0.157746109934289E+000 -0.546078006484227E+001  0.265234736136683E+001
  0.157746109934289E+000 -0.526500345488580E+001  0.266981418266041E+001
  0.157746109934289E+000 -0.527013136168512E+001  0.267933058197890E+001
  0.157746109934289E+000 -0.527619053145440E+001  0.269441370465653E+001
  0.157746109934289E+000 -0.527637411376031E+001  0.269500763988403E+001
  0.157746109934289E+000 -0.527721859236749E+001  0.269791860855629E+001
  0.157746109934289E+000 -0.527949453612359E+001  0.273031093019120E+001
  0.157746109934289E+000 -0.527965856810602E+001  0.271028168973697E+001
  0.157746109934289E+000 -0.517372866398970E+001  0.272368074098132E+001
  0.157746109934289E+000 -0.517373009450118E+001  0.272356021332609E+001
  0.157746109934289E+000 -0.517378874547164E+001  0.272221823158954E+001
