  0.507581305741597E+000  0.394068261819430E+001  0.470682036648248E+001
  0.507581305741597E+000  0.401328202920504E+001  0.761499109784431E+001
  0.507581305741597E+000  0.481597730355807E+001  0.625428422932559E+001
  0.507581305741597E+000  0.490498849587985E+001  0.658350036714986E+001
  0.507581305741597E+000  0.236840875019160E+001  0.172825278169928E+001
  0.507581305741597E+000  0.228237922062007E+001  0.415679543121560E+001
  0.507581305741597E+000  0.217379958499995E+001  0.413650180276302E+001
  0.507581305741597E+000 -0.306611292491827E+001  0.324672703094255E+001
  0.507581305741597E+000 -0.305514471660528E+001  0.212947483338351E+001
  0.507581305741597E+000  0.125508649219599E+001  0.397690030828181E+001
  0.507581305741597E+000  0.112217481006709E+001  0.395494462273528E+001
  0.507581305741597E+000  0.734459470406442E+000  0.389172791944241E+001
  0.507581305741597E+000  0.715286801949411E+000  0.388862369900723E+001
  0.507581305741597E+000  0.316079686776071E+000  0.185129228612524E+001
  0.507581305741597E+000  0.246928762093454E+000  0.185579017414260E+001
  0.507581305741597E+000  0.976834999474575E-001  0.186559943703636E+001
  0.507581305741597E+000 -0.242094446524711E+000  0.373436563401699E+001
  0.507581305741597E+000 -0.417758633002372E+000  0.370591795452088E+001
  0.507581305741597E+000 -0.302033512721929E+001  0.325546120735162E+001
  0.507581305741597E+000 -0.773281265601249E+000  0.364791382018087E+001
  0.507581305741597E+000 -0.973173071250052E+000  0.361497983140612E+001
  0.507581305741597E+000 -0.129136364589605E+001  0.196522082374102E+001
  0.507581305741597E+000 -0.142707913051519E+001  0.197597759484947E+001
  0.507581305741597E+000 -0.146751444469366E+001  0.353227455293720E+001
  0.507581305741597E+000 -0.150083391796026E+001  0.198192004778484E+001
  0.507581305741597E+000 -0.297041814456853E+001  0.326493185275584E+001
  0.507581305741597E+000 -0.157491200099859E+001  0.351403431430041E+001
  0.507581305741597E+000 -0.157721798549566E+001  0.351364083189695E+001
  0.507581305741597E+000 -0.181862228046331E+001  0.200837042399828E+001
  0.507581305741597E+000 -0.190926258693609E+001  0.345653618137540E+001
  0.507581305741597E+000 -0.206457631717596E+001  0.342942924213867E+001
  0.507581305741597E+000 -0.208447282443914E+001  0.342593757463503E+001
  0.507581305741597E+000 -0.212592785488042E+001  0.341864647208890E+001
  0.507581305741597E+000 -0.214575975070867E+001  0.341515156061154E+001
  0.507581305741597E+000 -0.292960589061651E+001  0.211540485824564E+001
  0.507581305741597E+000 -0.230117123256597E+001  0.205162188744438E+001
  0.507581305741597E+000 -0.243286507259283E+001  0.336400319606172E+001
  0.507581305741597E+000 -0.246579234729681E+001  0.335806789052526E+001
  0.507581305741597E+000 -0.254396002422246E+001  0.207510398904057E+001
  0.507581305741597E+000 -0.270959513317022E+001  0.331361202623005E+001
  0.507581305741597E+000 -0.272115438114080E+001  0.331148075200074E+001
  0.507581305741597E+000 -0.291069023738775E+001  0.211332927987741E+001
  0.507581305741597E+000 -0.322726504932317E+001  0.321558025992079E+001
  0.507581305741597E+000 -0.324171941409978E+001  0.321275424828069E+001
  0.507581305741597E+000 -0.325592844615850E+001  0.215314490194621E+001
  0.507581305741597E+000 -0.330464666019353E+001  0.215912912405217E+001
  0.507581305741597E+000 -0.331485407482061E+001  0.319835980725885E+001
  0.507581305741597E+000 -0.338842551837835E+001  0.318371696340127E+001
  0.507581305741597E+000 -0.342223065029058E+001  0.217400522876714E+001
  0.507581305741597E+000 -0.357779853473577E+001  0.314515800651587E+001
  0.507581305741597E+000 -0.361259787212285E+001  0.313791721196095E+001
  0.507581305741597E+000 -0.362347643505010E+001  0.313564301707889E+001
  0.507581305741597E+000 -0.364093153606328E+001  0.313198316065166E+001
  0.507581305741597E+000 -0.364379565845403E+001  0.313138070184466E+001
  0.507581305741597E+000 -0.367401116023931E+001  0.312500734343982E+001
  0.507581305741597E+000 -0.367605297695074E+001  0.312457532348399E+001
  0.507581305741597E+000 -0.368379395137701E+001  0.312293501610249E+001
  0.507581305741597E+000 -0.369921677242193E+001  0.311965722740379E+001
  0.507581305741597E+000 -0.371161215434942E+001  0.311701448491285E+001
  0.507581305741597E+000 -0.373838751445684E+001  0.221758307052711E+001
  0.507581305741597E+000 -0.375522034297857E+001  0.222007570993363E+001
  0.507581305741597E+000 -0.380312650333318E+001  0.222727689069923E+001
  0.507581305741597E+000 -0.381216232906255E+001  0.309527570662001E+001
  0.507581305741597E+000 -0.381455652843389E+001  0.222901949113581E+001
  0.507581305741597E+000 -0.385894076953802E+001  0.308496368359721E+001
  0.507581305741597E+000 -0.390256612430486E+001  0.307522087375971E+001
  0.507581305741597E+000 -0.390510909686956E+001  0.307464967015665E+001
  0.507581305741597E+000 -0.391450111995611E+001  0.307253362823929E+001
  0.507581305741597E+000 -0.396583311687383E+001  0.306085767167763E+001
  0.507581305741597E+000 -0.399076430927190E+001  0.305511617559755E+001
  0.507581305741597E+000 -0.401833765636358E+001  0.226189851307165E+001
  0.507581305741597E+000 -0.402658360134038E+001  0.226330936200660E+001
  0.507581305741597E+000 -0.403887121807012E+001  0.304389514618359E+001
  0.507581305741597E+000 -0.404604451785955E+001  0.226666425753776E+001
  0.507581305741597E+000 -0.404697840343389E+001  0.226682745848755E+001
  0.507581305741597E+000 -0.406613724361333E+001  0.227017156638760E+001
  0.507581305741597E+000 -0.407634704242620E+001  0.303501708195409E+001
  0.507581305741597E+000 -0.408201782833013E+001  0.303366293545835E+001
  0.507581305741597E+000 -0.411454718242559E+001  0.302583303335520E+001
  0.507581305741597E+000 -0.413088505397710E+001  0.302186115547717E+001
  0.507581305741597E+000 -0.413616054187688E+001  0.228274025405254E+001
  0.507581305741597E+000 -0.420057170520696E+001  0.229482526113919E+001
  0.507581305741597E+000 -0.421551315914068E+001  0.300082713032748E+001
  0.507581305741597E+000 -0.422101085315618E+001  0.299943235436280E+001
  0.507581305741597E+000 -0.422878592143926E+001  0.230029368875518E+001
  0.507581305741597E+000 -0.423631518016729E+001  0.299552955736083E+001
  0.507581305741597E+000 -0.424942033420476E+001  0.230436472836105E+001
  0.507581305741597E+000 -0.425396649967107E+001  0.299098984773457E+001
  0.507581305741597E+000 -0.426713364253911E+001  0.230790984380126E+001
  0.507581305741597E+000 -0.427259605060491E+001  0.230901304966482E+001
  0.507581305741597E+000 -0.429086606632146E+001  0.298136483924924E+001
  0.507581305741597E+000 -0.429427092204961E+001  0.231343580597473E+001
  0.507581305741597E+000 -0.432885735164556E+001  0.297125023336182E+001
  0.507581305741597E+000 -0.433933084140691E+001  0.296842288600691E+001
  0.507581305741597E+000 -0.436032383571538E+001  0.296270039472526E+001
  0.507581305741597E+000 -0.437935464511785E+001  0.295744838927334E+001
  0.507581305741597E+000 -0.441217010150823E+001  0.294823924452835E+001
  0.507581305741597E+000 -0.442749612461004E+001  0.234246136473967E+001
  0.507581305741597E+000 -0.442756264339361E+001  0.294384792692230E+001
  0.507581305741597E+000 -0.445170085559759E+001  0.234812324025971E+001
  0.507581305741597E+000 -0.446172516475591E+001  0.235050935091935E+001
  0.507581305741597E+000 -0.447617905269536E+001  0.292965009606556E+001
  0.507581305741597E+000 -0.451964800487432E+001  0.236479260126130E+001
  0.507581305741597E+000 -0.452223580013189E+001  0.291569066320870E+001
  0.507581305741597E+000 -0.452244274745855E+001  0.291562669831963E+001
  0.507581305741597E+000 -0.452944057117376E+001  0.236729864910451E+001
  0.507581305741597E+000 -0.454115908275518E+001  0.237033514027256E+001
  0.507581305741597E+000 -0.454200928340826E+001  0.290952589507305E+001
  0.507581305741597E+000 -0.455702011714849E+001  0.237451139490636E+001
  0.507581305741597E+000 -0.456324284206304E+001  0.237617221108490E+001
  0.507581305741597E+000 -0.459974925647649E+001  0.238618089902466E+001
  0.507581305741597E+000 -0.460047643314275E+001  0.238638614148115E+001
  0.507581305741597E+000 -0.460259144435796E+001  0.288990205643523E+001
  0.507581305741597E+000 -0.460763423572454E+001  0.238840600821412E+001
  0.507581305741597E+000 -0.461304133067998E+001  0.238994570468984E+001
  0.507581305741597E+000 -0.461939327846441E+001  0.239176977148380E+001
  0.507581305741597E+000 -0.463712995181951E+001  0.287814178467279E+001
  0.507581305741597E+000 -0.463812677989873E+001  0.287779640505676E+001
  0.507581305741597E+000 -0.465867369304571E+001  0.287056274687635E+001
  0.507581305741597E+000 -0.471263306270513E+001  0.242064534983882E+001
  0.507581305741597E+000 -0.471661799083623E+001  0.284907720516478E+001
  0.507581305741597E+000 -0.471814959178838E+001  0.242249747381207E+001
  0.507581305741597E+000 -0.472504084239873E+001  0.242483882874704E+001
  0.507581305741597E+000 -0.472715609203252E+001  0.284497145346375E+001
  0.507581305741597E+000 -0.473262589107427E+001  0.242745030024521E+001
  0.507581305741597E+000 -0.474043028484258E+001  0.283969929234373E+001
  0.507581305741597E+000 -0.474423544536504E+001  0.243152316217656E+001
  0.507581305741597E+000 -0.474722139964971E+001  0.283695637478465E+001
  0.507581305741597E+000 -0.474723856578741E+001  0.283695031810559E+001
  0.507581305741597E+000 -0.475242846141729E+001  0.283483196705078E+001
  0.507581305741597E+000 -0.475618593822393E+001  0.283328701406747E+001
  0.507581305741597E+000 -0.476796715389165E+001  0.282837246286648E+001
  0.507581305741597E+000 -0.477182715068731E+001  0.282673899086777E+001
  0.507581305741597E+000 -0.477376072536382E+001  0.244232684347573E+001
  0.507581305741597E+000 -0.478416197429571E+001  0.244630221355093E+001
  0.507581305741597E+000 -0.478540842662725E+001  0.282089206978752E+001
  0.507581305741597E+000 -0.478957979808721E+001  0.244841002334653E+001
  0.507581305741597E+000 -0.480090325008306E+001  0.245290888553405E+001
  0.507581305741597E+000 -0.480475371013555E+001  0.281227609210945E+001
  0.507581305741597E+000 -0.480906717906866E+001  0.281030453198359E+001
  0.507581305741597E+000 -0.482231562267217E+001  0.246177872103591E+001
  0.507581305741597E+000 -0.482350533138189E+001  0.246228665394238E+001
  0.507581305741597E+000 -0.482642500530157E+001  0.280216756369710E+001
  0.507581305741597E+000 -0.483345072399053E+001  0.279877273698541E+001
  0.507581305741597E+000 -0.483458893428716E+001  0.279821723911226E+001
  0.507581305741597E+000 -0.483746855388555E+001  0.246838080176351E+001
  0.507581305741597E+000 -0.483752863536748E+001  0.279677417576424E+001
  0.507581305741597E+000 -0.484107248912725E+001  0.246999363144290E+001
  0.507581305741597E+000 -0.485524456630620E+001  0.247652182259726E+001
  0.507581305741597E+000 -0.485903875957403E+001  0.278584667374448E+001
  0.507581305741597E+000 -0.486579506526861E+001  0.248158495946461E+001
  0.507581305741597E+000 -0.486895649562749E+001  0.278056594755160E+001
  0.507581305741597E+000 -0.487756579051885E+001  0.248746450729074E+001
  0.507581305741597E+000 -0.488225119243535E+001  0.248987938286701E+001
  0.507581305741597E+000 -0.488299791942510E+001  0.277278344415128E+001
  0.507581305741597E+000 -0.488843338619146E+001  0.249313753852884E+001
  0.507581305741597E+000 -0.489013569484624E+001  0.249404830396847E+001
  0.507581305741597E+000 -0.489023153911504E+001  0.249410091090334E+001
  0.507581305741597E+000 -0.490005724559698E+001  0.276276702219172E+001
  0.507581305741597E+000 -0.490272276531133E+001  0.276113727205375E+001
  0.507581305741597E+000 -0.490445797573003E+001  0.250199709137831E+001
  0.507581305741597E+000 -0.490836851726446E+001  0.250426217119230E+001
  0.507581305741597E+000 -0.491230147014532E+001  0.275512076547856E+001
  0.507581305741597E+000 -0.491377346645269E+001  0.275417151019426E+001
  0.507581305741597E+000 -0.492011397014532E+001  0.275000651280861E+001
  0.507581305741597E+000 -0.492227594982061E+001  0.274855534635862E+001
  0.507581305741597E+000 -0.492934601436529E+001  0.251724186521351E+001
  0.507581305741597E+000 -0.493281691203985E+001  0.274122512755709E+001
  0.507581305741597E+000 -0.493284027706060E+001  0.274120950884027E+001
  0.507581305741597E+000 -0.493888895641241E+001  0.252370915345788E+001
  0.507581305741597E+000 -0.494047920833501E+001  0.252482787173524E+001
  0.507581305741597E+000 -0.494242994914922E+001  0.273412146213295E+001
  0.507581305741597E+000 -0.494330065380010E+001  0.273345623475617E+001
  0.507581305741597E+000 -0.494640200267705E+001  0.252911073236577E+001
  0.507581305741597E+000 -0.494714205394659E+001  0.273046824524464E+001
  0.507581305741597E+000 -0.495556776653203E+001  0.272360125128729E+001
  0.507581305741597E+000 -0.495885794292364E+001  0.272078798051301E+001
  0.507581305741597E+000 -0.496040909419927E+001  0.271943235636745E+001
  0.507581305741597E+000 -0.496088068614873E+001  0.271901607896799E+001
  0.507581305741597E+000 -0.496356861720952E+001  0.271660933841103E+001
  0.507581305741597E+000 -0.496582930217657E+001  0.254475937958168E+001
  0.507581305741597E+000 -0.496677773128423E+001  0.254560266897961E+001
  0.507581305741597E+000 -0.496911423335943E+001  0.271143156358976E+001
  0.507581305741597E+000 -0.497417347560796E+001  0.255250616956011E+001
  0.507581305741597E+000 -0.497476904521856E+001  0.270580687727338E+001
  0.507581305741597E+000 -0.497533552776250E+001  0.255365167387597E+001
  0.507581305741597E+000 -0.497725908885869E+001  0.270320172259002E+001
  0.507581305741597E+000 -0.498334162364873E+001  0.256208931057390E+001
  0.507581305741597E+000 -0.498546164165410E+001  0.269391017533566E+001
  0.507581305741597E+000 -0.498645632396612E+001  0.269269495430080E+001
  0.507581305741597E+000 -0.498753397594366E+001  0.269135302367413E+001
  0.507581305741597E+000 -0.498811762462530E+001  0.256769536217705E+001
  0.507581305741597E+000 -0.498826353679571E+001  0.256787512296632E+001
  0.507581305741597E+000 -0.498909323345098E+001  0.256890860493433E+001
  0.507581305741597E+000 -0.499151938091192E+001  0.268612283085399E+001
  0.507581305741597E+000 -0.499198191295537E+001  0.257265296881985E+001
  0.507581305741597E+000 -0.499237053523931E+001  0.257317739526175E+001
  0.507581305741597E+000 -0.499333469997320E+001  0.257449848617195E+001
  0.507581305741597E+000 -0.499571936260137E+001  0.268005431415902E+001
  0.507581305741597E+000 -0.499578850398931E+001  0.257802398960814E+001
  0.507581305741597E+000 -0.499591152797613E+001  0.267976168857982E+001
  0.507581305741597E+000 -0.499671690593633E+001  0.267850864213464E+001
  0.507581305741597E+000 -0.499938528667364E+001  0.258369733124826E+001
  0.507581305741597E+000 -0.499940674434576E+001  0.267408150130714E+001
  0.507581305741597E+000 -0.499995558391485E+001  0.258466578722074E+001
  0.507581305741597E+000 -0.500170652995977E+001  0.258778083364342E+001
  0.507581305741597E+000 -0.500217001567754E+001  0.258864903237474E+001
  0.507581305741597E+000 -0.500364344249639E+001  0.259154448507053E+001
  0.507581305741597E+000 -0.500442688594732E+001  0.266441520972500E+001
  0.507581305741597E+000 -0.500482981334600E+001  0.259405312733329E+001
  0.507581305741597E+000 -0.500576822887334E+001  0.266136199372671E+001
  0.507581305741597E+000 -0.500699894557867E+001  0.265828766582013E+001
  0.507581305741597E+000 -0.500795929561529E+001  0.265565206284164E+001
  0.507581305741597E+000 -0.500799696575078E+001  0.260189779205367E+001
  0.507581305741597E+000 -0.500803558956060E+001  0.260200446113509E+001
  0.507581305741597E+000 -0.500876562724981E+001  0.260418226678472E+001
  0.507581305741597E+000 -0.501043932567510E+001  0.261012153221435E+001
  0.507581305741597E+000 -0.501117937694463E+001  0.264381884864070E+001
  0.507581305741597E+000 -0.501119082103643E+001  0.261354670029341E+001
  0.507581305741597E+000 -0.501124565730962E+001  0.261382272762261E+001
  0.507581305741597E+000 -0.501140396724615E+001  0.264262644967117E+001
  0.507581305741597E+000 -0.501173250804815E+001  0.264067598783736E+001
  0.507581305741597E+000 -0.501180832515630E+001  0.261709283688469E+001
  0.507581305741597E+000 -0.501185934673223E+001  0.263983475195320E+001
  0.507581305741597E+000 -0.501228468547735E+001  0.263637558609005E+001
  0.507581305741597E+000 -0.501244347225103E+001  0.263459642622969E+001
  0.507581305741597E+000 -0.501247589717779E+001  0.262308423822229E+001
  0.507581305741597E+000 -0.501254313121709E+001  0.262411410262533E+001
  0.507581305741597E+000 -0.455831000412864E+001  0.262770012423919E+001
