  0.433218822994412E-001 -0.892346699252601E+000  0.478358042736818E+001
  0.433218822994412E-001  0.265199343441439E+001  0.664676605255908E+001
  0.433218822994412E-001 -0.743570168033119E+000  0.485946864855940E+001
  0.433218822994412E-001  0.223060194729281E+001  0.179672461723118E+001
  0.433218822994412E-001 -0.250429470553871E+000  0.511822351258902E+001
  0.433218822994412E-001 -0.492580838814519E+001  0.216875536076409E+001
  0.433218822994412E-001  0.904807250484947E+000  0.183751344679148E+001
  0.433218822994412E-001 -0.297832532540105E+001  0.204534884436830E+001
  0.433218822994412E-001 -0.539393039360784E+001  0.321343582653413E+001
  0.433218822994412E-001 -0.322062297478459E+001  0.205886417547335E+001
  0.433218822994412E-001 -0.332627006188176E+001  0.206485973762636E+001
  0.433218822994412E-001 -0.403370400086186E+001  0.210705202760696E+001
  0.433218822994412E-001 -0.526145501747868E+001  0.323829142968215E+001
  0.433218822994412E-001 -0.509618302002690E+001  0.218236776458431E+001
  0.433218822994412E-001 -0.523374195709966E+001  0.324346395361678E+001
  0.433218822994412E-001 -0.547263999596379E+001  0.319853961825730E+001
  0.433218822994412E-001 -0.551308603897832E+001  0.319083751841674E+001
  0.433218822994412E-001 -0.552300902024053E+001  0.318894264034690E+001
  0.433218822994412E-001 -0.559974094048284E+001  0.317420810578310E+001
  0.433218822994412E-001 -0.562713618889592E+001  0.316891039280470E+001
  0.433218822994412E-001 -0.573582502022527E+001  0.224270029902321E+001
  0.433218822994412E-001 -0.580239315644048E+001  0.313443781324101E+001
  0.433218822994412E-001 -0.580852409020207E+001  0.313321163982319E+001
  0.433218822994412E-001 -0.582918759003423E+001  0.312906645029003E+001
  0.433218822994412E-001 -0.583433623924993E+001  0.312802891846788E+001
  0.433218822994412E-001 -0.588547011032842E+001  0.225980670616935E+001
  0.433218822994412E-001 -0.589011593476079E+001  0.226036050647679E+001
  0.433218822994412E-001 -0.590675802841924E+001  0.311332656687226E+001
  0.433218822994412E-001 -0.596907516136907E+001  0.310046264040407E+001
  0.433218822994412E-001 -0.599214120522283E+001  0.309564497771446E+001
  0.433218822994412E-001 -0.600492759362004E+001  0.227461298472528E+001
  0.433218822994412E-001 -0.600815673485539E+001  0.309228071862304E+001
  0.433218822994412E-001 -0.600960083618901E+001  0.309197807953774E+001
  0.433218822994412E-001 -0.601362629547856E+001  0.227573504219177E+001
  0.433218822994412E-001 -0.602193041458867E+001  0.227681467645282E+001
  0.433218822994412E-001 -0.605217762604497E+001  0.228079308069721E+001
  0.433218822994412E-001 -0.606220098152898E+001  0.308081154196031E+001
  0.433218822994412E-001 -0.608954306259892E+001  0.307493288508564E+001
  0.433218822994412E-001 -0.610018368378423E+001  0.228728128773680E+001
  0.433218822994412E-001 -0.610076900139592E+001  0.307250347745876E+001
  0.433218822994412E-001 -0.612856264725469E+001  0.306644892930974E+001
  0.433218822994412E-001 -0.618452854767583E+001  0.305407043441491E+001
  0.433218822994412E-001 -0.618799729958318E+001  0.305329384934427E+001
  0.433218822994412E-001 -0.621463246956609E+001  0.230368953674827E+001
  0.433218822994412E-001 -0.625438662186406E+001  0.303822668006637E+001
  0.433218822994412E-001 -0.625958867684148E+001  0.231053966813098E+001
  0.433218822994412E-001 -0.626223869934819E+001  0.303641714444743E+001
  0.433218822994412E-001 -0.626477046623967E+001  0.231134510858014E+001
  0.433218822994412E-001 -0.629717512741826E+001  0.231646238449847E+001
  0.433218822994412E-001 -0.629828377381108E+001  0.231663852238447E+001
  0.433218822994412E-001 -0.633572455063603E+001  0.232273360561843E+001
  0.433218822994412E-001 -0.633828278198979E+001  0.301854090689340E+001
  0.433218822994412E-001 -0.633859725609563E+001  0.301846634526748E+001
  0.433218822994412E-001 -0.639290805474065E+001  0.300527343962848E+001
  0.433218822994412E-001 -0.639433522835515E+001  0.300492066509449E+001
  0.433218822994412E-001 -0.640279670372746E+001  0.233416841196449E+001
  0.433218822994412E-001 -0.641772623673222E+001  0.299911296001091E+001
  0.433218822994412E-001 -0.641831656113408E+001  0.233691886560542E+001
  0.433218822994412E-001 -0.642877526894353E+001  0.233879390246260E+001
  0.433218822994412E-001 -0.643467136040471E+001  0.233985786069704E+001
  0.433218822994412E-001 -0.643977327957890E+001  0.299356481455630E+001
  0.433218822994412E-001 -0.647559638634465E+001  0.234742825818705E+001
  0.433218822994412E-001 -0.649828334465764E+001  0.235176081339398E+001
  0.433218822994412E-001 -0.651395602837346E+001  0.297432862067966E+001
  0.433218822994412E-001 -0.653367562905095E+001  0.235873228686599E+001
  0.433218822994412E-001 -0.654304214134953E+001  0.296651905020577E+001
  0.433218822994412E-001 -0.656272407189153E+001  0.236465744620837E+001
  0.433218822994412E-001 -0.658944292679570E+001  0.295370461312316E+001
  0.433218822994412E-001 -0.659183354988835E+001  0.237079831208327E+001
  0.433218822994412E-001 -0.660352845803044E+001  0.237332461210314E+001
  0.433218822994412E-001 -0.661400552407048E+001  0.294672722550059E+001
  0.433218822994412E-001 -0.662624641075871E+001  0.294319561160232E+001
  0.433218822994412E-001 -0.663784452095769E+001  0.293981450108562E+001
  0.433218822994412E-001 -0.664475508347295E+001  0.293778399457415E+001
  0.433218822994412E-001 -0.665424628868840E+001  0.238471335606772E+001
  0.433218822994412E-001 -0.665836139336369E+001  0.238566853529196E+001
  0.433218822994412E-001 -0.667259712830327E+001  0.238902073972222E+001
  0.433218822994412E-001 -0.667297478333257E+001  0.292935302600443E+001
  0.433218822994412E-001 -0.667734404221318E+001  0.292802659345546E+001
  0.433218822994412E-001 -0.669910784378789E+001  0.292133699618221E+001
  0.433218822994412E-001 -0.672017713204167E+001  0.291471505101199E+001
  0.433218822994412E-001 -0.672510810509465E+001  0.291314294314989E+001
  0.433218822994412E-001 -0.672743507042668E+001  0.240256132897506E+001
  0.433218822994412E-001 -0.674547572747014E+001  0.240726080688420E+001
  0.433218822994412E-001 -0.675643320694707E+001  0.241017809112754E+001
  0.433218822994412E-001 -0.679591317787908E+001  0.288954767180090E+001
  0.433218822994412E-001 -0.681217594757817E+001  0.242585552823177E+001
  0.433218822994412E-001 -0.681293411865972E+001  0.242608072294742E+001
  0.433218822994412E-001 -0.682258315697453E+001  0.288008650747822E+001
  0.433218822994412E-001 -0.683795352593205E+001  0.287446699930321E+001
  0.433218822994412E-001 -0.684762545243047E+001  0.287086349328473E+001
  0.433218822994412E-001 -0.685069842949651E+001  0.243763444318645E+001
  0.433218822994412E-001 -0.685743685379765E+001  0.243978683098461E+001
  0.433218822994412E-001 -0.687078376427434E+001  0.244413664005206E+001
  0.433218822994412E-001 -0.688327689781926E+001  0.244832312414216E+001
  0.433218822994412E-001 -0.690976949349187E+001  0.245759240729769E+001
  0.433218822994412E-001 -0.692603440895818E+001  0.283931296664863E+001
  0.433218822994412E-001 -0.693415780678533E+001  0.246666051026360E+001
  0.433218822994412E-001 -0.693488546028874E+001  0.283543772379467E+001
  0.433218822994412E-001 -0.693585296288274E+001  0.246731084730570E+001
  0.433218822994412E-001 -0.693801112786077E+001  0.283405169546486E+001
  0.433218822994412E-001 -0.694484658852361E+001  0.283098360856587E+001
  0.433218822994412E-001 -0.697440763130925E+001  0.248299507942620E+001
  0.433218822994412E-001 -0.697520204201482E+001  0.248333910919205E+001
  0.433218822994412E-001 -0.418922233581543E+001  0.253933771039285E+001
