  0.466323528863647E-001 -0.457354195293934E+001  0.343201986757458E+001
  0.466323528863647E-001 -0.440757973370106E+001  0.346523685276335E+001
  0.466323528863647E-001  0.253271548572033E+001  0.511326497797736E+001
  0.466323528863647E-001 -0.439502890285999E+001  0.211539717978924E+001
  0.466323528863647E-001  0.166316621127575E+001  0.479011125053291E+001
  0.466323528863647E-001 -0.438234932598622E+001  0.347028172398888E+001
  0.466323528863647E-001 -0.435017807659657E+001  0.347670891602153E+001
  0.466323528863647E-001 -0.142074902233631E+001  0.405468576165163E+001
  0.466323528863647E-001 -0.172081024822743E+001  0.399480697537694E+001
  0.466323528863647E-001 -0.429103739437611E+001  0.348851716792636E+001
  0.466323528863647E-001 -0.424160177883656E+001  0.349837636784273E+001
  0.466323528863647E-001 -0.253946335491688E+001  0.383376623900479E+001
  0.466323528863647E-001 -0.422442753490956E+001  0.210739819447195E+001
  0.466323528863647E-001 -0.301543791470081E+001  0.374058401491650E+001
  0.466323528863647E-001 -0.309376080212147E+001  0.205844175626812E+001
  0.466323528863647E-001 -0.320618612942249E+001  0.370316826541398E+001
  0.466323528863647E-001 -0.330599911388905E+001  0.368356429415128E+001
  0.466323528863647E-001 -0.332278425869496E+001  0.206799205090132E+001
  0.466323528863647E-001 -0.351709397015125E+001  0.364200999009884E+001
  0.466323528863647E-001 -0.364696057018788E+001  0.361638500918507E+001
  0.466323528863647E-001 -0.403521855053456E+001  0.209878677794209E+001
  0.466323528863647E-001 -0.400029261288197E+001  0.354640206216416E+001
  0.466323528863647E-001 -0.465105660137684E+001  0.212794393462485E+001
  0.466323528863647E-001 -0.466144497570545E+001  0.212846899121345E+001
  0.466323528863647E-001 -0.496204145130665E+001  0.214438550278209E+001
  0.466323528863647E-001 -0.509710891422779E+001  0.215208506663243E+001
  0.466323528863647E-001 -0.516856892284901E+001  0.215633137173958E+001
  0.466323528863647E-001 -0.530053980526478E+001  0.328538248992371E+001
  0.466323528863647E-001 -0.531737215694935E+001  0.328195673497121E+001
  0.466323528863647E-001 -0.532562811550648E+001  0.216616609418159E+001
  0.466323528863647E-001 -0.536654074368031E+001  0.216885875460793E+001
  0.466323528863647E-001 -0.542241652187855E+001  0.217263513366696E+001
  0.466323528863647E-001 -0.544520051655323E+001  0.325587447765133E+001
  0.466323528863647E-001 -0.544687826809437E+001  0.217432738746600E+001
  0.466323528863647E-001 -0.549545891460926E+001  0.324558022264109E+001
  0.466323528863647E-001 -0.564294655499012E+001  0.218888885173968E+001
  0.466323528863647E-001 -0.565045292553456E+001  0.218948717238642E+001
  0.466323528863647E-001 -0.566244394955189E+001  0.321117263508582E+001
  0.466323528863647E-001 -0.574527771648915E+001  0.319395641914199E+001
  0.466323528863647E-001 -0.576327593502552E+001  0.219891633332543E+001
  0.466323528863647E-001 -0.584198768314869E+001  0.317369495873281E+001
  0.466323528863647E-001 -0.586492378887684E+001  0.316885866514568E+001
  0.466323528863647E-001 -0.588601763424427E+001  0.221029000848343E+001
  0.466323528863647E-001 -0.591348488506825E+001  0.315858197170194E+001
  0.466323528863647E-001 -0.593257839855702E+001  0.315452065829014E+001
  0.466323528863647E-001 -0.593363459286244E+001  0.221508482817013E+001
  0.466323528863647E-001 -0.594984681782276E+001  0.315084202478771E+001
  0.466323528863647E-001 -0.597780902561695E+001  0.314486423452991E+001
  0.466323528863647E-001 -0.597923047718556E+001  0.314456038778484E+001
  0.466323528863647E-001 -0.600870592770130E+001  0.222317515604599E+001
  0.466323528863647E-001 -0.601913912472279E+001  0.313598431586198E+001
  0.466323528863647E-001 -0.603360254940540E+001  0.313286277416415E+001
  0.466323528863647E-001 -0.605466993031056E+001  0.222849630310622E+001
  0.466323528863647E-001 -0.606654675182850E+001  0.222992102202598E+001
  0.466323528863647E-001 -0.608642752346546E+001  0.223235819531913E+001
  0.466323528863647E-001 -0.608803875622303E+001  0.312104491045759E+001
  0.466323528863647E-001 -0.623808367428333E+001  0.308779406093133E+001
  0.466323528863647E-001 -0.625126297649891E+001  0.308481780252902E+001
  0.466323528863647E-001 -0.626359684643299E+001  0.225750334767703E+001
  0.466323528863647E-001 -0.628161771473438E+001  0.226048947355296E+001
  0.466323528863647E-001 -0.630543406185658E+001  0.307246303626793E+001
  0.466323528863647E-001 -0.631087334332020E+001  0.226555307595464E+001
  0.466323528863647E-001 -0.631996901211292E+001  0.226718238050197E+001
  0.466323528863647E-001 -0.636354334530384E+001  0.227540889592491E+001
  0.466323528863647E-001 -0.636762530979664E+001  0.305802344447471E+001
  0.466323528863647E-001 -0.639767654118092E+001  0.228238019160791E+001
  0.466323528863647E-001 -0.640005738911183E+001  0.305037320570531E+001
  0.466323528863647E-001 -0.640011389431507E+001  0.228289747172238E+001
  0.466323528863647E-001 -0.640207607922108E+001  0.228331624969388E+001
  0.466323528863647E-001 -0.642595822987110E+001  0.304419453933942E+001
  0.466323528863647E-001 -0.643355829891712E+001  0.229027661645627E+001
  0.466323528863647E-001 -0.644629867252857E+001  0.229323374902772E+001
  0.466323528863647E-001 -0.645148379978687E+001  0.303803992397801E+001
  0.466323528863647E-001 -0.645596988377125E+001  0.229553856534204E+001
  0.466323528863647E-001 -0.646954424557240E+001  0.303364386106680E+001
  0.466323528863647E-001 -0.648666961369068E+001  0.302944593229228E+001
  0.466323528863647E-001 -0.651505835232289E+001  0.231079696512236E+001
  0.466323528863647E-001 -0.656260235485584E+001  0.301039364354690E+001
  0.466323528863647E-001 -0.657848198589832E+001  0.300630643499947E+001
  0.466323528863647E-001 -0.659875662502796E+001  0.300103623367529E+001
  0.466323528863647E-001 -0.659876735386402E+001  0.300103333731120E+001
  0.466323528863647E-001 -0.660332448658497E+001  0.299983921296252E+001
  0.466323528863647E-001 -0.664162404713184E+001  0.235183572329441E+001
  0.466323528863647E-001 -0.664434440311939E+001  0.235286364458734E+001
  0.466323528863647E-001 -0.665829093632252E+001  0.298515087485136E+001
  0.466323528863647E-001 -0.666507156071217E+001  0.298330094125009E+001
  0.466323528863647E-001 -0.668232734379322E+001  0.236787929398863E+001
  0.466323528863647E-001 -0.668519575771839E+001  0.236906690980953E+001
  0.466323528863647E-001 -0.669970567402393E+001  0.237517545051785E+001
  0.466323528863647E-001 -0.671224601444752E+001  0.297014470947904E+001
  0.466323528863647E-001 -0.672408921894581E+001  0.238585659071979E+001
  0.466323528863647E-001 -0.674829180416615E+001  0.239695162846569E+001
  0.466323528863647E-001 -0.675942714390308E+001  0.240221574013098E+001
  0.466323528863647E-001 -0.675996072468311E+001  0.295627753144105E+001
  0.466323528863647E-001 -0.676471169170887E+001  0.295486217385589E+001
  0.466323528863647E-001 -0.681139524158985E+001  0.294056110598020E+001
  0.466323528863647E-001 -0.681156189617664E+001  0.242810292295729E+001
  0.466323528863647E-001 -0.681826288876087E+001  0.293839198407231E+001
  0.466323528863647E-001 -0.681844885525257E+001  0.243166531377271E+001
  0.466323528863647E-001 -0.682607205090077E+001  0.293590277562615E+001
  0.466323528863647E-001 -0.683305294689686E+001  0.243931908075619E+001
  0.466323528863647E-001 -0.683578880009205E+001  0.244076737962490E+001
  0.466323528863647E-001 -0.683816034969837E+001  0.244202984010515E+001
  0.466323528863647E-001 -0.683942206081898E+001  0.244270095037926E+001
  0.466323528863647E-001 -0.684130723652393E+001  0.293097548620123E+001
  0.466323528863647E-001 -0.684147579845936E+001  0.244379825707023E+001
  0.466323528863647E-001 -0.684453590092213E+001  0.244543545301420E+001
  0.466323528863647E-001 -0.686060507473499E+001  0.245412396116258E+001
  0.466323528863647E-001 -0.686248452839405E+001  0.245515142884329E+001
  0.466323528863647E-001 -0.687306077656300E+001  0.246096720461598E+001
  0.466323528863647E-001 -0.688451154408009E+001  0.246734155034657E+001
  0.466323528863647E-001 -0.688588721928150E+001  0.246811018285000E+001
  0.466323528863647E-001 -0.689648039516956E+001  0.247408633328699E+001
  0.466323528863647E-001 -0.690249331173451E+001  0.247750961559006E+001
  0.466323528863647E-001 -0.690674669918568E+001  0.247994082043683E+001
  0.466323528863647E-001 -0.691101772961170E+001  0.248239583265636E+001
  0.466323528863647E-001 -0.644723485305264E+001  0.248902712213762E+001
  0.466323528863647E-001 -0.645111463859036E+001  0.249129686007900E+001
  0.466323528863647E-001 -0.646304605796292E+001  0.249833875165248E+001
  0.466323528863647E-001 -0.647951696708157E+001  0.250822389968743E+001
  0.466323528863647E-001 -0.647962139441921E+001  0.250828870475430E+001
  0.466323528863647E-001 -0.647962759330227E+001  0.250829163598824E+001
  0.466323528863647E-001 -0.649737618758633E+001  0.251918772769333E+001
  0.466323528863647E-001 -0.650236175849392E+001  0.252229910465811E+001
  0.466323528863647E-001 -0.652219961478665E+001  0.253491196543229E+001
  0.466323528863647E-001 -0.653475187613919E+001  0.254311612838815E+001
  0.466323528863647E-001 -0.653834913566067E+001  0.254550448713231E+001
  0.466323528863647E-001 -0.653981755568936E+001  0.254648254397109E+001
  0.466323528863647E-001 -0.654154108359768E+001  0.254763742376045E+001
  0.466323528863647E-001 -0.656738518073513E+001  0.256547352919561E+001
  0.466323528863647E-001 -0.657396124198391E+001  0.257019893165130E+001
  0.466323528863647E-001 -0.657813642814114E+001  0.257325080192184E+001
  0.466323528863647E-001 -0.659573887183621E+001  0.258655212983434E+001
  0.466323528863647E-001 -0.661502407386257E+001  0.260219834508778E+001
  0.466323528863647E-001 -0.662323330237820E+001  0.260930878954683E+001
  0.466323528863647E-001 -0.662475012137844E+001  0.261065781641282E+001
  0.466323528863647E-001 -0.662525127723171E+001  0.261110450849176E+001
  0.466323528863647E-001 -0.663391874625637E+001  0.261908570845340E+001
  0.466323528863647E-001 -0.663837574317410E+001  0.262337713987277E+001
  0.466323528863647E-001 -0.664482115104153E+001  0.262985691607164E+001
  0.466323528863647E-001 -0.665126131370022E+001  0.263671748845998E+001
  0.466323528863647E-001 -0.665580366446926E+001  0.264183813662958E+001
  0.466323528863647E-001 -0.665785120322659E+001  0.264424247468127E+001
  0.466323528863647E-001 -0.665908335044338E+001  0.264572028026063E+001
  0.466323528863647E-001 -0.666436670615628E+001  0.265234736136683E+001
