  0.515881006242501E-001 -0.448415338284757E+001  0.343201986757458E+001
  0.515881006242501E-001 -0.431819116360928E+001  0.346523685276335E+001
  0.515881006242501E-001  0.262210405581210E+001  0.511326497797736E+001
  0.515881006242501E-001 -0.430564033276822E+001  0.211539717978924E+001
  0.515881006242501E-001  0.175255478136752E+001  0.479011125053291E+001
  0.515881006242501E-001 -0.429296075589444E+001  0.347028172398888E+001
  0.515881006242501E-001 -0.426078950650479E+001  0.347670891602153E+001
  0.515881006242501E-001 -0.133136045224454E+001  0.405468576165163E+001
  0.515881006242501E-001 -0.163142167813565E+001  0.399480697537694E+001
  0.515881006242501E-001 -0.420164882428433E+001  0.348851716792636E+001
  0.515881006242501E-001 -0.415221320874478E+001  0.349837636784273E+001
  0.515881006242501E-001 -0.245007478482510E+001  0.383376623900479E+001
  0.515881006242501E-001 -0.413503896481778E+001  0.210739819447195E+001
  0.515881006242501E-001 -0.292604934460904E+001  0.374058401491650E+001
  0.515881006242501E-001 -0.300437223202969E+001  0.205844175626812E+001
  0.515881006242501E-001 -0.311679755933072E+001  0.370316826541398E+001
  0.515881006242501E-001 -0.321661054379727E+001  0.368356429415128E+001
  0.515881006242501E-001 -0.323339568860318E+001  0.206799205090132E+001
  0.515881006242501E-001 -0.342770540005948E+001  0.364200999009884E+001
  0.515881006242501E-001 -0.355757200009610E+001  0.361638500918507E+001
  0.515881006242501E-001 -0.394582998044278E+001  0.209878677794209E+001
  0.515881006242501E-001 -0.391090404279019E+001  0.354640206216416E+001
  0.515881006242501E-001 -0.456166803128507E+001  0.212794393462485E+001
  0.515881006242501E-001 -0.457205640561368E+001  0.212846899121345E+001
  0.515881006242501E-001 -0.487265288121487E+001  0.214438550278209E+001
  0.515881006242501E-001 -0.500772034413602E+001  0.215208506663243E+001
  0.515881006242501E-001 -0.507918035275723E+001  0.215633137173958E+001
  0.515881006242501E-001 -0.521115123517300E+001  0.328538248992371E+001
  0.515881006242501E-001 -0.522798358685758E+001  0.328195673497121E+001
  0.515881006242501E-001 -0.523623954541470E+001  0.216616609418159E+001
  0.515881006242501E-001 -0.527715217358853E+001  0.216885875460793E+001
  0.515881006242501E-001 -0.533302795178677E+001  0.217263513366696E+001
  0.515881006242501E-001 -0.535581194646146E+001  0.325587447765133E+001
  0.515881006242501E-001 -0.535748969800259E+001  0.217432738746600E+001
  0.515881006242501E-001 -0.540607034451749E+001  0.324558022264109E+001
  0.515881006242501E-001 -0.555355798489835E+001  0.218888885173968E+001
  0.515881006242501E-001 -0.556106435544278E+001  0.218948717238642E+001
  0.515881006242501E-001 -0.557305537946011E+001  0.321117263508582E+001
  0.515881006242501E-001 -0.565588914639737E+001  0.319395641914199E+001
  0.515881006242501E-001 -0.567388736493375E+001  0.219891633332543E+001
  0.515881006242501E-001 -0.575259911305692E+001  0.317369495873281E+001
  0.515881006242501E-001 -0.577553521878507E+001  0.316885866514568E+001
  0.515881006242501E-001 -0.579662906415250E+001  0.221029000848343E+001
  0.515881006242501E-001 -0.582409631497647E+001  0.315858197170194E+001
  0.515881006242501E-001 -0.584318982846524E+001  0.315452065829014E+001
  0.515881006242501E-001 -0.584424602277066E+001  0.221508482817013E+001
  0.515881006242501E-001 -0.586045824773099E+001  0.315084202478771E+001
  0.515881006242501E-001 -0.588842045552518E+001  0.314486423452991E+001
  0.515881006242501E-001 -0.588984190709378E+001  0.314456038778484E+001
  0.515881006242501E-001 -0.591931735760953E+001  0.222317515604599E+001
  0.515881006242501E-001 -0.592975055463101E+001  0.313598431586198E+001
  0.515881006242501E-001 -0.594421397931363E+001  0.313286277416415E+001
  0.515881006242501E-001 -0.596528136021878E+001  0.222849630310622E+001
  0.515881006242501E-001 -0.597715818173673E+001  0.222992102202598E+001
  0.515881006242501E-001 -0.599703895337369E+001  0.223235819531913E+001
  0.515881006242501E-001 -0.599865018613126E+001  0.312104491045759E+001
  0.515881006242501E-001 -0.614869510419156E+001  0.308779406093133E+001
  0.515881006242501E-001 -0.616187440640714E+001  0.308481780252902E+001
  0.515881006242501E-001 -0.617420827634122E+001  0.225750334767703E+001
  0.515881006242501E-001 -0.619222914464261E+001  0.226048947355296E+001
  0.515881006242501E-001 -0.621604549176480E+001  0.307246303626793E+001
  0.515881006242501E-001 -0.622148477322842E+001  0.226555307595464E+001
  0.515881006242501E-001 -0.623058044202115E+001  0.226718238050197E+001
  0.515881006242501E-001 -0.627415477521207E+001  0.227540889592491E+001
  0.515881006242501E-001 -0.627823673970487E+001  0.305802344447471E+001
  0.515881006242501E-001 -0.630828797108914E+001  0.228238019160791E+001
  0.515881006242501E-001 -0.631066881902005E+001  0.305037320570531E+001
  0.515881006242501E-001 -0.631072532422330E+001  0.228289747172238E+001
  0.515881006242501E-001 -0.631268750912930E+001  0.228331624969388E+001
  0.515881006242501E-001 -0.633656965977933E+001  0.304419453933942E+001
  0.515881006242501E-001 -0.634416972882535E+001  0.229027661645627E+001
  0.515881006242501E-001 -0.635691010243680E+001  0.229323374902772E+001
  0.515881006242501E-001 -0.636209522969510E+001  0.303803992397801E+001
  0.515881006242501E-001 -0.636658131367947E+001  0.229553856534204E+001
  0.515881006242501E-001 -0.638015567548062E+001  0.303364386106680E+001
  0.515881006242501E-001 -0.639728104359891E+001  0.302944593229228E+001
  0.515881006242501E-001 -0.642566978223111E+001  0.231079696512236E+001
  0.515881006242501E-001 -0.647321378476407E+001  0.301039364354690E+001
  0.515881006242501E-001 -0.648909341580655E+001  0.300630643499947E+001
  0.515881006242501E-001 -0.650936805493619E+001  0.300103623367529E+001
  0.515881006242501E-001 -0.650937878377225E+001  0.300103333731120E+001
  0.515881006242501E-001 -0.651393591649320E+001  0.299983921296252E+001
  0.515881006242501E-001 -0.655223547704007E+001  0.235183572329441E+001
  0.515881006242501E-001 -0.655495583302762E+001  0.235286364458734E+001
  0.515881006242501E-001 -0.656890236623074E+001  0.298515087485136E+001
  0.515881006242501E-001 -0.657568299062039E+001  0.298330094125009E+001
  0.515881006242501E-001 -0.659293877370145E+001  0.236787929398863E+001
  0.515881006242501E-001 -0.659580718762662E+001  0.236906690980953E+001
  0.515881006242501E-001 -0.661031710393216E+001  0.237517545051785E+001
  0.515881006242501E-001 -0.662285744435574E+001  0.297014470947904E+001
  0.515881006242501E-001 -0.663470064885403E+001  0.238585659071979E+001
  0.515881006242501E-001 -0.665890323407437E+001  0.239695162846569E+001
  0.515881006242501E-001 -0.667003857381131E+001  0.240221574013098E+001
  0.515881006242501E-001 -0.667057215459134E+001  0.295627753144105E+001
  0.515881006242501E-001 -0.667532312161710E+001  0.295486217385589E+001
  0.515881006242501E-001 -0.672200667149808E+001  0.294056110598020E+001
  0.515881006242501E-001 -0.672217332608487E+001  0.242810292295729E+001
  0.515881006242501E-001 -0.672887431866910E+001  0.293839198407231E+001
  0.515881006242501E-001 -0.672906028516080E+001  0.243166531377271E+001
  0.515881006242501E-001 -0.673668348080899E+001  0.293590277562615E+001
  0.515881006242501E-001 -0.674366437680508E+001  0.243931908075619E+001
  0.515881006242501E-001 -0.674640023000028E+001  0.244076737962490E+001
  0.515881006242501E-001 -0.674877177960660E+001  0.244202984010515E+001
  0.515881006242501E-001 -0.675003349072720E+001  0.244270095037926E+001
  0.515881006242501E-001 -0.675191866643216E+001  0.293097548620123E+001
  0.515881006242501E-001 -0.675208722836758E+001  0.244379825707023E+001
  0.515881006242501E-001 -0.675514733083035E+001  0.244543545301420E+001
  0.515881006242501E-001 -0.677121650464322E+001  0.245412396116258E+001
  0.515881006242501E-001 -0.677309595830228E+001  0.245515142884329E+001
  0.515881006242501E-001 -0.678367220647122E+001  0.246096720461598E+001
  0.515881006242501E-001 -0.679512297398831E+001  0.246734155034657E+001
  0.515881006242501E-001 -0.679649864918973E+001  0.246811018285000E+001
  0.515881006242501E-001 -0.680709182507779E+001  0.247408633328699E+001
  0.515881006242501E-001 -0.681310474164273E+001  0.247750961559006E+001
  0.515881006242501E-001 -0.681735812909390E+001  0.247994082043683E+001
  0.515881006242501E-001 -0.682162915951993E+001  0.248239583265636E+001
  0.515881006242501E-001 -0.635784628296086E+001  0.248902712213762E+001
  0.515881006242501E-001 -0.636172606849858E+001  0.249129686007900E+001
  0.515881006242501E-001 -0.637365748787114E+001  0.249833875165248E+001
  0.515881006242501E-001 -0.639012839698979E+001  0.250822389968743E+001
  0.515881006242501E-001 -0.639023282432744E+001  0.250828870475430E+001
  0.515881006242501E-001 -0.639023902321050E+001  0.250829163598824E+001
  0.515881006242501E-001 -0.640798761749455E+001  0.251918772769333E+001
  0.515881006242501E-001 -0.641297318840215E+001  0.252229910465811E+001
  0.515881006242501E-001 -0.643281104469487E+001  0.253491196543229E+001
  0.515881006242501E-001 -0.644536330604741E+001  0.254311612838815E+001
  0.515881006242501E-001 -0.644896056556890E+001  0.254550448713231E+001
  0.515881006242501E-001 -0.645042898559758E+001  0.254648254397109E+001
  0.515881006242501E-001 -0.645215251350591E+001  0.254763742376045E+001
  0.515881006242501E-001 -0.647799661064336E+001  0.256547352919561E+001
  0.515881006242501E-001 -0.648457267189214E+001  0.257019893165130E+001
  0.515881006242501E-001 -0.648874785804936E+001  0.257325080192184E+001
  0.515881006242501E-001 -0.650635030174443E+001  0.258655212983434E+001
  0.515881006242501E-001 -0.652563550377080E+001  0.260219834508778E+001
  0.515881006242501E-001 -0.653384473228642E+001  0.260930878954683E+001
  0.515881006242501E-001 -0.653536155128667E+001  0.261065781641282E+001
  0.515881006242501E-001 -0.653586270713994E+001  0.261110450849176E+001
  0.515881006242501E-001 -0.654453017616460E+001  0.261908570845340E+001
  0.515881006242501E-001 -0.654898717308232E+001  0.262337713987277E+001
  0.515881006242501E-001 -0.655543258094975E+001  0.262985691607164E+001
  0.515881006242501E-001 -0.656187274360845E+001  0.263671748845998E+001
  0.515881006242501E-001 -0.656641509437749E+001  0.264183813662958E+001
  0.515881006242501E-001 -0.656846263313481E+001  0.264424247468127E+001
  0.515881006242501E-001 -0.656969478035161E+001  0.264572028026063E+001
  0.515881006242501E-001 -0.657497813606450E+001  0.265234736136683E+001
  0.515881006242501E-001 -0.637920152610803E+001  0.266981418266041E+001
  0.515881006242501E-001 -0.638432943290735E+001  0.267933058197890E+001
  0.515881006242501E-001 -0.639038860267664E+001  0.269441370465653E+001
  0.515881006242501E-001 -0.639057218498255E+001  0.269500763988403E+001
  0.515881006242501E-001 -0.639141666358972E+001  0.269791860855629E+001
  0.515881006242501E-001 -0.639369260734583E+001  0.273031093019120E+001
  0.515881006242501E-001 -0.639385663932825E+001  0.271028168973697E+001
