  0.293685801831701E-001 -0.505078517623389E+001  0.343201986757458E+001
  0.293685801831701E-001 -0.488482295699561E+001  0.346523685276335E+001
  0.293685801831701E-001  0.205547226242578E+001  0.511326497797736E+001
  0.293685801831701E-001 -0.487227212615454E+001  0.211539717978924E+001
  0.293685801831701E-001  0.118592298798120E+001  0.479011125053291E+001
  0.293685801831701E-001 -0.485959254928076E+001  0.347028172398888E+001
  0.293685801831701E-001 -0.482742129989112E+001  0.347670891602153E+001
  0.293685801831701E-001 -0.189799224563086E+001  0.405468576165163E+001
  0.293685801831701E-001 -0.219805347152198E+001  0.399480697537694E+001
  0.293685801831701E-001 -0.476828061767066E+001  0.348851716792636E+001
  0.293685801831701E-001 -0.471884500213111E+001  0.349837636784273E+001
  0.293685801831701E-001 -0.301670657821143E+001  0.383376623900479E+001
  0.293685801831701E-001 -0.470167075820410E+001  0.210739819447195E+001
  0.293685801831701E-001 -0.349268113799536E+001  0.374058401491650E+001
  0.293685801831701E-001 -0.357100402541602E+001  0.205844175626812E+001
  0.293685801831701E-001 -0.368342935271704E+001  0.370316826541398E+001
  0.293685801831701E-001 -0.378324233718360E+001  0.368356429415128E+001
  0.293685801831701E-001 -0.380002748198950E+001  0.206799205090132E+001
  0.293685801831701E-001 -0.399433719344580E+001  0.364200999009884E+001
  0.293685801831701E-001 -0.412420379348242E+001  0.361638500918507E+001
  0.293685801831701E-001 -0.451246177382910E+001  0.209878677794209E+001
  0.293685801831701E-001 -0.447753583617652E+001  0.354640206216416E+001
  0.293685801831701E-001 -0.512829982467139E+001  0.212794393462485E+001
  0.293685801831701E-001 -0.513868819900000E+001  0.212846899121345E+001
  0.293685801831701E-001 -0.543928467460120E+001  0.214438550278209E+001
  0.293685801831701E-001 -0.557435213752234E+001  0.215208506663243E+001
  0.293685801831701E-001 -0.564581214614356E+001  0.215633137173958E+001
  0.293685801831701E-001 -0.577778302855933E+001  0.328538248992371E+001
  0.293685801831701E-001 -0.579461538024390E+001  0.328195673497121E+001
  0.293685801831701E-001 -0.580287133880103E+001  0.216616609418159E+001
  0.293685801831701E-001 -0.584378396697486E+001  0.216885875460793E+001
  0.293685801831701E-001 -0.589965974517310E+001  0.217263513366696E+001
  0.293685801831701E-001 -0.592244373984778E+001  0.325587447765133E+001
  0.293685801831701E-001 -0.592412149138892E+001  0.217432738746600E+001
  0.293685801831701E-001 -0.597270213790381E+001  0.324558022264109E+001
  0.293685801831701E-001 -0.612018977828467E+001  0.218888885173968E+001
  0.293685801831701E-001 -0.612769614882910E+001  0.218948717238642E+001
  0.293685801831701E-001 -0.613968717284644E+001  0.321117263508582E+001
  0.293685801831701E-001 -0.622252093978369E+001  0.319395641914199E+001
  0.293685801831701E-001 -0.624051915832007E+001  0.219891633332543E+001
  0.293685801831701E-001 -0.631923090644324E+001  0.317369495873281E+001
  0.293685801831701E-001 -0.634216701217139E+001  0.316885866514568E+001
  0.293685801831701E-001 -0.636326085753882E+001  0.221029000848343E+001
  0.293685801831701E-001 -0.639072810836280E+001  0.315858197170194E+001
  0.293685801831701E-001 -0.640982162185156E+001  0.315452065829014E+001
  0.293685801831701E-001 -0.641087781615698E+001  0.221508482817013E+001
  0.293685801831701E-001 -0.642709004111731E+001  0.315084202478771E+001
  0.293685801831701E-001 -0.645505224891150E+001  0.314486423452991E+001
  0.293685801831701E-001 -0.645647370048010E+001  0.314456038778484E+001
  0.293685801831701E-001 -0.648594915099585E+001  0.222317515604599E+001
  0.293685801831701E-001 -0.649638234801734E+001  0.313598431586198E+001
  0.293685801831701E-001 -0.651084577269995E+001  0.313286277416415E+001
  0.293685801831701E-001 -0.653191315360510E+001  0.222849630310622E+001
  0.293685801831701E-001 -0.654378997512305E+001  0.222992102202598E+001
  0.293685801831701E-001 -0.656367074676001E+001  0.223235819531913E+001
  0.293685801831701E-001 -0.656528197951758E+001  0.312104491045759E+001
  0.293685801831701E-001 -0.671532689757788E+001  0.308779406093133E+001
  0.293685801831701E-001 -0.672850619979346E+001  0.308481780252902E+001
  0.293685801831701E-001 -0.674084006972754E+001  0.225750334767703E+001
  0.293685801831701E-001 -0.675886093802893E+001  0.226048947355296E+001
  0.293685801831701E-001 -0.678267728515113E+001  0.307246303626793E+001
  0.293685801831701E-001 -0.678811656661475E+001  0.226555307595464E+001
  0.293685801831701E-001 -0.679721223540747E+001  0.226718238050197E+001
  0.293685801831701E-001 -0.684078656859839E+001  0.227540889592491E+001
  0.293685801831701E-001 -0.684486853309119E+001  0.305802344447471E+001
  0.293685801831701E-001 -0.687491976447547E+001  0.228238019160791E+001
  0.293685801831701E-001 -0.687730061240637E+001  0.305037320570531E+001
  0.293685801831701E-001 -0.687735711760962E+001  0.228289747172238E+001
  0.293685801831701E-001 -0.687931930251563E+001  0.228331624969388E+001
  0.293685801831701E-001 -0.690320145316565E+001  0.304419453933942E+001
  0.293685801831701E-001 -0.691080152221167E+001  0.229027661645627E+001
  0.293685801831701E-001 -0.692354189582312E+001  0.229323374902772E+001
  0.293685801831701E-001 -0.692872702308142E+001  0.303803992397801E+001
  0.293685801831701E-001 -0.693321310706580E+001  0.229553856534204E+001
  0.293685801831701E-001 -0.694678746886695E+001  0.303364386106680E+001
  0.293685801831701E-001 -0.696391283698523E+001  0.302944593229228E+001
  0.293685801831701E-001 -0.699230157561743E+001  0.231079696512236E+001
  0.293685801831701E-001 -0.703984557815039E+001  0.301039364354690E+001
  0.293685801831701E-001 -0.705572520919287E+001  0.300630643499947E+001
  0.293685801831701E-001 -0.707599984832251E+001  0.300103623367529E+001
  0.293685801831701E-001 -0.707601057715857E+001  0.300103333731120E+001
  0.293685801831701E-001 -0.708056770987952E+001  0.299983921296252E+001
  0.293685801831701E-001 -0.711886727042639E+001  0.235183572329441E+001
  0.293685801831701E-001 -0.712158762641394E+001  0.235286364458734E+001
  0.293685801831701E-001 -0.713553415961707E+001  0.298515087485136E+001
  0.293685801831701E-001 -0.714231478400672E+001  0.298330094125009E+001
  0.293685801831701E-001 -0.715957056708777E+001  0.236787929398863E+001
  0.293685801831701E-001 -0.716243898101294E+001  0.236906690980953E+001
  0.293685801831701E-001 -0.717694889731848E+001  0.237517545051785E+001
  0.293685801831701E-001 -0.718948923774207E+001  0.297014470947904E+001
  0.293685801831701E-001 -0.720133244224036E+001  0.238585659071979E+001
  0.293685801831701E-001 -0.722553502746070E+001  0.239695162846569E+001
  0.293685801831701E-001 -0.723667036719763E+001  0.240221574013098E+001
  0.293685801831701E-001 -0.723720394797766E+001  0.295627753144105E+001
  0.293685801831701E-001 -0.724195491500342E+001  0.295486217385589E+001
  0.293685801831701E-001 -0.728863846488440E+001  0.294056110598020E+001
  0.293685801831701E-001 -0.728880511947119E+001  0.242810292295729E+001
  0.293685801831701E-001 -0.729550611205542E+001  0.293839198407231E+001
  0.293685801831701E-001 -0.729569207854712E+001  0.243166531377271E+001
  0.293685801831701E-001 -0.730331527419531E+001  0.293590277562615E+001
  0.293685801831701E-001 -0.731029617019141E+001  0.243931908075619E+001
  0.293685801831701E-001 -0.731303202338660E+001  0.244076737962490E+001
  0.293685801831701E-001 -0.731540357299292E+001  0.244202984010515E+001
  0.293685801831701E-001 -0.731666528411353E+001  0.244270095037926E+001
  0.293685801831701E-001 -0.731855045981848E+001  0.293097548620123E+001
  0.293685801831701E-001 -0.731871902175391E+001  0.244379825707023E+001
  0.293685801831701E-001 -0.732177912421668E+001  0.244543545301420E+001
  0.293685801831701E-001 -0.733784829802954E+001  0.245412396116258E+001
  0.293685801831701E-001 -0.733972775168860E+001  0.245515142884329E+001
  0.293685801831701E-001 -0.735030399985755E+001  0.246096720461598E+001
  0.293685801831701E-001 -0.736175476737464E+001  0.246734155034657E+001
  0.293685801831701E-001 -0.736313044257605E+001  0.246811018285000E+001
  0.293685801831701E-001 -0.737372361846411E+001  0.247408633328699E+001
  0.293685801831701E-001 -0.737973653502906E+001  0.247750961559006E+001
  0.293685801831701E-001 -0.738398992248023E+001  0.247994082043683E+001
  0.293685801831701E-001 -0.738826095290625E+001  0.248239583265636E+001
  0.293685801831701E-001 -0.692447807634719E+001  0.248902712213762E+001
  0.293685801831701E-001 -0.692835786188491E+001  0.249129686007900E+001
  0.293685801831701E-001 -0.694028928125747E+001  0.249833875165248E+001
  0.293685801831701E-001 -0.695676019037612E+001  0.250822389968743E+001
  0.293685801831701E-001 -0.695686461771376E+001  0.250828870475430E+001
  0.293685801831701E-001 -0.695687081659682E+001  0.250829163598824E+001
  0.293685801831701E-001 -0.697461941088088E+001  0.251918772769333E+001
  0.293685801831701E-001 -0.697960498178847E+001  0.252229910465811E+001
  0.293685801831701E-001 -0.699944283808120E+001  0.253491196543229E+001
  0.293685801831701E-001 -0.701199509943373E+001  0.254311612838815E+001
  0.293685801831701E-001 -0.701559235895522E+001  0.254550448713231E+001
  0.293685801831701E-001 -0.701706077898391E+001  0.254648254397109E+001
  0.293685801831701E-001 -0.701878430689223E+001  0.254763742376045E+001
  0.293685801831701E-001 -0.704462840402968E+001  0.256547352919561E+001
  0.293685801831701E-001 -0.705120446527846E+001  0.257019893165130E+001
  0.293685801831701E-001 -0.705537965143569E+001  0.257325080192184E+001
  0.293685801831701E-001 -0.707298209513076E+001  0.258655212983434E+001
  0.293685801831701E-001 -0.709226729715712E+001  0.260219834508778E+001
  0.293685801831701E-001 -0.710047652567275E+001  0.260930878954683E+001
  0.293685801831701E-001 -0.710199334467299E+001  0.261065781641282E+001
  0.293685801831701E-001 -0.710249450052626E+001  0.261110450849176E+001
  0.293685801831701E-001 -0.711116196955092E+001  0.261908570845340E+001
  0.293685801831701E-001 -0.711561896646865E+001  0.262337713987277E+001
  0.293685801831701E-001 -0.712206437433608E+001  0.262985691607164E+001
  0.293685801831701E-001 -0.712850453699477E+001  0.263671748845998E+001
  0.293685801831701E-001 -0.713304688776381E+001  0.264183813662958E+001
  0.293685801831701E-001 -0.713509442652114E+001  0.264424247468127E+001
  0.293685801831701E-001 -0.713632657373793E+001  0.264572028026063E+001
  0.293685801831701E-001 -0.714160992945082E+001  0.265234736136683E+001
  0.293685801831701E-001 -0.694583331949436E+001  0.266981418266041E+001
  0.293685801831701E-001 -0.695096122629367E+001  0.267933058197890E+001
  0.293685801831701E-001 -0.695702039606296E+001  0.269441370465653E+001
  0.293685801831701E-001 -0.695720397836887E+001  0.269500763988403E+001
  0.293685801831701E-001 -0.695804845697605E+001  0.269791860855629E+001
  0.293685801831701E-001 -0.696032440073215E+001  0.273031093019120E+001
  0.293685801831701E-001 -0.696048843271457E+001  0.271028168973697E+001
  0.293685801831701E-001 -0.685455852859826E+001  0.272368074098132E+001
  0.293685801831701E-001 -0.685455995910974E+001  0.272356021332609E+001
  0.293685801831701E-001 -0.685461861008019E+001  0.272221823158954E+001
