  0.112699063381609E+000  0.496746586105714E-001  0.478358042736818E+001
  0.112699063381609E+000  0.359401479227756E+001  0.664676605255908E+001
  0.112699063381609E+000  0.198451189830054E+000  0.485946864855940E+001
  0.112699063381609E+000  0.317262330515598E+001  0.179672461723118E+001
  0.112699063381609E+000  0.691591887309302E+000  0.511822351258902E+001
  0.112699063381609E+000 -0.398378703028202E+001  0.216875536076409E+001
  0.112699063381609E+000  0.184682860834812E+001  0.183751344679148E+001
  0.112699063381609E+000 -0.203630396753787E+001  0.204534884436830E+001
  0.112699063381609E+000 -0.445190903574466E+001  0.321343582653413E+001
  0.112699063381609E+000 -0.227860161692142E+001  0.205886417547335E+001
  0.112699063381609E+000 -0.238424870401859E+001  0.206485973762636E+001
  0.112699063381609E+000 -0.309168264299869E+001  0.210705202760696E+001
  0.112699063381609E+000 -0.431943365961551E+001  0.323829142968215E+001
  0.112699063381609E+000 -0.415416166216373E+001  0.218236776458431E+001
  0.112699063381609E+000 -0.429172059923648E+001  0.324346395361678E+001
  0.112699063381609E+000 -0.453061863810062E+001  0.319853961825730E+001
  0.112699063381609E+000 -0.457106468111515E+001  0.319083751841674E+001
  0.112699063381609E+000 -0.458098766237735E+001  0.318894264034690E+001
  0.112699063381609E+000 -0.465771958261966E+001  0.317420810578310E+001
  0.112699063381609E+000 -0.468511483103275E+001  0.316891039280470E+001
  0.112699063381609E+000 -0.479380366236209E+001  0.224270029902321E+001
  0.112699063381609E+000 -0.486037179857730E+001  0.313443781324101E+001
  0.112699063381609E+000 -0.486650273233890E+001  0.313321163982319E+001
  0.112699063381609E+000 -0.488716623217105E+001  0.312906645029003E+001
  0.112699063381609E+000 -0.489231488138675E+001  0.312802891846788E+001
  0.112699063381609E+000 -0.494344875246524E+001  0.225980670616935E+001
  0.112699063381609E+000 -0.494809457689762E+001  0.226036050647679E+001
  0.112699063381609E+000 -0.496473667055606E+001  0.311332656687226E+001
  0.112699063381609E+000 -0.502705380350589E+001  0.310046264040407E+001
  0.112699063381609E+000 -0.505011984735965E+001  0.309564497771446E+001
  0.112699063381609E+000 -0.506290623575687E+001  0.227461298472528E+001
  0.112699063381609E+000 -0.506613537699222E+001  0.309228071862304E+001
  0.112699063381609E+000 -0.506757947832584E+001  0.309197807953774E+001
  0.112699063381609E+000 -0.507160493761539E+001  0.227573504219177E+001
  0.112699063381609E+000 -0.507990905672550E+001  0.227681467645282E+001
  0.112699063381609E+000 -0.511015626818180E+001  0.228079308069721E+001
  0.112699063381609E+000 -0.512017962366580E+001  0.308081154196031E+001
  0.112699063381609E+000 -0.514752170473575E+001  0.307493288508564E+001
  0.112699063381609E+000 -0.515816232592105E+001  0.228728128773680E+001
  0.112699063381609E+000 -0.515874764353275E+001  0.307250347745876E+001
  0.112699063381609E+000 -0.518654128939151E+001  0.306644892930974E+001
  0.112699063381609E+000 -0.524250718981266E+001  0.305407043441491E+001
  0.112699063381609E+000 -0.524597594172000E+001  0.305329384934427E+001
  0.112699063381609E+000 -0.527261111170291E+001  0.230368953674827E+001
  0.112699063381609E+000 -0.531236526400089E+001  0.303822668006637E+001
  0.112699063381609E+000 -0.531756731897830E+001  0.231053966813098E+001
  0.112699063381609E+000 -0.532021734148502E+001  0.303641714444743E+001
  0.112699063381609E+000 -0.532274910837650E+001  0.231134510858014E+001
  0.112699063381609E+000 -0.535515376955509E+001  0.231646238449847E+001
  0.112699063381609E+000 -0.535626241594791E+001  0.231663852238447E+001
  0.112699063381609E+000 -0.539370319277286E+001  0.232273360561843E+001
  0.112699063381609E+000 -0.539626142412662E+001  0.301854090689340E+001
  0.112699063381609E+000 -0.539657589823245E+001  0.301846634526748E+001
  0.112699063381609E+000 -0.545088669687747E+001  0.300527343962848E+001
  0.112699063381609E+000 -0.545231387049198E+001  0.300492066509449E+001
  0.112699063381609E+000 -0.546077534586429E+001  0.233416841196449E+001
  0.112699063381609E+000 -0.547570487886905E+001  0.299911296001091E+001
  0.112699063381609E+000 -0.547629520327091E+001  0.233691886560542E+001
  0.112699063381609E+000 -0.548675391108036E+001  0.233879390246260E+001
  0.112699063381609E+000 -0.549265000254154E+001  0.233985786069704E+001
  0.112699063381609E+000 -0.549775192171573E+001  0.299356481455630E+001
  0.112699063381609E+000 -0.553357502848148E+001  0.234742825818705E+001
  0.112699063381609E+000 -0.555626198679447E+001  0.235176081339398E+001
  0.112699063381609E+000 -0.557193467051029E+001  0.297432862067966E+001
  0.112699063381609E+000 -0.559165427118778E+001  0.235873228686599E+001
  0.112699063381609E+000 -0.560102078348636E+001  0.296651905020577E+001
  0.112699063381609E+000 -0.562070271402835E+001  0.236465744620837E+001
  0.112699063381609E+000 -0.564742156893253E+001  0.295370461312316E+001
  0.112699063381609E+000 -0.564981219202518E+001  0.237079831208327E+001
  0.112699063381609E+000 -0.566150710016727E+001  0.237332461210314E+001
  0.112699063381609E+000 -0.567198416620731E+001  0.294672722550059E+001
  0.112699063381609E+000 -0.568422505289554E+001  0.294319561160232E+001
  0.112699063381609E+000 -0.569582316309452E+001  0.293981450108562E+001
  0.112699063381609E+000 -0.570273372560977E+001  0.293778399457415E+001
  0.112699063381609E+000 -0.571222493082523E+001  0.238471335606772E+001
  0.112699063381609E+000 -0.571634003550052E+001  0.238566853529196E+001
  0.112699063381609E+000 -0.573057577044010E+001  0.238902073972222E+001
  0.112699063381609E+000 -0.573095342546939E+001  0.292935302600443E+001
  0.112699063381609E+000 -0.573532268435001E+001  0.292802659345546E+001
  0.112699063381609E+000 -0.575708648592472E+001  0.292133699618221E+001
  0.112699063381609E+000 -0.577815577417850E+001  0.291471505101199E+001
  0.112699063381609E+000 -0.578308674723148E+001  0.291314294314989E+001
  0.112699063381609E+000 -0.578541371256351E+001  0.240256132897506E+001
  0.112699063381609E+000 -0.580345436960697E+001  0.240726080688420E+001
  0.112699063381609E+000 -0.581441184908390E+001  0.241017809112754E+001
  0.112699063381609E+000 -0.585389182001590E+001  0.288954767180090E+001
  0.112699063381609E+000 -0.587015458971500E+001  0.242585552823177E+001
  0.112699063381609E+000 -0.587091276079654E+001  0.242608072294742E+001
  0.112699063381609E+000 -0.588056179911136E+001  0.288008650747822E+001
  0.112699063381609E+000 -0.589593216806888E+001  0.287446699930321E+001
  0.112699063381609E+000 -0.590560409456729E+001  0.287086349328473E+001
  0.112699063381609E+000 -0.590867707163333E+001  0.243763444318645E+001
  0.112699063381609E+000 -0.591541549593448E+001  0.243978683098461E+001
  0.112699063381609E+000 -0.592876240641117E+001  0.244413664005206E+001
  0.112699063381609E+000 -0.594125553995609E+001  0.244832312414216E+001
  0.112699063381609E+000 -0.596774813562870E+001  0.245759240729769E+001
  0.112699063381609E+000 -0.598401305109500E+001  0.283931296664863E+001
  0.112699063381609E+000 -0.599213644892215E+001  0.246666051026360E+001
  0.112699063381609E+000 -0.599286410242557E+001  0.283543772379467E+001
  0.112699063381609E+000 -0.599383160501956E+001  0.246731084730570E+001
  0.112699063381609E+000 -0.599598976999759E+001  0.283405169546486E+001
  0.112699063381609E+000 -0.600282523066043E+001  0.283098360856587E+001
  0.112699063381609E+000 -0.603238627344608E+001  0.248299507942620E+001
  0.112699063381609E+000 -0.603318068415164E+001  0.248333910919205E+001
  0.112699063381609E+000 -0.528622471778030E+001  0.281623743757393E+001
  0.112699063381609E+000 -0.529300629584426E+001  0.281288409861952E+001
  0.112699063381609E+000 -0.529654919592971E+001  0.281110547372531E+001
  0.112699063381609E+000 -0.531440293280715E+001  0.280184943233737E+001
  0.112699063381609E+000 -0.532076870886917E+001  0.279841798720288E+001
  0.112699063381609E+000 -0.532126223532791E+001  0.279814923646585E+001
  0.112699063381609E+000 -0.532327210394973E+001  0.279704842677492E+001
  0.112699063381609E+000 -0.533222519843215E+001  0.279204821551381E+001
  0.112699063381609E+000 -0.534866511313552E+001  0.278240915749433E+001
  0.112699063381609E+000 -0.535549771277542E+001  0.277820441628009E+001
  0.112699063381609E+000 -0.536312329260940E+001  0.277335397837600E+001
  0.112699063381609E+000 -0.537496077506179E+001  0.276545009792394E+001
  0.112699063381609E+000 -0.537817131964797E+001  0.276321808005461E+001
  0.112699063381609E+000 -0.538018452612991E+001  0.276179640474034E+001
  0.112699063381609E+000 -0.538423096625442E+001  0.275888973288078E+001
  0.112699063381609E+000 -0.538493525473709E+001  0.275837567648157E+001
  0.112699063381609E+000 -0.538814436881179E+001  0.275600690377848E+001
  0.112699063381609E+000 -0.538897740332717E+001  0.275538348337469E+001
  0.112699063381609E+000 -0.538981854407424E+001  0.275475022724328E+001
  0.112699063381609E+000 -0.539072930304641E+001  0.275406113796646E+001
  0.112699063381609E+000 -0.540064513175125E+001  0.274626480504838E+001
  0.112699063381609E+000 -0.540085494010085E+001  0.274609355199127E+001
  0.112699063381609E+000 -0.540189063040847E+001  0.274524355010433E+001
  0.112699063381609E+000 -0.541416441886062E+001  0.273457946662120E+001
  0.112699063381609E+000 -0.542422091452712E+001  0.272481685897435E+001
  0.112699063381609E+000 -0.424033832550049E+001  0.270555119995065E+001
  0.112699063381609E+000 -0.424171400070190E+001  0.270366627029488E+001
