  0.211294817545177E+000  0.306445341076084E+001  0.470682036648248E+001
  0.211294817545177E+000  0.313705282177158E+001  0.761499109784431E+001
  0.211294817545177E+000  0.393974809612461E+001  0.625428422932559E+001
  0.211294817545177E+000  0.402875928844639E+001  0.658350036714986E+001
  0.211294817545177E+000  0.149217954275814E+001  0.172825278169928E+001
  0.211294817545177E+000  0.140615001318660E+001  0.415679543121560E+001
  0.211294817545177E+000  0.129757037756649E+001  0.413650180276302E+001
  0.211294817545177E+000 -0.394234213235173E+001  0.324672703094255E+001
  0.211294817545177E+000 -0.393137392403874E+001  0.212947483338351E+001
  0.211294817545177E+000  0.378857284762532E+000  0.397690030828181E+001
  0.211294817545177E+000  0.245945602633625E+000  0.395494462273528E+001
  0.211294817545177E+000 -0.141769737027019E+000  0.389172791944241E+001
  0.211294817545177E+000 -0.160942405484050E+000  0.388862369900723E+001
  0.211294817545177E+000 -0.560149520657390E+000  0.185129228612524E+001
  0.211294817545177E+000 -0.629300445340008E+000  0.185579017414260E+001
  0.211294817545177E+000 -0.778545707486004E+000  0.186559943703636E+001
  0.211294817545177E+000 -0.111832365395817E+001  0.373436563401699E+001
  0.211294817545177E+000 -0.129398784043583E+001  0.370591795452088E+001
  0.211294817545177E+000 -0.389656433465275E+001  0.325546120735162E+001
  0.211294817545177E+000 -0.164951047303471E+001  0.364791382018087E+001
  0.211294817545177E+000 -0.184940227868351E+001  0.361497983140612E+001
  0.211294817545177E+000 -0.216759285332951E+001  0.196522082374102E+001
  0.211294817545177E+000 -0.230330833794865E+001  0.197597759484947E+001
  0.211294817545177E+000 -0.234374365212712E+001  0.353227455293720E+001
  0.211294817545177E+000 -0.237706312539372E+001  0.198192004778484E+001
  0.211294817545177E+000 -0.384664735200199E+001  0.326493185275584E+001
  0.211294817545177E+000 -0.245114120843205E+001  0.351403431430041E+001
  0.211294817545177E+000 -0.245344719292912E+001  0.351364083189695E+001
  0.211294817545177E+000 -0.269485148789677E+001  0.200837042399828E+001
  0.211294817545177E+000 -0.278549179436955E+001  0.345653618137540E+001
  0.211294817545177E+000 -0.294080552460942E+001  0.342942924213867E+001
  0.211294817545177E+000 -0.296070203187260E+001  0.342593757463503E+001
  0.211294817545177E+000 -0.300215706231388E+001  0.341864647208890E+001
  0.211294817545177E+000 -0.302198895814213E+001  0.341515156061154E+001
  0.211294817545177E+000 -0.380583509804997E+001  0.211540485824564E+001
  0.211294817545177E+000 -0.317740043999943E+001  0.205162188744438E+001
  0.211294817545177E+000 -0.330909428002629E+001  0.336400319606172E+001
  0.211294817545177E+000 -0.334202155473027E+001  0.335806789052526E+001
  0.211294817545177E+000 -0.342018923165593E+001  0.207510398904057E+001
  0.211294817545177E+000 -0.358582434060368E+001  0.331361202623005E+001
  0.211294817545177E+000 -0.359738358857426E+001  0.331148075200074E+001
  0.211294817545177E+000 -0.378691944482121E+001  0.211332927987741E+001
  0.211294817545177E+000 -0.410349425675663E+001  0.321558025992079E+001
  0.211294817545177E+000 -0.411794862153324E+001  0.321275424828069E+001
  0.211294817545177E+000 -0.413215765359196E+001  0.215314490194621E+001
  0.211294817545177E+000 -0.418087586762699E+001  0.215912912405217E+001
  0.211294817545177E+000 -0.419108328225407E+001  0.319835980725885E+001
  0.211294817545177E+000 -0.426465472581181E+001  0.318371696340127E+001
  0.211294817545177E+000 -0.429845985772404E+001  0.217400522876714E+001
  0.211294817545177E+000 -0.445402774216923E+001  0.314515800651587E+001
  0.211294817545177E+000 -0.448882707955632E+001  0.313791721196095E+001
  0.211294817545177E+000 -0.449970564248356E+001  0.313564301707889E+001
  0.211294817545177E+000 -0.451716074349675E+001  0.313198316065166E+001
  0.211294817545177E+000 -0.452002486588749E+001  0.313138070184466E+001
  0.211294817545177E+000 -0.455024036767277E+001  0.312500734343982E+001
  0.211294817545177E+000 -0.455228218438420E+001  0.312457532348399E+001
  0.211294817545177E+000 -0.456002315881047E+001  0.312293501610249E+001
  0.211294817545177E+000 -0.457544597985539E+001  0.311965722740379E+001
  0.211294817545177E+000 -0.458784136178288E+001  0.311701448491285E+001
  0.211294817545177E+000 -0.461461672189030E+001  0.221758307052711E+001
  0.211294817545177E+000 -0.463144955041203E+001  0.222007570993363E+001
  0.211294817545177E+000 -0.467935571076664E+001  0.222727689069923E+001
  0.211294817545177E+000 -0.468839153649601E+001  0.309527570662001E+001
  0.211294817545177E+000 -0.469078573586735E+001  0.222901949113581E+001
  0.211294817545177E+000 -0.473516997697148E+001  0.308496368359721E+001
  0.211294817545177E+000 -0.477879533173832E+001  0.307522087375971E+001
  0.211294817545177E+000 -0.478133830430302E+001  0.307464967015665E+001
  0.211294817545177E+000 -0.479073032738957E+001  0.307253362823929E+001
  0.211294817545177E+000 -0.484206232430729E+001  0.306085767167763E+001
  0.211294817545177E+000 -0.486699351670536E+001  0.305511617559755E+001
  0.211294817545177E+000 -0.489456686379704E+001  0.226189851307165E+001
  0.211294817545177E+000 -0.490281280877385E+001  0.226330936200660E+001
  0.211294817545177E+000 -0.491510042550358E+001  0.304389514618359E+001
  0.211294817545177E+000 -0.492227372529301E+001  0.226666425753776E+001
  0.211294817545177E+000 -0.492320761086735E+001  0.226682745848755E+001
  0.211294817545177E+000 -0.494236645104679E+001  0.227017156638760E+001
  0.211294817545177E+000 -0.495257624985966E+001  0.303501708195409E+001
  0.211294817545177E+000 -0.495824703576359E+001  0.303366293545835E+001
  0.211294817545177E+000 -0.499077638985905E+001  0.302583303335520E+001
  0.211294817545177E+000 -0.500711426141056E+001  0.302186115547717E+001
  0.211294817545177E+000 -0.501238974931034E+001  0.228274025405254E+001
  0.211294817545177E+000 -0.507680091264042E+001  0.229482526113919E+001
  0.211294817545177E+000 -0.509174236657414E+001  0.300082713032748E+001
  0.211294817545177E+000 -0.509724006058964E+001  0.299943235436280E+001
  0.211294817545177E+000 -0.510501512887272E+001  0.230029368875518E+001
  0.211294817545177E+000 -0.511254438760075E+001  0.299552955736083E+001
  0.211294817545177E+000 -0.512564954163823E+001  0.230436472836105E+001
  0.211294817545177E+000 -0.513019570710453E+001  0.299098984773457E+001
  0.211294817545177E+000 -0.514336284997258E+001  0.230790984380126E+001
  0.211294817545177E+000 -0.514882525803837E+001  0.230901304966482E+001
  0.211294817545177E+000 -0.516709527375492E+001  0.298136483924924E+001
  0.211294817545177E+000 -0.517050012948307E+001  0.231343580597473E+001
  0.211294817545177E+000 -0.520508655907902E+001  0.297125023336182E+001
  0.211294817545177E+000 -0.521556004884037E+001  0.296842288600691E+001
  0.211294817545177E+000 -0.523655304314885E+001  0.296270039472526E+001
  0.211294817545177E+000 -0.525558385255131E+001  0.295744838927334E+001
  0.211294817545177E+000 -0.528839930894169E+001  0.294823924452835E+001
  0.211294817545177E+000 -0.530372533204350E+001  0.234246136473967E+001
  0.211294817545177E+000 -0.530379185082707E+001  0.294384792692230E+001
  0.211294817545177E+000 -0.532793006303105E+001  0.234812324025971E+001
  0.211294817545177E+000 -0.533795437218937E+001  0.235050935091935E+001
  0.211294817545177E+000 -0.535240826012883E+001  0.292965009606556E+001
  0.211294817545177E+000 -0.539587721230778E+001  0.236479260126130E+001
  0.211294817545177E+000 -0.539846500756535E+001  0.291569066320870E+001
  0.211294817545177E+000 -0.539867195489201E+001  0.291562669831963E+001
  0.211294817545177E+000 -0.540566977860722E+001  0.236729864910451E+001
  0.211294817545177E+000 -0.541738829018864E+001  0.237033514027256E+001
  0.211294817545177E+000 -0.541823849084172E+001  0.290952589507305E+001
  0.211294817545177E+000 -0.543324932458195E+001  0.237451139490636E+001
  0.211294817545177E+000 -0.543947204949650E+001  0.237617221108490E+001
  0.211294817545177E+000 -0.547597846390995E+001  0.238618089902466E+001
  0.211294817545177E+000 -0.547670564057621E+001  0.238638614148115E+001
  0.211294817545177E+000 -0.547882065179142E+001  0.288990205643523E+001
  0.211294817545177E+000 -0.548386344315800E+001  0.238840600821412E+001
  0.211294817545177E+000 -0.548927053811344E+001  0.238994570468984E+001
  0.211294817545177E+000 -0.549562248589787E+001  0.239176977148380E+001
  0.211294817545177E+000 -0.551335915925297E+001  0.287814178467279E+001
  0.211294817545177E+000 -0.551435598733219E+001  0.287779640505676E+001
  0.211294817545177E+000 -0.553490290047917E+001  0.287056274687635E+001
  0.211294817545177E+000 -0.558886227013859E+001  0.242064534983882E+001
  0.211294817545177E+000 -0.559284719826969E+001  0.284907720516478E+001
  0.211294817545177E+000 -0.559437879922184E+001  0.242249747381207E+001
  0.211294817545177E+000 -0.560127004983219E+001  0.242483882874704E+001
  0.211294817545177E+000 -0.560338529946598E+001  0.284497145346375E+001
  0.211294817545177E+000 -0.560885509850773E+001  0.242745030024521E+001
  0.211294817545177E+000 -0.561665949227604E+001  0.283969929234373E+001
  0.211294817545177E+000 -0.562046465279850E+001  0.243152316217656E+001
  0.211294817545177E+000 -0.562345060708317E+001  0.283695637478465E+001
  0.211294817545177E+000 -0.562346777322087E+001  0.283695031810559E+001
  0.211294817545177E+000 -0.562865766885075E+001  0.283483196705078E+001
  0.211294817545177E+000 -0.563241514565739E+001  0.283328701406747E+001
  0.211294817545177E+000 -0.564419636132511E+001  0.282837246286648E+001
  0.211294817545177E+000 -0.564805635812077E+001  0.282673899086777E+001
  0.211294817545177E+000 -0.564998993279728E+001  0.244232684347573E+001
  0.211294817545177E+000 -0.566039118172917E+001  0.244630221355093E+001
  0.211294817545177E+000 -0.566163763406071E+001  0.282089206978752E+001
  0.211294817545177E+000 -0.566580900552067E+001  0.244841002334653E+001
  0.211294817545177E+000 -0.567713245751652E+001  0.245290888553405E+001
  0.211294817545177E+000 -0.568098291756901E+001  0.281227609210945E+001
  0.211294817545177E+000 -0.568529638650212E+001  0.281030453198359E+001
  0.211294817545177E+000 -0.569854483010563E+001  0.246177872103591E+001
  0.211294817545177E+000 -0.569973453881535E+001  0.246228665394238E+001
  0.211294817545177E+000 -0.570265421273503E+001  0.280216756369710E+001
  0.211294817545177E+000 -0.570967993142399E+001  0.279877273698541E+001
  0.211294817545177E+000 -0.571081814172062E+001  0.279821723911226E+001
  0.211294817545177E+000 -0.571369776131901E+001  0.246838080176351E+001
  0.211294817545177E+000 -0.571375784280094E+001  0.279677417576424E+001
  0.211294817545177E+000 -0.571730169656071E+001  0.246999363144290E+001
  0.211294817545177E+000 -0.573147377373967E+001  0.247652182259726E+001
  0.211294817545177E+000 -0.573526796700749E+001  0.278584667374448E+001
  0.211294817545177E+000 -0.574202427270207E+001  0.248158495946461E+001
  0.211294817545177E+000 -0.574518570306095E+001  0.278056594755160E+001
  0.211294817545177E+000 -0.575379499795231E+001  0.248746450729074E+001
  0.211294817545177E+000 -0.575848039986882E+001  0.248987938286701E+001
  0.211294817545177E+000 -0.575922712685856E+001  0.277278344415128E+001
  0.211294817545177E+000 -0.576466259362492E+001  0.249313753852884E+001
  0.211294817545177E+000 -0.576636490227970E+001  0.249404830396847E+001
  0.211294817545177E+000 -0.576646074654850E+001  0.249410091090334E+001
  0.211294817545177E+000 -0.577628645303044E+001  0.276276702219172E+001
  0.211294817545177E+000 -0.577895197274479E+001  0.276113727205375E+001
  0.211294817545177E+000 -0.578068718316349E+001  0.250199709137831E+001
  0.211294817545177E+000 -0.578459772469792E+001  0.250426217119230E+001
  0.211294817545177E+000 -0.578853067757878E+001  0.275512076547856E+001
  0.211294817545177E+000 -0.579000267388615E+001  0.275417151019426E+001
  0.211294817545177E+000 -0.579634317757878E+001  0.275000651280861E+001
  0.211294817545177E+000 -0.579850515725407E+001  0.274855534635862E+001
  0.211294817545177E+000 -0.580557522179875E+001  0.251724186521351E+001
  0.211294817545177E+000 -0.580904611947331E+001  0.274122512755709E+001
  0.211294817545177E+000 -0.580906948449406E+001  0.274120950884027E+001
  0.211294817545177E+000 -0.581511816384587E+001  0.252370915345788E+001
  0.211294817545177E+000 -0.581670841576847E+001  0.252482787173524E+001
  0.211294817545177E+000 -0.581865915658268E+001  0.273412146213295E+001
  0.211294817545177E+000 -0.581952986123356E+001  0.273345623475617E+001
  0.211294817545177E+000 -0.582263121011052E+001  0.252911073236577E+001
  0.211294817545177E+000 -0.582337126138005E+001  0.273046824524464E+001
  0.211294817545177E+000 -0.583179697396550E+001  0.272360125128729E+001
  0.211294817545177E+000 -0.583508715035710E+001  0.272078798051301E+001
  0.211294817545177E+000 -0.583663830163273E+001  0.271943235636745E+001
  0.211294817545177E+000 -0.583710989358219E+001  0.271901607896799E+001
  0.211294817545177E+000 -0.583979782464299E+001  0.271660933841103E+001
  0.211294817545177E+000 -0.584205850961003E+001  0.254475937958168E+001
  0.211294817545177E+000 -0.584300693871769E+001  0.254560266897961E+001
  0.211294817545177E+000 -0.584534344079289E+001  0.271143156358976E+001
  0.211294817545177E+000 -0.585040268304142E+001  0.255250616956011E+001
  0.211294817545177E+000 -0.585099825265202E+001  0.270580687727338E+001
  0.211294817545177E+000 -0.585156473519596E+001  0.255365167387597E+001
  0.211294817545177E+000 -0.585348829629216E+001  0.270320172259002E+001
  0.211294817545177E+000 -0.585957083108219E+001  0.256208931057390E+001
  0.211294817545177E+000 -0.586169084908757E+001  0.269391017533566E+001
  0.211294817545177E+000 -0.586268553139958E+001  0.269269495430080E+001
  0.211294817545177E+000 -0.586376318337712E+001  0.269135302367413E+001
  0.211294817545177E+000 -0.586434683205876E+001  0.256769536217705E+001
  0.211294817545177E+000 -0.586449274422917E+001  0.256787512296632E+001
  0.211294817545177E+000 -0.586532244088444E+001  0.256890860493433E+001
  0.211294817545177E+000 -0.586774858834538E+001  0.268612283085399E+001
  0.211294817545177E+000 -0.586821112038884E+001  0.257265296881985E+001
  0.211294817545177E+000 -0.586859974267277E+001  0.257317739526175E+001
  0.211294817545177E+000 -0.586956390740666E+001  0.257449848617195E+001
  0.211294817545177E+000 -0.587194857003483E+001  0.268005431415902E+001
  0.211294817545177E+000 -0.587201771142277E+001  0.257802398960814E+001
  0.211294817545177E+000 -0.587214073540959E+001  0.267976168857982E+001
  0.211294817545177E+000 -0.587294611336979E+001  0.267850864213464E+001
  0.211294817545177E+000 -0.587561449410710E+001  0.258369733124826E+001
  0.211294817545177E+000 -0.587563595177922E+001  0.267408150130714E+001
  0.211294817545177E+000 -0.587618479134831E+001  0.258466578722074E+001
  0.211294817545177E+000 -0.587793573739323E+001  0.258778083364342E+001
  0.211294817545177E+000 -0.587839922311100E+001  0.258864903237474E+001
  0.211294817545177E+000 -0.587987264992985E+001  0.259154448507053E+001
  0.211294817545177E+000 -0.588065609338078E+001  0.266441520972500E+001
  0.211294817545177E+000 -0.588105902077946E+001  0.259405312733329E+001
  0.211294817545177E+000 -0.588199743630680E+001  0.266136199372671E+001
  0.211294817545177E+000 -0.588322815301213E+001  0.265828766582013E+001
  0.211294817545177E+000 -0.588418850304875E+001  0.265565206284164E+001
  0.211294817545177E+000 -0.588422617318425E+001  0.260189779205367E+001
  0.211294817545177E+000 -0.588426479699406E+001  0.260200446113509E+001
  0.211294817545177E+000 -0.588499483468327E+001  0.260418226678472E+001
  0.211294817545177E+000 -0.588666853310856E+001  0.261012153221435E+001
  0.211294817545177E+000 -0.588740858437809E+001  0.264381884864070E+001
  0.211294817545177E+000 -0.588742002846989E+001  0.261354670029341E+001
  0.211294817545177E+000 -0.588747486474308E+001  0.261382272762261E+001
  0.211294817545177E+000 -0.588763317467961E+001  0.264262644967117E+001
  0.211294817545177E+000 -0.588796171548161E+001  0.264067598783736E+001
  0.211294817545177E+000 -0.588803753258976E+001  0.261709283688469E+001
  0.211294817545177E+000 -0.588808855416569E+001  0.263983475195320E+001
  0.211294817545177E+000 -0.588851389291081E+001  0.263637558609005E+001
  0.211294817545177E+000 -0.588867267968449E+001  0.263459642622969E+001
  0.211294817545177E+000 -0.588870510461125E+001  0.262308423822229E+001
  0.211294817545177E+000 -0.588877233865055E+001  0.262411410262533E+001
